{
  "inputLayer": {
    "nodes": 784
  },
  "evaluateLayers": [
    {
      "weights": [
        0.031777345,
        0.028935611,
        -0.0117305545,
        -0.04308523,
        -0.06910376,
        0.060902704,
        0.12206351,
        0.044926558,
        0.11067598,
        0.07103766,
        0.18911731,
        0.08208404,
        -0.04784364,
        -0.02639067,
        0.051362433,
        -0.048989166,
        0.11363576,
        0.18128328,
        0.17153467,
        0.038408246,
        0.07780925,
        0.010240615,
        -0.0038914995,
        0.040464144,
        0.0062414496,
        -0.09494971,
        -0.01230638,
        -0.0124084195,
        -0.07487715,
        -0.08809222,
        0.03316082,
        0.060507614,
        -0.018156676,
        0.068316884,
        0.08102806,
        0.07482675,
        0.1592469,
        0.068827674,
        -0.019733896,
        -0.069479786,
        -0.17306454,
        -0.17768407,
        -0.20935225,
        -0.12361474,
        -0.06269485,
        0.072793804,
        0.051117234,
        -0.028100373,
        -0.11400086,
        -0.123092845,
        -0.076783575,
        -0.047271453,
        -0.11358153,
        -0.024098016,
        -0.04323803,
        -0.10085849,
        -0.025461288,
        -0.09661102,
        0.030714815,
        0.112814926,
        -0.010322218,
        0.019843232,
        0.17443822,
        0.050851785,
        0.039398275,
        -0.05468875,
        -0.051462173,
        -0.1694881,
        -0.34873554,
        -0.1852167,
        -0.2132071,
        -0.06343007,
        -0.016840134,
        0.07424662,
        -0.01866701,
        0.0022844647,
        -0.02890089,
        -0.06992368,
        -0.11859254,
        -0.07317608,
        -0.076589495,
        -0.14481284,
        -0.08711921,
        -0.13781211,
        0.061356507,
        0.063424855,
        0.050766937,
        -0.028993739,
        0.17772089,
        0.1424382,
        0.029083442,
        -0.009005476,
        -0.015378149,
        -0.06820384,
        -0.10845398,
        -0.34998485,
        -0.3722577,
        -0.29717958,
        -0.23944521,
        -0.061183754,
        -0.07803885,
        -0.045257233,
        0.07424988,
        -0.03536598,
        -0.18982236,
        -0.19459282,
        -0.09819313,
        -0.077310555,
        -0.17824988,
        -0.0057405513,
        -0.009769305,
        -0.17391297,
        -0.10412629,
        -0.13572454,
        -0.07402375,
        0.065880105,
        0.114171684,
        0.054077413,
        0.06237233,
        0.13911442,
        -0.019430235,
        -0.11579351,
        -0.35378698,
        -0.2820874,
        -0.24429251,
        -0.2828635,
        -0.16468719,
        -0.116779596,
        0.04234191,
        -0.057014287,
        -0.055631276,
        -0.110749476,
        -0.22632006,
        -0.17936532,
        -0.22976592,
        -0.22886962,
        -0.054291878,
        -0.10628136,
        -0.052986022,
        -0.08154089,
        -0.06540481,
        -0.053901974,
        -0.06479771,
        0.013008595,
        0.16206117,
        0.10396652,
        0.07130419,
        -0.06837386,
        -0.014205458,
        -0.2376679,
        -0.35949236,
        -0.43060455,
        -0.2200291,
        -0.18985038,
        -0.07265776,
        -0.021923015,
        -0.10393273,
        0.04506207,
        -0.0520697,
        -0.19290641,
        -0.257809,
        -0.28381172,
        -0.15025645,
        -0.1873572,
        -0.15293194,
        0.033188015,
        -8.953338E-4,
        -0.118047565,
        0.016130969,
        -0.15373288,
        -0.10984496,
        -0.024334326,
        0.07331662,
        0.107580565,
        0.1755164,
        0.073182926,
        -0.08001288,
        -0.27187607,
        -0.41030452,
        -0.41492113,
        -0.14323977,
        -0.0526997,
        -0.05961598,
        -0.011403679,
        0.0017471875,
        0.012742382,
        -0.060251195,
        -0.20210184,
        -0.3253037,
        -0.3617187,
        -0.25137448,
        -0.17918211,
        0.07163304,
        -0.06573058,
        -0.049749788,
        0.034904707,
        0.013528278,
        -0.017836196,
        0.05803402,
        -0.06722074,
        0.057572596,
        0.08642976,
        0.16203256,
        0.0066280197,
        -0.034232315,
        -0.2763017,
        -0.54930043,
        -0.34116402,
        -0.02738737,
        0.11903987,
        0.07830025,
        0.091571175,
        0.039964564,
        0.024551392,
        -0.19736837,
        -0.3817403,
        -0.42209873,
        -0.29465294,
        -0.112037785,
        -0.018687595,
        0.04572892,
        0.07162194,
        0.11120943,
        -0.006372141,
        -0.0022617986,
        -0.16901828,
        0.0063073765,
        -0.03562705,
        0.11648889,
        0.03850534,
        0.16746582,
        0.10990502,
        -0.19311632,
        -0.41283494,
        -0.49479228,
        -0.13496229,
        0.17777927,
        0.0779209,
        0.096502334,
        0.05272347,
        0.0947036,
        0.0017168155,
        -0.21125767,
        -0.42820355,
        -0.42038026,
        -0.16899697,
        -0.11318783,
        0.09608909,
        -0.01603115,
        0.04570737,
        0.009627789,
        0.03190764,
        -0.09914655,
        0.029118394,
        -0.032319188,
        -0.01860328,
        0.010018853,
        0.07268372,
        0.11839099,
        0.1468621,
        -0.03489742,
        -0.4059705,
        -0.58596617,
        -0.032643657,
        0.20108107,
        0.12192578,
        0.049869753,
        0.12183127,
        0.16558559,
        -0.11754634,
        -0.4139082,
        -0.4410322,
        -0.19533405,
        -0.06645733,
        -0.022528648,
        -0.0019442424,
        0.010869155,
        0.08817018,
        0.17146353,
        -0.050141975,
        0.06579479,
        -0.11551041,
        -0.07104017,
        0.118922085,
        0.10344582,
        0.071563385,
        0.14917241,
        0.08086168,
        -0.012907671,
        -0.37407807,
        -0.47952688,
        0.10561356,
        0.17228618,
        0.08170584,
        0.060096093,
        0.12594333,
        0.016331276,
        -0.18463798,
        -0.38411987,
        -0.35072836,
        -0.16492575,
        -0.010582238,
        0.11408464,
        0.041781247,
        0.11364497,
        0.106081516,
        0.07758997,
        0.0150188655,
        0.020858435,
        -0.10676775,
        0.025150077,
        0.07806789,
        0.13432443,
        0.10763149,
        0.18413334,
        0.12617499,
        -0.060580384,
        -0.45067343,
        -0.27138144,
        0.059588198,
        0.14167789,
        0.03587779,
        0.10309548,
        0.052923247,
        0.035063837,
        -0.2757526,
        -0.42883056,
        -0.14231597,
        0.0555465,
        0.096931346,
        0.027789239,
        0.07409354,
        0.011861642,
        -0.005926087,
        0.11667925,
        0.019468961,
        0.043428894,
        -0.029640695,
        -0.0066926763,
        0.002319946,
        0.030357933,
        0.02568927,
        0.07931838,
        0.15223728,
        0.033793032,
        -0.34693423,
        -0.23019408,
        0.062369827,
        0.005568857,
        0.10685818,
        0.0055563743,
        0.046498295,
        -0.036966085,
        -0.2467636,
        -0.2949819,
        -0.059889354,
        0.074143894,
        0.0839595,
        0.056274865,
        0.095163964,
        0.12946633,
        0.12238363,
        -0.04068135,
        0.11526067,
        -0.046410423,
        0.047104686,
        0.08705394,
        -0.015782066,
        0.080934666,
        0.11241207,
        0.060735,
        0.16495708,
        0.0012471089,
        -0.18373954,
        -0.19721112,
        0.028691337,
        -0.007290974,
        0.016842635,
        0.058946904,
        -0.031606406,
        -0.12466734,
        -0.16040188,
        -0.16325977,
        0.051739357,
        0.06715842,
        0.04617358,
        0.12262057,
        0.07968177,
        0.021859974,
        0.038888168,
        0.07684228,
        0.021914849,
        0.0086644115,
        0.049255494,
        -0.056620687,
        0.046909563,
        0.014988705,
        0.023761986,
        0.020355515,
        0.13999382,
        0.054394137,
        -0.06524032,
        -0.13489757,
        -0.047390934,
        0.07240415,
        0.0066087665,
        0.030252753,
        -0.06362499,
        -0.091953576,
        -0.15802006,
        -0.114035405,
        0.058509026,
        0.09084343,
        0.07192678,
        0.083331846,
        -0.0017403342,
        0.03350761,
        0.0065455944,
        0.018463144,
        0.076842844,
        0.05409362,
        0.022748245,
        6.750946E-5,
        0.0828431,
        -0.0027729052,
        0.073378325,
        0.041508514,
        -0.007816299,
        0.023150183,
        -0.03310374,
        -0.007842099,
        -0.11731999,
        0.049077623,
        -0.015835078,
        -0.003660817,
        -0.05469819,
        -0.05053315,
        -0.0724436,
        -0.0037371628,
        0.03041809,
        0.06869165,
        -0.0071580424,
        -0.06798157,
        0.0066652126,
        -0.009148093,
        -0.015406207,
        -0.045619346,
        -0.020042622,
        0.020704404,
        -0.10582106,
        -0.0597169,
        -0.09125586,
        -9.636641E-4,
        -0.071942925,
        -0.008848364,
        -0.009920696,
        -0.012111126,
        -0.048466664,
        -4.5211695E-4,
        3.8593018E-4,
        -0.057833508,
        0.06676641,
        -0.0177185,
        -0.07762263,
        -0.012830442,
        -0.1222487,
        0.053052284,
        0.03016538,
        0.013838724,
        0.0014559178,
        0.03643162,
        -0.058160115,
        -0.02455186,
        -0.07564235,
        0.01157878,
        -0.08748509,
        0.048060894,
        -0.04893824,
        -0.020586539,
        0.044771984,
        -0.057854027,
        0.0035107408,
        -0.039986648,
        -0.010803101,
        0.019776594,
        0.08446261,
        0.05063322,
        -0.008152223,
        -0.029257014,
        -0.024748763,
        0.008126823,
        -0.0064878454,
        0.008413826,
        0.044113785,
        0.019863945,
        0.035939783,
        0.02196192,
        0.0742552,
        -0.07333901,
        -0.054224104,
        -0.03715826,
        -0.045511488,
        0.0154526355,
        0.043072827,
        -0.12505782,
        -0.04949093,
        -0.07479629,
        -0.012179049,
        -0.025423128,
        0.012181101,
        -0.05099399,
        0.031939838,
        -0.0518366,
        -0.059208177,
        -0.05402951,
        -0.0057330267,
        0.0013120611,
        -0.0066942484,
        -0.029119745,
        0.017833091,
        -0.0029792937,
        -0.016290084,
        0.024874358,
        0.043573916,
        0.011105582,
        -0.040438276,
        0.044014733,
        -0.06086754,
        -0.0033517953,
        -0.017621797,
        -0.091446154,
        0.0571813,
        -0.10191154,
        -0.01013967,
        0.015951417,
        -0.047931314,
        0.07416636,
        -0.033885863,
        -0.014715977,
        0.048851177,
        0.017048627,
        0.05922116,
        -0.004304111,
        -0.010314104,
        -0.013790447,
        -0.008582057,
        0.026317514,
        0.05107096,
        0.009646963,
        0.09739487,
        -0.03353975,
        -0.022732023,
        -0.0015275273,
        0.03136798,
        -0.027177887,
        -0.04249708,
        -0.038632426,
        -0.06384534,
        0.01999251,
        0.027030027,
        0.053986657,
        -0.04768861,
        -0.0074890703,
        -0.06581691,
        0.015042218,
        -0.018047057,
        0.03427021,
        -0.014017068,
        -0.00989154,
        -0.016773442,
        0.06417773,
        0.027026046,
        -0.017901916,
        0.015349915,
        -0.0076506548,
        0.00703804,
        -0.00887784,
        -0.014518542,
        0.0075320806,
        0.00986604,
        -0.011686427,
        -0.023661315,
        0.002856345,
        0.061687876,
        -0.021047685,
        -0.02871218,
        0.07069688,
        -0.066444755,
        0.019898446,
        0.046336364,
        0.0022775608,
        -0.03134765,
        0.024545375,
        0.0046498384,
        0.030681651,
        -0.019772192,
        0.0048588235,
        0.04004101,
        -0.048816424,
        -0.01637661,
        0.009084005,
        -0.018784156,
        0.027794536,
        -0.025573092,
        0.010333323,
        0.008958956,
        0.052548397,
        -0.014466416,
        0.07554285,
        0.051671505,
        0.046453323,
        -0.04690917,
        0.06677294,
        0.074371845,
        -0.008989761,
        -0.060675945,
        -0.022922067,
        -0.012015563,
        -0.0056510903,
        -0.022367228,
        -0.0032558208,
        -0.060416847,
        0.0015510018,
        0.063419975,
        0.013550634,
        0.031018438,
        0.010504378,
        0.04689251,
        0.004276328,
        0.042181674,
        0.0040186406,
        0.051663868,
        0.0056640604,
        0.05232927,
        -0.03347774,
        -0.013594285,
        -0.06522218,
        -0.06355367,
        0.008881733,
        0.06735308,
        -0.029775126,
        -0.05407071,
        0.048012923,
        -0.12697828,
        -0.09340926,
        0.0071037244,
        0.04242262,
        0.004171377,
        -0.024034163,
        0.060732376,
        -0.03200271,
        -0.022001091,
        -0.030263808,
        0.007788376,
        -0.011305069,
        -0.021170124,
        -0.07480004,
        0.0051794574,
        -0.014364175,
        0.009416599,
        -0.029354515,
        0.003745845,
        0.026135953,
        -0.022820473,
        0.070394695,
        0.029774955,
        -0.011849897,
        -0.009072664,
        -0.013576122,
        0.01121179,
        0.013712175,
        0.028965745,
        0.0018721095,
        0.04163165,
        -0.07593203,
        0.0056057298,
        -0.026576264,
        -0.11188838,
        0.04333605,
        -0.011559425,
        0.034011167,
        -0.02692882,
        -0.025017153,
        0.07255793,
        0.009313976,
        0.07186875,
        0.0034701556,
        -0.0065531475,
        -0.010865516,
        0.0060705505,
        -0.017253598,
        -0.06859566,
        -0.07820033,
        -0.049091585,
        0.0024029082,
        -0.07651737,
        8.2059344E-4,
        -0.061878942,
        -0.0933889,
        0.006844467,
        -0.08938131,
        0.044029597,
        0.014831588,
        0.022766888,
        -0.006329385,
        0.038603064,
        -0.04163215,
        -0.019551152,
        0.0072456836,
        0.006627909,
        0.024264133,
        -0.05168957,
        0.006519623,
        -0.01876436,
        -0.01900598,
        0.06394582,
        -0.003518662,
        0.008561352,
        -0.03939627,
        0.045900173,
        -0.058941852,
        -3.2481453E-6,
        0.010875426,
        -0.047401648,
        0.013186377,
        0.045268483,
        -4.968664E-4,
        -1.4744347E-4,
        -0.020715294,
        -0.052379668,
        0.027356576,
        -0.077107,
        0.06688756,
        0.07316461,
        0.012417819,
        -0.01655663,
        0.022232417,
        0.040344853,
        0.019562203,
        0.087299295,
        -0.03153733,
        0.10096881,
        0.022372799,
        -0.033171568,
        -0.025565013,
        0.012844512,
        -0.02761416,
        0.02128286,
        0.04110875,
        -0.03969417,
        -0.025203241,
        0.028747754,
        -0.010187382,
        -0.022352263,
        0.009270577,
        -0.017006047,
        -0.07841643,
        -0.0015733902,
        -0.008542829,
        -0.02933871,
        -0.018649077,
        -0.043341096,
        -0.04680708,
        -0.023847373,
        -0.10111938,
        -0.09314957,
        -0.025283873,
        -0.07520891,
        -0.079333015,
        -0.021252181,
        -0.04653381,
        0.016914455,
        0.016121712,
        -0.01923137,
        -0.013836739,
        0.02961554,
        -0.02863054,
        0.075919375,
        0.062434718,
        -0.039241284,
        0.115093276,
        -0.04285769,
        -0.0043693758,
        0.08700342,
        0.07904302,
        0.08060291,
        -1.4605268E-4,
        0.06982136,
        -5.397214E-6,
        -0.059523422,
        -0.050891235,
        -0.022317538,
        0.030638067,
        -0.09391721,
        -0.113623925,
        0.013925775,
        -0.116913326,
        -0.0024966842,
        -0.009053337,
        -0.07045779,
        -0.04577574,
        -0.07491478,
        0.014913186,
        -0.011083654,
        -0.074428275,
        0.048300836,
        -0.023027198,
        -0.07018513,
        -0.0033433016,
        -0.14187323,
        0.05825252,
        -0.12777738,
        -0.083383,
        -0.088646315,
        -0.016036062,
        0.11760752,
        -0.06410105,
        -0.026738742,
        -0.0069099274,
        0.026777254,
        0.016066216,
        -0.04389414,
        0.0043225754,
        -0.08125657,
        -0.11895833,
        0.024152406,
        -0.09062136,
        -0.042767387,
        -0.023390394,
        -0.023851318,
        0.048802372,
        -0.12003441,
        -0.066029325,
        -0.08016385,
        -0.027981658,
        -0.024650034,
        -0.013862798,
        -0.089604445,
        -0.11789059,
        -0.048415642,
        -0.106261544,
        -0.011005021,
        0.08917425,
        -0.034658,
        0.0181929,
        0.07471897,
        -0.097883366,
        -0.08751914,
        -0.010505155,
        -0.030319994,
        -0.10559449,
        -0.048868384,
        0.078295775,
        -0.12379315,
        -0.041628134,
        0.04437132,
        -0.058633808,
        -0.046735287,
        0.017713632,
        -0.005309647,
        0.05398103,
        -0.0024506573,
        -0.052916992,
        -0.013037793,
        -0.037332144,
        0.037038647,
        -0.020825835,
        0.008481318,
        0.020540794,
        -0.024012672,
        0.038267046,
        -0.04300753,
        -0.058648877,
        0.008089637,
        0.006246859,
        -0.01371535,
        -0.09647063,
        0.044399276,
        0.04149725,
        -0.10531813,
        -0.042567786,
        -0.050578218,
        -1.3131565E-4,
        -0.027807938,
        -0.008061502,
        0.016679116,
        -0.08376974,
        0.014559603,
        -0.035071112,
        -0.011813004,
        -0.011627561,
        0.06418755,
        0.022262834,
        0.005354978,
        0.020785721,
        -0.091668166,
        -0.080872245,
        0.026155327,
        0.008883627,
        0.0072761397,
        0.08324259,
        -0.051336084,
        0.12238961,
        0.013424703,
        0.036043726,
        -0.10341935,
        -0.033479422,
        0.023562018,
        -0.011089887,
        -0.009334741,
        0.021854531,
        -0.05374391,
        0.029564997,
        0.009120471,
        0.015286036,
        -0.108554356,
        -0.007696104,
        -0.016021993,
        -0.01959534,
        0.050675128,
        -0.08775724,
        -0.062885836,
        -0.010620457,
        0.023599818,
        -0.1047428,
        -0.116712354,
        -0.1115354,
        -0.007080011,
        0.06835662,
        0.0085308105,
        -0.017290024,
        0.12371246,
        -0.087579936,
        0.060202904,
        0.012558524,
        -0.004711744,
        0.0045133713,
        -0.015271686,
        -0.013030221,
        0.07538832,
        -0.014437342,
        -0.051801197,
        0.027181359,
        -0.022978276,
        0.0039850166,
        0.022867508,
        0.0092069125,
        -0.07051691,
        0.079602525,
        0.0021818322,
        -0.104251884,
        0.022098167,
        -0.1728874,
        0.029873302,
        0.08169046,
        -0.024567934,
        0.06725321,
        -0.011500121,
        -0.002489693,
        -0.042243306,
        -0.035684213,
        0.044832204,
        -0.06521484,
        -0.025718544,
        -0.033528585,
        -0.06497845,
        -0.05084089,
        -0.024160033,
        -0.06833979,
        0.11677008,
        -0.047805276,
        -0.0110723255,
        0.009879744,
        -0.02804889,
        0.051896263,
        0.05411454,
        -0.04103188,
        0.03897295,
        -0.059149012,
        -0.11204578,
        -0.045158744,
        -0.01794772,
        -0.09494161,
        0.020395549,
        0.014943277,
        0.011865805,
        0.11261494,
        0.029564139,
        0.020276612,
        -0.0150547875,
        -0.034860373,
        -0.013325856,
        -0.07126707,
        -0.009906096,
        0.04911556,
        -0.0023762828,
        0.060912076,
        -0.013245356,
        0.013876668,
        -0.008277446,
        0.05180742,
        -0.04217263,
        -0.015915534,
        6.0120906E-4,
        0.03704565,
        0.034989886,
        0.06359852,
        -0.07554228,
        -0.07397035,
        0.05197911,
        -0.032568075,
        0.08837142,
        0.042711694,
        0.008388691,
        0.03364413,
        0.005945927,
        -0.017429018,
        0.037348945,
        -0.04311153,
        -0.07906056,
        -0.0696604,
        -0.018650249,
        -0.037740648,
        -0.018636944,
        -0.025009595,
        -0.021810642,
        0.06875257,
        8.193821E-4,
        0.071130335,
        -0.057470687,
        0.08605647,
        -0.075996555,
        -0.006719529,
        -0.036609676,
        -0.045671333,
        -0.11237221,
        -0.13371778,
        0.007891497,
        0.063935265,
        -0.05514153,
        -0.030867705,
        7.32725E-4,
        0.07336701,
        0.05870897,
        0.08388415,
        0.03835569,
        -0.0343029,
        0.0038303374,
        -0.021824896,
        -0.10341094,
        -0.018741341,
        -0.05071023,
        0.013485056,
        0.10835155,
        -0.049177166,
        0.028272167,
        -0.019826027,
        0.016591614,
        -4.7454447E-4,
        -0.06867275,
        -0.10402499,
        -0.06597175,
        0.03242165,
        -0.019147966,
        -0.06441413,
        0.072185665,
        0.02259626,
        0.02980824,
        0.029236564,
        0.09584344,
        -0.004588021,
        0.08715162,
        0.0691686,
        0.08378319,
        0.086050235,
        -0.10101417,
        -0.106162205,
        -0.0866614,
        -0.01982423,
        -0.0032719853,
        0.0048664287,
        -0.03351125,
        -0.05116862,
        0.0050699166,
        -0.063028164,
        0.024760842,
        0.005857338,
        0.10772724,
        0.04971058,
        0.041897465,
        0.036626518,
        -0.09462839,
        -0.10571588,
        0.028545426,
        -0.049811315,
        0.06361044,
        -0.039369714,
        -0.0178695,
        0.044631485,
        0.06298321,
        0.08392275,
        0.027363734,
        0.061810706,
        -0.0019711107,
        0.014037908,
        -0.08841522,
        -0.11131183,
        -0.006769113,
        -0.009212613,
        -0.029110285,
        0.041162,
        0.031349894,
        0.05920126,
        0.011495336,
        0.0869628,
        0.0120387105,
        0.04675911,
        -0.045930475,
        -0.095917955,
        -0.10017483,
        -0.04126969,
        -0.052220877,
        0.06553144,
        -0.108861886,
        0.08735033,
        -0.0074246908,
        0.07369578,
        0.043884564,
        0.09339307,
        0.085297056,
        0.088534385,
        0.06905632,
        -0.06940251,
        -0.104284294,
        -0.07340587,
        -0.0070788064,
        -0.034274105,
        0.048618242,
        0.062485415,
        0.15806222,
        0.07475807,
        0.17002381,
        0.15501934,
        0.0075882757,
        -0.017789487,
        -0.03620607,
        -0.032837067,
        -0.01865082,
        -0.10255326,
        -0.007877071,
        0.07531346,
        -0.045824066,
        -0.0013109526,
        -0.024559662,
        0.018639823,
        0.12389741,
        0.07679941,
        0.12800291,
        0.041853555,
        0.044511706,
        -0.06702343,
        -0.064592384,
        -0.21073945,
        -0.06972982,
        -0.017671416,
        -0.01103851,
        0.011652169,
        -0.0042747124,
        0.053438913,
        -0.10578999,
        -0.07731304,
        0.008580474,
        0.02886649,
        -0.09947808,
        0.014614992,
        -0.16882655,
        -0.06281564,
        0.0610524,
        -0.0648919,
        -0.060350616,
        0.011176138,
        -0.05493484,
        0.09693174,
        -0.026728554,
        0.06604989,
        0.03994932,
        0.09944312,
        0.07624611,
        -0.03047876,
        -0.19290553,
        -0.3115044,
        -0.26564428,
        -0.32069296,
        -0.25780088,
        -0.14067544,
        -0.20207839,
        -0.127181,
        -0.13747096,
        -0.14833724,
        -0.19856943,
        -0.0976551,
        -0.112551086,
        -0.0025910216,
        -0.068254225,
        -0.06446474,
        -0.020555662,
        -0.048489388,
        -0.024106003,
        -0.014759864,
        -0.028994774,
        -0.102046214,
        0.005849365,
        0.046166487,
        0.06501959,
        0.11463738,
        0.06397115,
        0.03134664,
        -0.053080563,
        -0.14567144,
        -0.28093445,
        -0.46863243,
        -0.45603198,
        -0.47855538,
        -0.37390113,
        -0.3453855,
        -0.22937118,
        -0.24134375,
        -0.2336014,
        -0.0867034,
        -0.17896548,
        -0.16662504,
        -0.12109737,
        0.018655293,
        0.11299738,
        -0.009529544,
        -0.031891085,
        -0.04828864,
        0.0132170115,
        -0.012430843,
        0.03276204,
        0.023612432,
        0.0037346098,
        0.04825421,
        0.06905737,
        0.06798768,
        0.039087497,
        -0.07232126,
        -0.020026527,
        -0.04711336,
        -0.32115778,
        -0.29108417,
        -0.44973144,
        -0.24444553,
        -0.33500135,
        -0.34218195,
        -0.2115163,
        -0.23176664,
        -0.10678324,
        -0.15034588,
        -0.1817842,
        0.04420482,
        -0.020510254,
        0.004904512,
        0.047500826,
        -0.007485614,
        0.026576342,
        0.0020176517,
        -0.027403079,
        0.04035586,
        0.052462783,
        0.08210045,
        0.05808665,
        0.023322634,
        -0.0013882288,
        0.058826953,
        -0.03049517,
        -0.021377645,
        -0.012066078,
        -0.18592213,
        -0.2130395,
        -0.352678,
        -0.2965974,
        -0.21722284,
        -0.22310548,
        -0.21791907,
        -0.12534393,
        -0.06494821,
        -0.16539907,
        0.06636024,
        0.08473319,
        0.051969204,
        0.07633427,
        0.0066376575,
        -0.031227805,
        0.06877551,
        0.009747693,
        0.021976527,
        -0.049063195,
        0.055845868,
        -0.013161006,
        0.06318484,
        0.028012477,
        -0.055798255,
        0.063182995,
        -0.037356604,
        0.048976913,
        -2.1704251E-4,
        -0.008441496,
        -0.09141925,
        -0.11990703,
        -0.17839012,
        -0.15650651,
        -0.12491418,
        -0.24518853,
        -0.15823688,
        -0.01634557,
        0.05848935,
        0.011138294,
        -0.0012785464,
        -0.0073080747,
        -0.0065037627,
        -2.7104304E-4,
        -0.007846185,
        -0.04337747,
        -0.03763153,
        0.0498997,
        0.025559958,
        6.397107E-4,
        0.005333952,
        0.078014046,
        0.01941978,
        -0.011270816,
        0.01965694,
        0.04246362,
        0.0873256,
        -0.0071389014,
        0.04869154,
        -0.089722216,
        -0.08435346,
        -0.092639506,
        -0.12206771,
        -0.07470956,
        -0.04758459,
        -0.1177602,
        -0.00820701,
        -0.025124852,
        0.048547383,
        0.078334615,
        0.0010873952,
        0.06584892,
        0.012044564,
        0.032201003,
        0.02515049,
        0.01045649,
        0.0074270805,
        0.06807934,
        -0.028258014,
        0.06656356,
        0.057402298,
        0.069373794,
        -0.011576842,
        -0.03541031,
        -0.060876783,
        0.07729435,
        -0.022625748,
        -0.028869465,
        -0.11939638,
        -0.061286867,
        -0.14731273,
        -0.15403171,
        -0.036714543,
        -0.16456223,
        0.047591116,
        0.006340278,
        -0.010583132,
        -0.004741745,
        0.022390475,
        -0.020498516,
        -0.013511869,
        -0.031709764,
        0.03763194,
        -0.019127738,
        0.046937164,
        -0.036876068,
        0.031811602,
        0.061294734,
        0.011852593,
        0.06324954,
        0.031446263,
        0.014184169,
        0.067605935,
        -0.0038650413,
        0.10141738,
        -0.042058226,
        -0.014247658,
        0.043801222,
        -0.026793748,
        -0.15785207,
        -0.1268736,
        -0.033851262,
        -0.06660168,
        0.060694825,
        -0.07325207,
        0.09918909,
        0.0269417,
        0.069383435,
        0.045140736,
        -0.016435701,
        -0.015417968,
        0.069911465,
        0.023990909,
        0.09560029,
        -0.027585866,
        -0.04169131,
        0.09293244,
        0.010591598,
        0.06020373,
        0.061279166,
        0.028929003,
        -0.022820838,
        0.02706847,
        0.029098583,
        -0.010650771,
        -0.09357076,
        -0.07704617,
        -0.061944,
        -0.07814917,
        0.03182368,
        -0.05799665,
        0.025011653,
        0.070098914,
        0.05815724,
        0.068595424,
        -0.05695048,
        0.021810297,
        0.013583566,
        0.021791829,
        0.033865184,
        -0.027127817,
        -0.06385774,
        0.060847465,
        0.067540325,
        0.011973028,
        0.0702462,
        0.020063909,
        0.056893274,
        -0.01270518,
        0.087537855,
        -0.0025354328,
        0.11520062,
        0.0048660478,
        0.0047465423,
        0.029764595,
        -0.08181302,
        -0.0475135,
        0.0027753015,
        0.015350229,
        -0.024349226,
        -0.039632805,
        -0.0015418812,
        0.01411281,
        0.064925544,
        0.008905522,
        -0.0032452182,
        0.04447424,
        -0.017735489,
        0.049576394,
        0.05403711,
        -0.037688937,
        0.010516983,
        0.05557588,
        0.040750068,
        -0.031637404,
        0.057915725,
        0.07436352,
        -1.5200625E-5,
        -0.03015463,
        0.0738085,
        0.024533043,
        -0.03997291,
        0.04338164,
        -0.044556532,
        0.0070769805,
        -0.004292247,
        0.03470554,
        -0.114214994,
        0.012194656,
        0.016507126,
        -0.03223932,
        0.033829644,
        0.013307423,
        0.04144623,
        0.010309781,
        0.062624775,
        0.00439725,
        -0.019036751,
        0.023054317,
        -0.017097702,
        -0.030669035,
        0.0028247188,
        0.023830868,
        -0.04398078,
        0.08325509,
        0.08390415,
        -0.037650757,
        0.048862167,
        -0.06577318,
        0.026173843,
        0.045539428,
        -0.10393224,
        -0.027428776,
        0.01726839,
        0.007898561,
        -0.04573924,
        -0.011804384,
        -0.008875353,
        0.011139667,
        -0.027245654,
        -0.09410271,
        0.07711528,
        -0.024868432,
        4.5239576E-6,
        -0.0151497265,
        -4.5141394E-4,
        0.014809568,
        -0.004107167,
        -0.023831477,
        -0.007606199,
        0.036433913,
        0.038331077,
        -0.0506536,
        -0.023391495,
        0.032464053,
        -0.012093637,
        0.09421831,
        -0.06308802,
        -0.07551592,
        0.076461725,
        -0.06222945,
        0.06704713,
        0.05104916,
        0.012672957,
        0.03143225,
        -0.01802215,
        -0.017313402,
        0.028172018,
        0.020332955,
        -0.05013449,
        0.013665669,
        -0.03251604,
        0.0061999923,
        0.0387268,
        0.034139585,
        -0.04379701,
        0.10494283,
        -0.071342036,
        0.041370347,
        0.036517255,
        0.04915129,
        0.033254303,
        0.05700858,
        0.014938737,
        0.051611893,
        0.10386839,
        0.101418965,
        0.032124475,
        -0.08535259,
        0.0456271,
        0.0015236745,
        0.02642187,
        -0.08147544,
        -0.119481064,
        -0.024574287,
        0.03157898,
        -0.026693728,
        -0.008508583,
        -0.035415854,
        0.023780925,
        -0.028195474,
        -0.05545204,
        0.02548134,
        -0.10531574,
        -0.011474373,
        -0.020995632,
        -0.03339219,
        -0.0904427,
        -0.050987676,
        -0.005872011,
        -0.06905543,
        -0.09238432,
        0.016544215,
        -0.077703625,
        0.06439533,
        0.079243034,
        0.099629395,
        0.10443625,
        -0.07620382,
        0.012064917,
        0.020841656,
        -0.07247817,
        -0.09057139,
        -0.035323467,
        -0.020563532,
        2.4807564E-4,
        0.108637325,
        0.06602667,
        0.041460495,
        0.10996672,
        0.02390129,
        0.13065863,
        0.009294552,
        0.020553764,
        0.10335655,
        0.046090957,
        -0.017028846,
        -0.024344016,
        -0.026355565,
        -0.06565541,
        -0.035163254,
        -0.007457653,
        -0.02026465,
        0.019646373,
        -0.036802076,
        0.011863488,
        -0.10223076,
        0.012375047,
        -0.022577168,
        -0.08459831,
        0.035816252,
        0.0092569,
        0.06778021,
        0.03933421,
        0.01041299,
        0.013816602,
        0.06830131,
        -0.04866967,
        0.084526904,
        0.075227655,
        0.06768901,
        0.0030401258,
        0.077617615,
        0.05798498,
        0.009424343,
        -0.008531958,
        -0.0042433706,
        0.02092043,
        0.0056122346,
        -0.039824042,
        -0.023349766,
        -0.014841317,
        -0.019582512,
        -0.025034664,
        -0.08930019,
        -0.016740562,
        0.033928264,
        -0.0759047,
        -0.12252993,
        -0.039619315,
        -0.0038416341,
        0.03342016,
        -0.08055665,
        0.031263888,
        7.6659897E-4,
        0.058342915,
        -0.020197565,
        -0.0029641846,
        0.103947334,
        0.06701707,
        0.015351945,
        0.047473285,
        9.75566E-4,
        0.09939312,
        0.03186204,
        0.04115472,
        0.05919526,
        0.054703765,
        0.057899177,
        0.058147725,
        0.10407635,
        0.0054865885,
        0.010262866,
        -0.03850658,
        -0.020942876,
        0.067737035,
        0.011034641,
        0.04829973,
        -0.0081738345,
        0.0048088427,
        0.0830217,
        0.004300938,
        0.07531606,
        0.084055565,
        0.08190272,
        0.05393601,
        -0.02132565,
        0.029011054,
        0.05138181,
        0.017281756,
        0.090325184,
        0.023034856,
        0.008863982,
        -0.024048401,
        -0.004160898,
        0.01816506,
        -0.0057417145,
        0.047647614,
        0.0876396,
        0.040421233,
        0.019995471,
        0.015019422,
        -0.008003992,
        0.07349453,
        -0.017802646,
        0.10463083,
        -0.08742679,
        0.07084682,
        0.022845764,
        -0.023793092,
        0.088620186,
        0.030771472,
        -0.07171397,
        0.10922202,
        0.003435272,
        0.038883,
        -0.0041080248,
        0.012723629,
        0.030726548,
        0.020877471,
        0.069566846,
        0.052346542,
        0.0659394,
        -0.020273253,
        0.014895898,
        0.047823098,
        0.074124135,
        0.0088156015,
        -0.02203638,
        0.11093021,
        0.10341775,
        0.05273642,
        -0.019122764,
        -0.032233033,
        0.032973863,
        0.06765725,
        0.024198877,
        0.014337397,
        0.009793032,
        0.057238862,
        0.13902518,
        0.004350485,
        0.042996228,
        -0.03761955,
        0.03254447,
        -0.021687917,
        0.049473207,
        0.016529214,
        0.04277096,
        -0.04558677,
        0.028617596,
        0.024450038,
        0.015170136,
        0.059673823,
        0.09920932,
        0.04729537,
        0.07664957,
        9.237406E-4,
        0.11044426,
        -0.018178936,
        0.03427079,
        0.12668242,
        0.011743724,
        0.13708441,
        0.016354142,
        0.104328245,
        0.07716454,
        0.048388258,
        0.033719927,
        -0.010849084,
        0.08131054,
        0.02379769,
        -0.058649585,
        0.06352135,
        -0.03887415,
        0.0077651865,
        0.047596578,
        0.022830455,
        -0.088256985,
        -0.070373826,
        -0.16833752,
        0.01641098,
        -0.08808502,
        -0.12036609,
        0.0032617215,
        -0.023018265,
        0.15789771,
        0.06223889,
        0.061746333,
        0.038060144,
        0.017994814,
        0.031898033,
        0.10107012,
        -0.010727108,
        0.028999856,
        -0.004704285,
        0.0163828,
        0.06565429,
        -0.047536794,
        -0.02113226,
        0.08820319,
        -0.06675161,
        0.06449923,
        -0.026550438,
        -0.014250985,
        0.0043952186,
        0.019101292,
        0.0021370454,
        -0.014450307,
        -0.1100098,
        0.014960017,
        -0.16897413,
        -0.09363221,
        0.07054309,
        -0.012430571,
        0.057731386,
        0.107886285,
        0.08990299,
        0.06656139,
        0.12696138,
        -0.023890186,
        -0.017947093,
        -0.011092002,
        -0.058579963,
        -0.06519452,
        -0.09309455,
        -0.0065850927,
        -0.067445286,
        -0.037900418,
        -0.09957662,
        -0.07136472,
        -0.014491926,
        -0.083170906,
        -0.13975862,
        0.012037106,
        -0.05596424,
        0.053728055,
        0.03605197,
        0.05343808,
        -0.13822885,
        -0.16303629,
        -0.0124077685,
        0.0082364995,
        -0.07543105,
        -0.093130164,
        -0.026925456,
        -0.13013636,
        -0.1024117,
        -0.060077302,
        -0.12699044,
        -0.22009951,
        -0.13473582,
        -0.21132438,
        -0.13844223,
        -0.16585448,
        -0.19764225,
        -0.23144637,
        -0.17442873,
        -0.24215612,
        -0.22563134,
        -0.098552436,
        -0.047385648,
        -0.11761088,
        -0.059955485,
        -0.04451066,
        -0.058120377,
        0.0596791,
        -0.12584998,
        -0.19577157,
        -0.035770673,
        -0.13510726,
        -0.16889787,
        -0.13071941,
        -0.24559617,
        -0.27877995,
        -0.27721095,
        -0.38443422,
        -0.3579535,
        -0.3889471,
        -0.39984712,
        -0.36802515,
        -0.3538379,
        -0.3543202,
        -0.28284654,
        -0.17893723,
        -0.23709098,
        -0.086910546,
        -0.15879308,
        -0.11110883,
        -0.13604225,
        -0.039914645,
        -0.14984056,
        -0.03433092,
        -0.0749789,
        -0.078460254,
        0.02679406,
        -0.18647172,
        -0.24948359,
        -0.26151764,
        -0.21881281,
        -0.26028088,
        -0.41003308,
        -0.29739118,
        -0.3408807,
        -0.32705867,
        -0.2011687,
        -0.16218227,
        -0.20727427,
        -0.1283055,
        -0.17954709,
        -0.13247903,
        -0.20159805,
        -0.18907034,
        -0.094305456,
        -0.17415673,
        -0.11031599,
        -0.123806134,
        -0.12292126,
        -0.10979949,
        -0.0758761,
        -0.044997573,
        -0.0563645,
        0.0011800744,
        -0.09336472,
        -0.24809954,
        -0.12046414,
        -0.19925186,
        -0.13015784,
        -0.2521796,
        -0.12829627,
        -0.014613894,
        -0.020891752,
        -0.009659929,
        -0.048198767,
        0.03004512,
        0.05162736,
        0.053728405,
        -0.027641801,
        0.07049653,
        -0.037435807,
        0.04840929,
        -0.08304064,
        -0.0072597037,
        0.0154515905,
        -0.046264116,
        -0.02101347,
        -0.10835573,
        -0.14328682,
        -0.021641012,
        -0.012732802,
        0.07003097,
        0.013294928,
        -0.16298226,
        -0.019321272,
        -0.10031145,
        -0.102997564,
        0.08607271,
        -0.008776977,
        0.030866425,
        -0.050964173,
        0.066377,
        0.093820535,
        0.123127475,
        0.0806363,
        0.080993354,
        0.044591207,
        0.070806615,
        0.09339629,
        0.0073228143,
        0.00946613,
        -0.042456996,
        -0.043392807,
        -0.12469388,
        -6.767496E-4,
        -0.047539942,
        0.030464306,
        -0.10493539,
        0.004396827,
        -0.097009,
        -0.07083716,
        -0.028418047,
        -0.04646565,
        0.095938176,
        0.06258807,
        0.07290904,
        -0.05980897,
        0.048391454,
        0.07189753,
        0.10321559,
        -0.025039222,
        0.116845794,
        0.016504975,
        0.07833213,
        0.0443646,
        0.06614806,
        0.07447216,
        0.06397072,
        0.064850986,
        0.068876624,
        0.054252885,
        0.058977857,
        -0.013752266,
        0.075571984,
        -0.03751035,
        -0.034087516,
        -0.09576346,
        -0.029666696,
        -0.07279619,
        -0.029366199,
        0.08841211,
        0.06786081,
        -0.05805883,
        0.05890578,
        0.030519638,
        -0.0064159557,
        0.074120015,
        0.024653085,
        0.10853056,
        0.06428183,
        0.062332164,
        0.09411264,
        0.13807479,
        0.031018773,
        0.092599295,
        0.07358842,
        0.0944188,
        0.023560962,
        0.09450429,
        0.048223387,
        0.0290187,
        -0.00425906,
        -0.07051065,
        0.035603732,
        0.019191837,
        -0.042267516,
        0.04622583,
        0.13923915,
        -0.015814,
        0.09074046,
        0.06943986,
        0.025774587,
        0.052941017,
        0.11769048,
        0.054061335,
        0.08581576,
        0.020415392,
        -0.020736147,
        0.08918517,
        0.10518083,
        0.03127497,
        0.13027821,
        0.118071355,
        0.06303048,
        0.077895306,
        0.16740468,
        -0.0068955,
        0.00409451,
        0.015512799,
        0.03545854,
        -0.014401901,
        0.014588164,
        -0.0606283,
        0.04472361,
        -0.059805676,
        0.08819911,
        -0.00810218,
        0.11738471,
        0.018864864,
        0.13183036,
        0.0062407544,
        0.11209702,
        0.011133696,
        0.07331772,
        -0.0097091645,
        0.068511665,
        -0.08060843,
        -0.020609563,
        -0.013209018,
        0.070920065,
        0.007904794,
        0.05674637,
        0.06858846,
        0.063271455,
        0.07715051,
        0.048307642,
        0.06301648,
        -0.0146193355,
        0.007347845,
        0.046534095,
        0.015773324,
        -0.044956114,
        -0.051482398,
        0.07912655,
        0.097424075,
        -0.012836202,
        0.009732739,
        0.021637244,
        0.0243874,
        -0.02264529,
        -0.014940682,
        0.03568764,
        -0.03557478,
        0.06945579,
        -0.013114055,
        -0.004609533,
        -0.02257953,
        -0.041990954,
        -0.02629017,
        0.04900416,
        -0.06604313,
        0.07764327,
        0.022424608,
        0.07640157,
        0.105313554,
        0.031634815,
        0.07928628,
        0.10080877,
        -0.03424999,
        0.15107474,
        0.07521907,
        -0.037341222,
        -0.008529616,
        0.0751077,
        -0.01534798,
        0.07543347,
        0.010126537,
        0.13662438,
        0.029310333,
        -0.033411134,
        0.0049632653,
        -0.031688906,
        0.039531697,
        -0.028557682,
        -0.06821795,
        0.045703135,
        -0.019281048,
        0.033225536,
        -0.03224362,
        0.021818899,
        0.060356457,
        0.03201469,
        -0.0075755087,
        0.14940894,
        0.07455912,
        0.11918723,
        0.11028814,
        0.027428782,
        -0.0019723051,
        -0.09206656,
        0.07113506,
        -0.028442897,
        -0.01888483,
        -0.010254306,
        0.040043764,
        -0.055198506,
        -0.02768243,
        -0.01936158,
        -0.022627473,
        0.022291932,
        0.042502854,
        -0.021899408,
        0.027606955,
        -0.060616862,
        -0.07875691,
        -0.06455623,
        0.011080618,
        -0.068262324,
        0.059738163,
        -0.020618651,
        0.027917234,
        0.018724686,
        0.072536156,
        -0.010434059,
        0.109768055,
        0.1079885,
        -0.012632283,
        -0.08989634,
        -0.033297684,
        -0.034561135,
        -0.04001741,
        0.061082333,
        0.004112896,
        -0.018134046,
        0.00863907,
        0.04876857,
        -0.020918269,
        -0.08169517,
        0.0047466,
        -0.10408654,
        -0.07080108,
        -0.007902141,
        -0.06366584,
        -0.09388021,
        -0.06546789,
        -0.060500763,
        -0.031419497,
        0.03286925,
        -0.1163779,
        -0.05921025,
        0.047338452,
        -0.035765916,
        0.083523676,
        0.024641674,
        0.11874266,
        -0.07495451,
        0.051300265,
        -0.010270885,
        0.0012054554,
        -0.05614739,
        0.054235626,
        0.02124558,
        -0.055629313,
        -0.06951728,
        0.015960813,
        -0.11601709,
        -0.019028064,
        -0.043779247,
        -0.054774366,
        -0.14031857,
        -0.037564866,
        -0.067524016,
        -0.05726113,
        -0.1723544,
        -0.19692338,
        -0.1324787,
        -0.024625134,
        0.021211516,
        -0.07154635,
        0.011825319,
        0.06295516,
        0.062037528,
        -0.058476973,
        0.0025535405,
        -0.06896919,
        0.002022243,
        0.006690871,
        -0.07427295,
        -0.06364812,
        -0.106160246,
        0.016638473,
        -0.0955798,
        -0.06574176,
        0.0024731266,
        -0.15602271,
        -0.08837696,
        -0.050213568,
        -0.1388259,
        -0.11751133,
        -0.13106412,
        -0.062436365,
        -0.05405192,
        -0.015347442,
        -0.13838568,
        -0.19020697,
        -0.018623367,
        -0.1326167,
        -0.09326491,
        -0.103090934,
        -0.11130807,
        0.028681304,
        -0.06027692,
        -0.08798581,
        -0.078182235,
        -0.14858447,
        -1.4863533E-4,
        -0.07862576,
        -0.096804634,
        -0.09670652,
        -0.05483234,
        -0.1013097,
        -0.11538896,
        -0.06888711,
        -0.067167155,
        -0.07492373,
        -0.0617375,
        -0.11160057,
        -0.08641182,
        -0.079666235,
        -0.04539929,
        -0.146282,
        -0.006646547,
        -0.03707766,
        0.021976804,
        -0.014473099,
        -0.0640134,
        -0.07578432,
        -0.050398562,
        -0.02727005,
        0.065291554,
        0.002443824,
        -0.060113374,
        -0.04588704,
        -0.12533362,
        -0.09184676,
        -0.07843045,
        -0.057965733,
        -0.1343118,
        -0.04619612,
        -0.045278985,
        0.023796607,
        -0.018925097,
        0.04125827,
        -0.027208824,
        0.062458906,
        -0.019944748,
        -0.028772913,
        0.0029021753,
        -0.016863642,
        0.028636489,
        -0.1129261,
        -0.03305783,
        0.043044563,
        -0.01610261,
        -0.12755154,
        0.024520712,
        -0.07036962,
        -0.01663713,
        -0.06278524,
        0.02627773,
        -0.10377758,
        -0.07153581,
        -0.013708683,
        -0.058175232,
        -0.0414342,
        -0.048861433,
        -0.059039317,
        0.082747355,
        -0.014689315,
        -0.024300251,
        0.04858177,
        0.10160827,
        8.7757845E-4,
        0.05422726,
        0.07845882,
        0.011774738,
        0.07109474,
        -0.026422918,
        0.08403918,
        -0.009018596,
        -0.04578635,
        -0.01195592,
        0.015138525,
        0.081169166,
        -0.05225267,
        -0.0054880246,
        -0.08431806,
        0.089117125,
        -0.047621865,
        -0.021499217,
        -0.03419366,
        -0.0886042,
        -0.010684536,
        0.064687386,
        -0.101086006,
        0.01635939,
        -0.10502699,
        -0.043496963,
        -0.08168155,
        -0.018332204,
        -0.09040528,
        0.009093259,
        -0.05734429,
        0.042436913,
        -0.0067279427,
        -0.044980064,
        -0.015840266,
        -0.10426352,
        -0.03536247,
        0.03417722,
        -0.060545657,
        0.082204714,
        -4.1729322E-4,
        -0.06932668,
        0.060772676,
        -0.05742323,
        -0.013143215,
        -0.07072865,
        0.02284302,
        0.03680128,
        -0.08663916,
        0.015936308,
        0.037751637,
        -0.12459035,
        0.03633821,
        -0.032450106,
        -0.019624002,
        0.0347467,
        -0.12948903,
        -0.068296075,
        -0.07904014,
        -0.15926489,
        0.015486275,
        -0.06958205,
        0.023547772,
        -0.08419442,
        -0.049634278,
        -0.06948033,
        -0.0054702475,
        -0.0019770763,
        0.047757737,
        0.043830305,
        0.055740636,
        -0.03148831,
        0.035284344,
        -0.07225137,
        -0.104155324,
        -0.109959505,
        0.04221899,
        -0.090069264,
        0.02179901,
        0.00426376,
        -0.09258457,
        -0.008849859,
        -0.00654238,
        -0.033695675,
        -0.080144666,
        0.035926573,
        -0.002359831,
        -0.058333814,
        -0.039073125,
        -0.084416896,
        -0.0052127615,
        -0.056040592,
        -0.009153568,
        -0.0038757746,
        0.039045203,
        -0.062341414,
        0.045855872,
        -0.035951577,
        -0.06716037,
        -0.118880026,
        0.041950345,
        0.010246117,
        -0.011205446,
        0.05801969,
        -0.08402316,
        -0.040195487,
        -0.083893076,
        0.04671102,
        -0.072365075,
        -0.022337725,
        -0.015474493,
        0.015047838,
        -0.020551285,
        -0.06514458,
        0.06776425,
        -0.0013121371,
        -0.033677783,
        0.043056,
        -0.058768943,
        0.033827193,
        -0.08228477,
        0.04815928,
        -0.07985818,
        -0.13381268,
        0.015230471,
        -0.06124447,
        -0.1088648,
        0.049467713,
        -6.5195345E-4,
        7.332666E-4,
        -0.065689646,
        0.03486958,
        0.03671475,
        -0.094115965,
        0.038763624,
        -0.082332544,
        -0.05483606,
        0.008110072,
        -0.04857487,
        0.023703719,
        -0.08390308,
        -0.0046022236,
        -0.039978933,
        -0.050004195,
        0.0067979405,
        -0.060867965,
        0.0077500762,
        -0.09892793,
        0.0011451016,
        -0.023343245,
        -0.014789269,
        -0.024662977,
        0.023660371,
        -0.02539222,
        0.010422426,
        -0.09303454,
        -9.217665E-4,
        -0.04960963,
        -0.11038905,
        -0.024615072,
        -0.032040585,
        -0.059971888,
        -0.011800836,
        -0.0684162,
        0.016794724,
        -0.053475585,
        0.015105429,
        -0.09874031,
        0.0020028185,
        0.018272761,
        -0.03956474,
        0.008736363,
        -0.06492808,
        -0.08329666,
        -0.14886683,
        0.0024693436,
        -0.115232356,
        -0.0032426082,
        0.0046097664,
        -0.09894077,
        0.015952295,
        -0.058228884,
        -0.02307671,
        -0.052851968,
        0.02596946,
        -0.07107403,
        0.109973185,
        -0.08814008,
        -0.024733882,
        -0.08615327,
        0.024492385,
        -0.12193672,
        -0.08180873,
        0.023376731,
        -0.006573423,
        -0.053965513,
        0.0062129544,
        -0.032790832,
        -0.02428146,
        -0.028450271,
        -0.0021594022,
        -0.039122786,
        -0.045837156,
        -0.03711791,
        -0.020309532,
        -0.02143626,
        -0.043846168,
        -0.056866065,
        -0.016510068,
        -0.03940834,
        -0.10267022,
        0.008386212,
        -0.0390547,
        -0.017260218,
        -0.008953393,
        -0.055067003,
        0.037274636,
        -0.058519762,
        -0.022715852,
        -0.036473073,
        -0.011792734,
        -0.032127377,
        -0.044531554,
        -0.01030524,
        0.004360678,
        -0.029926203,
        -0.028624516,
        0.029446762,
        -0.12965606,
        -0.0309148,
        -0.035769634,
        -0.072191134,
        -0.060224287,
        -0.007256627,
        -0.032813743,
        -0.02004455,
        0.06424269,
        0.019534351,
        -0.015525448,
        -0.02989701,
        0.06251706,
        0.048008315,
        -0.038244043,
        -0.016135076,
        -0.0023924918,
        -0.06641331,
        0.03488225,
        -0.111013584,
        -0.022507867,
        0.009515991,
        -0.045071747,
        -0.071215145,
        -0.027374672,
        -0.055222046,
        -0.011211713,
        -0.046678685,
        0.007359761,
        -0.049195662,
        -0.07711959,
        -0.021785228,
        0.011400055,
        -0.025801154,
        -0.021328937,
        0.007874874,
        -0.13128026,
        -0.07871446,
        0.008932261,
        -0.09466792,
        -0.1301655,
        -0.062267452,
        -0.02925879,
        -0.06681156,
        -0.08665537,
        0.02076084,
        -0.12449593,
        -0.01918386,
        -0.07266219,
        -0.073219955,
        -0.079534315,
        -0.020386897,
        -0.032845765,
        -0.060358834,
        -0.020246219,
        -0.046873875,
        -0.06515239,
        0.036895834,
        -0.073508196,
        0.0143952565,
        -0.10773608,
        0.016560288,
        -0.067750074,
        0.05176702,
        -0.10251998,
        -0.091150954,
        -0.09409471,
        -0.044460926,
        -0.004670807,
        -0.11586765,
        -0.022781894,
        -0.06528146,
        -0.06259893,
        -0.044079937,
        -0.061902527,
        -0.04240943,
        -0.055089165,
        -0.05843814,
        -0.06338822,
        -0.08509189,
        -0.069273606,
        -0.08589207,
        -0.086269595,
        -0.035136633,
        -0.03149087,
        -0.07736343,
        -0.060773507,
        -0.07349903,
        0.05768518,
        -0.13352092,
        -0.012025531,
        0.0401854,
        -0.094445676,
        0.064547695,
        -0.0612517,
        -0.14449781,
        -0.068490714,
        -0.10912506,
        -0.09586906,
        -0.096207775,
        -0.06727973,
        -0.07419819,
        -0.08097687,
        -0.06732305,
        -0.057981815,
        -0.09605504,
        -0.06909903,
        -0.0037796767,
        -0.05681323,
        -0.037582643,
        -0.037148166,
        -0.090294935,
        -0.034926645,
        -0.0524062,
        -0.06761345,
        -0.114496954,
        -0.02490142,
        -0.10004756,
        0.039477944,
        0.01081968,
        -0.22826046,
        0.003356084,
        -0.04344431,
        -0.12725486,
        -0.14923717,
        -0.14264376,
        -0.010320057,
        -0.004319293,
        -0.09044568,
        -0.06964235,
        -0.08131704,
        -0.09176631,
        -0.12867361,
        -0.106664725,
        -0.14624766,
        -0.15312895,
        -0.11877313,
        -0.092335664,
        -0.07718654,
        -0.08424433,
        -0.09274258,
        -0.0294197,
        -0.09815523,
        -0.063277364,
        -0.16708525,
        -0.076269865,
        -0.13636427,
        -0.0062962295,
        -0.2169752,
        -0.002375225,
        -0.15912184,
        -0.09101216,
        0.034051616,
        -0.049371846,
        -0.11300377,
        -0.07990162,
        -0.14503074,
        -0.05339321,
        -0.087010324,
        -0.08399043,
        -0.12301437,
        -0.14065263,
        -0.01379568,
        -0.07475515,
        -0.0898209,
        -0.120014936,
        -0.12842983,
        -0.12130148,
        -0.07847912,
        -0.14250499,
        -0.06876265,
        -0.093480065,
        -0.14152929,
        -0.078475825,
        -0.07681554,
        -0.0045141797,
        -0.16890569,
        0.11688355,
        -0.07794109,
        0.015555035,
        -0.06106842,
        0.018832685,
        -0.08573152,
        -0.10421105,
        -0.059934583,
        -0.10744843,
        -0.13253468,
        -0.065213524,
        -0.06775224,
        -0.04647513,
        -0.119534515,
        -0.08283485,
        -0.100575574,
        -0.114504255,
        -0.08357939,
        -0.16794534,
        -0.05882828,
        -0.06835916,
        -0.14481945,
        -0.11261215,
        -0.0853811,
        -0.11871845,
        -0.103619404,
        -0.05472,
        -0.23067638,
        0.104382925,
        0.020504588,
        0.114677064,
        0.0064652916,
        0.04492274,
        -0.01387663,
        -0.05557267,
        -0.11238675,
        -0.028436303,
        -0.03907767,
        -0.09152044,
        -0.046900645,
        -0.056857184,
        -0.058373958,
        -0.03536373,
        -0.07057298,
        -0.058428325,
        -0.102860644,
        -0.03045186,
        -0.0527096,
        -0.11447497,
        -0.10155309,
        -0.14590374,
        -0.09778477,
        -0.17607069,
        -0.10392462,
        -0.02805239,
        -0.1841622,
        0.18249522,
        0.08601642,
        0.14160953,
        0.12987037,
        0.07668893,
        0.099205896,
        0.001753627,
        0.037115276,
        -0.054491997,
        -0.13175483,
        -0.06034395,
        -0.07217357,
        -0.015571686,
        -0.12384975,
        -0.10886101,
        -0.10312394,
        -0.11352479,
        -0.09853265,
        -0.13218649,
        -0.047633782,
        -0.09606597,
        -0.021642994,
        -0.07967707,
        -0.031072015,
        -0.10696755,
        -0.105275825,
        -0.11265336,
        -0.23358789,
        0.24183902,
        0.18720163,
        0.1422622,
        0.14383776,
        0.12308794,
        0.15361452,
        0.11296427,
        0.11204638,
        0.08347762,
        0.027682506,
        0.0036950938,
        -0.018880054,
        0.011953499,
        -0.010986962,
        -0.06948315,
        -0.06221661,
        -0.06910474,
        -0.063397594,
        -0.11662875,
        -0.13132644,
        -0.058396745,
        -0.1066586,
        -0.06440794,
        -0.02768989,
        -0.08032768,
        -0.052205607,
        -0.100746,
        -0.16463041,
        0.13821155,
        0.10241259,
        0.1632465,
        0.16451149,
        0.16358295,
        0.10024383,
        0.2228611,
        0.16746467,
        0.16868965,
        0.17304909,
        0.19669218,
        0.0889187,
        0.13814728,
        0.032318983,
        0.1279464,
        0.029623583,
        0.065810144,
        0.045552906,
        0.032167517,
        0.0098424945,
        -0.05268511,
        0.054663528,
        -0.057890248,
        0.038635008,
        -0.0353359,
        0.0017610291,
        -0.04910419,
        -0.11115315,
        0.11666661,
        0.07339691,
        0.09455859,
        -0.0071316976,
        0.095707335,
        0.12805234,
        0.13842016,
        0.1125048,
        0.17733712,
        0.21084566,
        0.20436832,
        0.20430613,
        0.18709862,
        0.13822037,
        0.14461105,
        0.14050898,
        0.206584,
        0.09752102,
        0.16381668,
        0.13371553,
        0.1793189,
        0.062497832,
        0.11070698,
        0.06310422,
        0.06250205,
        0.12466002,
        -0.042509798,
        -0.013186866,
        0.05309997,
        0.08854187,
        0.04764265,
        0.10503619,
        0.03975889,
        0.053442266,
        0.0770384,
        0.12918353,
        0.13841912,
        0.14959568,
        0.11633137,
        0.22861873,
        0.15618351,
        0.20466088,
        0.10144174,
        0.19735223,
        0.12384994,
        0.25011593,
        0.16676156,
        0.21930666,
        0.15349886,
        0.2487402,
        0.183943,
        0.17696826,
        0.08899115,
        0.10454177,
        0.12544478,
        0.1647113,
        0.09823559,
        -2.9008384E-4,
        0.07350505,
        0.01642509,
        0.083818294,
        0.064974524,
        0.077014156,
        0.0065961173,
        0.09344066,
        0.081083365,
        0.103784636,
        0.14139241,
        0.122593924,
        0.19870663,
        0.20901282,
        0.1642135,
        0.19386601,
        0.15299924,
        0.21544228,
        0.14615555,
        0.14635739,
        0.1942692,
        0.10999869,
        0.2303365,
        0.11242243,
        0.07033471,
        0.17170638,
        0.13361788,
        -0.041631564,
        0.081539504,
        -0.079306304,
        -0.06524145,
        0.052941173,
        -0.047887783,
        0.05521674,
        -2.2849452E-4,
        0.054611716,
        0.0390304,
        0.078381635,
        0.009757055,
        0.12353515,
        0.059704,
        0.05863782,
        0.107827015,
        0.11550149,
        0.0877117,
        0.07886333,
        0.21743618,
        0.211879,
        0.20304336,
        0.15932997,
        0.1277158,
        0.18818118,
        0.1378116,
        0.15374993,
        0.2332944,
        -0.13908851,
        0.028597085,
        -0.064419486,
        0.05417878,
        0.009906171,
        -0.05218244,
        0.02348862,
        -0.04007539,
        -0.028667804,
        -0.04523,
        -0.053808358,
        0.027276961,
        -0.054412533,
        0.026025712,
        0.034028295,
        0.04314559,
        -0.0067032687,
        0.13177495,
        0.076302625,
        0.12103197,
        0.06797261,
        0.10192329,
        0.1964426,
        0.14086917,
        0.18385017,
        0.11075599,
        0.2989956,
        0.1706264,
        -0.15906042,
        0.061452936,
        -0.07247629,
        -0.059260707,
        -0.10993987,
        0.015629664,
        -0.1429176,
        -0.010665496,
        -0.045396455,
        -0.059390876,
        0.061831143,
        -0.069065765,
        0.016582036,
        -0.0752639,
        0.003414751,
        -0.045005634,
        0.045770824,
        -0.034086287,
        0.05810537,
        0.03765685,
        0.073556654,
        0.05277928,
        0.06993051,
        0.052005783,
        0.0819032,
        0.17420845,
        0.12583345,
        0.27040714,
        -0.07136902,
        -0.082231104,
        -0.0710315,
        0.002392079,
        -0.051281113,
        -0.08682866,
        -0.02806533,
        -0.024294106,
        -0.109566875,
        0.019092085,
        -0.038073514,
        -0.05453284,
        -0.07147745,
        -0.0063999193,
        -0.06728074,
        -0.071182504,
        -0.061495956,
        -0.049023267,
        -0.09654722,
        -0.117469564,
        4.251772E-4,
        -0.06684652,
        -0.056863498,
        0.006015202,
        0.05398114,
        0.10022606,
        0.053048402,
        0.007468017,
        -0.199449,
        -0.029474271,
        -0.025885785,
        -0.008568449,
        0.025085527,
        -0.1048524,
        0.037811313,
        -0.03680725,
        -0.0068828585,
        -0.0949999,
        -0.038288064,
        -0.009179363,
        -0.010005246,
        -0.08240175,
        -0.082735665,
        0.039916847,
        -0.072933584,
        -0.016561298,
        -0.02963748,
        -0.038064845,
        -0.011093785,
        0.013148809,
        0.0062708613,
        -0.036536545,
        -0.03925815,
        0.044847433,
        -0.06935662,
        0.051190812,
        -0.13695379,
        -0.13929226,
        0.0036328617,
        -0.027967347,
        -0.022315862,
        -0.069216855,
        -0.11901554,
        -0.14123473,
        -0.06711654,
        -0.15434289,
        -0.1899342,
        -0.083092935,
        -0.1974786,
        -0.1609212,
        -0.08786979,
        -0.2037485,
        -0.06449618,
        -0.13259758,
        -0.09221838,
        -0.11843333,
        -0.19611417,
        -0.10249671,
        -0.13347693,
        -0.07931862,
        -0.04821713,
        -0.042260766,
        0.010989766,
        -0.016207002,
        0.04944572,
        0.032739207,
        -0.025199996,
        -0.052199546,
        0.032859482,
        0.1071451,
        0.1014349,
        -0.04968571,
        -0.050806936,
        0.07419665,
        0.024321321,
        0.07933934,
        0.009753512,
        0.079640836,
        6.246464E-4,
        -0.0061189756,
        2.2539671E-4,
        0.06672301,
        0.13690609,
        0.0075351773,
        -0.018713197,
        -0.019338746,
        0.045155574,
        -0.1049086,
        -0.01782813,
        0.018768908,
        -0.0823634,
        -0.05538667,
        0.078118056,
        0.018957818,
        -0.029944628,
        -0.013045997,
        -0.001037693,
        0.049375433,
        -0.049824536,
        0.04952243,
        -0.010475384,
        -0.0011541903,
        0.012619584,
        0.06820691,
        -0.017268665,
        0.11120522,
        0.06042196,
        0.08823092,
        -0.026816256,
        0.08774885,
        -0.021025509,
        -0.026957208,
        -0.017366458,
        0.05927947,
        -0.0041545196,
        -0.031909697,
        -0.008295044,
        0.06451634,
        -0.07795292,
        0.037482537,
        0.031460434,
        -0.011265933,
        0.05261596,
        0.08697153,
        -0.05944573,
        -0.020397453,
        0.061682496,
        0.07161828,
        0.07124785,
        0.14866075,
        0.1474792,
        0.06479585,
        0.0682742,
        0.13557982,
        0.02557503,
        0.06865559,
        -0.015696205,
        0.064893715,
        -0.05348432,
        -0.040827177,
        0.047159344,
        -0.06503848,
        -0.06811404,
        0.008847063,
        0.038195185,
        0.038659725,
        -0.07690069,
        -0.04983691,
        0.06278965,
        0.041961197,
        0.024644392,
        0.08510261,
        0.07371426,
        0.044171177,
        0.00936986,
        0.056541707,
        0.044952773,
        0.08564619,
        0.042864166,
        0.17727888,
        0.078670815,
        0.13155882,
        0.071758665,
        0.068039194,
        0.074533716,
        -0.046830785,
        0.07141663,
        -0.107538685,
        0.08151354,
        -0.084547356,
        -0.016809028,
        -0.07929642,
        -0.057886574,
        -0.06144816,
        -0.03923977,
        -0.051266085,
        -0.043783277,
        0.008033298,
        0.023421634,
        -0.013707221,
        0.06576909,
        -0.085245825,
        -0.03285307,
        0.0041385605,
        0.052377943,
        0.11098243,
        0.011932597,
        0.06967409,
        0.10839978,
        0.08633975,
        0.091070786,
        0.072168246,
        0.04746141,
        -0.08405554,
        -0.06359753,
        -0.040971585,
        0.034522627,
        -0.018468142,
        -0.04886318,
        0.042526927,
        0.015287207,
        -0.07129664,
        -0.05970064,
        -0.07305817,
        -0.011394712,
        0.033933558,
        -0.074256025,
        0.027803116,
        0.051845588,
        0.073113136,
        0.07694553,
        -0.029847909,
        -0.010846811,
        0.10002718,
        0.026641252,
        -0.0069294777,
        0.08872834,
        0.07054589,
        0.043246493,
        -0.042442463,
        0.11447258,
        -0.013665825,
        -0.021579681,
        -0.040647965,
        0.0057076607,
        -0.078756504,
        -0.02181364,
        -0.011475977,
        0.025912387,
        0.029996127,
        -0.04529566,
        0.109760135,
        0.011240354,
        0.009923893,
        0.0734423,
        0.06923095,
        -0.0249712,
        0.014768785,
        -0.013408125,
        0.08810558,
        -0.0036808534,
        0.012648484,
        0.049589198,
        -0.059635688,
        -0.039664548,
        -0.10834977,
        0.0060387594,
        0.0537318,
        -0.036345176,
        0.0056824284,
        -0.049887255,
        -0.08355052,
        -0.076482154,
        -0.010368652,
        -0.029514905,
        -0.041459475,
        0.028251642,
        0.012997515,
        0.094450496,
        0.03546925,
        0.019419586,
        0.036257427,
        -0.04695452,
        -0.023969075,
        -0.071013525,
        -0.12007539,
        0.01819861,
        0.020840919,
        -0.026533702,
        0.005459029,
        -0.06335409,
        -0.032762237,
        -0.0890832,
        -0.09101283,
        -0.11481521,
        -0.08621865,
        0.03651743,
        -0.105894305,
        -0.01168333,
        -0.025340002,
        -0.056995668,
        0.021587908,
        0.012766439,
        0.065190405,
        -0.0034456071,
        -8.6239266E-4,
        0.033296112,
        -0.032687172,
        0.05358934,
        0.10640999,
        -0.041010898,
        -0.046262063,
        -0.058780767,
        0.04494688,
        -0.028518718,
        -0.09618939,
        0.11249927,
        -0.00555296,
        -0.05201614,
        -0.19250178,
        -0.2847032,
        -0.12600869,
        -0.043392893,
        0.025077056,
        0.014239931,
        -0.04992373,
        -0.017106228,
        -0.015744666,
        0.070814826,
        0.004204219,
        -0.017567443,
        0.10323372,
        0.042303137,
        -0.002660574,
        0.044120472,
        0.047084287,
        0.008655154,
        -0.065779746,
        0.05261536,
        0.032793324,
        -0.055318758,
        -0.00507346,
        -0.014085834,
        0.06699482,
        0.11644701,
        0.013633565,
        -0.096859105,
        -0.24841432,
        -0.11299275,
        -0.0045390157,
        -0.03254173,
        0.06859061,
        -0.002459174,
        0.034642845,
        0.018590413,
        0.05543879,
        -0.047136378,
        0.09656176,
        0.050568618,
        0.08656579,
        0.10067564,
        0.09584125,
        0.12572154,
        0.14087732,
        -0.04048015,
        -0.07607345,
        -0.02644692,
        -0.06700652,
        -0.040207736,
        -0.031180434,
        0.011677684,
        0.008550533,
        0.0563371,
        0.09128952,
        -0.2678947,
        -0.3309971,
        -0.06543147,
        0.052939013,
        -0.042905882,
        -0.0024148473,
        0.01875818,
        0.059887722,
        -0.025204988,
        0.016043045,
        0.07690034,
        0.07103674,
        -0.0074256794,
        0.04844722,
        0.04546411,
        0.026882239,
        0.030902272,
        0.090419985,
        0.09481535,
        0.023929926,
        0.060459256,
        0.056299333,
        -0.029679907,
        0.022130728,
        0.009181408,
        0.17431773,
        0.04411067,
        -0.081546135,
        -0.22492681,
        -0.32210624,
        -0.0027187876,
        -0.020989902,
        0.050796844,
        0.018710935,
        0.09352128,
        -0.0012555352,
        0.070774436,
        -0.023908958,
        0.08878274,
        0.005521581,
        0.0656219,
        0.033431444,
        -0.0100761205,
        0.042566154,
        0.1090715,
        0.0035527966,
        0.028550733,
        0.020043092,
        -0.083775006,
        -0.037226524,
        -0.03883805,
        0.13509022,
        0.005308061,
        0.08230126,
        0.042551856,
        -0.11390316,
        -0.34223166,
        -0.15834248,
        0.0075709545,
        -0.005116769,
        0.029024296,
        0.1041838,
        0.028567076,
        0.021017263,
        -0.03121733,
        0.030199422,
        0.075818144,
        -0.0751136,
        0.0381511,
        -0.05950066,
        -0.001187147,
        -0.041279867,
        0.029468352,
        0.09762968,
        -0.101400584,
        -0.028461447,
        0.06465703,
        -0.05717348,
        -0.036748666,
        -0.061882555,
        -0.037241235,
        0.0969789,
        0.07544807,
        -0.06384738,
        -0.25260687,
        -0.18134584,
        0.039178103,
        0.08212624,
        0.088535026,
        0.035005316,
        0.04177414,
        0.014800545,
        0.06005665,
        -0.09504374,
        0.0672067,
        0.0066219447,
        -0.01603659,
        -0.04039797,
        0.013716205,
        0.048969734,
        0.12987617,
        -0.03800905,
        0.0573226,
        0.06686929,
        -0.04600419,
        0.046949625,
        -0.0017662789,
        0.07772861,
        0.096175015,
        0.0021420256,
        -0.06071766,
        -0.17103952,
        -0.13590164,
        -0.08197278,
        -0.016761214,
        0.0028349655,
        0.03858381,
        -0.0048435936,
        5.139274E-4,
        -0.0713953,
        -0.10940077,
        0.0068718437,
        -0.037893783,
        -0.077638805,
        -0.06290278,
        -0.047697388,
        -0.023219615,
        0.012398798,
        0.02272872,
        0.009776023,
        0.050969057,
        0.026258158,
        -0.06614913,
        -0.0056440188,
        -0.025377749,
        -0.035330504,
        0.013222113,
        0.027468188,
        0.059180707,
        -0.021850858,
        -0.15892391,
        -0.076401554,
        0.0097478945,
        0.01910981,
        -0.07207521,
        -0.09711109,
        -0.15443793,
        -0.16750033,
        -0.08572366,
        -0.14483687,
        -0.029353213,
        -0.14459516,
        -0.06962309,
        -0.10934707,
        -0.024731912,
        -0.07239537,
        -0.059160538,
        0.10064032,
        -0.012373689,
        -0.09470396,
        0.015941607,
        0.103489645,
        0.048705664,
        0.0049387524,
        0.14335655,
        -0.0052587385,
        -2.4304082E-4,
        -0.080089055,
        -0.014582928,
        0.012649114,
        -0.01946712,
        -0.036916215,
        -0.024502238,
        -0.05900006,
        -0.08591295,
        -0.18569079,
        -0.14002937,
        -0.047595907,
        -0.16283472,
        -0.09763416,
        -0.22921231,
        -0.16266294,
        -0.043424103,
        0.042402495,
        -0.12220542,
        -0.004104345,
        0.048305295,
        -0.012514495,
        0.08982647,
        -0.103592336,
        0.047730435,
        -0.011949007,
        -0.09919325,
        -0.0010508131,
        -0.079619266,
        -0.068842165,
        0.018741783,
        -0.04882467,
        -0.015543399,
        -0.0051479815,
        -0.03935571,
        -0.109295115,
        -0.1901587,
        -0.10080903,
        -0.047086857,
        -0.07892161,
        -0.1435946,
        -0.2527976,
        -0.08211226,
        -0.15681386,
        -0.08744181,
        -0.08324743,
        -0.14556958,
        0.04459493,
        0.050098024,
        0.07540977,
        0.038120873,
        -0.0013907184,
        -0.098063394,
        -0.14396329,
        -0.0074906293,
        -0.039265696,
        -0.057507005,
        0.024801318,
        -0.058135036,
        -0.010082881,
        0.012573968,
        -0.033589914,
        -0.05281528,
        -0.05244431,
        -0.15533628,
        -0.150664,
        -0.08168307,
        -0.12653644,
        -0.04902792,
        -0.09482806,
        -0.19399437,
        -0.063944176,
        -0.13711627,
        -0.11388023,
        -0.14188041,
        -0.022668296,
        -0.07666555,
        -0.06723149,
        -0.16155422,
        -0.022264693,
        -0.03708363,
        -0.01303495,
        -0.016122118,
        -0.08100264,
        -0.08941028,
        0.039468825,
        -0.018048258,
        -0.035322715,
        -0.009192614,
        -0.028289149,
        -0.024145626,
        -0.10856289,
        -0.17227973,
        0.0013719487,
        0.004574181,
        -0.017648948,
        -0.118853,
        -0.07820878,
        -0.047402278,
        -0.15960333,
        -0.11275297,
        0.060163263,
        0.050658185,
        0.10752402,
        0.038122904,
        -0.12989548,
        -0.04654884,
        -0.107912965,
        -0.007997468,
        -0.096888855,
        -0.036213677,
        -0.081334986,
        0.02598204,
        0.009608035,
        -0.021525798,
        0.054918416,
        -0.031259026,
        0.07793183,
        -0.03220128,
        -0.10852267,
        -0.06777302,
        -0.11179372,
        -0.04050607,
        -0.07892035,
        -0.02803897,
        -0.012234023,
        -0.123983376,
        0.021290425,
        -0.103147745,
        -0.031556636,
        -0.055056747,
        0.09490204,
        0.05681719,
        -0.09171789,
        0.07651562,
        0.04126497,
        0.05597378,
        -0.06537935,
        -0.038919985,
        -0.0067637707,
        -0.07746642,
        0.050553214,
        0.013456439,
        0.019780505,
        0.002614676,
        0.015230109,
        -0.07785477,
        -0.016146054,
        -0.05776262,
        -0.026969243,
        -0.011750663,
        0.02227831,
        -0.060906883,
        -0.10595322,
        -0.017378978,
        -0.07689611,
        0.02759428,
        -0.084248394,
        0.067107126,
        -0.019391922,
        -0.1194338,
        0.0053695734,
        0.0046905936,
        0.0105244145,
        -0.09843079,
        -0.030186698,
        -0.061004005,
        -0.0057499143,
        0.05960002,
        0.051061,
        0.005024096,
        0.0031696928,
        0.005668832,
        0.042611092,
        0.062929355,
        -0.035958845,
        0.035077248,
        -0.019058922,
        -0.0179925,
        -0.08204588,
        -0.04658726,
        -0.03333427,
        -0.180652,
        -0.042982515,
        -0.0074638035,
        -0.025129829,
        0.0022380026,
        0.018624652,
        0.0861872,
        0.0380053,
        -0.07908155,
        -0.0525448,
        -0.08559859,
        0.055918515,
        -0.013142568,
        -0.01659733,
        -0.009087838,
        0.011437989,
        -0.003366827,
        0.012465813,
        -0.05128261,
        0.03220404,
        0.024511546,
        0.024771545,
        0.09437195,
        0.09162133,
        0.0066933176,
        0.09860805,
        0.043111786,
        -0.03368937,
        0.050147902,
        -0.05015986,
        0.08572339,
        0.043093704,
        0.003570412,
        0.061213836,
        0.10668932,
        -0.028280057,
        -0.028469862,
        0.025827663,
        0.08460382,
        -0.01731425,
        -0.0019398599,
        0.03039654,
        0.036350127,
        0.020251406,
        0.0025609154,
        0.052634943,
        -0.05196506,
        0.07869806,
        -7.8470237E-4,
        0.083023325,
        0.054155495,
        0.0035237435,
        0.16730464,
        0.15435298,
        0.09226857,
        0.055502165,
        -3.419071E-4,
        0.03689231,
        -0.015687034,
        0.011203749,
        0.048700325,
        0.029222412,
        0.062300757,
        0.056905918,
        -0.0076158023,
        -0.04885292,
        -0.039246112,
        0.056321267,
        0.06326288,
        0.035407834,
        7.3836505E-4,
        0.12189407,
        0.023169946,
        -0.04447015,
        0.04329311,
        0.04928992,
        -0.021564811,
        0.031658936,
        0.09150765,
        0.09216854,
        0.13036756,
        0.1324451,
        0.04139893,
        0.06355446,
        0.17095366,
        0.14921029,
        0.12098666,
        -0.009028415,
        0.13074332,
        0.10328989,
        -0.07184375,
        0.038065873,
        0.0050024134,
        0.034319613,
        0.04857746,
        0.04834611,
        0.024697404,
        0.011164855,
        0.027166415,
        -0.024006078,
        0.04467431,
        0.039165556,
        0.050691884,
        -0.060794607,
        0.04938126,
        -0.006310202,
        0.07650288,
        0.006027416,
        1.5643094E-4,
        0.0013769948,
        0.06537044,
        0.06700293,
        0.06942727,
        0.008825092,
        0.06225535,
        0.007701943,
        0.063408434,
        -0.027496053,
        0.029268902,
        0.010055925,
        8.998509E-5,
        -0.017142182,
        0.019471042,
        0.004998709,
        0.01493892,
        -0.012525303,
        0.0069327215,
        0.042691864,
        -0.017052477,
        -0.034191143,
        0.012096067,
        0.028635625,
        0.031085478,
        -0.07150516,
        0.009326191,
        -0.04736899,
        0.13006887,
        0.033571593,
        0.027509907,
        0.04766434,
        -0.029958216,
        0.056512855,
        -0.04216237,
        0.10481651,
        0.026493808,
        -0.045859568,
        0.059508942,
        0.09837271,
        -8.577478E-4,
        -0.0947664,
        -0.0010853373,
        -0.075906195,
        -0.0936864,
        -0.08796904,
        -0.094312906,
        -0.096176215,
        -0.09334327,
        -0.047918204,
        -0.045103565,
        -0.009078124,
        -0.048129406,
        -0.024197513,
        -0.05772331,
        -0.09212505,
        -0.05695674,
        -0.014553454,
        0.105879776,
        0.021854877,
        -2.4207492E-4,
        -0.049357086,
        0.08550944,
        0.07448587,
        0.033925284,
        -0.039580278,
        -0.0933266,
        -0.08601008,
        0.03793242,
        0.024810053,
        -0.018280106,
        -0.06016282,
        0.058233812,
        -0.015692338,
        -0.09532552,
        0.06583356,
        -0.05471958,
        -0.0697435,
        -0.11703268,
        -0.13248526,
        -0.06753855,
        -0.053718884,
        -0.06453956,
        -0.041819014,
        -0.114618905,
        0.060793728,
        0.022729091,
        0.12911099,
        -0.036090676,
        0.10510662,
        -0.05396354,
        -0.007991526,
        0.006849944,
        0.043565698,
        0.08274498,
        0.024060585,
        0.009932703,
        -0.07219827,
        -0.036099162,
        0.03318311,
        0.08050202,
        0.019814339,
        0.05800528,
        -0.08440716,
        -0.02769504,
        -0.025540631,
        0.025085034,
        0.0037404494,
        -0.03218854,
        -0.06478967,
        -0.12047727,
        -0.05109485,
        0.019474654,
        -0.14508949,
        -0.021102257,
        0.08116618,
        -0.023846827,
        -0.058807224,
        -0.075645305,
        0.03480556,
        -0.08018531,
        0.028653469,
        -0.05242675,
        0.04922046,
        0.058159918,
        -0.027777465,
        -0.010950778,
        0.06264744,
        -0.065126024,
        0.0757434,
        -0.010717841,
        -0.036004584,
        0.10102288,
        0.030497693,
        -0.0048817415,
        -0.052369542,
        -0.025175126,
        -0.016177917,
        0.0042871735,
        -0.14106493,
        0.031293176,
        -0.11463426,
        -0.12918793,
        -0.046182018,
        0.04337179,
        0.033735976,
        0.03635035,
        0.039496753,
        -0.105222866,
        0.07681163,
        0.1091055,
        0.06548998,
        0.029326685,
        0.026758155,
        0.015680293,
        0.097699694,
        0.0752054,
        -0.031234892,
        0.096362405,
        -0.02578764,
        -0.04333315,
        -0.054676358,
        -0.03903778,
        0.029934248,
        -0.13431618,
        -0.1506922,
        -0.1057479,
        -0.11282585,
        -0.16735072,
        -0.011909331,
        0.0028289778,
        -0.05190651,
        -0.010079999,
        -0.09970637,
        -0.021175275,
        0.022415578,
        -0.022802524,
        -0.07440926,
        0.034423415,
        -0.0058437395,
        -0.028480329,
        0.01688494,
        -0.027575819,
        -0.014766398,
        0.092472926,
        -0.05233055,
        0.069565795,
        -0.05466563,
        0.03489458,
        0.056350574,
        7.728747E-4,
        -0.07647746,
        -0.022509363,
        -0.08434838,
        -0.094301224,
        -0.04553666,
        -0.1509548,
        -0.03809252,
        -0.077493176,
        -0.07598855,
        -0.09270203,
        -0.09253556,
        -0.10509088,
        0.032611962,
        0.039607137,
        -0.035360713,
        -0.0017564935,
        -0.0039408132,
        0.07173532,
        0.03001638,
        0.021881888,
        0.078802995,
        0.08280609,
        -0.007939906,
        -0.01601026,
        -0.021496685,
        -0.0023001467,
        -0.056842547,
        -0.060636364,
        -0.031890623,
        -0.14701618,
        -0.04843476,
        -0.06616042,
        -0.074959286,
        -0.1247893,
        -0.097265966,
        -0.18058695,
        -0.008316417,
        -0.088958204,
        -0.075663574,
        -0.05429328,
        0.017327495,
        -0.08962864,
        0.06987514,
        -0.028499987,
        0.079533204,
        0.0804666,
        0.012155349,
        -0.030265406,
        0.081073746,
        -0.027782325,
        -0.030692337,
        -0.050918095,
        -0.0499584,
        -0.0058883773,
        0.045866072,
        -0.11787599,
        -0.07965384,
        -0.11424449,
        -0.20602034,
        -0.123820275,
        -0.22153284,
        -0.2257165,
        -0.14268517,
        -0.08055199,
        -0.034739375,
        0.0018547038,
        -0.020176934,
        -0.036480367,
        -0.031461712,
        -0.034256905,
        0.047616113,
        0.05009331,
        0.071753025,
        0.062362004,
        0.08909145,
        0.042892512,
        0.12145224,
        -0.078193046,
        0.031048696,
        -0.02537451,
        -0.07941668,
        -0.092599325,
        -0.03701858,
        -0.014003645,
        -0.09517997,
        -0.16185944,
        -0.09605154,
        -0.21491376,
        -0.10922585,
        -0.23140928,
        -0.12658247,
        -0.13880488,
        -0.1040513,
        -0.040723484,
        -0.043391496,
        -0.018464532,
        -0.031278104,
        -0.033790685,
        0.056372777,
        0.018762117,
        -0.021637155,
        0.020542586,
        0.034383845,
        -0.03693323,
        -0.075881384,
        -0.011559563,
        -0.038031623,
        -0.03367367,
        -0.053173546,
        -0.05581749,
        0.0030223585,
        -0.1499614,
        -0.16091499,
        -0.15789533,
        -0.020663902,
        -0.17584902,
        -0.16163394,
        -0.096741155,
        -0.049450282,
        -0.06334597,
        -0.005401147,
        -0.019798804,
        -0.07239184,
        0.01747753,
        -0.026556402,
        0.03819207,
        -0.08536316,
        0.0032873233,
        0.085958436,
        -0.006824737,
        -0.030450338,
        0.08357683,
        -0.006630616,
        0.020096056,
        -0.13911624,
        -0.10029148,
        -0.03160073,
        -0.08499788,
        -0.051170763,
        -0.06609408,
        -0.08145427,
        -0.0854464,
        -0.11032724,
        -0.059726026,
        -0.02021483,
        -0.064945325,
        0.04641506,
        -0.0035911633,
        -0.05986628,
        0.023978647,
        -0.06727043,
        -0.017535299,
        -0.04742233,
        0.011483392,
        0.0082347095,
        0.044626467,
        0.04405369,
        0.06425717,
        0.058192104,
        0.04427388,
        -0.051429123,
        -0.008847334,
        -0.06923481,
        -0.0085042715,
        0.010666789,
        -0.02674482,
        0.024518227,
        -0.019530345,
        0.018984744,
        0.06748035,
        0.03140391,
        -0.005739762,
        0.016144272,
        0.08143889,
        -0.06948898,
        0.090711355,
        -0.044771105,
        -0.024496373,
        0.029476352,
        -0.06283072,
        0.04481282,
        -0.043348353,
        0.083204046,
        -0.049371574,
        -0.045854665,
        -0.010770741,
        -0.12624545,
        -0.093157366,
        -0.124777965,
        0.0015268222,
        -0.048460044,
        -0.09937006,
        -0.026097782,
        -0.030744592,
        0.099345274,
        -0.07311579,
        0.08728997,
        0.03552545,
        0.054768514,
        0.063294515,
        0.08241329,
        0.06759198,
        0.061874934,
        0.03739775,
        0.0515414,
        -0.008871016,
        -0.009490456,
        0.012370403,
        0.04072571,
        0.102140576,
        -0.037063435,
        0.01725828,
        -0.07117339,
        0.01923217,
        -0.026136786,
        0.02020605,
        -0.06252723,
        -0.16441292,
        -0.11159329,
        -0.012631984,
        -0.03786131,
        0.13567567,
        0.023673054,
        0.13608497,
        0.06406767,
        0.13715109,
        0.109951936,
        0.10734304,
        0.084399365,
        0.08604118,
        0.1495963,
        0.08726038,
        -0.00466403,
        0.11644467,
        0.06849719,
        0.06529801,
        0.030543119,
        0.05165086,
        -0.017180681,
        -0.080395766,
        -0.025743362,
        -0.06027184,
        -0.1129823,
        -0.079985514,
        -0.0092510665,
        0.02400973,
        0.0013179141,
        0.032313682,
        0.029970214,
        0.0020260816,
        0.098450035,
        0.0194814,
        0.100065835,
        0.16065237,
        0.18312216,
        0.0891059,
        0.17728151,
        0.16090721,
        0.07908376,
        0.11793763,
        0.07628216,
        -0.0160447,
        0.06277419,
        -0.03110615,
        -0.017017892,
        0.011914819,
        0.0989149,
        -0.10079033,
        -0.09783513,
        -0.19440477,
        -0.07434147,
        -0.101812445,
        -0.026057784,
        -0.016135555,
        -0.02069262,
        -0.013712298,
        -0.06618464,
        0.026183663,
        0.06087232,
        0.083356716,
        0.068906695,
        0.0692431,
        0.078046344,
        0.07304596,
        0.114866324,
        0.12132142,
        0.11096762,
        0.06963821,
        0.0054062232,
        0.103474565,
        -0.06236809,
        -0.020866007,
        0.11503489,
        -0.09352371,
        -0.045560945,
        -0.019494291,
        -0.13069966,
        0.024335556,
        -0.10192823,
        -0.012109613,
        -0.02437393,
        -0.030460287,
        -0.0070231208,
        0.07137665,
        0.03427458,
        0.04442962,
        0.027979128,
        -0.03597642,
        0.023145555,
        0.08658387,
        -0.014036968,
        0.027365867,
        -0.0023162907,
        -0.061670065,
        0.003531774,
        0.0028183311,
        0.06341945,
        0.038863357,
        0.028158829,
        0.04113803,
        -0.019161202,
        -0.0809673,
        -0.05329072,
        -0.045229692,
        -0.07994497,
        -0.083146304,
        -0.028631622,
        0.031947255,
        0.0057817106,
        0.07508314,
        0.021012338,
        0.04745095,
        -0.031610075,
        -0.008272485,
        -0.063334994,
        0.01794436,
        -0.043491244,
        -0.072009556,
        -0.15841493,
        -0.09709762,
        -0.17712869,
        -0.15713103,
        -0.06742314,
        -0.0072290837,
        -0.021712724,
        -0.035759278,
        0.034013957,
        -0.07549917,
        0.034623086,
        0.053672228,
        -0.016000971,
        -0.015436798,
        0.07838049,
        0.1347493,
        0.045194536,
        -0.030968126,
        0.07459259,
        -0.017693866,
        0.059072673,
        0.004303762,
        0.0033899473,
        0.053616855,
        -0.018629625,
        -0.1233556,
        -0.12709215,
        -0.14417088,
        -0.20504834,
        -0.17024146,
        -0.08423176,
        -0.10184621,
        -0.06949194,
        -0.1184616,
        -0.06716085,
        -0.09653393,
        -0.009701628,
        -0.034201413,
        -0.074896984,
        0.015966045,
        -0.03684837,
        0.008984766,
        0.0679978,
        -0.04921701,
        0.045755684,
        0.052407146,
        -0.0021305364,
        0.012631313,
        0.03307426,
        -0.019478094,
        -0.021023806,
        -0.080309,
        -0.0113534685,
        -0.06058603,
        -0.2320933,
        -0.15513763,
        -0.21433078,
        -0.19060127,
        -0.1297851,
        -0.1983193,
        -0.05165478,
        -0.11909497,
        -0.04914555,
        -0.03917641,
        0.03619828,
        -0.05381285,
        0.06983537,
        -0.052096836,
        -0.052208617,
        0.04779523,
        0.07376449,
        -0.049835358,
        0.00969142,
        0.04467375,
        -0.06473966,
        0.03343221,
        -0.02051528,
        -0.019953102,
        0.036690976,
        -0.06335205,
        -0.14462584,
        -0.20213744,
        -0.1550842,
        -0.19607809,
        -0.11845623,
        -0.031150578,
        -0.15007587,
        -0.043426618,
        -0.06920092,
        -0.024137743,
        -0.08307447,
        -0.032784663,
        -0.030678412,
        -0.06721885,
        -0.04867993,
        0.013181824,
        0.07102966,
        -0.024857858,
        -0.021902543,
        -0.02415815,
        -0.008135292,
        -0.035516817,
        -0.031325273,
        -0.050099548,
        -0.07443681,
        -0.06352315,
        -0.014072977,
        -0.13811855,
        -0.083397016,
        -0.07102666,
        -0.1220486,
        -0.1236181,
        -0.10584598,
        -0.08583934,
        -0.08972274,
        -0.08994024,
        -0.08177506,
        -0.14040789,
        -0.06230051,
        0.048779257,
        -0.04497451,
        -0.026680894,
        -0.086578704,
        -0.026763448,
        0.090458326,
        -0.13893963,
        -0.039715815,
        0.009688955,
        0.041290663,
        0.0832462,
        -0.0175542,
        0.08303621,
        -0.0049249697,
        -0.07353979,
        -0.07846604,
        0.013895623,
        -0.08636173,
        -0.086248145,
        -0.078425445,
        -0.09950141,
        -0.0472955,
        -0.012979493,
        -0.11010953,
        -0.014632723,
        -0.05682582,
        0.008750805,
        -0.051408812,
        0.019485313,
        0.026553571,
        0.034884535,
        0.11621763,
        -0.015549055,
        -0.05194942,
        7.0299057E-4,
        0.0011968926,
        0.031958178,
        0.019795964,
        0.0364573,
        0.0069033555,
        -0.029285204,
        0.0034377258,
        0.057486173,
        0.006300653,
        -0.080258004,
        0.065324515,
        -0.09716314,
        0.014002637,
        -0.0735849,
        -0.14008942,
        -0.17166671,
        -0.04373776,
        -0.10805109,
        -0.08633998,
        -0.052172586,
        0.015736725,
        -0.06676479,
        -0.05955045,
        -0.062686,
        -0.005062809,
        -0.032035537,
        0.10455192,
        -0.11281348,
        0.0040082918,
        -0.009268999,
        0.008698496,
        0.0034846335,
        0.09885485,
        0.043564927,
        0.001191274,
        0.052200597,
        0.11184292,
        0.10971477,
        0.047780596,
        0.028536303,
        -0.033300173,
        0.045585025,
        0.072166435,
        -0.0027493248,
        0.006873713,
        9.64025E-4,
        -0.0018573656,
        -0.033221856,
        -0.0117442,
        8.720401E-4,
        0.034491133,
        -0.016561905,
        0.044485826,
        0.033418495,
        0.047284223,
        0.028483594,
        0.06596602,
        0.016824149,
        0.025396796,
        -0.007631329,
        -0.0023006392,
        0.013171147,
        0.053481445,
        0.06636362,
        -0.032505263,
        0.105342224,
        0.019016914,
        0.054130808,
        0.053681254,
        0.01578842,
        0.12275531,
        0.018928109,
        -0.02952173,
        0.06452867,
        -0.095206864,
        0.013736902,
        -0.062729955,
        -0.12897679,
        -0.014689614,
        0.0012024152,
        -0.08212446,
        0.026707519,
        0.015899336,
        -0.00500665,
        -0.048103865,
        0.09771594,
        -0.03312839,
        0.039584883,
        0.04414293,
        0.07232061,
        0.11464184,
        -0.01194208,
        0.10043701,
        0.007418999,
        0.09819549,
        0.029342912,
        0.09401448,
        0.041751087,
        0.00652199,
        -0.021644734,
        0.07714858,
        0.023579685,
        -0.014139614,
        0.04597203,
        0.013929606,
        -0.017714363,
        -0.0100966105,
        0.09832099,
        -0.01524402,
        -0.04018101,
        -0.035478722,
        0.015171221,
        0.06603022,
        0.01638103,
        -0.04876762,
        -0.07022904,
        0.09412124,
        -0.013349622,
        0.07759267,
        0.13720188,
        0.08579544,
        0.10241711,
        0.15822034,
        0.15883653,
        0.10105272,
        0.18154271,
        0.19934812,
        0.20753975,
        0.112279415,
        0.086424954,
        0.15560743,
        -0.009369716,
        0.110557616,
        0.07487541,
        0.010681336,
        0.03931648,
        0.053047154,
        0.061280493,
        0.008693656,
        0.047794037,
        0.0851451,
        -0.023281725,
        0.017861199,
        -0.059709232,
        0.037019227,
        0.02690207,
        -0.020592656,
        0.09186318,
        0.0622201,
        0.11324855,
        0.06628958,
        0.017109655,
        0.03196314,
        -0.006279066,
        -0.0036514283,
        -0.040884607,
        0.015191335,
        -0.08273394,
        -0.009145571,
        -0.08774681,
        -0.122023895,
        0.021203917,
        -0.055561375,
        0.003491652,
        -0.019346042,
        0.1599025,
        0.09430294,
        -0.08287411,
        0.018738186,
        0.031194242,
        0.07782252,
        -0.029895157,
        0.09170083,
        0.060960546,
        0.027622279,
        0.06689607,
