{
  "inputLayer": {
    "nodes": 784
  },
  "evaluateLayers": [
    {
      "weights": [
        0.0818965,
        0.09904254,
        -0.005669654,
        0.117246754,
        0.07177351,
        0.0844152,
        0.056919176,
        0.007097702,
        0.18030998,
        0.14424627,
        0.17476912,
        -0.021630038,
        0.039358776,
        0.086693056,
        0.0384434,
        0.0839443,
        0.08980721,
        -0.03846415,
        0.023453932,
        0.020740734,
        0.08571379,
        0.08539872,
        0.088940404,
        -0.00944404,
        0.033970397,
        0.008792282,
        -0.03158051,
        0.07194926,
        0.09755374,
        0.1120138,
        0.05834929,
        0.09863068,
        0.031339522,
        0.111558855,
        0.18125978,
        0.10665485,
        0.02358285,
        0.1458417,
        0.15011099,
        0.08827382,
        0.055807836,
        0.16365996,
        0.052544698,
        -0.05126932,
        0.008770857,
        0.08424121,
        0.005799185,
        -0.028663244,
        0.08998345,
        -0.04859798,
        -0.07214249,
        0.02472877,
        0.022660911,
        -0.08056395,
        0.040231597,
        -0.031759866,
        0.01740873,
        0.08601821,
        0.110649854,
        0.088625215,
        0.078053005,
        0.16584997,
        0.03210715,
        0.10267549,
        0.019312657,
        0.15203656,
        0.1815201,
        0.11417193,
        0.15453228,
        0.08804397,
        -0.022985956,
        0.04473638,
        0.040820844,
        0.04397522,
        0.014974635,
        0.026596941,
        -0.013236751,
        0.054892126,
        0.08345396,
        -0.010380929,
        0.024221083,
        0.019387694,
        -0.03827514,
        0.083476305,
        0.04672192,
        -0.066560015,
        -0.0343856,
        0.021802776,
        0.046213135,
        0.02275225,
        0.017456228,
        -0.013086576,
        0.09830802,
        0.09748368,
        0.09469633,
        0.05186066,
        0.1546547,
        0.11350833,
        0.13614771,
        0.11315283,
        0.12577434,
        0.060149103,
        0.014777334,
        0.032933217,
        -0.036393795,
        -0.038763314,
        0.03516652,
        -0.012954694,
        -0.07958846,
        0.042196747,
        -0.049177393,
        -0.099977195,
        0.027591659,
        -0.041913133,
        0.0063868035,
        -0.03921277,
        0.07066916,
        -0.08883553,
        0.035228405,
        -0.048510868,
        -0.11330106,
        0.08785961,
        -0.033512495,
        0.08934535,
        0.054839976,
        0.08253655,
        0.07175,
        0.09292094,
        -0.016066918,
        0.015885543,
        0.022057058,
        0.063986026,
        -0.075611666,
        -0.055152863,
        -0.05562065,
        -0.059220873,
        -0.039564185,
        -0.06009836,
        -0.10830596,
        -0.08670835,
        0.035378568,
        0.06836942,
        -0.03421684,
        -0.014460759,
        -0.06343848,
        -0.059859388,
        -0.07244107,
        -0.06690956,
        0.03460042,
        -0.084836595,
        0.008736549,
        -0.0768052,
        -0.036729198,
        0.07786397,
        -0.02011379,
        0.06374265,
        0.13421594,
        0.027899707,
        -0.02377156,
        0.10147784,
        -3.8169065E-4,
        -0.040726893,
        0.034599878,
        0.0062435456,
        -0.06374088,
        -0.10442117,
        0.06264498,
        -0.079345055,
        -0.004436914,
        0.040665403,
        -0.029458351,
        0.02941264,
        -0.10263095,
        -0.10065085,
        -0.13502042,
        -0.10895068,
        -0.1609097,
        -0.113346994,
        -0.10520201,
        -0.030444292,
        -0.15189019,
        -0.09298371,
        -0.004110836,
        0.09789609,
        0.04908129,
        0.07983389,
        -0.010306291,
        0.02830961,
        0.0149050485,
        -0.064469025,
        -0.011210466,
        -0.028664779,
        -0.09763095,
        -0.01814768,
        -0.07750452,
        0.023510242,
        -0.015528245,
        0.011151065,
        0.002367202,
        -0.12026082,
        -0.09605843,
        -0.1319876,
        -0.16793887,
        -0.044395927,
        -0.02778927,
        -0.15062134,
        -0.16367458,
        -0.06676966,
        -0.06484767,
        -0.02900693,
        -0.15021387,
        -0.09324677,
        0.024257008,
        -0.031950552,
        0.039921775,
        -0.023071174,
        -0.05130007,
        0.032993756,
        0.020836592,
        -0.08431852,
        0.049263045,
        0.049677376,
        0.007049312,
        -0.06847039,
        -0.1069589,
        -0.0579496,
        -0.0018645998,
        -0.10095439,
        -0.070232876,
        -0.16122867,
        -0.20347974,
        -0.18854019,
        -0.19396403,
        -0.14287433,
        -0.13142559,
        -0.08119663,
        -0.1339589,
        -0.050618544,
        -0.01888514,
        -0.10885308,
        -0.060952086,
        0.031009387,
        -0.11556849,
        0.05941201,
        -0.023662984,
        -0.012712337,
        0.0066914964,
        0.033159006,
        -0.08041187,
        -0.108143285,
        0.06378779,
        0.07349046,
        -0.12988973,
        -0.08980479,
        -0.019627016,
        -0.18130547,
        -0.038851585,
        -0.021751115,
        -0.18614854,
        -0.1580447,
        -0.18001537,
        -0.12141559,
        -0.18299903,
        -0.14458306,
        -0.08590631,
        -0.13534568,
        -0.062362127,
        -0.007103369,
        -0.09844269,
        0.05159282,
        0.012192528,
        -8.941127E-4,
        -0.0062578414,
        0.016629925,
        -0.023082096,
        0.046002984,
        0.043647733,
        -0.017291544,
        0.048924174,
        0.042547863,
        0.05395858,
        -0.038576357,
        0.022979371,
        0.00622689,
        -0.008599304,
        0.030257352,
        -0.07550784,
        -0.04804281,
        -0.057492822,
        -0.22117645,
        -0.14634725,
        -0.19799292,
        -0.11958976,
        -0.13675879,
        -0.06148024,
        -0.02856093,
        0.049606923,
        -0.058772214,
        0.031363484,
        -0.044430733,
        0.015186892,
        0.032351814,
        0.00902378,
        0.068692245,
        0.10977575,
        0.10412866,
        0.026194379,
        0.032116417,
        0.031800214,
        -0.056634158,
        -0.015262898,
        -0.07145303,
        -0.095545426,
        -0.039334588,
        0.04833457,
        0.109585,
        -0.038141053,
        0.022197137,
        -0.12327905,
        -0.13737643,
        -0.1754648,
        -0.11503465,
        -0.14771073,
        -0.11696733,
        -0.005130029,
        -0.022600722,
        -0.028412187,
        0.072687335,
        0.06118732,
        0.022688221,
        0.06229417,
        0.04956008,
        -0.04392379,
        0.06552703,
        0.028175427,
        0.059611995,
        -0.017772013,
        -0.027304633,
        -0.062073242,
        -0.012128078,
        0.06745229,
        0.103473246,
        0.035363298,
        0.14050323,
        0.10206389,
        0.069894135,
        0.04459545,
        0.0320282,
        -0.029426763,
        -0.06377711,
        -0.07569627,
        -0.021745803,
        0.014196013,
        0.022899842,
        0.0047796583,
        -0.039684415,
        0.025709288,
        0.044875074,
        0.007938017,
        0.039388638,
        0.14072846,
        0.08785103,
        0.03567939,
        0.12202204,
        0.0019694332,
        0.051942673,
        -0.019426012,
        -0.035384376,
        0.023270292,
        0.073027484,
        0.050890688,
        0.08930284,
        0.037150167,
        0.07167461,
        0.09705567,
        0.13646016,
        0.114808135,
        0.15511246,
        0.09440454,
        0.043386728,
        0.084514044,
        0.10936302,
        0.12911917,
        0.09422699,
        0.070121534,
        0.09127859,
        0.05434702,
        0.06211069,
        0.055872507,
        0.12699401,
        0.1829388,
        0.103577234,
        0.096274786,
        0.062268198,
        0.0015529718,
        0.08369275,
        0.046185616,
        -0.038821623,
        0.023343699,
        0.07371557,
        0.0768484,
        0.038190432,
        0.051041972,
        0.026343493,
        0.13680859,
        0.10000813,
        0.065660335,
        0.0734371,
        0.028880803,
        -0.07620232,
        -0.024325565,
        -0.040304046,
        0.06348215,
        -0.039684836,
        0.06497263,
        0.039750155,
        -0.034329996,
        0.056290522,
        0.08210107,
        0.060605034,
        0.029754473,
        0.065012395,
        0.108845904,
        0.03471755,
        0.050684873,
        -0.018764293,
        0.034952533,
        0.047066156,
        0.07126486,
        0.080831915,
        0.069949985,
        0.08057248,
        -0.020272141,
        0.004756094,
        -9.574134E-4,
        -0.06024032,
        -0.04076111,
        -0.12571262,
        -0.053513546,
        -0.10444923,
        -0.095495954,
        0.034862965,
        0.008227613,
        0.039485805,
        0.080718346,
        0.05447193,
        0.04881032,
        -0.014605469,
        0.025614036,
        0.052532498,
        -0.037285272,
        0.058567822,
        0.0888643,
        0.07497053,
        0.06728647,
        0.051192306,
        0.005206365,
        0.021428207,
        -0.025080075,
        -0.051939353,
        0.026359688,
        -0.007826737,
        0.021612637,
        -0.051805392,
        0.04700051,
        -0.029216276,
        -0.052231174,
        0.030666096,
        -0.09837442,
        -0.046217278,
        -0.09337618,
        0.043246374,
        0.066231534,
        -0.008386012,
        0.077756494,
        -0.005405851,
        -0.046554103,
        0.017495826,
        -7.5842418E-6,
        -0.032407556,
        0.08509756,
        -0.024240207,
        0.013608597,
        0.0072966916,
        -0.057173766,
        0.030516263,
        -0.08331535,
        -0.038426157,
        -0.056994755,
        -0.009663292,
        -0.044268332,
        -0.0106852045,
        -0.09438209,
        0.03771872,
        -0.062186137,
        -0.044051196,
        -0.061194386,
        -0.06693156,
        -0.06619174,
        -0.096999794,
        -0.070014365,
        -0.08140256,
        0.039645635,
        0.05412784,
        0.070270814,
        0.066942975,
        -0.06594334,
        0.03576255,
        0.009101162,
        0.0327188,
        0.049079984,
        0.04372247,
        0.04828913,
        -0.04480541,
        0.0235124,
        0.03540095,
        -0.016890474,
        -0.062252097,
        -0.0085675595,
        -0.09926324,
        -0.05070635,
        -0.07684974,
        -0.0035502594,
        -0.15075624,
        -0.1520825,
        -0.004852262,
        0.004385776,
        0.027751489,
        0.010346774,
        -0.022341318,
        0.040947016,
        0.08756653,
        -0.055135004,
        0.022681676,
        0.08112291,
        0.09695121,
        -0.02891916,
        -0.068581335,
        -0.057947956,
        -0.08532072,
        -0.07750897,
        0.018890072,
        -0.045934238,
        -0.048584558,
        -0.0146574695,
        -0.014936749,
        -0.06275573,
        -0.08178312,
        -0.13661328,
        -0.13044259,
        -0.18644862,
        -0.11911562,
        -0.07419036,
        -0.084327765,
        -0.12222698,
        -0.098712765,
        -2.2783874E-4,
        -0.12362652,
        -0.031163232,
        0.0273127,
        -0.014661917,
        0.082561515,
        -0.09447375,
        -0.006394126,
        0.018598508,
        0.08687405,
        -0.07748228,
        0.011950564,
        -0.018427135,
        -0.0464067,
        0.031386457,
        -0.008097774,
        0.019327769,
        -0.022768667,
        0.028679686,
        0.0045193345,
        0.067306295,
        0.036802787,
        -0.15433542,
        -0.023740793,
        -0.09777552,
        0.014881563,
        0.05193664,
        -0.101554275,
        -0.09906477,
        -0.043115783,
        0.0515629,
        0.070416965,
        -0.08055599,
        0.06422759,
        0.064167984,
        0.08541107,
        0.040228337,
        -0.02458481,
        0.08108259,
        0.04124069,
        -0.0201019,
        -0.03571594,
        0.061868005,
        0.04299176,
        0.089074716,
        0.08847283,
        0.01938942,
        0.12712047,
        -0.014021238,
        0.104035616,
        0.032205846,
        -0.015869351,
        0.0076916083,
        0.044608343,
        -0.081559666,
        -0.05660152,
        -0.014338664,
        -0.029821973,
        0.05482562,
        -0.023390803,
        0.09589605,
        -0.08512948,
        0.08635835,
        0.061003666,
        0.042516127,
        0.051663432,
        0.060850337,
        -0.077709265,
        -0.038425494,
        0.07371412,
        -0.017984882,
        -0.036245696,
        0.038147718,
        0.026769508,
        0.07939635,
        0.06228279,
        0.12552734,
        0.057996266,
        0.062377278,
        0.019200137,
        0.06334868,
        0.033249825,
        -0.008418401,
        0.09691598,
        0.060341448,
        -0.030079968,
        -0.028281095,
        0.11452361,
        -0.073493816,
        0.05399394,
        0.09102166,
        -0.06542969,
        -0.075265005,
        0.062394008,
        -0.032571375,
        -0.05663828,
        0.019299801,
        0.0059190015,
        0.01155469,
        0.0065905037,
        0.08569158,
        -0.026767995,
        -0.010416014,
        0.042886052,
        0.10382959,
        0.011582483,
        0.02059341,
        0.084166855,
        -0.005075673,
        0.06924343,
        -0.06575156,
        -0.013770448,
        0.021975268,
        0.103821754,
        -0.003991185,
        0.016277539,
        -0.039122965,
        0.040293224,
        0.03088679,
        0.059002563,
        0.060300864,
        -0.041445516,
        -0.049083684,
        -0.03747499,
        0.03624832,
        -0.018718615,
        -0.07373127,
        -0.009048658,
        0.060766965,
        0.014772542,
        -0.022449637,
        0.1231894,
        0.007927362,
        -0.03247251,
        0.0728581,
        0.07902405,
        -0.018828863,
        0.08741062,
        -0.08488781,
        0.09676118,
        5.8508094E-4,
        0.1176174,
        -0.02396258,
        -0.031740434,
        0.06582857,
        -0.086833574,
        -0.07193787,
        -0.09260122,
        0.0071538854,
        9.161464E-4,
        -0.07663852,
        -9.988518E-4,
        -0.031852372,
        -0.07831759,
        0.045380685,
        -0.013826522,
        0.03574387,
        -0.022207567,
        0.03884217,
        0.012227167,
        0.07822665,
        -0.0064911954,
        -0.012611802,
        -0.015228701,
        0.11881547,
        -0.0048998296,
        0.105613604,
        0.0742132,
        0.024125284,
        -0.021310382,
        0.056806445,
        0.094047636,
        -0.030190516,
        -0.06746036,
        -0.08399511,
        -0.048610743,
        -0.07157791,
        0.047183447,
        -0.07259761,
        0.0673891,
        -0.011542772,
        -0.08174013,
        -0.03549728,
        -0.054904226,
        0.035462197,
        -0.09706577,
        0.07310124,
        0.052884206,
        0.09254444,
        0.043169755,
        -0.005104702,
        0.02429149,
        0.003885367,
        0.060926408,
        0.024971241,
        -0.041003395,
        0.0136036575,
        0.059703752,
        0.048251547,
        0.0186286,
        -0.044155166,
        -0.06819137,
        0.07667151,
        -0.05862749,
        -0.07540945,
        -0.08851487,
        -0.077753015,
        0.022327216,
        -0.041848354,
        0.114259176,
        5.066921E-4,
        0.106088445,
        0.03742921,
        0.102289565,
        -0.017096346,
        0.010617801,
        -0.01796189,
        0.10020004,
        0.11180303,
        -0.036761846,
        0.07890595,
        0.06582055,
        0.11245218,
        0.02001899,
        0.026646556,
        -0.07251104,
        -0.0684834,
        0.066657156,
        -0.027593805,
        -0.005392232,
        -0.079598635,
        -0.04176563,
        -0.06343019,
        0.011045391,
        -0.02472664,
        0.09838548,
        -0.0054890076,
        0.06636096,
        -0.09032578,
        0.076708406,
        0.051503036,
        0.015488181,
        -0.032032393,
        -0.032661237,
        -0.09012856,
        0.050852634,
        -0.02220585,
        0.036740914,
        -5.2888016E-4,
        -0.08530016,
        0.034454662,
        0.1054252,
        -0.07809438,
        -0.06889144,
        0.06942444,
        0.058341738,
        -0.012799429,
        0.04748123,
        0.0939632,
        -0.008444152,
        -0.061947137,
        -0.054444604,
        0.10778938,
        0.07278847,
        -0.07257205,
        0.111270875,
        0.043101333,
        0.105788276,
        -0.07398783,
        -0.05317443,
        0.094898626,
        -0.022288661,
        1.0526494E-4,
        -0.05461531,
        0.044111174,
        -0.10111634,
        0.10144661,
        0.018958796,
        0.07975863,
        0.08337119,
        -0.05657368,
        -0.0465104,
        0.018355608,
        -0.079081275,
        0.0019431447,
        -0.0046029217,
        0.03058322,
        0.043742243,
        0.07792016,
        0.046080608,
        0.027596049,
        -0.042597786,
        0.034722194,
        0.08350195,
        -0.07900406,
        0.076423824,
        -0.072016045,
        -0.07537244,
        0.044401556,
        -0.0572314,
        0.050986357,
        -0.07946637,
        -0.079644345,
        0.049152162,
        0.059704132,
        -0.059848446,
        0.013882338,
        0.023935568,
        0.068131365,
        -0.048318114,
        -0.03596047,
        0.063555,
        0.04439319,
        0.050353967,
        -0.089507535,
        0.09047075,
        0.019788232,
        -0.08702381,
        0.11861511,
        0.034758385,
        -0.06670277,
        0.031368285,
        0.017154805,
        -0.01000758,
        0.0101956865,
        -0.018081555,
        0.08034289,
        -0.060735896,
        0.0052838437,
        0.04643379,
        0.028935686,
        0.066692926,
        -0.07084423,
        -0.08341778,
        0.004686001,
        0.07366685,
        -0.050158072,
        0.07047406,
        0.06077308,
        0.091153234,
        0.067063995,
        0.018218514,
        -0.013688529,
        0.012102365,
        -0.08099821,
        0.0040221605,
        -0.07939537,
        0.006461105,
        0.009117817,
        -0.01966122,
        0.10618473,
        -0.08132295,
        0.009963506,
        -0.093057945,
        -0.037074372,
        -0.010895393,
        -0.0021701897,
        0.021509685,
        0.012003606,
        -0.022074318,
        -0.081076056,
        0.039248385,
        0.017568987,
        -0.11017442,
        -0.011785526,
        -0.05065638,
        -0.03999485,
        -0.084154315,
        0.09535807,
        0.04454418,
        0.050096363,
        0.0333012,
        -0.048378248,
        -0.011943382,
        -0.07938024,
        -0.031490494,
        0.04219299,
        -0.0028012525,
        0.06900169,
        0.012854231,
        0.002506403,
        -0.057652283,
        0.037234455,
        0.041982785,
        -0.06950782,
        0.01272853,
        0.054591835,
        -0.0931214,
        0.009174366,
        0.03774019,
        0.023481451,
        0.024390427,
        0.07701249,
        0.0068574883,
        -0.0778436,
        -0.010659664,
        0.054095134,
        0.024877345,
        -0.021200217,
        0.036499463,
        -0.035378825,
        -0.010058699,
        0.065505974,
        0.053599767,
        -0.009900466,
        -0.033012494,
        0.07673162,
        0.041699283,
        9.920732E-4,
        -0.049612578,
        -0.049390852,
        0.005885935,
        0.036541358,
        -0.02695021,
        0.013488896,
        -0.04964745,
        -0.04427218,
        0.050264426,
        -0.11077031,
        0.052960962,
        -0.09036098,
        0.038187217,
        -0.07432337,
        0.022216652,
        0.010855853,
        0.0025404596,
        -0.063202254,
        0.044959243,
        -0.021862369,
        0.011791403,
        -0.09786798,
        -0.090105265,
        -0.038342945,
        0.008639749,
        -0.06531452,
        0.07145064,
        0.0429136,
        0.011528753,
        0.04229511,
        -0.026821584,
        0.050622314,
        -0.031071095,
        -0.037214626,
        -0.053264033,
        -0.100757696,
        -0.079089776,
        -0.015146358,
        -0.10817697,
        0.039297536,
        -0.04095088,
        0.005733834,
        -0.0196708,
        -0.05357562,
        0.08709889,
        0.07399744,
        -0.045356452,
        -0.056610085,
        0.04318955,
        -0.118952975,
        0.05665164,
        -0.049457256,
        -0.030197736,
        0.0029482709,
        -0.035092022,
        -0.01885246,
        -0.059155803,
        -0.019362282,
        0.07142046,
        -0.0062362645,
        0.001158973,
        -0.060758717,
        -0.026389651,
        0.013752735,
        -0.14389737,
        0.0015914029,
        -0.07562563,
        -0.11555067,
        0.074204676,
        -0.09239828,
        0.040565982,
        0.02486699,
        -0.035210636,
        -9.158962E-4,
        -0.042280108,
        0.08123665,
        -0.046604738,
        0.02628782,
        -0.13824318,
        -0.009360035,
        -0.032705653,
        0.03997696,
        0.036548708,
        -0.016153686,
        -0.057764813,
        0.027724218,
        0.020398587,
        0.07639163,
        -0.007926198,
        -0.07409624,
        -0.12039601,
        -0.06153968,
        -0.08090729,
        0.018019808,
        -0.019198012,
        -0.05514626,
        -0.06179836,
        0.017561315,
        -0.04348628,
        0.061692648,
        -0.08271026,
        -0.06540017,
        0.010610357,
        -0.109416425,
        -0.068192385,
        -0.062174976,
        0.006419978,
        -0.050423406,
        -0.048863392,
        0.040808685,
        0.0337134,
        0.010530107,
        -0.07195206,
        0.0076761455,
        0.02711694,
        0.09801545,
        -0.036262646,
        0.03615793,
        -0.058942597,
        -0.14729935,
        -0.013572634,
        -0.1359736,
        -0.004957246,
        -0.012335802,
        -0.03703815,
        -0.05468185,
        -0.062324163,
        0.0835107,
        -0.0758063,
        0.07005707,
        0.037655044,
        -0.028376546,
        -0.05952904,
        0.015990315,
        -0.036223304,
        0.0053832247,
        -0.017672936,
        -0.060597032,
        0.06786242,
        -0.03338626,
        -0.05319353,
        0.020608151,
        0.00317652,
        0.013921605,
        0.1086978,
        -0.05324856,
        -0.06760481,
        -0.04217785,
        -0.14491357,
        -0.083454825,
        -0.049923718,
        0.013100924,
        -0.12038208,
        0.061472386,
        -0.032018762,
        0.027122892,
        0.032454632,
        0.07897764,
        0.010286878,
        -0.026259268,
        0.05066196,
        -0.018419748,
        0.011575618,
        0.04729471,
        -0.059611715,
        0.038425434,
        -0.051997572,
        0.0027425126,
        -0.024213342,
        -0.028125092,
        0.0188673,
        0.028972207,
        0.06895618,
        -0.01936679,
        -0.11569632,
        -0.13838893,
        -0.12381718,
        0.049046636,
        -0.09333228,
        -0.05945049,
        0.03739943,
        0.0011993814,
        -0.0619574,
        -0.109406866,
        -0.044952683,
        0.047720328,
        -0.06984041,
        0.06951979,
        -0.014464511,
        0.0312961,
        0.06272185,
        0.06717557,
        0.040098336,
        -0.0070952703,
        -0.034749486,
        -0.08846081,
        -0.0074538398,
        -0.0012433672,
        -0.039186254,
        -0.047642525,
        0.12310574,
        -0.034460884,
        -0.109101675,
        -0.12623505,
        -0.039325263,
        -0.116374366,
        -0.11475042,
        0.010966254,
        -0.0719503,
        -0.06410689,
        0.04704725,
        0.021944895,
        -0.035653148,
        -0.02011877,
        0.02509114,
        0.04530527,
        0.051649816,
        -0.02516849,
        0.02959284,
        0.011911417,
        0.046329446,
        0.07130079,
        -0.014235875,
        -0.0676498,
        -0.081426434,
        -0.06019675,
        0.00891794,
        -0.05679532,
        0.077916056,
        -0.034792732,
        -0.07425571,
        -0.052540824,
        -0.098381795,
        -0.118040234,
        0.036089946,
        -0.09988349,
        -0.025234815,
        0.077332824,
        0.09187161,
        0.017583763,
        0.057681605,
        0.017099405,
        0.027191509,
        0.06598862,
        0.081279665,
        0.12969077,
        0.14679621,
        0.007565446,
        -0.031821143,
        -0.047971748,
        -0.024227148,
        0.12031459,
        0.027528824,
        -0.0064419857,
        -0.13656624,
        -0.06746616,
        0.072272204,
        0.060961254,
        -0.090599075,
        -0.17212558,
        -0.07397257,
        -0.049153164,
        0.038504757,
        -0.05870206,
        0.1023135,
        0.045002535,
        -0.047996596,
        -0.0042145886,
        0.01993055,
        -0.012763762,
        0.026339352,
        0.041031137,
        0.08901091,
        0.026860408,
        0.01638046,
        -0.042583022,
        -0.08103775,
        -0.13580926,
        0.06411889,
        0.10506154,
        0.032848813,
        -0.05847799,
        -0.08198226,
        -0.044698663,
        0.119874895,
        -0.036437448,
        0.039229564,
        0.047619104,
        -0.040122773,
        -0.0068495795,
        0.012279982,
        0.091161095,
        0.04509632,
        -0.011399635,
        0.002816448,
        0.015307904,
        -0.07689596,
        0.016977888,
        0.08154808,
        0.10408807,
        0.016475623,
        0.059661727,
        -0.0858648,
        -0.100911476,
        -0.18007861,
        -0.032489017,
        0.12549375,
        0.2000716,
        0.007699918,
        -0.08353339,
        -0.18163633,
        -0.041166313,
        0.099129274,
        0.08100521,
        0.08806469,
        -3.7437901E-4,
        0.07099542,
        -0.055743687,
        -0.045438223,
        -0.0038095114,
        0.09783643,
        0.022402508,
        -0.07039393,
        0.058678146,
        -0.07594851,
        -0.00397951,
        0.08312824,
        0.012048214,
        0.07630981,
        -0.029963812,
        -0.07510547,
        -0.13608907,
        -0.06702551,
        -0.15135685,
        0.102568954,
        0.19873735,
        0.07527168,
        -0.13849233,
        -0.1573653,
        -0.046497304,
        0.10823015,
        0.13110931,
        0.007159899,
        0.0017986172,
        0.039807823,
        0.06889459,
        0.0018778364,
        -0.004335323,
        0.078959875,
        0.0751171,
        0.08507749,
        -0.07737156,
        0.07645055,
        -0.054166842,
        0.07347592,
        0.028325906,
        0.049555127,
        -0.06869561,
        -0.060247216,
        -0.16808939,
        -0.14526676,
        -0.10145833,
        0.11914996,
        0.15797451,
        0.11787688,
        -0.10199866,
        -0.2375335,
        -0.18637325,
        -0.057749327,
        0.053433266,
        0.14320436,
        0.019379687,
        0.016903566,
        -0.06532378,
        0.01550762,
        0.041032083,
        0.024643952,
        0.046325162,
        -0.04631466,
        -0.052382875,
        0.11618069,
        -0.058574773,
        -0.053392496,
        -0.043199807,
        -0.03743477,
        0.015395961,
        -0.11941377,
        -0.084523626,
        -0.24072158,
        -0.13603269,
        -0.016576987,
        0.22514443,
        0.12876624,
        0.008728335,
        -0.1451413,
        -0.19185826,
        -0.15949193,
        0.0878222,
        0.09360241,
        0.14138156,
        0.07658353,
        0.12558222,
        0.06621025,
        0.04785224,
        0.036962133,
        -0.05612766,
        0.01240163,
        -0.06367624,
        0.095380224,
        0.11175184,
        0.089338884,
        0.005557367,
        0.024243318,
        -0.11327427,
        -0.034870975,
        -0.11813651,
        -0.14332171,
        -0.15764187,
        0.07424653,
        0.10110167,
        0.19648443,
        -0.06767021,
        -0.08347498,
        -0.18759991,
        -0.17389485,
        -0.065351285,
        0.008931537,
        0.015639557,
        0.0461426,
        0.04463981,
        0.018092671,
        -0.047685858,
        0.009690688,
        0.019256556,
        -0.08904428,
        0.0063655046,
        -0.07784939,
        0.084624015,
        -0.049685355,
        -0.06300537,
        -0.06194081,
        -0.08299806,
        -0.08941586,
        -0.12667881,
        -0.100057974,
        -0.19170292,
        -0.031765476,
        0.03549274,
        0.14295173,
        -0.025673293,
        -0.02078548,
        -0.05158907,
        -0.24562266,
        -0.08733996,
        0.011143089,
        0.0526965,
        0.013348574,
        0.060938563,
        -8.4785506E-4,
        0.026556317,
        0.098152526,
        -0.024660654,
        -0.079307266,
        -0.094005436,
        0.037708104,
        -0.06500236,
        -0.045648225,
        -0.036029335,
        -0.06740374,
        -0.0012341046,
        -0.047216576,
        5.32952E-4,
        -0.078668624,
        -0.16774556,
        -7.33309E-4,
        0.04777089,
        0.09020901,
        0.12085187,
        -0.017861567,
        -0.13462704,
        -0.022811163,
        -0.071347564,
        -0.034580614,
        -0.037022,
        0.038963046,
        -0.003346024,
        -0.025600502,
        0.102269076,
        -0.030933514,
        0.039764926,
        0.0809952,
        0.082109556,
        -0.013692374,
        -0.058749106,
        -0.09497791,
        -0.11320946,
        -0.0038798978,
        0.07891674,
        -0.054633636,
        -0.0263024,
        -0.1542149,
        -0.14903715,
        0.033624277,
        -0.050817963,
        -0.025635108,
        0.08129544,
        -0.0010200934,
        -0.061718054,
        -0.12922703,
        -0.09315228,
        -0.055672865,
        -0.0161409,
        0.12834167,
        -0.045330323,
        -0.015239487,
        -0.009353015,
        0.07641684,
        -0.07170583,
        0.066038646,
        -0.074386396,
        -0.045680754,
        0.021269595,
        -0.013389428,
        -0.0017035153,
        -0.06239255,
        0.026791481,
        0.04169006,
        -0.104492255,
        -0.13142735,
        -0.028529203,
        -0.12525672,
        0.030352278,
        0.08087599,
        -0.074626245,
        0.09675083,
        -0.035626616,
        -0.04902537,
        0.028046612,
        0.05024569,
        0.04585576,
        -0.044846203,
        0.0071240384,
        0.044555698,
        -0.054407064,
        0.051158004,
        0.064620815,
        0.099571966,
        -0.037296314,
        -0.05563477,
        -0.08370749,
        0.039667286,
        0.014928827,
        0.06198302,
        -0.028397415,
        -0.062120426,
        -0.091162145,
        -0.046562262,
        -0.009863827,
        0.011426106,
        0.059020333,
        0.03590873,
        -0.006119677,
        -0.04973623,
        0.078245,
        0.029049013,
        -0.02907503,
        0.049058184,
        0.09005896,
        0.10609829,
        0.012499055,
        -0.0062942514,
        0.07003928,
        0.105619684,
        0.039118413,
        -0.032932013,
        0.08250779,
        -0.06983534,
        0.02113041,
        0.036318466,
        0.0067267288,
        0.023182783,
        -0.0816965,
        -0.026002022,
        0.017514147,
        -0.08548317,
        0.06946605,
        -0.02596137,
        -0.0624177,
        -0.048645027,
        -0.044708643,
        0.04208966,
        -0.08389685,
        0.0054051704,
        -0.01515066,
        0.0039499816,
        0.08267581,
        0.024275606,
        0.004252192,
        0.11516164,
        -0.0076415,
        -0.072611816,
        -0.050056253,
        0.10023352,
        0.08271807,
        0.10787082,
        0.04144964,
        0.033947807,
        -0.03173478,
        0.10011609,
        0.06539188,
        0.0906269,
        -0.06418907,
        -0.023344032,
        0.048017044,
        -0.03766625,
        0.052333284,
        -0.060609113,
        -0.03174382,
        -0.06142742,
        -0.042988557,
        -0.015435515,
        -0.022757076,
        0.02730206,
        0.07103088,
        0.07924661,
        -0.026742205,
        -0.04914128,
        0.0020049475,
        0.084715076,
        0.0075042285,
        0.047956467,
        -0.0086113075,
        0.09947098,
        0.030175328,
        0.11319602,
        0.09686887,
        0.08357311,
        0.030323522,
        0.123940706,
        -0.0370482,
        0.05608117,
        0.02991319,
        -0.08092041,
        -0.025913661,
        -0.0067138867,
        -0.100890025,
        -0.034239467,
        0.077407576,
        -0.06833757,
        0.09112502,
        -0.06277404,
        -0.055098787,
        0.050652962,
        -0.020730793,
        -0.012124144,
        -0.053527255,
        0.10446452,
        0.04329717,
        0.0722662,
        -0.06389876,
        -0.050994165,
        0.11471706,
        0.05702328,
        0.11367859,
        0.085997805,
        -0.010098625,
        0.107943654,
        0.05205398,
        -0.029136768,
        -0.038011443,
        1.6937829E-5,
        -0.089560196,
        -0.005007858,
        0.039528657,
        -0.08066497,
        0.07313718,
        0.035520624,
        0.0257761,
        -0.053518917,
        0.02286743,
        0.1051006,
        0.036828734,
        7.201934E-4,
        -0.06773067,
        -0.033710916,
        0.08378801,
        0.04510319,
        0.08090154,
        -0.086349145,
        -0.03341675,
        0.017518075,
        -0.07275425,
        0.0310956,
        0.03773519,
        -0.03879735,
        0.0995575,
        -0.023326118,
        -0.035609417,
        0.04293002,
        0.08203023,
        -0.027755987,
        -0.081991486,
        -0.11306879,
        -0.05872071,
        -0.079520985,
        0.042355098,
        -0.057136353,
        -0.058865715,
        -0.0043698642,
        0.07924457,
        0.004009852,
        0.08130304,
        0.0648405,
        0.047070704,
        -0.06688661,
        -0.065413974,
        0.04798552,
        -0.07623464,
        0.059253056,
        -0.058712218,
        -0.0072621577,
        -0.016657762,
        -0.024877196,
        -0.013788733,
        -0.05387029,
        -0.090309896,
        -0.10101637,
        0.00897768,
        0.05203935,
        0.012969978,
        -0.10154282,
        -0.0788915,
        -0.0066288593,
        0.030634806,
        0.07375308,
        -0.035402227,
        0.032376003,
        0.13313568,
        -0.029500604,
        0.117039226,
        0.08427598,
        0.04865926,
        0.05546526,
        -0.08213384,
        0.072771676,
        0.076301076,
        0.097851366,
        -0.048570443,
        -0.03532862,
        -0.06413037,
        0.054314207,
        0.006416925,
        -0.023609431,
        -0.020871006,
        -0.037156668,
        -0.025072845,
        -0.017047117,
        -0.08780822,
        -0.15421821,
        -0.11196071,
        -0.032967642,
        -0.13065383,
        -0.017813161,
        0.011518127,
        0.066024445,
        0.1512436,
        -0.024234211,
        0.04130163,
        0.05098783,
        0.010846732,
        0.0023009265,
        0.0061319205,
        0.047783107,
        -0.046000555,
        0.034603667,
        0.019899784,
        -0.025540423,
        0.007783813,
        0.05900487,
        -0.020240637,
        -0.059325,
        -0.12228892,
        -0.10727623,
        -0.090385854,
        -0.091678314,
        -0.048914026,
        -0.058463074,
        -0.14210953,
        -0.051507074,
        0.0132951625,
        0.08210648,
        0.11034557,
        0.21676297,
        0.14407225,
        0.020068806,
        0.12824816,
        -0.048388463,
        -0.007394159,
        0.034737162,
        0.05251033,
        -0.0121094,
        -0.09359819,
        0.0050535784,
        0.024579162,
        0.07318222,
        0.074588515,
        0.048095006,
        -0.032419354,
        -0.01280044,
        0.008842564,
        -0.13623993,
        -0.076565765,
        -0.0060187746,
        -0.075396106,
        -0.22632252,
        -0.26830122,
        -0.092498936,
        -0.07470008,
        -0.0093776025,
        0.13028249,
        0.09324852,
        0.15933996,
        0.04715547,
        -0.031535864,
        -0.07236371,
        -0.07194117,
        -0.074381605,
        -0.05899445,
        0.06935298,
        0.0062399455,
        -0.078611545,
        0.009008286,
        0.07570411,
        0.034603722,
        0.0032864104,
        -0.03932367,
        -0.06807722,
        -0.12106233,
        -0.030750092,
        -0.11484748,
        -0.028911998,
        -0.04950439,
        -0.113770515,
        -0.21358484,
        -0.24393159,
        0.013396132,
        0.18479681,
        0.16127917,
        0.1223761,
        0.1341693,
        0.12542525,
        -0.0049524345,
        -0.06277185,
        0.057302833,
        -0.003496157,
        0.015266966,
        -0.07153359,
        0.07298145,
        0.007969165,
        0.021184772,
        0.018068364,
        -0.022298459,
        0.13194372,
        0.076982096,
        0.11076654,
        -0.06522102,
        -0.1410471,
        -0.12834857,
        -0.06777224,
        -0.041256502,
        -0.25234047,
        -0.16994259,
        -0.20118788,
        0.14618804,
        0.1250889,
        0.16999932,
        0.07513223,
        0.014201472,
        0.04235549,
        -0.09809427,
        0.010768959,
        0.033991277,
        -0.06256182,
        0.034573235,
        0.035523616,
        0.01754666,
        -0.07435959,
        -0.012102684,
        0.037091438,
        0.06234727,
        0.07480678,
        0.06452378,
        0.12883727,
        -0.07763882,
        -0.13085856,
        -0.14237931,
        -0.018461028,
        -0.17800437,
        -0.13490605,
        -0.2541389,
        -0.05784904,
        0.18951496,
        0.10299016,
        0.09514747,
        0.03390465,
        -0.008375693,
        -0.08189816,
        0.010381169,
        -0.12965398,
        -0.059156403,
        0.05131885,
        0.076485634,
        -0.08684607,
        -0.08786938,
        0.056556914,
        0.018138396,
        0.021021612,
        -0.048875023,
        0.0077609336,
        0.08555466,
        0.13881522,
        0.08118901,
        -0.19739,
        -0.09801088,
        -0.057308238,
        -0.1439171,
        -0.1950967,
        -0.085545555,
        0.07420662,
        0.23286287,
        0.0786913,
        0.012890643,
        0.042895027,
        -0.030705724,
        -0.07051569,
        0.0071417233,
        -0.1261397,
        -0.08000284,
        -0.05768628,
        -0.061805252,
        -0.096814886,
        -0.08172943,
        0.0010476185,
        -0.07079136,
        0.0014621345,
        -0.09541254,
        0.062393468,
        -0.03094019,
        0.06605026,
        0.04641119,
        -0.10276459,
        -0.12750553,
        -0.10990313,
        -0.09656324,
        -0.19485538,
        -0.028953796,
        0.10330666,
        0.14483814,
        0.039703246,
        -0.02763172,
        -0.0029141747,
        -0.02014437,
        -0.117680535,
        -0.07687312,
        -0.13917485,
        0.036691315,
        -0.048968468,
        0.05655018,
        -0.04001695,
        -0.03900457,
        -0.024081824,
        -0.08349835,
        -0.05170966,
        0.02777179,
        -0.0070488825,
        0.04832437,
        0.15036815,
        0.10189029,
        0.053562004,
        -0.16666733,
        0.0038470118,
        -0.17513393,
        -0.1283698,
        0.015366096,
        0.15346648,
        0.08952218,
        -0.023368496,
        -0.020956386,
        -0.057769977,
        -0.09394297,
        -0.07966879,
        -0.11408522,
        0.040380843,
        0.05359144,
        0.0507647,
        -0.10422761,
        0.012494384,
        -0.017837252,
        -0.105779484,
        0.0636334,
        -0.06551189,
        -0.047423348,
        -0.008802637,
        -0.06386022,
        0.08241707,
        0.080863215,
        0.118372984,
        -0.080516234,
        -0.08427542,
        -0.08331926,
        -0.037521906,
        0.06546051,
        0.08370119,
        -0.067595646,
        -0.10974831,
        -0.14048398,
        -0.04834159,
        -0.10398758,
        0.009941084,
        0.033698127,
        0.02561289,
        -0.04183189,
        -0.06418063,
        0.036692932,
        0.09144672,
        0.057029698,
        0.06767101,
        -0.06423737,
        -0.06326151,
        -0.089812726,
        -0.056309458,
        -0.0855306,
        0.08143557,
        0.050816134,
        0.075585715,
        0.044666667,
        -0.0062914756,
        0.022193145,
        -0.014121402,
        0.09025041,
        0.097662956,
        -0.040004436,
        -0.015191492,
        -0.028332919,
        0.01617573,
        -0.06717674,
        -0.090705805,
        0.015254303,
        -0.051858284,
        -0.030403834,
        0.03962471,
        -0.093073115,
        -0.05284324,
        -0.10668526,
        -0.0020052914,
        -0.036270462,
        -0.0062416797,
        -0.07798276,
        -0.057201646,
        0.024370449,
        -0.038873322,
        0.063109554,
        0.022862835,
        0.003828852,
        0.012209561,
        0.013160481,
        0.03619746,
        -9.5437426E-5,
        -0.047332067,
        -0.015634319,
        -0.043825265,
        -0.06251104,
        0.04063943,
        0.067901656,
        -0.072558075,
        0.05431452,
        0.006304603,
        0.10376564,
        -0.039296046,
        -0.09339389,
        0.020004896,
        -0.02650433,
        -0.09440456,
        0.0852586,
        0.045595687,
        -0.04815574,
        -0.035266276,
        0.015941055,
        0.0011315381,
        0.048686404,
        0.02746885,
        -0.032771178,
        0.0079247765,
        -0.0039216657,
        0.05880166,
        -0.041976653,
        -0.0066748345,
        0.016215287,
        -0.09085862,
        -0.011106992,
        -0.06721001,
        -0.081797644,
        0.020363547,
        -0.026795913,
        -0.05536747,
        0.03076018,
        -0.03722809,
        -0.08018276,
        -0.059986304,
        -0.09158176,
        -0.036627125,
        -0.047540437,
        0.033263616,
        -0.04448099,
        -0.08430722,
        -0.034157354,
        0.018367868,
        -0.032504696,
        -0.027082985,
        0.08714792,
        0.07434419,
        0.08319747,
        -0.043902252,
        0.09100157,
        0.045547985,
        0.07306165,
        0.021788822,
        -0.049274586,
        0.019819587,
        0.022215184,
        -0.06681969,
        0.07730136,
        0.085687734,
        -0.01599177,
        -0.05274943,
        0.033486284,
        0.0018979269,
        0.08667246,
        0.07431375,
        0.039707914,
        -0.034627073,
        -0.04132475,
        -0.072785355,
        -0.07769268,
        0.010897491,
        -0.027730918,
        0.03538773,
        -0.045132138,
        -0.01782253,
        0.06663507,
        0.0074675535,
        0.022438558,
        -0.0062783705,
        0.048505243,
        -0.0588331,
        -0.0022576859,
        0.04959408,
        0.0029403912,
        -0.061722055,
        0.02178619,
        0.049635135,
        -0.050976414,
        -0.04281959,
        0.034806512,
        0.0039269296,
        -0.028455753,
        -0.014820479,
        -0.011112542,
        0.07821014,
        0.04400125,
        -0.061325364,
        -0.07226572,
        -0.07999131,
        0.05115305,
        -0.1109598,
        0.032306194,
        -0.005121392,
        0.01790273,
        -0.011785661,
        -0.01858905,
        -0.003951678,
        -0.051677395,
        -0.0022359714,
        -0.049541604,
        -0.0093525695,
        -0.01773641,
        0.077817395,
        -0.069619395,
        0.027983604,
        0.076607935,
        0.09204261,
        -0.0192142,
        0.07099387,
        0.03810752,
        -0.09680414,
        -0.02946195,
        0.04730012,
        0.0040690145,
        0.013757017,
        0.05217047,
        -0.062495455,
        -0.07289022,
        0.046166237,
        0.059724275,
        0.0013867114,
        -0.032566775,
        0.030211434,
        -0.07574887,
        -0.060841598,
        -0.025656564,
        0.02555054,
        -0.0412314,
        0.06608898,
        -0.13953651,
        0.0032720892,
        0.039841972,
        0.0046544806,
        -0.06658347,
        -0.0504679,
        0.003913659,
        0.030796126,
        -0.045790475,
        -0.087411016,
        0.05059323,
        -0.052229468,
        -0.09378103,
        -0.045885634,
        0.03041316,
        0.050929215,
        0.05435836,
        -0.00611331,
        -0.018038502,
        -0.046392206,
        0.050245635,
        0.0025650398,
        0.0312808,
        -0.051789943,
        -0.018686209,
        -0.05835993,
        -0.06781392,
        -0.102713525,
        0.0072135828,
        -0.003007106,
        -0.04934673,
        -0.033775713,
        0.080000654,
        0.09998467,
        0.058078326,
        -0.06188877,
        -0.075323395,
        0.009835024,
        -0.048219148,
        -0.033408202,
        -0.034713842,
        -0.0022406238,
        0.02575213,
        -0.07176113,
        -0.056484856,
        0.048507765,
        -0.0036420124,
        0.06658798,
        -0.026423743,
        -0.08628252,
        0.036982585,
        0.025430338,
        0.0033957278,
        -0.023490693,
        -0.049382713,
        -0.050502263,
        -0.0011351252,
        -0.006370258,
        -0.018890373,
        0.010379508,
        0.084541336,
        0.021258753,
        -0.0887273,
        0.083454296,
        -0.040204253,
        0.06541533,
        0.050275523,
        -0.057101034,
        0.03403323,
        0.02595728,
        -0.016401917,
        0.0076282076,
        -0.033967093,
        0.020699108,
        -0.0075999624,
        -0.10814117,
        0.004077783,
        0.08123839,
        0.023109486,
        0.010769676,
        -0.0053581325,
        0.109693095,
        0.055021,
        -0.06281594,
        -0.051062364,
        -0.025088686,
        0.02349669,
        0.021134648,
        0.069724634,
        0.09489762,
        -0.08601159,
        -0.053539507,
        0.03481641,
        0.06792787,
        0.07272315,
        0.0700497,
        0.029939596,
        0.07054888,
        -0.047549754,
        -0.04645228,
        0.07482041,
        0.021787528,
        -0.03826655,
        0.024047941,
        -0.012927883,
        0.0055831484,
        -0.008151082,
        0.009434559,
        0.011385793,
        0.09582865,
        -0.059697192,
        -0.06962745,
        -0.0013189276,
        0.04669606,
        -0.024803238,
        0.014682401,
        -0.04309341,
        -0.06352872,
        -0.028125018,
        0.025926296,
        -0.06498258,
        -0.07149536,
        0.05436821,
        -0.09707221,
        0.06255564,
        -0.0075955875,
        -0.001948679,
        0.08420052,
        0.07158239,
        -0.087002635,
        0.029380374,
        0.012443521,
        -0.023500383,
        -0.050513215,
        0.076358296,
        0.010618475,
        0.045072075,
        0.0045104623,
        0.044825953,
        -0.02039073,
        0.048293382,
        -0.10740359,
        -0.008492307,
        -0.050146382,
        0.026042096,
        0.05513276,
        0.036044486,
        -0.07792743,
        -0.018551854,
        0.006374804,
        0.028611332,
        0.09715896,
        0.097958304,
        0.0045800516,
        0.006951206,
        -0.071389616,
        0.012419013,
        0.014124428,
        0.11548071,
        -0.056840327,
        -0.053123735,
        0.084829025,
        0.01751383,
        -0.054261394,
        0.008413391,
        -0.044739228,
        -0.072802916,
        0.007878774,
        0.055111133,
        -0.0043935548,
        -0.022464875,
        -0.04324654,
        0.08959167,
        0.004955701,
        0.017872315,
        0.031661823,
        -0.072602436,
        0.08490399,
        0.05356244,
        0.061911456,
        0.007606959,
        -0.07932831,
        0.015325757,
        -0.005490602,
        0.096146986,
        0.0072651296,
        -0.04649512,
        -0.051202822,
        -0.07921761,
        -0.0017429497,
        0.073606975,
        -0.059857495,
        0.024021734,
        -0.034426995,
        0.022533204,
        0.030733291,
        -0.07723183,
        -0.04745342,
        0.06234053,
        -0.0034308557,
        -0.013939584,
        -0.030749956,
        0.027616447,
        -0.004465968,
        -0.0722893,
        -0.062402327,
        -0.06567271,
        -0.055443384,
        0.070409745,
        0.048048057,
        0.06850345,
        -0.05240973,
        -0.04053565,
        0.069139905,
        -0.06735557,
        0.06191844,
        -0.011978802,
        0.054047607,
        -0.047521144,
        0.086222455,
        0.10578093,
        -0.08025962,
        0.05359379,
        0.026157213,
        0.058796514,
        -0.0029336743,
        0.031659953,
        0.04539612,
        -0.009464582,
        -0.03531895,
        -0.08560009,
        -0.078719884,
        -0.04828183,
        -0.0072706463,
        0.09902669,
        -0.083005995,
        0.015057735,
        -0.046895567,
        -0.014021897,
        0.041082077,
        -0.01406273,
        -0.06797009,
        0.093244895,
        0.051172435,
        -0.027672429,
        0.07217025,
        -0.0679782,
        0.09872382,
        -0.07800885,
        -0.04288875,
        -0.02976206,
        0.05521352,
        -0.010671934,
        0.004869229,
        0.05974325,
        -0.059174825,
        0.0013350996,
        -0.08120824,
        -0.08198473,
        -0.068542466,
        0.08835073,
        -0.03588398,
        -0.03129074,
        -0.07028708,
        -0.039943255,
        0.021299599,
        0.09950527,
        0.06946284,
        0.045330692,
        -0.06266231,
        0.004765035,
        0.0054223035,
        -0.05038787,
        0.0224068,
        0.08834188,
        -0.0591528,
        0.04042279,
        0.07576245,
        -0.013982561,
        -0.02716642,
        0.060258232,
        -0.02087185,
        0.03659298,
        0.023666251,
        -0.05976006,
        -0.011262181,
        0.07022971,
        -0.030290956,
        -0.08076894,
        0.010066709,
        -0.017682113,
        -0.05964922,
        0.0482758,
        0.03482757,
        8.9401443E-4,
        0.008294902,
        0.10631751,
        -7.025048E-4,
        0.048598617,
        -0.048579607,
        0.004849752,
        -0.04917863,
        0.04762308,
        -0.018761158,
        0.02153641,
        0.041312363,
        -0.09922743,
        0.0160561,
        -0.02783719,
        -0.029981866,
        0.0709808,
        0.044168085,
        0.076530874,
        -0.009859736,
        0.084881745,
        0.020316504,
        0.088064834,
        -0.05266306,
        0.090164654,
        0.1317617,
        0.023751516,
        -0.01638393,
        0.08939678,
        0.02965024,
        -0.03394712,
        0.09655607,
        0.011376844,
        0.025900261,
        -0.046074234,
        -0.015376812,
        0.04083232,
        -0.040526412,
        -0.08989705,
        -0.0218025,
        0.013060948,
        -3.8661994E-5,
        -0.052600283,
        -0.050854903,
        -0.07031182,
        -0.057356577,
        -0.036829393,
        0.020966282,
        -0.060928408,
        -0.09873966,
        -0.03559814,
        0.026591742,
        0.058268316,
        0.07863877,
        0.11718258,
        0.04682163,
        0.08294897,
        -2.7181124E-4,
        0.1444532,
        -0.063201174,
        0.032612044,
        0.017902609,
        0.013284443,
        -0.004896083,
        0.04506553,
        -7.2944164E-4,
        0.012784071,
        0.016635245,
        -0.032337468,
        0.03938463,
        0.0076181823,
        0.094663024,
        -0.042078115,
        0.03306771,
        0.1261598,
        0.05920505,
        0.05182661,
        0.03549746,
        0.03053785,
        -0.0704975,
        0.05347806,
        0.024194224,
        0.0068472927,
        -0.01209517,
        -0.029493337,
        -0.0152000785,
        0.03436304,
        0.06668102,
        0.019289833,
        0.027676504,
        -0.002117657,
        -8.2322024E-4,
        0.040129323,
        -0.026357928,
        0.010571212,
        0.022632353,
        -0.04732453,
        0.07757185,
        -0.007125912,
        0.0077435495,
        0.06029341,
        0.13309157,
        0.14199162,
        0.0677674,
        0.015455317,
        -0.09626606,
        0.015880324,
        0.06770741,
        -0.013978771,
        -0.03607217,
        -0.076585464,
        -0.035704784,
        0.06180895,
        0.01065882,
        0.10444996,
        0.0015978598,
        0.08770568,
        -0.037529428,
        -0.015930394,
        0.030525595,
        -0.00246125,
        0.03381623,
        -0.035747755,
        0.029029788,
        0.021782318,
        0.03253139,
        0.03539026,
        0.08734825,
        -0.0193449,
        -0.052837458,
        -0.05404668,
        -0.03013362,
        0.01911612,
        0.030495688,
        -0.068857946,
        0.059330627,
        -0.023637306,
        -0.04678752,
        -0.018542888,
        0.05192593,
        0.0024955512,
        0.13539381,
        0.009585382,
        0.08668591,
        -0.012889823,
        0.057873275,
        -0.06603242,
        0.01738763,
        0.063006625,
        -0.02505848,
        0.057689622,
        0.051080976,
        0.04235935,
        0.096822634,
        0.06759134,
        -0.04144272,
        0.07059909,
        0.089471556,
        -0.046290796,
        -0.05200434,
        -0.068352416,
        -0.08042093,
        0.011384335,
        -0.032363284,
        -0.023062594,
        0.020103402,
        -0.030530542,
        0.06421718,
        -0.0076398966,
        0.08435112,
        0.073563874,
        0.09743133,
        0.06577464,
        0.0010684471,
        0.0341133,
        -0.042998996,
        -0.038973045,
        0.049821556,
        -0.0019140935,
        0.0125658745,
        0.041008286,
        0.097841024,
        0.036883418,
        0.0049016094,
        0.087898806,
        0.038476944,
        -0.061191034,
        0.040251397,
        0.040098462,
        -0.017676711,
        -0.057608463,
        0.053053416,
        -0.038038738,
        -0.039791133,
        -0.011760297,
        8.7175745E-4,
        0.0760929,
        0.07482016,
        0.09952077,
        0.14785731,
        0.19725952,
        0.055302747,
        0.081381954,
        0.020176386,
        -0.0030812132,
        -0.065441206,
        -0.0071863225,
        0.0341398,
        0.0028218788,
        0.0146905705,
        -0.013600205,
        0.011308319,
        -0.052077714,
        -0.01117409,
        0.0700751,
        -0.042792376,
        0.059890486,
        0.048484735,
        -0.10990527,
        -0.09063745,
        -0.016603708,
        -0.10621574,
        -0.04698881,
        -0.052749302,
        -0.02331952,
        0.08696895,
        0.10571086,
        0.24018158,
        0.17448027,
        0.24982671,
        0.19718511,
        0.12182726,
        0.11135172,
        0.06784325,
        0.016584894,
        0.031849504,
        0.0431351,
        -0.03753188,
        0.05706963,
        -0.027324287,
        -0.03617225,
        0.014392853,
        0.06446407,
        -0.089238755,
        -0.055042468,
        0.055383053,
        0.054700084,
        -0.074612476,
        -0.0104632415,
        -0.16003889,
        -0.23270088,
        -0.1589048,
        -0.22369759,
        -0.17049088,
        -0.16424595,
        0.035245184,
        0.12609668,
        0.18630835,
        0.25800538,
        0.28815067,
        0.24565132,
        0.16649532,
        0.067170806,
        -0.00905342,
        0.037167456,
        0.012864436,
        -0.03699187,
        0.0053744772,
        0.025031779,
        -0.045250736,
        -0.0945042,
        -0.07480759,
        -0.040628795,
        -0.05895974,
        -0.10683756,
        0.04240774,
        0.0089909425,
        -0.049624916,
        -0.12362179,
        -0.11084196,
        -0.21953698,
        -0.31175378,
        -0.33297566,
        -0.38260436,
        -0.39417136,
        -0.20201594,
        -0.03394955,
        0.017739939,
        0.11959085,
        0.10201817,
        0.04218288,
        0.02266454,
        -0.020697251,
        -0.015231492,
        0.051717453,
        -0.008489939,
        -0.06911247,
        -0.045451205,
        -0.0036275066,
        -0.042790752,
        -0.08019163,
        0.040710054,
        -0.015658721,
        -0.0476252,
        -0.096337676,
        -0.071404964,
        -0.05270829,
        -0.15007888,
        -0.18395495,
        -0.2340131,
        -0.36655766,
        -0.35802692,
        -0.43505576,
        -0.5175047,
        -0.51347315,
        -0.4081889,
        -0.28550854,
        -0.09713706,
        -0.10192061,
        -0.02922842,
        -0.04238384,
        0.059720498,
        -0.034242466,
        -0.033474438,
        0.013838244,
        -0.054312464,
        0.00409791,
        -0.08171954,
        0.045258902,
        -0.060788944,
        -0.03955086,
        0.08650907,
        0.061784174,
        -0.033871043,
        0.02853731,
        -0.018525636,
        -0.09665852,
        0.006154458,
        -0.05697159,
        -0.07957238,
        -0.13782133,
        -0.13233039,
        -0.13556127,
        -0.09823906,
        -0.16436464,
        -0.07040236,
        -6.4489397E-4,
        -0.021605114,
        -0.07029313,
        -0.11088481,
        -0.054729767,
        -0.025070518,
        -0.07918964,
        -0.06943272,
        -0.048308585,
        0.063036315,
        -0.014540872,
        -0.053809024,
        -0.047429405,
        -0.06990175,
        0.03163338,
        0.021841772,
        0.027788505,
        -0.05891322,
        0.08636106,
        0.019946033,
        0.11201731,
        0.13924491,
        0.22382493,
        0.08922668,
        0.0536445,
        0.051702082,
        0.05604504,
        -0.0788232,
        -0.010999623,
        -0.05513847,
        0.024851445,
        -0.042524435,
        0.010660991,
        -0.06155953,
        -0.003353018,
        -0.023569586,
        -0.09743001,
        -0.013291206,
        -0.008930559,
        -0.002902246,
        0.06456695,
        -0.092549264,
        -0.026540093,
        -0.085022494,
        0.00567496,
        -0.02984697,
        0.09110877,
        -0.0033074538,
        0.0634545,
        0.09614242,
        0.024178954,
        0.07694568,
        0.047642574,
        -0.038049452,
        -0.043268826,
        0.056469347,
        0.0015804328,
        -0.019664047,
        -0.003378057,
        -0.038845386,
        0.0134742055,
        -0.047519874,
        -0.029498013,
        0.02188911,
        -0.02801792,
        -0.038387537,
        -0.0797259,
        -0.026163084,
        0.0529519,
        0.038278114,
        -0.0606827,
        -0.0365605,
        -0.03530547,
        -0.0073095453,
        -0.05513911,
        0.017431324,
        0.031982355,
        -0.008167393,
        0.07065401,
        -0.038987882,
        0.022690939,
        0.07123558,
        0.03013056,
        -0.04078959,
        0.01207285,
        -0.06957428,
        0.04574194,
        0.0023523592,
        -0.02136903,
        -0.052238073,
        0.039623212,
        0.047575783,
        0.052933987,
        -0.07026266,
        -0.08999897,
        -0.0017638372,
        0.07224332,
        -0.05917481,
        -0.075577684,
        0.08899781,
        -0.06844896,
        0.11228422,
        0.0039036334,
        0.04251277,
        -0.009877521,
        0.039250568,
        -0.07502541,
        0.025753297,
        0.041823454,
        -0.022025669,
        0.061304078,
        -0.008379045,
        0.033579707,
        0.029548883,
        -0.09061039,
        0.03425423,
        0.019759988,
        0.039148375,
        -0.04320137,
        0.02762012,
        -0.10244808,
        -0.015571966,
        0.0683231,
        -0.082721435,
        -0.053095408,
        0.055804256,
        -0.09617868,
        0.028549489,
        0.027851706,
        -0.0038738481,
        -0.07642246,
        0.040958744,
        0.030999087,
        -0.016300885,
        0.046201184,
        -0.033372357,
        0.009998705,
        0.01202401,
        0.069326505,
        -0.050783385,
        -0.0097435145,
        0.010367173,
        0.0059219818,
        0.051165137,
        -0.0837735,
        0.037795264,
        -0.081637956,
        0.028019093,
        0.079448074,
        0.008506828,
        0.08886229,
        0.04831441,
        0.0138423685,
        0.08840909,
        0.086087376,
        0.040590227,
        -0.011735799,
        -0.031579886,
        0.07451611,
        -0.06749564,
        -0.043896884,
        -0.01602396,
        -0.062224668,
        -0.04990561,
        0.0038317628,
        0.028500784,
        -0.033882637,
        0.039485373,
        -0.021548018,
        -0.068085484,
        0.035266086,
        -0.06136346,
        -0.01528822,
        0.07394773,
        -0.07560332,
        -0.08131928,
        -0.06958971,
        0.016925508,
        0.008488527,
        -0.073722824,
        0.06270291,
        -0.087072246,
        -0.04051264,
        0.054851353,
        0.015590975,
        -1.02551974E-4,
        0.019372268,
        -0.06916503,
        -0.008029163,
        -0.0017220265,
        0.040909626,
        -0.0030145475,
        -0.004559804,
        0.010986002,
        -0.011692557,
        0.025733171,
        0.013152583,
        0.015566609,
        -0.07376752,
        0.004360255,
        -0.059906207,
        -0.039961707,
        0.031610038,
        0.043049894,
        0.06755316,
        0.011003306,
        -0.011935592,
        -0.06052778,
        0.0102453,
        0.07106631,
        -0.048997376,
        0.004885395,
        -0.07315549,
        -0.08926944,
        -0.057421945,
        -0.08741444,
        -0.08672556,
        -0.06285444,
        -0.10293145,
        -0.006037044,
        -0.022743788,
        0.026504733,
        -0.036872994,
        -0.03246151,
        -0.072108634,
        -0.057392284,
        -0.06803896,
        -0.053117063,
        0.017068466,
        -0.038901012,
        0.014672933,
        0.0017540613,
        -0.07775495,
        0.0580824,
        0.06985783,
        0.06206876,
        0.03796206,
        -0.106359236,
        -0.09574352,
        -0.056530207,
        -0.016142853,
        -0.061050482,
        0.08215277,
        -0.018900292,
        -0.03884865,
        -0.041315515,
        0.086978845,
        0.011960194,
        0.068292335,
        -0.07080258,
        -0.0135460105,
        -0.054219283,
        0.061925396,
        -0.034051828,
        -0.0041954876,
        -0.07820478,
        -0.021477036,
        -0.09293532,
        0.06963685,
        -0.05454481,
        -0.013774446,
        0.08293531,
        0.041331194,
        0.0035679385,
        0.08239065,
        -0.07948849,
        0.096679986,
        0.050306454,
        0.096153684,
        0.07256601,
        -0.080598906,
        0.10156011,
        0.022357708,
        0.062121913,
        0.018087042,
        0.09516129,
        0.0034318564,
        0.09196844,
        0.080189735,
        -0.090646535,
        0.07648067,
        -0.0827181,
        0.015265569,
        -0.0041482006,
        0.07509831,
        0.03487479,
        0.023681974,
        0.07656709,
        0.07959466,
        -0.07193781,
        0.09223206,
        0.016734704,
        0.028315222,
        -0.06320164,
        0.008018423,
        -0.052652445,
        0.051107544,
        0.040830597,
        0.01763705,
        0.058512744,
        -0.02112726,
        -0.03785395,
        0.08503655,
        -0.072356425,
        -0.009262485,
        0.0017837752,
        -0.07436301,
        0.055125903,
        0.025075959,
        0.078823276,
        -0.069541685,
        -0.08458659,
        0.07505811,
        0.015465191,
        0.04221293,
        -0.011894377,
        -0.0427979,
        0.059894186,
        -0.07505977,
        -0.06146206,
        0.10485085,
        -0.038473494,
        -0.087025255,
        -0.07381597,
        0.03235562,
        0.0012910652,
        -0.0020787148,
        0.07230877,
        0.021400334,
        0.032890264,
        0.0763541,
        0.004377042,
        0.048197206,
        -0.06293913,
        0.065138035,
        -0.1132423,
        -0.021713527,
        0.10368177,
        0.04663546,
        0.00657609,
        -0.020139262,
        -0.04984584,
        0.098328166,
        -0.07641391,
        0.031290427,
        0.024245296,
        -0.027758582,
        0.057505585,
        -0.028226363,
        -0.057943694,
        0.06394902,
        -0.07011796,
        -0.047194246,
        0.07837747,
        0.05918143,
        0.011384999,
        -6.252046E-4,
        -0.068550214,
        0.082667515,
        0.04701478,
        -0.053661037,
        0.050383553,
        0.019747054,
        0.001797471,
        -0.037767854,
        0.024530716,
        -0.012153968,
        -0.029446922,
        -0.004632406,
        -0.05346075,
        0.09168442,
        0.03876854,
        0.006347563,
        -0.017640421,
        -0.027039649,
        0.05271797,
        -0.072273746,
        -0.0679548,
        0.055270683,
        -0.073201336,
        -0.056557577,
        0.01936679,
        0.0011842034,
        -0.10049403,
        -0.035977766,
        -0.047468405,
        0.09213392,
        -0.051149074,
        0.026226789,
        -0.015866755,
        -0.006661088,
        0.015612333,
        -0.02734018,
        -0.043925565,
        0.04447923,
        0.011248002,
        -0.03178712,
        0.034300502,
        -0.019850822,
        -0.09717138,
        -0.024218446,
        0.056569643,
        0.08920386,
        0.026358506,
        0.065032385,
        0.061461776,
        0.025571158,
        0.031904012,
        -0.08070736,
        -0.006717364,
        0.036493354,
        0.0040577883,
        0.021959499,
        0.013169819,
        7.225556E-4,
        0.054585323,
        -0.046839867,
        -0.002001064,
        -6.4907206E-4,
        0.062050402,
        -0.051215176,
        0.078136615,
        -0.07537652,
        0.008794385,
        0.06266748,
        -0.047848575,
        0.04550975,
        0.022109756,
        0.031080369,
        0.047520176,
        -0.1055309,
        -0.030899221,
        -0.04925184,
        0.01791972,
        -0.04632332,
        -0.06166706,
        0.051146474,
        0.02406675,
        -0.07704562,
        -0.059525646,
        -0.010841149,
        0.008632492,
        -0.07060225,
        -0.004396533,
        -0.04238212,
        0.049437225,
        -0.053653993,
        0.052418124,
        0.019285701,
        -0.04721516,
        -0.013816184,
        0.07695076,
        0.031119151,
        7.4112776E-4,
        0.03775212,
        -0.10281361,
        0.047881693,
        -0.03314051,
        0.04922044,
        0.07885256,
        -0.009504087,
        0.03513581,
        0.046232294,
        0.0023804395,
        0.029560953,
        -4.0726215E-4,
        -0.051244054,
        0.04893322,
        0.026140375,
        0.036090255,
        -0.031919647,
        -0.005750146,
        0.033118837,
        5.986205E-4,
        -0.06374855,
        -0.011270574,
        0.008960695,
        0.03464352,
        0.015720984,
        0.019332815,
        -0.050314523,
        0.0047068987,
        0.05813191,
        -0.012377315,
        0.04372605,
        0.089788675,
        0.026862523,
        0.019017855,
        0.07261907,
        0.07859201,
        0.017796323,
        -0.06393771,
        -0.09515831,
        -2.826342E-4,
        0.0062595773,
        0.011511902,
        -0.077175125,
        -0.038917758,
        -0.024288125,
        -0.05860951,
        0.0059521254,
        -6.0408126E-4,
        0.040038265,
        0.002368907,
        9.701734E-4,
        0.009856263,
        -0.038489517,
        0.0017188836,
        -0.0413248,
        -0.0077427463,
        -0.04001288,
        0.07007892,
        -0.06361605,
        -0.065272756,
        0.035291947,
        0.07330814,
        0.06425831,
        -0.10546391,
        -0.10763286,
        0.017030526,
        -0.079193234,
        -0.018563181,
        -0.068991035,
        0.0067392574,
        0.0059348904,
        0.045253202,
        -0.0038695713,
        -0.01597771,
        -0.02038319,
        -0.03867371,
        -0.010381691,
        0.046015322,
        -0.007387308,
        -0.033364065,
        0.0627311,
        -0.017252702,
        0.008996132,
        -0.0066689844,
        -0.02576966,
        -0.08548263,
        0.032337766,
        0.058368366,
        -0.056040846,
        -0.110078506,
        0.039616164,
        -0.11325032,
        0.038477704,
        0.037054796,
        -0.040534265,
        0.061620012,
        -0.025481278,
        -0.011399135,
        -0.021704413,
        -0.0047769714,
        0.009706833,
        -0.03144519,
        -0.024591714,
        0.018675443,
        -0.08415542,
        0.018398305,
        -0.02612727,
        0.023840934,
        -0.051884178,
        -0.0059224484,
        0.013392986,
        0.041945856,
        -0.06870592,
        0.07180695,
        0.063275464,
        0.06530621,
        -0.10863275,
        0.062486835,
        0.093312144,
        0.04707283,
        0.0108608855,
        0.0087281745,
        -0.073896766,
        -0.06603611,
        -0.013445563,
        0.025840731,
        0.06571477,
        -0.06571524,
        -0.0030196772,
        -0.015416002,
        -0.020106738,
        0.0045783124,
        0.017133284,
        0.0017973676,
        -0.0048282687,
        0.019606829,
        0.020238737,
        -0.0150287505,
        0.023372663,
        -0.0029588563,
        -0.011322054,
        -0.07950286,
        -0.04545273,
        0.09003497,
        -0.03049366,
        0.027289947,
        -0.008747683,
        0.074424535,
        0.054934565,
        -0.066248976,
        -0.015783295,
        -0.0059015276,
        -0.0028003408,
        0.028379925,
        -0.05542844,
        0.061742663,
        -0.004882617,
        0.04521507,
        -0.023677113,
        -0.021268962,
        -0.009097736,
        0.022501778,
        0.0028214622,
        -0.018992463,
        0.011123438,
        0.0050504794,
        -0.007304807,
        -0.03395292,
        0.015466438,
        0.03674186,
        -0.10396284,
        0.020724759,
        0.0017797011,
        -0.06926479,
        -0.042194705,
        0.05519384,
        0.0024193984,
        -0.024928743,
        0.06920199,
        -0.0032113069,
        0.042470817,
        -0.012268021,
        0.043554854,
        5.8149314E-4,
        0.01874886,
        -0.007779755,
        0.005265994,
        -0.045991205,
        -0.012011183,
        -0.053498533,
        -0.0012545758,
        -0.07811658,
        -0.013515946,
        0.013948021,
        0.030772813,
        0.0454874,
        -0.034072027,
        -0.027979948,
        -0.05802286,
        0.08404305,
        -0.06600743,
        -0.028463291,
        -0.04958688,
        0.034297984,
        0.011065392,
        0.113843136,
        -0.0016414993,
        0.05471257,
        0.0039461004,
        -0.0017260248,
        -0.0466376,
        0.011351052,
        -0.014522651,
        0.020621551,
        0.006974063,
        0.030939287,
        -0.038743235,
        0.02909349,
        -0.03751446,
        0.018595606,
        0.031466782,
        -0.010195936,
        -0.07124062,
        8.007369E-4,
        0.040116977,
        0.025658838,
        -0.0762907,
        0.005309433,
        -0.026361963,
        0.04134133,
        -0.07507948,
        0.055274673,
        0.08318473,
        0.04620269,
        0.088082194,
        0.1160738,
        0.023643326,
        0.009728288,
        -0.01892884,
        -0.062877774,
        -0.107556224,
        -0.006991879,
        0.02105153,
        0.0034677442,
        0.07078153,
        0.0021375283,
        -0.011677111,
        -0.037577823,
        -0.014213439,
        -0.0372837,
        0.006602772,
        -0.02727067,
        0.019145282,
        0.03484409,
        -0.0032930148,
        0.028653422,
        -0.010088815,
        0.013388856,
        -0.04634066,
        0.017838499,
        0.10660374,
        0.09394775,
        0.18919086,
        0.032345966,
        0.17235868,
        0.1505912,
        0.06415675,
        -0.035549957,
        -0.13289441,
        -0.078615256,
        -0.08972563,
        0.002147205,
        8.852591E-4,
        -0.05563792,
        -0.010756919,
        -0.043061968,
        0.01933426,
        -0.057078283,
        0.016274901,
        0.005298568,
        -0.09723658,
        0.02792986,
        -0.071416676,
        -0.054165687,
        -0.13916306,
        -0.085635245,
        -0.077703126,
        -0.13821484,
        -0.1304802,
        0.07011068,
        0.06549109,
        0.11373202,
        0.18980773,
        0.18567453,
        0.2165864,
        0.121147595,
        0.041970514,
        -0.13362661,
        -0.106024474,
        -0.15847373,
        -0.16098274,
        -0.109007366,
        -0.08453367,
        -0.070761636,
        0.02539522,
        -0.01311144,
        -0.045932677,
        0.055395268,
        -0.032179594,
        -0.0017502044,
        0.048789814,
        0.043632064,
        0.03172091,
        -0.024122868,
        -0.120186925,
        -0.20478342,
        -0.22802831,
        -0.17941564,
        -0.14369538,
        -0.013397424,
        0.005890876,
        0.2339991,
        0.27900076,
        0.30540144,
        0.32851404,
        0.25230363,
        0.1391755,
        0.08820898,
        -0.0096546,
        -0.04009395,
        0.009067058,
        0.019175885,
        -0.0066795093,
        0.04251423,
        -0.007616799,
        -0.041528888,
        -0.0369884,
        0.045560095,
        0.014298202,
        0.06857732,
        -0.11942478,
        -0.004353812,
        -0.06740936,
        -0.22550897,
        -0.27895966,
        -0.32965663,
        -0.39989927,
        -0.2684019,
        -0.26192278,
        -0.09621454,
        0.13071828,
        0.17974764,
        0.25499848,
        0.32097927,
        0.28536615,
        0.20516358,
        0.211081,
        0.13978681,
        0.094193876,
        0.038913656,
        0.07276493,
        0.009756434,
        0.040677875,
        -0.018610183,
        0.054714035,
        -0.037103992,
        -0.006804492,
        -0.010002555,
        -0.0010119032,
        0.010978193,
        -0.017170025,
        -0.0076799644,
        -0.18680267,
        -0.17318639,
        -0.31178734,
        -0.43428057,
        -0.4264741,
        -0.5079204,
        -0.39498213,
        -0.24787162,
        -0.05770475,
        -0.020815622,
        0.029134376,
        0.08520593,
        0.059983242,
        0.14300781,
        0.07194661,
        0.0034672618,
        -0.018438097,
        -0.024259947,
        0.025485547,
        -0.0193535,
        -0.0019945821,
        -0.038527068,
        -0.022379763,
        -0.049572676,
        0.025605412,
        -0.038919963,
        0.019542689,
        -0.028528016,
        -0.087997675,
        -0.12657095,
        -0.1033808,
        -0.2660366,
        -0.36815184,
        -0.4872873,
        -0.472139,
        -0.51996857,
        -0.44563627,
        -0.30302286,
        -0.23935834,
        -0.10584862,
        -0.06784247,
        -0.06343985,
        0.024463123,
        -0.0070314817,
        0.021470096,
        -0.063056886,
        0.0028468121,
        -0.04528007,
        -0.032263193,
        0.02908649,
        -0.06455122,
        -0.07984234,
        -0.048994433,
        0.0962114,
        0.09532786,
        0.055738147,
        0.11529286,
        0.017149385,
        0.05241035,
        0.019176735,
        -0.018364195,
        -0.01873869,
        -0.1272767,
        -0.12427196,
        -0.23283502,
        -0.16344321,
        -0.22139233,
        -0.13699666,
        -0.09969959,
        0.007433102,
        -0.051410154,
        -0.03322634,
        0.005011417,
        0.016670408,
        -0.031335212,
        0.06712628,
        0.0126683125,
        0.08679583,
        0.016370248,
        -0.0033327066,
        -0.047451288,
        -0.011826334,
        0.1075246,
        0.058443923,
        0.07279419,
        0.21168414,
        0.08994168,
        0.19301164,
        0.21844089,
        0.23084559,
        0.15987548,
        0.21797396,
        0.15384531,
        0.08294512,
        0.056981508,
        0.0659094,
        0.016916877,
        -0.055332478,
        0.028355021,
        0.025195235,
        -0.008502392,
        0.018021487,
        -0.075154915,
        0.047104508,
        -0.07641871,
        -0.025932005,
        0.008278901,
        -0.108065106,
        -0.061950844,
        -0.062838934,
        0.03740318,
        0.044351917,
        0.05592304,
        0.06601773,
        0.083534874,
        0.15724616,
        0.06392294,
        0.08031589,
        0.18464921,
        0.02420912,
        0.13306494,
        0.113484934,
        0.11751688,
        0.03601215,
        -0.009186292,
        0.05385531,
        -0.041305475,
        0.033219647,
        0.0044540516,
        0.010469892,
        -0.023281187,
        0.061912354,
        0.035044905,
        0.09336059,
        -0.089952074,
        0.0157805,
        -0.03622931,
        0.07420081,
        0.08272525,
        0.08314343,
        -0.060965132,
        0.122526,
        0.104348406,
        0.10436737,
        0.0343885,
        0.099727504,
        -0.056565672,
        0.12071718,
        -6.36548E-4,
        0.071557134,
        0.0019142622,
        0.074419856,
        -0.025223741,
        0.03264761,
        0.007196645,
        -0.024818432,
        0.025673823,
        0.04760566,
        -0.039017405,
        -0.06384386,
        -0.0056269253,
        -0.023510708,
        -0.01649251,
        0.025123283,
        0.027843887,
        -0.053178325,
        -0.106010355,
        -0.02003578,
        0.017372342,
        -0.00622919,
        0.02643204,
        -0.04334075,
        0.0037496302,
        -0.0143226385,
        0.02521053,
        0.032836962,
        0.006552625,
        0.012526291,
        0.017216261,
        -0.0055686194,
        0.023054456,
        -0.008328093,
        0.04793924,
        0.010112178,
        -0.037660122,
        0.028868271,
        -0.032957617,
        0.067820214,
        -0.07143746,
        0.023181781,
        -0.074322104,
        -0.015172211,
        0.02512196,
        -0.087890744,
        -0.085783206,
        0.00241695,
        0.021300104,
        -0.02872079,
        0.04800747,
        0.02236507,
        -0.0021206837,
        0.03687331,
        0.018440397,
        0.032889806,
        -0.039555028,
        0.010904927,
        -0.03677203,
        0.0263572,
        -0.04876659,
        -0.017633108,
        -0.04631705,
        0.039364457,
        0.07767563,
        -0.02765364,
        -0.049657244,
        -0.023222502,
        0.008649966,
        -0.05860872,
        -0.01682183,
        0.036011238,
        0.057334926,
        -0.10350364,
        -0.05174582,
        0.06286517,
        -0.06537358,
        -0.11733963,
        -0.12082381,
        -0.1051096,
        -0.10529153,
        -0.08282505,
        0.013113252,
        0.027383251,
        0.037695955,
        -0.065825306,
        0.05557226,
        -0.056595255,
        0.03613201,
        0.1265099,
        -0.08256466,
        0.063798144,
        0.04434854,
        0.005175696,
        0.08917515,
        -0.006774796,
        0.06500847,
        -0.027698625,
        0.016950574,
        0.042950198,
        -0.052335892,
        0.048203785,
        0.05355198,
        -0.067597,
        0.06344893,
        -0.03109522,
        0.06219613,
        -0.07588226,
        0.002357382,
        0.0384178,
        0.020873504,
        -0.008201677,
        -0.008176927,
        -0.028555952,
        0.012063497,
        0.021720646,
        0.053264428,
        0.024086997,
        -0.049241062,
        0.09063314,
        0.06865551,
        -0.0063563273,
        -0.0041814093,
        -0.055393882,
        -0.077345476,
        -0.011104479,
        -0.046388503,
        0.055682458,
        -0.10383215,
        -0.052670375,
        0.051038448,
        -0.012184446,
        -0.10033713,
        -0.11302303,
        0.05017446,
        -0.055870958,
        -0.014281566,
        -0.086826876,
        -0.032391604,
        -0.0042584776,
        -0.15919806,
        -0.051055256,
        -0.014637897,
        -0.020127082,
        -0.018629516,
        -0.09794108,
        0.013803635,
        0.035872657,
        -0.09315978,
        -0.087838285,
        -0.044005394,
        -0.064272895,
        0.07815196,
        -0.019894797,
        0.05113548,
        0.07626562,
        0.040267147,
        -0.024226023,
        0.010248236,
        0.06388359,
        0.035608273,
        -0.025711996,
        -0.06701501,
        0.0064063263,
        -0.15375815,
        -0.09999068,
        -0.17028798,
        -0.15440464,
        -0.014957936,
        -0.095745586,
        -0.1952871,
        -0.120365314,
        -0.021247325,
        0.01795704,
        -0.11586645,
        0.0408263,
        -0.07005447,
        -0.031726453,
        0.066949055,
        0.06413412,
        0.09391591,
        -0.023646517,
        0.06542848,
        0.055525027,
        -0.10379955,
        -0.072103664,
        0.06523097,
        -0.026209874,
        -0.10896833,
        -0.112615906,
        -0.040995218,
        -0.11126393,
        -0.09613847,
        -0.13690451,
        -0.12541799,
        -0.19074953,
        -0.2211762,
        -0.2125823,
        -0.18403548,
        -0.13806145,
        -0.23511362,
        -0.0861188,
        -0.08164648,
        -0.057408944,
        -0.123109765,
        -0.038086597,
        -0.02181936,
        -0.0777731,
        0.019410722,
        -0.09479721,
        -0.017195128,
        0.08520625,
        -0.07164906,
        -0.11848286,
        -0.021830339,
        -0.09496442,
        -0.00214455,
        -0.08233551,
        -0.06872452,
        -0.063607685,
        -0.046966348,
        -0.12438538,
        -0.1634035,
        -0.14742947,
        -0.14238767,
        -0.13375089,
        -0.10399518,
        -0.14427528,
        -0.2408918,
        -0.07081774,
        -0.059831593,
        -0.18137233,
        -0.0639517,
        0.001392954,
        -0.12650679,
        0.026741164,
        -0.0154404305,
        0.05231962,
        -0.0794856,
        -0.056149743,
        0.021496698,
        0.0182802,
        -0.05918817,
        -0.12811114,
        0.008954962,
        -0.02990487,
        -0.14773661,
        -0.0572499,
        -0.15365727,
        -0.09818204,
        0.0055371616,
        0.06680099,
        -0.0370909,
        -0.01479342,
        0.059987385,
        -0.05090873,
        0.010658708,
        -0.17139539,
        -0.17702602,
        -0.045050364,
        -0.1441965,
        -0.07859034,
        -0.11735816,
        -0.09049151,
        0.0068891263,
        -0.062560156,
        -0.02353282,
        0.07109345,
        0.021799725,
        -0.13169733,
        0.02903557,
        -0.12723249,
        -0.15079981,
        -0.13675876,
        -0.085476525,
        -0.0569064,
        0.03351021,
        0.09084136,
        0.16986808,
        0.18496297,
        0.2692468,
        0.20371927,
        0.12631854,
        0.07689212,
        0.00423795,
        0.038859334,
        -0.061965022,
        -0.02040306,
        -0.0479715,
        -0.0815493,
        0.06051474,
        0.0621308,
        0.02920043,
        -3.8937762E-4,
        0.03191413,
        0.049769238,
        -0.09152837,
        0.04725867,
        0.0031849637,
        -0.14047365,
        -0.04383098,
        -0.010157695,
        0.037055235,
        0.06501316,
        0.12654842,
        0.08680036,
        0.20159996,
        0.17804164,
        0.23438865,
        0.23195346,
        0.23661117,
        0.2072972,
        0.15505996,
        0.065610394,
        -0.08678959,
        0.020468028,
        -0.04113284,
        -0.03449127,
        -0.04697927,
        0.047615733,
        -0.020357607,
        -0.04891845,
        0.06328565,
        -0.04804088,
        0.006504022,
        -0.06908641,
        -0.051504582,
        -0.13453136,
        -0.045416012,
        -0.09033458,
        0.011334313,
        0.006795994,
        0.07619307,
        0.095714636,
        -0.061323192,
        -0.0643216,
        0.038588528,
        0.0068844976,
        0.093976766,
        0.06279541,
        0.03718318,
        0.07732589,
        -0.029557992,
        -0.14205359,
        -0.016286116,
        -0.10135416,
        -0.053069986,
        0.02574876,
        -0.09081299,
        -0.013283576,
        0.019040246,
        0.024417575,
        -0.10494003,
        0.037379403,
        0.0039137187,
        -0.11146173,
        -0.085377894,
        -0.023308618,
        0.063061856,
        -0.012029652,
        -0.05090808,
        -0.0799895,
        -0.16042106,
        -0.12787922,
        -0.12085461,
        -0.08067693,
        -0.016019253,
        0.045441706,
        0.09354158,
        0.12153683,
        0.08702162,
        -0.063301496,
        -0.035295974,
        0.036832888,
        -0.06501192,
        -0.060294613,
        0.06355195,
        -0.017186664,
        -0.010512983,
        -0.050050106,
        -0.034083717,
        0.0095701795,
        -0.09442862,
        -0.004564779,
        0.080714114,
        0.04201306,
        -0.04189025,
        -0.041774265,
        -0.14934328,
        -0.11217693,
        0.005800635,
        -2.037576E-4,
        0.005562673,
        0.13775933,
        0.021867717,
        0.08378122,
        0.04507628,
        0.10649681,
        0.07613352,
        -0.063735865,
        -0.088554025,
        -0.051505614,
        -0.053454593,
        0.011512135,
        0.010890345,
        -0.0029959213,
        -0.0021699807,
        -0.009391787,
        -0.032965094,
        -0.07701723,
        -0.011399509,
        -0.05644496,
        -0.02833294,
        0.03425051,
        -0.10310036,
        -0.021953126,
        0.031581327,
        0.05955632,
        0.013489315,
        0.09643914,
        -0.018529152,
        0.0453137,
        0.04469014,
        0.07269034,
        0.11504339,
        0.06341813,
        0.0315133,
        0.02378284,
        0.018620277,
        -0.03979375,
        -0.028976878,
        -0.014234733,
        0.0042661824,
        -0.118778005,
        0.0138373375,
        -0.03773522,
        0.058480646,
        0.0339284,
        0.032207325,
        -0.09555611,
        -0.042080715,
        -0.027653884,
        0.06432286,
        -0.05370277,
        -0.030152842,
        0.006413166,
        -0.011710164,
        -0.08265291,
        -0.008515743,
        -0.04797755,
        -0.09508608,
        -0.017574433,
        0.004687495,
        -0.07419589,
        -0.09360071,
        -0.06528347,
        -0.06404827,
        0.011248917,
        -0.004495853,
        -0.10901403,
        -0.028302142,
        0.04896071,
        0.019615574,
        -0.037775,
        -0.117178604,
        0.06296126,
        -0.113139056,
        0.0245141,
        -0.009801386,
        -0.045244005,
        -0.04891638,
        0.04491289,
        -0.04369566,
        -0.037630085,
        -0.032340128,
        -0.04982863,
        -0.05823846,
        -0.04843027,
        -0.052027527,
        -0.12140245,
        -0.119426325,
        -0.087835595,
        -0.096507266,
        0.023982255,
        0.04672797,
        -0.06905807,
        0.035523795,
        -0.043004915,
        -0.03245861,
        0.008856915,
        -0.041901242,
        0.014272482,
        -0.037169054,
        -0.08612639,
        0.08433527,
        0.06275617,
        -0.051498223,
        0.028542273,
        -0.07462508,
        0.0063092303,
        -0.018196406,
        -0.01585998,
        0.071473256,
        -0.0042444235,
        0.08624833,
        0.0020195695,
        -0.07694588,
        -0.022124479,
        -0.09852761,
        -0.06213832,
        -0.0614557,
        -0.07431612,
        -0.09453607,
        -0.10753755,
        -0.09075726,
        0.082718685,
        -0.0041629025,
        0.1067535,
        0.1139955,
        -0.045055076,
        0.09182074,
        0.076724134,
        -0.046167135,
        -0.035054307,
        -0.0011557196,
        0.060412645,
        0.010808115,
        0.041518155,
        -0.015847765,
        0.006711808,
        -0.04284885,
        0.05010547,
        -0.029347926,
        -0.05534416,
        0.020903578,
        -0.04387841,
        0.0019934473,
        -0.05999699,
        -0.025786286,
        0.059647985,
        -0.016145052,
        -0.087361306,
        -0.11551201,
        0.08472767,
        -0.078328386,
        -0.045013465,
        -0.060977563,
        0.028325398,
        -0.022996536,
        -0.034007113,
        0.02137865,
        0.0013270343,
        -0.015823292,
        -7.974254E-4,
        0.050470334,
        0.03650089,
        0.07663846,
        0.02554215,
        0.04727309,
        -0.030306049,
        0.018768659,
        0.052822683,
        0.032328263,
        0.046795156,
        0.0012276466,
        0.014999397,
        0.0072610998,
        -0.079227686,
        0.014502888,
        -0.102563575,
        0.060536508,
        -0.07013921,
        0.097095594,
        -0.036506962,
        0.099240266,
        0.03426033,
        -0.037355717,
        -0.008602539,
        -0.019683192,
        0.057110474,
        0.044178553,
        0.061247706,
        -0.0046206135,
        -0.04038289,
        0.007635199,
        -0.02409596,
        0.005391734,
        0.034893364,
        0.024209108,
        -0.049255505,
        0.04629265,
        0.035670802,
        0.11712108,
        0.03776005,
        0.069250636,
        -0.038106874,
        0.0074197827,
        0.045719758,
        -0.058520157,
        -0.0047176294,
        0.07377144,
        0.020572603,
        0.011824443,
        0.04456402,
        -0.077419154,
        0.05612763,
        -0.08404827,
        -0.043013044,
        -0.05604328,
        0.04373171,
        0.13408864,
        0.08033631,
        -0.05052338,
        0.03518008,
        -0.015339566,
        0.0028731928,
        0.030698163,
        0.04963938,
        0.06882716,
        0.029557638,
        0.08937571,
        0.063627206,
        0.1374271,
        0.13458656,
        0.00912223,
        0.017441463,
        0.011453198,
        0.0613494,
        0.049024407,
        -0.020014433,
        0.007878559,
        -0.054920014,
        -0.0404703,
        0.07535186,
        0.04621441,
        -0.09540615,
        -0.08250329,
        -0.036015544,
        -0.014535728,
        0.014969895,
        0.021798331,
        -0.034684446,
        0.023857765,
        -0.0147811575,
        0.032031257,
        -0.040948123,
        0.01234641,
        0.010761742,
        -0.03064825,
        0.057878997,
        0.0980909,
        0.054800663,
        0.0013159434,
        0.01749197,
        -0.009969973,
        0.06729837,
        -0.0779756,
        0.0439066,
        0.096374385,
        0.031781163,
        0.04658488,
        -0.10524756,
        -0.036246642,
        -0.0010366347,
        0.051447637,
        -0.07845047,
        -0.04378488,
        -0.0060544135,
        0.03490279,
        0.023489775,
        0.0096955,
        -0.016807072,
        -0.10449112,
        0.033478376,
        -0.085960224,
        -0.13521641,
        -0.0050434005,
        -0.020629209,
        -0.051089007,
        0.023693513,
        0.055767663,
        0.046224423,
        0.008429012,
        -0.024283767,
        -0.06447915,
        -0.09698693,
        0.020708669,
        -0.044066537,
        -0.037492294,
        0.025274543,
        -0.087322384,
        0.024912566,
        -0.13589317,
        -0.0020419843,
        -0.02821183,
        -0.07620883,
        -0.08783541,
        0.04740155,
        -0.07563054,
        0.02860559,
        0.016320458,
        -0.108745925,
        -0.0676501,
        -0.032995656,
        -0.07652592,
        -0.06595943,
        -0.079065114,
        -0.09059189,
        -0.058746412,
        -0.05859701,
        -0.08150901,
        -0.1025947,
        -0.0062603885,
        0.0735987,
        -0.09168394,
        0.034552246,
        -0.094669834,
        -0.066883825,
        -0.05729919,
        -0.017262815,
        -0.046313606,
        -0.059454367,
        -0.058357224,
        -0.009716059,
        0.012581385,
        -0.047404047,
        -0.03261992,
        0.04640714,
        -0.09979097,
        0.01609913,
        -0.13903503,
        -0.12110538,
        0.026789924,
        -0.1145325,
        -0.029839437,
        -0.04100003,
        -0.10666948,
        -0.019038562,
        -0.02613738,
        -0.012666111,
        -0.09902703,
        -0.10839539,
        0.01124197,
        -0.072109155,
        0.005869553,
        -0.113840625,
        0.057334304,
        -0.13559604,
        0.021986227,
        -0.036327496,
        -0.07740036,
        -0.12518911,
        -0.11061365,
        -0.1238374,
        -0.008181866,
        -0.027171176,
        -0.0952931,
        0.002481047,
        -0.03591264,
        0.039290853,
        -0.028250389,
        0.058943223,
        0.00957879,
        -0.021081086,
        -0.1630206,
        -0.076351084,
        -0.073461786,
        -0.07294478,
        -0.08508169,
        0.019075496,
        0.0720252,
        0.04649872,
        -0.04562783,
        -0.018241553,
        -0.017285213,
        0.013802702,
        -0.06763942,
        -0.08368095,
        -0.08791893,
        -0.07200139,
        0.025441442,
        -0.011911273,
        -0.06991176,
        -0.060277782,
        -0.014786495,
        0.07291534,
        0.0423742,
        0.033123087,
        0.07576607,
        0.057244327,
        -0.00920139,
        -0.07328069,
        -0.105456285,
        -0.050018866,
        -0.14427225,
        -0.06038521,
        0.024110382,
        -0.1039752,
        -0.070456065,
        -0.047745414,
        0.06540796,
        0.0030036431,
        0.018818852,
        0.07774759,
        0.077252366,
        -0.09936487,
        0.012967628,
        -0.103061646,
        0.072443075,
        -0.010939024,
        0.09582642,
        0.070924625,
        0.049899377,
        0.09455096,
        -0.013925397,
        0.13819487,
        -0.053206377,
        0.020399831,
        -0.10559271,
        -0.048894174,
        -0.061784253,
        -0.005356425,
        0.024225399,
        0.005860705,
        0.036600493,
        0.07071729,
        -0.0035570278,
        -0.08670477,
        0.08528566,
        0.063286714,
        0.04545595,
        -0.031571317,
        -0.053070564,
        -0.056928173,
        0.021894969,
        0.067503735,
        0.04472996,
        0.061513755,
        0.10159849,
        0.07798955,
        -0.08698888,
        -0.044680253,
        0.06176516,
        -0.015334314,
        -0.07248064,
        0.03504687,
        -0.13436404,
        -0.114869475,
        -0.08642292,
        -0.10004932,
        -0.030000793,
        -0.030692197,
        -0.090494044,
        -0.0063593765,
        -0.0463973,
        -0.082536824,
        0.010020492,
        -0.022913603,
        0.06743837,
        -0.07340504,
        -0.05579624,
        0.0022333367,
        0.07815485,
        0.058218144,
        -0.030009372,
        0.08508523,
        -0.07264117,
        -0.09032643,
        0.024176808,
        -0.04491896,
        -0.082664646,
        -0.065560594,
        0.0085045565,
        0.04224355,
        0.059689928,
        -0.022558615,
        -0.076994605,
        -0.09413704,
        -0.037660554,
        0.0043578735,
        -0.0013639404,
        0.04180919,
        -0.07214961,
        0.048098154,
        -0.06500367,
        -0.04319778,
        -0.007529047,
        0.07225789,
        -0.074743256,
        0.0040824036,
        -0.06408037,
        0.09010779,
        -0.020672085,
        0.0012259306,
        0.019609991,
        -0.07317747,
        -0.00854601,
        0.025021544,
        -0.04096235,
        -0.074103,
        0.043008313,
        -0.09010138,
        0.0077681597,
        -0.040742386,
        -0.06485563,
        0.035331234,
        -0.05762367,
        -0.10252861,
        -0.057493832,
        0.05978394,
        -0.038194813,
        -0.038514983,
        0.020804983,
        0.0019832978,
        0.04251481,
        -0.002556817,
        -0.110595316,
        -0.123623304,
        -0.04260429,
        0.05128602,
        0.025381122,
        0.0018095181,
        -0.067076586,
        -0.0037063085,
        -0.06341885,
        -0.030232389,
        -0.10814651,
        0.04772393,
        0.011946238,
        -0.0015085974,
        -0.0754733,
        -0.11053406,
        0.07973871,
        -0.09251297,
        -0.069750965,
        0.033938862,
        0.039399438,
        -0.0033384098,
        -0.10156876,
        0.039637946,
        0.0031682316,
        -0.08098765,
        0.0020837688,
        -0.110983096,
        -0.020932011,
        -0.07500696,
        -0.013666004,
        -0.06757093,
        -0.026840856,
        -0.058105245,
