{
  "inputLayer": {
    "nodes": 784
  },
  "evaluateLayers": [
    {
      "weights": [
        0.034348562,
        0.030846262,
        -0.010679967,
        -0.04264284,
        -0.07386783,
        0.043158565,
        0.09522559,
        0.011073266,
        0.08971958,
        0.06829375,
        0.20570128,
        0.12429762,
        0.012172503,
        0.038735658,
        0.11623876,
        0.0074214116,
        0.15738767,
        0.20914224,
        0.17510465,
        0.030793924,
        0.0836713,
        0.032224834,
        0.02741069,
        0.07057668,
        0.032044094,
        -0.078892335,
        -0.0038293747,
        -0.007772976,
        -0.07007783,
        -0.08417761,
        0.03595735,
        0.0590341,
        -0.030884665,
        0.046771172,
        0.055899587,
        0.0608522,
        0.17808902,
        0.110622525,
        0.041927792,
        0.0236823,
        -0.060624927,
        -0.07160693,
        -0.11595205,
        -0.04762946,
        -0.012549472,
        0.10017995,
        0.055849552,
        -0.035045777,
        -0.10548219,
        -0.09464174,
        -0.03386812,
        -0.0077506388,
        -0.08100703,
        -0.0014538191,
        -0.029322483,
        -0.09366757,
        -0.015286278,
        -0.085521065,
        0.038172323,
        0.10926081,
        -0.023761854,
        0.0032311107,
        0.1675153,
        0.066946305,
        0.07445254,
        -0.018979898,
        5.0912536E-4,
        -0.08808554,
        -0.24920061,
        -0.0796927,
        -0.109668225,
        0.018876195,
        0.022969045,
        0.07951651,
        -0.032962702,
        -0.0116870385,
        -0.01584127,
        -0.031923253,
        -0.06917143,
        -0.027117541,
        -0.040073544,
        -0.11653798,
        -0.06813579,
        -0.12889424,
        0.08110466,
        0.08465989,
        0.06776349,
        -0.018507581,
        0.18841824,
        0.14922567,
        0.04527455,
        0.021042481,
        0.00872943,
        -0.055134777,
        -0.08799955,
        -0.30869848,
        -0.3200638,
        -0.23364636,
        -0.15164177,
        0.006040053,
        -0.069893904,
        -0.07499455,
        0.038956337,
        -0.060411498,
        -0.18481547,
        -0.15822388,
        -0.054047428,
        -0.037931923,
        -0.1506309,
        0.015794653,
        0.007743813,
        -0.1652792,
        -0.075870134,
        -0.10285711,
        -0.043332662,
        0.093514875,
        0.142636,
        0.06783738,
        0.07990194,
        0.15867263,
        -0.008909884,
        -0.10942285,
        -0.3239233,
        -0.24114497,
        -0.22277936,
        -0.24324048,
        -0.07775825,
        -0.08373107,
        0.017121088,
        -0.1058417,
        -0.09819575,
        -0.12379705,
        -0.19942926,
        -0.12839837,
        -0.18844181,
        -0.20891523,
        -0.04554791,
        -0.102256946,
        -0.049475715,
        -0.08412335,
        -0.029006077,
        -0.0095739905,
        -0.022768365,
        0.05414212,
        0.19555095,
        0.110450834,
        0.060367923,
        -0.06477127,
        0.01950741,
        -0.18167198,
        -0.29451415,
        -0.38974524,
        -0.22563347,
        -0.15105829,
        0.01922623,
        0.003104943,
        -0.13347471,
        0.004769097,
        -0.07746938,
        -0.17775957,
        -0.20315914,
        -0.21438368,
        -0.10366035,
        -0.18835253,
        -0.17421919,
        0.016548133,
        -0.015285318,
        -0.13433766,
        0.05778388,
        -0.10240543,
        -0.0623276,
        0.017254954,
        0.104904525,
        0.10384205,
        0.14831069,
        0.07385884,
        -0.009247127,
        -0.1635262,
        -0.30762982,
        -0.39251342,
        -0.18103631,
        -0.04472153,
        -0.022004222,
        -0.008592266,
        -0.022664616,
        -0.018553745,
        -0.07936781,
        -0.17144899,
        -0.2533363,
        -0.2926145,
        -0.21561551,
        -0.19474217,
        0.031157596,
        -0.091579944,
        -0.06710098,
        0.018294064,
        0.06388255,
        0.043144416,
        0.11209987,
        -0.026127085,
        0.08951102,
        0.08174095,
        0.13142526,
        -0.012797063,
        0.022090003,
        -0.16837904,
        -0.45235577,
        -0.36726528,
        -0.111632526,
        0.10112608,
        0.08019318,
        0.061184533,
        0.011006858,
        -0.002811957,
        -0.21955761,
        -0.3202917,
        -0.3136532,
        -0.21325514,
        -0.08560991,
        -0.03775621,
        0.03347372,
        0.06683114,
        0.09284894,
        -0.03249692,
        0.050961327,
        -0.11151762,
        0.056925286,
        -0.004185499,
        0.13382865,
        0.03158156,
        0.14678146,
        0.10139981,
        -0.13299888,
        -0.29510254,
        -0.403725,
        -0.21405445,
        0.10574406,
        0.12708189,
        0.10769019,
        0.0070220917,
        0.06326295,
        -0.01915838,
        -0.17885633,
        -0.3069317,
        -0.29957962,
        -0.10063787,
        -0.11070002,
        0.064019494,
        -0.01628204,
        0.049926516,
        -0.009445451,
        -9.14224E-4,
        -0.064374685,
        0.062369484,
        -0.010393701,
        -0.019600416,
        -0.00874631,
        0.043895673,
        0.06658484,
        0.1326392,
        0.05214155,
        -0.24234672,
        -0.5252399,
        -0.17939006,
        0.12395459,
        0.17876375,
        0.03156651,
        0.12697014,
        0.16305749,
        -0.15266085,
        -0.33337834,
        -0.29593143,
        -0.11586306,
        -0.05411827,
        -0.059131462,
        -0.03975814,
        0.019943664,
        0.09706498,
        0.15302828,
        -0.09097103,
        0.08263197,
        -0.10788007,
        -0.090303436,
        0.07919133,
        0.061769757,
        0.038151823,
        0.10025162,
        0.034137096,
        0.035715755,
        -0.24405639,
        -0.49851713,
        -0.06398711,
        0.14174159,
        0.14177334,
        0.04187683,
        0.12613487,
        -0.028989138,
        -0.19436039,
        -0.26821718,
        -0.26789215,
        -0.17496598,
        -0.06252387,
        0.03456218,
        0.013016533,
        0.1283292,
        0.09967627,
        0.06473358,
        -0.020232854,
        0.026506368,
        -0.1222113,
        -0.028318178,
        0.008367149,
        0.101483285,
        0.08481746,
        0.13940279,
        0.08694035,
        -0.020326966,
        -0.33384967,
        -0.3091704,
        -0.04820877,
        0.1516442,
        0.071859986,
        0.13759957,
        0.061546125,
        0.0018782536,
        -0.23129062,
        -0.30929196,
        -0.11934332,
        0.020135246,
        0.06306801,
        -0.02238988,
        0.084544815,
        0.005124142,
        -0.036375728,
        0.108969964,
        0.006705536,
        0.04291383,
        -0.04269366,
        -0.07661554,
        -0.052579343,
        0.030284202,
        0.006340885,
        0.043175764,
        0.144244,
        0.09103763,
        -0.25469604,
        -0.24827564,
        0.0310985,
        -0.003896718,
        0.119070195,
        0.010928792,
        0.03285756,
        -0.029985443,
        -0.19439563,
        -0.21084382,
        -0.10033539,
        0.041827817,
        0.076961815,
        0.056850627,
        0.079879776,
        0.08348444,
        0.08377486,
        -0.05220486,
        0.09988095,
        -0.045194905,
        0.055085808,
        0.042864427,
        -0.029268427,
        0.13453336,
        0.12477245,
        0.022122886,
        0.15251233,
        0.0044801743,
        -0.14344825,
        -0.22045754,
        0.0020315857,
        -0.033200517,
        0.023858227,
        0.080469556,
        -0.0793006,
        -0.15607019,
        -0.13365622,
        -0.12743528,
        0.033653308,
        0.064515814,
        0.036946658,
        0.09127118,
        4.5224963E-4,
        -0.027146237,
        0.015758893,
        0.040757056,
        -0.020905085,
        0.016721582,
        0.07164765,
        -0.046747234,
        0.064461336,
        0.027354741,
        0.00720118,
        -0.015778461,
        0.10883438,
        0.053735882,
        -0.012765134,
        -0.115521654,
        -0.0655201,
        0.07130777,
        -0.0062782066,
        0.06358603,
        -0.059599526,
        -0.09619595,
        -0.11785873,
        -0.08459391,
        0.010157081,
        0.05475163,
        0.06515786,
        0.08513388,
        -0.010654625,
        0.046765335,
        -0.013719544,
        -0.011114079,
        0.044015553,
        0.07356028,
        0.06734686,
        0.050560627,
        0.11083996,
        -0.0061610206,
        0.09273234,
        0.086022586,
        0.02449137,
        0.059715286,
        -0.014837831,
        -0.009947661,
        -0.12129661,
        0.06419635,
        -0.034874547,
        -0.02900413,
        -0.072090544,
        -0.042236727,
        -0.025494315,
        0.036336564,
        -0.016966179,
        0.02653808,
        -0.019210193,
        -0.060655776,
        0.016202059,
        0.0074680727,
        -0.008009636,
        -0.033223618,
        -0.03683168,
        0.066637985,
        -0.04129217,
        -3.972019E-4,
        -0.06900636,
        0.039472286,
        -0.00933109,
        0.043218553,
        0.009157118,
        -0.033163715,
        -0.0797316,
        -0.011601319,
        0.016246852,
        -0.08133513,
        0.050913423,
        -0.003764743,
        -0.06369387,
        0.015186086,
        -0.08416739,
        0.0934451,
        0.037885364,
        0.0045137974,
        0.027322106,
        0.05302011,
        -0.070480436,
        -0.026485834,
        -0.05365774,
        0.036775652,
        -0.09410598,
        0.091568984,
        0.0020791613,
        0.028679304,
        0.06273311,
        -0.024179896,
        0.06513433,
        -0.02675053,
        0.016221581,
        0.01890954,
        0.08538301,
        0.05498471,
        0.0066784085,
        -0.056331914,
        -0.026875973,
        0.045082863,
        -0.00917332,
        0.028168164,
        0.060377117,
        0.042612564,
        0.04959418,
        0.02665892,
        0.09523087,
        -0.055147592,
        -0.029908601,
        -0.020286888,
        -0.016625166,
        0.038492665,
        0.03707803,
        -0.11802412,
        -0.037704404,
        -0.049781997,
        -0.0054028397,
        -0.01055597,
        0.038625322,
        -0.052210778,
        0.024046158,
        -0.055276994,
        -0.05596111,
        -0.038150776,
        0.010020662,
        -0.0030244358,
        0.009489865,
        -0.03473746,
        0.0124114165,
        -0.0077712717,
        -0.03611295,
        0.013551299,
        0.04503593,
        0.010054151,
        -0.030178003,
        0.072256885,
        -0.021926245,
        0.02013999,
        -1.720131E-4,
        -0.07871527,
        0.049228642,
        -0.12214741,
        -0.017955609,
        0.015612499,
        -0.076155014,
        0.061499514,
        -0.0370255,
        -0.036157396,
        0.012281084,
        -0.018827053,
        0.044890396,
        0.0052494244,
        -0.013164023,
        -0.015049344,
        -0.0047706473,
        -0.004456713,
        0.05108805,
        -0.010759067,
        0.08897853,
        -0.028252231,
        -0.026038699,
        -0.0027769594,
        0.011085757,
        -0.032855842,
        -0.030386295,
        -0.01505382,
        -0.060906544,
        0.014270949,
        0.010226512,
        0.032210242,
        -0.061423257,
        -0.0130128,
        -0.11787457,
        -0.027072972,
        -0.036322456,
        0.034795035,
        -0.016340984,
        -0.024983518,
        -0.032876097,
        0.035352025,
        -0.00340121,
        -0.029802315,
        0.026545027,
        -0.009707702,
        -0.013221741,
        -0.0110916365,
        -0.02618548,
        0.013175154,
        0.0044297804,
        -0.004916578,
        -0.054175824,
        -0.007032435,
        0.07338657,
        -0.011795021,
        -0.041822314,
        0.038839296,
        -0.089232825,
        -0.006375845,
        0.02131137,
        -0.011293541,
        -0.067728564,
        -0.009320504,
        -0.013574463,
        0.029807968,
        -0.017353829,
        -0.0026474486,
        0.04790371,
        -0.058109432,
        -0.006727764,
        -0.0046210336,
        -0.04109941,
        0.01644893,
        -0.030605907,
        0.032256816,
        -0.038262196,
        0.017717326,
        -0.027983004,
        0.08219895,
        0.05293429,
        0.053678583,
        -0.05151728,
        0.05808088,
        0.056439705,
        -0.032999452,
        -0.07371777,
        -0.038691483,
        -0.026884168,
        0.0041970755,
        -0.019960409,
        0.003928624,
        -0.06457813,
        -0.015400944,
        0.048593737,
        0.0047769863,
        0.036351245,
        0.025064224,
        0.05607889,
        0.008038882,
        0.040067233,
        5.9523835E-4,
        0.037199397,
        0.011809827,
        0.043332834,
        -0.043199033,
        -0.011680028,
        -0.07318563,
        -0.066969715,
        -0.0013851955,
        0.047427468,
        -0.053308886,
        -0.05279456,
        0.05916285,
        -0.1122293,
        -0.09449024,
        0.0032916488,
        0.054064244,
        0.00700889,
        -0.020817082,
        0.06971702,
        -0.034894377,
        -0.030587228,
        -0.050138664,
        -0.022077734,
        -0.0068152677,
        -0.0097277565,
        -0.039628383,
        0.028296685,
        -0.01883851,
        0.0043665287,
        -0.025407467,
        0.00931042,
        0.05380255,
        -0.0072090006,
        0.083936915,
        0.026950702,
        -0.015533534,
        -0.032092035,
        -0.028537106,
        0.013981298,
        0.03175233,
        0.04044296,
        0.015914526,
        0.049424313,
        -0.08118538,
        -0.021539874,
        -0.04089641,
        -0.09654642,
        0.05612249,
        0.0060536345,
        0.05373786,
        -0.042646755,
        -0.01702841,
        0.09060555,
        -0.0106467465,
        0.06304927,
        -0.021780621,
        0.01513872,
        -0.025940675,
        -0.005787355,
        -0.021181848,
        -0.051409356,
        -0.07274331,
        -0.035349444,
        0.037925802,
        -0.07324704,
        -0.002124922,
        -0.058389653,
        -0.08692438,
        0.0068057976,
        -0.07599632,
        0.04287044,
        -0.018516775,
        -0.02607725,
        -0.037213318,
        0.0341596,
        -0.05492631,
        -0.02577973,
        0.021521416,
        0.008560159,
        0.050701883,
        -0.027425554,
        9.795496E-4,
        -0.0231424,
        -0.028736342,
        0.10441194,
        -9.4707904E-4,
        0.028255245,
        -0.029885493,
        0.08506099,
        -0.042415712,
        0.044483487,
        0.058403328,
        -0.041451726,
        0.002777498,
        0.028788982,
        -0.013857434,
        -0.014713621,
        -0.023437487,
        -0.06540726,
        -0.011125694,
        -0.1309172,
        0.025126174,
        0.03346876,
        -0.029115787,
        -0.03463801,
        0.031617593,
        0.021351725,
        -0.0048311274,
        0.09307008,
        0.0033036014,
        0.12810884,
        -0.009833344,
        -0.03956793,
        -0.037384868,
        0.00939513,
        -0.026676659,
        0.029025747,
        0.011906521,
        -0.051987834,
        -0.040597606,
        -0.0010131185,
        -0.042794686,
        -0.053525098,
        -0.013487192,
        -0.04121579,
        -0.086024,
        -0.014501946,
        -0.0303115,
        -0.060081925,
        -0.070309125,
        -0.110192895,
        -0.092123374,
        -6.1643915E-4,
        -0.073731236,
        -0.111243084,
        -0.037633583,
        -0.049544938,
        -0.042405605,
        -0.022094244,
        -0.065009035,
        0.01336575,
        0.027955003,
        -0.04256168,
        -0.034590874,
        0.020180974,
        -0.08184318,
        0.018600028,
        -0.010760123,
        -0.093746245,
        0.087417416,
        -0.07167929,
        -0.023822423,
        0.074259825,
        0.08062048,
        0.08140484,
        -0.0022279574,
        0.06039889,
        -0.021125698,
        -0.078485854,
        -0.05403925,
        -0.0040149456,
        0.05176523,
        -0.08557411,
        -0.09837613,
        0.045161746,
        -0.098566,
        0.018754935,
        0.0209082,
        -0.054579016,
        -0.03915571,
        -0.05207738,
        0.058632392,
        0.028867016,
        -0.05751154,
        0.052929454,
        -0.028443586,
        -0.07777468,
        -0.0077109667,
        -0.14510329,
        0.056361035,
        -0.1283827,
        -0.07744216,
        -0.08176835,
        -0.0144423405,
        0.10498454,
        -0.089558594,
        -0.042311504,
        -0.0051012645,
        0.04028929,
        0.037020687,
        -0.029899474,
        0.013765594,
        -0.07608915,
        -0.122606,
        0.021513682,
        -0.08010282,
        -0.03258896,
        -0.02595726,
        -0.015701067,
        0.08325029,
        -0.08453101,
        -0.04950042,
        -0.08449445,
        -0.047402486,
        -0.041549604,
        -0.02371638,
        -0.09342769,
        -0.119502336,
        -0.049594827,
        -0.0911778,
        0.008048439,
        0.10226626,
        -0.032565724,
        0.016541878,
        0.07539476,
        -0.11671606,
        -0.10825643,
        -0.028049981,
        -0.050171964,
        -0.1324838,
        -0.062314656,
        0.0728547,
        -0.14640337,
        -0.054165978,
        0.034653954,
        -0.08498534,
        -0.06697738,
        0.033749197,
        0.022073923,
        0.077509195,
        0.0021639,
        -0.0723895,
        -0.037949946,
        -0.059425537,
        0.027865745,
        -0.021424087,
        0.008252265,
        0.052408744,
        0.014006953,
        0.06479597,
        -0.020654012,
        -0.0349733,
        0.012132314,
        -0.012958675,
        -0.043758165,
        -0.12731408,
        0.046243135,
        0.033002652,
        -0.12923285,
        -0.06522393,
        -0.09188435,
        -0.035030223,
        -0.07824192,
        -0.06529511,
        -0.02438001,
        -0.11135291,
        0.015972273,
        -0.008012722,
        0.011900276,
        -0.01373658,
        0.05019797,
        0.0050724903,
        -0.0030578726,
        0.018816138,
        -0.092787236,
        -0.03783713,
        0.07452948,
        0.04119577,
        0.036082122,
        0.10056788,
        -0.078927256,
        0.09108335,
        0.004509315,
        0.05154795,
        -0.09315882,
        -0.057704374,
        -0.01233522,
        -0.03910287,
        -0.05214711,
        0.008998513,
        -0.08575792,
        0.016223755,
        0.02035528,
        0.022335496,
        -0.09809671,
        0.01900726,
        0.0052821357,
        -0.010012481,
        0.049055245,
        -0.09059026,
        -0.06816175,
        -0.015106521,
        0.021721123,
        -0.049827274,
        -0.06178363,
        -0.08335007,
        0.0034785173,
        0.05899245,
        -0.03811809,
        -0.058461275,
        0.10313159,
        -0.098469734,
        0.053711537,
        -0.025704036,
        -0.022588983,
        0.021268893,
        -0.021889633,
        -0.034238942,
        0.05576959,
        -0.0078615155,
        -0.047475956,
        0.03900422,
        -0.010680506,
        0.025380012,
        0.031172149,
        0.012049448,
        -0.07866854,
        0.06777497,
        -0.006559613,
        -0.11006004,
        0.018604819,
        -0.11676323,
        0.07947097,
        0.098047584,
        -0.024309082,
        0.06528367,
        -0.03156227,
        -0.009521402,
        -0.05000318,
        -0.032489497,
        0.022246711,
        -0.12036094,
        -0.042018905,
        -0.014342667,
        -0.07671446,
        -0.07452477,
        -0.041917734,
        -0.11247432,
        0.0775276,
        -0.051944286,
        -0.008264394,
        0.015098257,
        -0.042594444,
        0.039710846,
        0.043718792,
        -0.058888018,
        0.020136142,
        -0.06912063,
        -0.11978803,
        -0.010123983,
        -0.0042320383,
        -0.10047215,
        0.035584245,
        0.023362417,
        0.008647019,
        0.12077846,
        0.024222532,
        0.02601124,
        -0.03717947,
        -0.049720913,
        0.016079247,
        -0.037825745,
        0.019306477,
        0.05974999,
        -0.01434233,
        0.05103458,
        -0.023649946,
        0.02105503,
        -0.0056338226,
        0.0526589,
        -0.06762252,
        -0.047964297,
        -0.025418023,
        0.020286644,
        0.014247443,
        0.049761638,
        -0.08593732,
        -0.058915034,
        0.043503795,
        -0.03598461,
        0.101811826,
        0.050646983,
        -0.0043633617,
        0.0020344353,
        -0.008572272,
        -0.03855391,
        0.002055541,
        -0.06411826,
        -0.028600572,
        -0.03384352,
        -0.0077081798,
        -0.051744115,
        -0.03618183,
        3.7882992E-4,
        -0.003477206,
        0.0630156,
        -0.011504061,
        0.06507365,
        -0.058465417,
        0.08202845,
        -0.097589694,
        -0.023962254,
        -0.053225,
        -0.059045263,
        -0.121547185,
        -0.14044055,
        -0.020621791,
        0.06242418,
        -0.062281586,
        -0.02290926,
        -0.012935719,
        0.057042547,
        0.06602051,
        0.04930194,
        -0.02515936,
        -0.068901524,
        0.043575276,
        0.014105411,
        -0.078331195,
        -0.013117309,
        -0.09849272,
        -0.022112632,
        0.10859737,
        -0.081710055,
        -0.010134909,
        -0.04883349,
        0.02588562,
        0.018524356,
        -0.07703349,
        -0.11910194,
        -0.076851726,
        0.027365793,
        -0.024283122,
        -0.08848742,
        0.03814468,
        0.022184161,
        0.047371294,
        0.05278491,
        0.111818574,
        -0.0064375834,
        0.0674034,
        0.030771399,
        0.047137246,
        0.10834807,
        -0.073034175,
        -0.059090517,
        -0.03649388,
        0.019224469,
        -0.01973043,
        -0.029055996,
        -0.043368544,
        -0.018719794,
        0.026558623,
        -0.06385627,
        0.03348299,
        0.0060560424,
        0.0860781,
        0.011178848,
        0.014842451,
        0.025884302,
        -0.09904197,
        -0.1647846,
        -0.0056791087,
        -0.017439593,
        0.13183817,
        -0.007197132,
        0.003369251,
        0.07395428,
        0.10680078,
        0.05643307,
        0.014466004,
        0.07437228,
        -0.005790907,
        0.069901936,
        -0.050915975,
        -0.07643398,
        0.013791041,
        -0.019647595,
        -0.06181808,
        0.06392751,
        0.05838501,
        0.053002603,
        -0.028035145,
        0.03360704,
        -0.04753816,
        -0.013431819,
        -0.09062631,
        -0.12307873,
        -0.11083113,
        -0.13883851,
        -0.095613904,
        0.111324765,
        -0.062470153,
        0.13267837,
        0.030026106,
        0.12908666,
        0.064177416,
        0.05725385,
        0.13479114,
        0.1209339,
        0.086865306,
        -0.06105748,
        -0.08981217,
        -0.021702453,
        0.0085566,
        -0.094476916,
        -0.057828043,
        -0.01636085,
        0.11976768,
        0.02102808,
        0.111043826,
        0.103650354,
        -0.036229633,
        -0.05428778,
        -0.0641823,
        -0.053988934,
        -0.027008733,
        -0.20784144,
        -0.061932474,
        0.09095902,
        -0.044089217,
        0.008824445,
        -0.03401813,
        0.023566272,
        0.14953364,
        0.1026417,
        0.16915151,
        0.07861572,
        0.10609117,
        -0.047315255,
        -0.01232188,
        -0.13841775,
        -0.03359029,
        -0.03980601,
        -0.09982343,
        -0.08333934,
        -0.07441282,
        0.021028005,
        -0.12001125,
        -0.07978965,
        0.016155703,
        0.04258525,
        -0.085822195,
        0.026319975,
        -0.15942807,
        -0.16071145,
        -7.1263907E-4,
        -0.08173876,
        -0.08406004,
        -0.019241493,
        -0.0911551,
        0.0429422,
        -0.03865075,
        0.08316488,
        0.06435728,
        0.13571447,
        0.1536014,
        0.011680836,
        -0.13077502,
        -0.2112513,
        -0.14622647,
        -0.17527023,
        -0.1644603,
        -0.08021016,
        -0.15927066,
        -0.05587935,
        -0.060796097,
        -0.08569548,
        -0.14738303,
        -0.047584943,
        -0.07160604,
        0.032236233,
        -0.03829831,
        -0.15230407,
        -0.08313536,
        -0.061642013,
        -0.048648577,
        -0.06242864,
        -0.064333804,
        -0.14423758,
        0.01103248,
        0.050364688,
        0.08187593,
        0.11553812,
        0.05979212,
        3.0014355E-4,
        -0.0957745,
        -0.12623502,
        -0.21655233,
        -0.31286526,
        -0.25353473,
        -0.31358394,
        -0.23186295,
        -0.21547924,
        -0.11427464,
        -0.14585976,
        -0.1591715,
        -0.02403431,
        -0.13113965,
        -0.12576595,
        -0.08352867,
        -0.05025571,
        0.07429775,
        -0.021717697,
        -0.070884176,
        -0.0983485,
        3.6420842E-4,
        -0.0036431428,
        0.005948758,
        -0.0026298827,
        -0.005947657,
        0.059555065,
        0.072300225,
        0.059724633,
        -0.036105346,
        -0.16843389,
        -0.08774171,
        -0.05466335,
        -0.26123092,
        -0.17989954,
        -0.3278065,
        -0.12366998,
        -0.23746572,
        -0.25605318,
        -0.1361004,
        -0.17196411,
        -0.060042337,
        -0.11209528,
        -0.14318275,
        0.002387673,
        -0.04618237,
        -0.015355924,
        0.0042545283,
        -0.049322005,
        0.066067226,
        0.017183809,
        -0.040648103,
        0.06831351,
        0.07738597,
        0.14379409,
        0.07998849,
        0.039706033,
        -0.023744123,
        0.0026137773,
        -0.12265323,
        -0.13365565,
        -0.11266293,
        -0.24270947,
        -0.20560898,
        -0.28684548,
        -0.21427861,
        -0.14299,
        -0.15468025,
        -0.16384023,
        -0.08678579,
        -0.0330802,
        -0.12686203,
        0.053803205,
        0.06442226,
        0.034059595,
        0.05854435,
        -0.02698862,
        -2.304517E-4,
        0.07963479,
        0.015675029,
        0.060437165,
        -0.015875584,
        0.09287367,
        -0.0016117985,
        0.08443796,
        0.03812785,
        -0.069326095,
        0.043782637,
        -0.0747943,
        -0.018272463,
        -0.102194436,
        -0.09335178,
        -0.1154707,
        -0.08442235,
        -0.122373916,
        -0.09988982,
        -0.07763307,
        -0.21463054,
        -0.13056116,
        0.020985642,
        0.052690003,
        -0.012646843,
        -0.0021619508,
        -0.02191163,
        -0.040204108,
        -0.015285439,
        -0.007252996,
        -0.028144138,
        -0.009031453,
        0.08406257,
        0.015375029,
        -0.0030197487,
        -0.02962092,
        0.033869963,
        -0.035283342,
        -0.045287557,
        0.01810873,
        0.047692314,
        0.045670375,
        -0.08179509,
        -0.02302768,
        -0.124500245,
        -0.07048533,
        -0.059497863,
        -0.08801283,
        -0.047941457,
        -0.019630844,
        -0.08307533,
        -0.008052258,
        -0.035805527,
        0.07470319,
        0.092912525,
        -0.042863283,
        0.06491907,
        0.08497673,
        0.1022264,
        0.0899815,
        0.07944786,
        0.028189834,
        0.08881311,
        -0.039514784,
        0.033636626,
        5.2235834E-4,
        0.036412254,
        -0.035732448,
        -0.04212395,
        -0.0694826,
        0.063154705,
        -0.06369115,
        -0.09258576,
        -0.16565242,
        -0.06876623,
        -0.13355486,
        -0.13115193,
        -0.008706277,
        -0.13374889,
        0.07466521,
        0.02221733,
        0.006743571,
        0.008316705,
        0.0024914187,
        -0.032034677,
        0.014436698,
        -0.013603431,
        0.07837372,
        0.001051064,
        0.04439082,
        -0.055059873,
        0.046882145,
        0.057111952,
        0.0048207575,
        0.06627586,
        0.0075490265,
        0.015743408,
        0.07578028,
        -0.0010683974,
        0.096506275,
        -0.09114256,
        -0.09293513,
        -0.008729112,
        -0.040525027,
        -0.14187278,
        -0.101503916,
        -0.006943223,
        -0.02904764,
        0.09259809,
        -0.07253339,
        0.09446192,
        0.025251871,
        0.06361403,
        0.06400951,
        -0.0027931551,
        0.009715501,
        0.06928354,
        0.0011655067,
        0.10015029,
        -0.0040794546,
        -0.037702583,
        0.0832431,
        -0.01249711,
        0.039607204,
        0.0777745,
        0.021275077,
        -0.030420745,
        0.022011647,
        -0.004992817,
        -0.08930195,
        -0.16717747,
        -0.1055402,
        -0.054184936,
        -0.05751514,
        0.054440755,
        -0.028935006,
        0.039051857,
        0.058484983,
        0.036071736,
        0.040803365,
        -0.08170552,
        0.03179154,
        0.021039227,
        0.023747014,
        0.018458292,
        -0.0601044,
        -0.05319149,
        0.11307209,
        0.09403045,
        -0.004903847,
        0.054083433,
        -0.009718265,
        0.043761697,
        -0.029063849,
        0.08406258,
        -0.005310055,
        0.09408248,
        -0.041650027,
        -0.048568472,
        0.0075130276,
        -0.07412204,
        -0.027927391,
        0.022598445,
        0.04347174,
        -0.016658332,
        -0.056679312,
        -0.029595941,
        -0.015049989,
        0.06329623,
        0.004555608,
        -0.025033748,
        0.012911068,
        -0.03990529,
        0.042246386,
        0.029012209,
        -0.06838607,
        -0.041944407,
        0.033636272,
        0.050461642,
        -0.049844727,
        0.02191441,
        0.057768814,
        -0.013258023,
        -0.040657558,
        0.06581509,
        0.0060914145,
        -0.0601863,
        0.038270287,
        -0.032986272,
        0.024538737,
        0.006939211,
        0.056106098,
        -0.09813298,
        0.0283742,
        0.025520567,
        -0.015619148,
        0.063360676,
        0.022194797,
        0.01922997,
        -0.040271766,
        0.051009055,
        0.01192282,
        -0.04843293,
        -0.013504056,
        -0.042804122,
        0.008625912,
        0.05320808,
        0.019171031,
        -0.051108867,
        0.07150525,
        0.07130232,
        -0.04103287,
        0.04661359,
        -0.07049887,
        0.021350723,
        0.050308388,
        -0.0966725,
        -0.021513432,
        0.018636214,
        0.022176247,
        -0.031610597,
        0.004056413,
        0.0053680716,
        0.029846933,
        -0.02204892,
        -0.0993231,
        0.08965745,
        -0.008098216,
        0.038366497,
        -0.0024455755,
        0.016010879,
        0.02561932,
        0.016585583,
        0.01495664,
        0.014519199,
        0.05190829,
        0.055083834,
        -0.03969721,
        -0.022705361,
        0.036854696,
        -0.020783503,
        0.08341471,
        -0.07325715,
        -0.076349586,
        0.07811602,
        -0.06260919,
        0.06655781,
        0.049894072,
        0.008647768,
        0.017736107,
        -0.04175174,
        -0.026220847,
        0.04725995,
        0.059963044,
        -0.014073078,
        0.029960642,
        -0.041754637,
        -0.028877972,
        0.044252258,
        0.036586765,
        -0.0395363,
        0.10646432,
        -0.08643503,
        0.032420848,
        0.05675279,
        0.060467318,
        0.022212218,
        0.036104884,
        -0.00874818,
        0.028618097,
        0.090405144,
        0.09675186,
        0.030871438,
        -0.08583954,
        0.04588439,
        0.0085419025,
        0.038580883,
        -0.06735441,
        -0.10649289,
        -0.012665458,
        0.037578274,
        -0.034084722,
        -0.033859983,
        -0.07846601,
        -0.021248575,
        -0.062015284,
        -0.08377456,
        0.0075753503,
        -0.15731072,
        -0.049859382,
        -0.036304176,
        -0.062438544,
        -0.1328288,
        -0.070060365,
        0.013386778,
        -0.042311057,
        -0.05951125,
        0.072911546,
        7.854425E-6,
        0.13585795,
        0.12845473,
        0.12319875,
        0.109093845,
        -0.067078635,
        0.028907234,
        0.041108787,
        -0.05776199,
        -0.09485448,
        -0.06393665,
        -0.07872175,
        -0.08325152,
        0.008208291,
        -0.02377535,
        0.0023440856,
        0.112678654,
        0.042331032,
        0.10969322,
        -0.03406944,
        -0.013868535,
        0.07414656,
        0.0062296335,
        -0.044838496,
        -6.758434E-4,
        0.005739789,
        -0.05289148,
        -0.011934491,
        0.057153136,
        0.06115626,
        0.086162426,
        0.0041382187,
        0.029314626,
        -0.08705057,
        0.032674037,
        0.00522551,
        -0.05484031,
        0.04724655,
        -0.007079563,
        0.037628602,
        0.0052365195,
        -0.031431917,
        0.016508572,
        0.121372275,
        -0.012946766,
        0.11482288,
        0.087809846,
        0.058801387,
        -0.016529096,
        0.083075486,
        0.061522055,
        -0.0027801981,
        0.020130688,
        0.015939109,
        -5.1025616E-4,
        -0.017174797,
        -0.04848899,
        -4.5176054E-4,
        0.0056456686,
        -0.015412121,
        -0.039387487,
        -0.073891215,
        0.0042486126,
        0.06782909,
        -0.038724452,
        -0.106031194,
        -0.03341066,
        -0.005412769,
        0.027468657,
        -0.07534965,
        0.047278196,
        0.0077692927,
        0.043508973,
        -0.057087462,
        -3.2602518E-4,
        0.09929932,
        0.04056388,
        0.017420307,
        0.041366026,
        -0.009376776,
        0.12387094,
        0.056701787,
        0.05014162,
        0.069222234,
        0.070078075,
        0.07202005,
        0.056722317,
        0.07299837,
        -0.04951623,
        0.015650384,
        -0.03120598,
        -0.006071378,
        0.08469819,
        0.013296396,
        0.053033777,
        -0.001720102,
        0.016742513,
        0.09029269,
        -0.016169554,
        0.062058702,
        0.07488194,
        0.08134218,
        0.067605905,
        -0.041482754,
        0.0033819713,
        0.06784741,
        0.012953724,
        0.10052745,
        0.060309507,
        0.051557813,
        0.030199455,
        0.023017298,
        0.03536265,
        0.019820739,
        0.06765077,
        0.06665204,
        -0.028842427,
        0.004089896,
        -0.009252676,
        -0.018442454,
        0.075130925,
        -0.018469678,
        0.12615277,
        -0.053551774,
        0.09955459,
        0.017298188,
        -0.03890963,
        0.12527241,
        0.047955208,
        -0.04705778,
        0.13868311,
        0.010493528,
        0.065900445,
        0.01884794,
        0.012834825,
        0.029574726,
        0.037866555,
        0.08944747,
        0.08301701,
        0.07824444,
        -0.020799058,
        0.04181616,
        0.07705334,
        0.061415583,
        -0.059237912,
        -0.04657543,
        0.079058684,
        0.0873348,
        0.057919815,
        0.006620732,
        0.0015898736,
        0.04444161,
        0.06746388,
        -0.013744216,
        -0.004235908,
        0.015639627,
        0.03446878,
        0.1426748,
        -2.5950966E-4,
        0.018442009,
        -0.027993454,
        0.024001734,
        -0.059901655,
        -6.2293204E-4,
        -0.037221972,
        -0.01866056,
        -0.11028043,
        -0.01572126,
        0.0065756575,
        0.03775912,
        0.10205535,
        0.09695913,
        -0.007141119,
        0.05324271,
        -0.033032876,
        0.094625026,
        -0.0057023247,
        0.082994394,
        0.16029051,
        0.007538986,
        0.13212526,
        2.9164745E-4,
        0.09956037,
        0.06299398,
        -0.009767116,
        -0.01711056,
        -0.03227023,
        0.063830264,
        -5.1348156E-4,
        -0.09459346,
        0.018820385,
        -0.10114283,
        -0.07816481,
        -0.014394142,
        -0.024097078,
        -0.13885836,
        -0.099553645,
        -0.17475966,
        0.034304187,
        -0.10084086,
        -0.16801381,
        -0.020210505,
        -0.06335282,
        0.13109735,
        0.061762743,
        0.084121406,
        0.044740107,
        0.013780351,
        0.033924457,
        0.10201434,
        -0.029929044,
        0.0017926831,
        -0.04791285,
        -0.004605891,
        0.0626025,
        -0.036940884,
        -0.037199456,
        0.053933848,
        -0.10703855,
        0.039276637,
        -0.07774486,
        -0.043398898,
        0.0013828784,
        -0.0038026827,
        -0.027453545,
        -0.02857362,
        -0.11386632,
        -0.006312907,
        -0.20778775,
        -0.10726418,
        0.02900438,
        -0.06798696,
        0.016334414,
        0.08064669,
        0.05509074,
        0.030991666,
        0.11327238,
        -0.057480957,
        -0.062406413,
        -0.0323688,
        -0.058542427,
        -0.040988483,
        -0.070865676,
        0.024523228,
        -0.03666392,
        -0.0030051884,
        -0.050586447,
        -0.011489082,
        0.0289295,
        -0.052355655,
        -0.116495244,
        0.0037080364,
        -0.08371283,
        0.04861706,
        0.034525137,
        0.02931316,
        -0.17359155,
        -0.1472827,
        -0.0397527,
        -0.049804684,
        -0.11917426,
        -0.12569208,
        -0.07224699,
        -0.1551818,
        -0.09011607,
        -0.06530449,
        -0.11461949,
        -0.16898751,
        -0.066284135,
        -0.15132773,
        -0.07943774,
        -0.08034353,
        -0.10203473,
        -0.13250828,
        -0.08295528,
        -0.15686871,
        -0.124435276,
        0.002312114,
        -8.843676E-4,
        -0.09413614,
        -0.049476948,
        -0.031641357,
        -0.0456157,
        0.03760699,
        -0.15296,
        -0.1461833,
        -0.03637363,
        -0.15979405,
        -0.14928977,
        -0.08411679,
        -0.18478645,
        -0.17290996,
        -0.14738263,
        -0.2808444,
        -0.2671504,
        -0.29713738,
        -0.293736,
        -0.27511293,
        -0.23949926,
        -0.25314498,
        -0.18393147,
        -0.07013731,
        -0.19743654,
        -0.06792028,
        -0.10275312,
        -0.057894245,
        -0.1354244,
        -0.005083712,
        -0.09139161,
        0.003831199,
        -0.056806937,
        -0.10151724,
        -0.005170858,
        -0.115691334,
        -0.21947287,
        -0.2374283,
        -0.14654599,
        -0.15395273,
        -0.32115725,
        -0.19168699,
        -0.2565804,
        -0.2896449,
        -0.18817417,
        -0.16450904,
        -0.227813,
        -0.1549921,
        -0.21081308,
        -0.18773642,
        -0.22770254,
        -0.18413247,
        -0.13272847,
        -0.22134425,
        -0.10491598,
        -0.1331347,
        -0.13629785,
        -0.06647595,
        -0.014157951,
        -0.0025202178,
        -0.033445355,
        -0.023485357,
        -0.14460038,
        -0.17727056,
        -0.0818201,
        -0.17840828,
        -0.09375234,
        -0.21693729,
        -0.13168834,
        -0.0317747,
        -0.06845067,
        -0.047710635,
        -0.093705624,
        -0.031118784,
        -0.021767199,
        -7.720468E-4,
        -0.093873054,
        -0.013109213,
        -0.099403635,
        -0.0033392427,
        -0.15744597,
        -0.05046627,
        -9.84309E-4,
        -0.11285409,
        -0.0433885,
        -0.107751384,
        -0.1361362,
        -0.012958493,
        -0.0033969162,
        0.03471155,
        -0.046918094,
        -0.10092018,
        0.012858568,
        -0.103393026,
        -0.116683915,
        0.08861257,
        -0.015268854,
        0.01647243,
        -0.04327914,
        0.124724336,
        0.10369388,
        0.12059232,
        0.09565832,
        0.13090524,
        0.07947323,
        0.07444302,
        0.08320453,
        -0.013607093,
        0.0059871334,
        -0.041665673,
        -0.058655825,
        -0.17713748,
        -0.034229703,
        -0.09884038,
        -0.02125238,
        -0.14799368,
        -0.004587804,
        -0.14359044,
        -0.11584071,
        0.019560568,
        -0.01193939,
        0.11291699,
        0.08509737,
        0.11452825,
        -0.018201629,
        0.087950625,
        0.1351523,
        0.1409041,
        -0.02245835,
        0.13112022,
        0.029008651,
        0.0883674,
        0.05404837,
        0.07492041,
        0.064565964,
        0.0823712,
        0.11125676,
        0.10164527,
        0.06353685,
        0.075413376,
        -0.0110229,
        0.020513264,
        -0.10398918,
        -0.053282302,
        -0.09167512,
        -0.038868174,
        -0.07259914,
        0.0012174909,
        0.12554799,
        0.09601798,
        -0.029130928,
        0.08683483,
        0.041815173,
        0.0012245215,
        0.06598478,
        -0.0070653157,
        0.11116762,
        0.055020906,
        0.025776522,
        0.039150875,
        0.096547216,
        0.017132835,
        0.09637073,
        0.07558589,
        0.104651116,
        -0.0010173225,
        0.08809481,
        0.10889779,
        0.08993621,
        0.0026886666,
        -0.070520245,
        0.082450405,
        0.049537435,
        -0.018640729,
        0.094380096,
        0.15475233,
        0.008926181,
        0.11072126,
        0.060763355,
        -0.011746817,
        0.025090879,
        0.121183336,
        0.019602109,
        0.08551039,
        0.046303816,
        -0.00955155,
        0.10692565,
        0.114806,
        -0.0058871205,
        0.123294674,
        0.09829062,
        0.045539964,
        0.048832387,
        0.1328108,
        -0.040824857,
        0.019787613,
        0.068983845,
        0.092189,
        0.04360813,
        0.07745228,
        -0.030990485,
        0.08092707,
        0.002120411,
        0.08448319,
        -0.0146238245,
        0.11319204,
        0.0050725862,
        0.09831875,
        -0.012171216,
        0.12555501,
        0.0073166895,
        0.11277372,
        0.027138237,
        0.07452827,
        -0.06470119,
        0.043951564,
        0.0020743327,
        0.05696699,
        -0.019181695,
        0.03791495,
        0.0452879,
        0.03445732,
        0.058657408,
        0.04426135,
        0.071905024,
        0.0013233239,
        0.040580157,
        0.073170334,
        0.020589018,
        -0.028689483,
        -0.017173963,
        0.054167338,
        0.07313988,
        -0.009387965,
        0.03389392,
        0.05003222,
        0.017041508,
        -0.030705484,
        -9.690691E-5,
        0.08785637,
        -0.0321641,
        0.035136275,
        -0.05018662,
        0.02821735,
        0.023973377,
        -0.040463243,
        -0.055005595,
        0.039258722,
        -0.10366041,
        0.037378475,
        -0.007504204,
        0.055810884,
        0.07590364,
        0.0051253876,
        0.07855177,
        0.0908489,
        -0.05569624,
        0.13957793,
        0.063142695,
        -0.062344268,
        -0.015869902,
        0.09714298,
        0.040654447,
        0.13309833,
        0.011004372,
        0.11444641,
        0.019606287,
        -0.056464586,
        -0.04293023,
        -0.07348689,
        0.004559104,
        -0.046480156,
        -0.05776251,
        0.059235945,
        -0.012364506,
        0.053224504,
        -0.051985964,
        -0.022177104,
        0.037886668,
        9.59753E-4,
        -0.0649767,
        0.11067474,
        0.043404203,
        0.08745655,
        0.080455504,
        -0.0034766935,
        -0.038307045,
        -0.098262355,
        0.067584835,
        -0.020110194,
        0.010409986,
        0.012188436,
        0.02686642,
        -0.075660475,
        -0.04518556,
        -0.04318266,
        -0.052584894,
        0.012201008,
        0.044133272,
        -0.017098518,
        0.04321445,
        -0.048092637,
        -0.057720356,
        -0.02870077,
        0.031797003,
        -0.05655193,
        0.070128515,
        -0.03798978,
        -0.0019723012,
        -0.031114126,
        0.025730418,
        -0.04963612,
        0.079793625,
        0.07207577,
        -0.045702826,
        -0.07512152,
        -0.029634012,
        -0.05234134,
        -0.052450586,
        0.050347175,
        -0.0010273685,
        0.008897655,
        0.027282635,
        0.039160468,
        -0.05455506,
        -0.09069024,
        0.030187085,
        -0.07665009,
        -0.05205603,
        0.0017131395,
        -0.049320128,
        -0.083394155,
        -0.06616499,
        -0.066466995,
        -0.045307614,
        0.025237063,
        -0.1223278,
        -0.06910424,
        0.020514773,
        -0.07949064,
        0.05145822,
        -0.0033440976,
        0.091904804,
        -0.0477978,
        0.0716163,
        -0.006375819,
        -0.0046305656,
        -0.060881082,
        0.053635422,
        0.034777246,
        -0.050913088,
        -0.10155261,
        -0.027487958,
        -0.14570054,
        -0.03479705,
        -0.049292017,
        -0.06423386,
        -0.14542992,
        -0.016187556,
        -0.039881352,
        -0.040478457,
        -0.18930872,
        -0.22429833,
        -0.13436961,
        -0.0064560887,
        0.034260944,
        -0.083367616,
        -0.0152531415,
        0.051950235,
        0.05484541,
        -0.07263216,
        0.030739712,
        -0.046025787,
        0.02480779,
        0.026617803,
        -0.06293197,
        -0.06217119,
        -0.11576284,
        0.0042553847,
        -0.109617725,
        -0.07659911,
        -0.0013417414,
        -0.1560339,
        -0.07827542,
        -0.03586818,
        -0.11601039,
        -0.08634901,
        -0.09788781,
        -0.03488014,
        -0.047046375,
        -0.023153149,
        -0.1226573,
        -0.16984735,
        -0.0057561556,
        -0.13707772,
        -0.11294192,
        -0.10880252,
        -0.11186514,
        0.027252506,
        -0.035560127,
        -0.065198824,
        -0.05340415,
        -0.12335745,
        0.022252709,
        -0.056561474,
        -0.061826844,
        -0.040214714,
        0.002765499,
        -0.048494603,
        -0.06746254,
        -0.030596808,
        -0.03704581,
        -0.051829666,
        -0.04906121,
        -0.10447812,
        -0.069987856,
        -0.069497325,
        -0.04751309,
        -0.14515574,
        0.02164998,
        -0.014114406,
        0.027689207,
        -0.017621467,
        -0.07289546,
        -0.072523296,
        -0.039999407,
        -0.023215422,
        0.086249046,
        0.027058955,
        -0.03367097,
        -0.018243587,
        -0.095031925,
        -0.047403704,
        -0.002858614,
        0.02892193,
        -0.06601571,
        0.016255934,
        0.0048938235,
        0.053780045,
        -0.0035312204,
        0.048670374,
        -0.020578263,
        0.06500226,
        -0.009488309,
        -0.03329597,
        0.0075086504,
        8.021564E-4,
        0.050941974,
        -0.11739308,
        -0.045046717,
        0.037950125,
        -0.013676377,
        -0.11262294,
        0.04058377,
        -0.064181,
        -0.0032109562,
        -0.045979843,
        0.046037126,
        -0.080098994,
        -0.03872237,
        0.032319315,
        -0.0012886138,
        0.0061977725,
        -0.025972392,
        -0.048256822,
        0.08051088,
        -0.0289626,
        -0.04363162,
        0.04611523,
        0.110429965,
        0.012121421,
        0.06402744,
        0.07717104,
        0.013123034,
        0.07029114,
        -0.032992546,
        0.060337044,
        -0.03029891,
        -0.05796598,
        -0.014288721,
        0.025659097,
        0.08935537,
        -0.050646577,
        -0.0045038713,
        -0.08185454,
        0.09213618,
        -0.046828717,
        -0.022907965,
        -0.034867626,
        -0.09016597,
        -0.012708272,
        0.06543012,
        -0.100521415,
        0.01897472,
        -0.101107486,
        -0.037446845,
        -0.0703062,
        0.0076024635,
        -0.053933546,
        0.041495737,
        -0.030564088,
        0.0659147,
        0.012474932,
        -0.02958801,
        -0.006178307,
        -0.09876356,
        -0.03388439,
        0.034891747,
        -0.05858174,
        0.08407976,
        5.5732473E-4,
        -0.06807248,
        0.06549053,
        -0.050491236,
        -0.005702625,
        -0.063686915,
        0.027721789,
        0.042638086,
        -0.08473768,
        0.0153017165,
        0.042678364,
        -0.11527217,
        0.044111025,
        -0.03144238,
        -0.018668441,
        0.039790694,
        -0.12058605,
        -0.05530562,
        -0.059105534,
        -0.1403221,
        0.031335596,
        -0.056829337,
        0.030992392,
        -0.077850774,
        -0.04491548,
        -0.06431854,
        0.0014489546,
        0.004982048,
        0.052390736,
        0.04567779,
        0.06175426,
        -0.0183293,
        0.058287162,
        -0.055329785,
        -0.10189696,
        -0.10680147,
        0.04061622,
        -0.08657015,
        0.054722276,
        0.05008397,
        -0.08275136,
        -0.023680301,
        -0.0179284,
        -0.05699148,
        -0.09907438,
        0.03179955,
        -8.928415E-4,
        -0.06554974,
        -0.0532132,
        -0.10029323,
        -0.01595447,
        -0.057738163,
        -0.0044464595,
        0.0076235062,
        0.056448992,
        -0.045731016,
        0.05743441,
        -0.03411734,
        -0.060104925,
        -0.10128292,
        0.068943486,
        0.023394484,
        -0.015496466,
        0.051171847,
        -0.113250956,
        -0.0623596,
        -0.082412735,
        0.07000037,
        -0.070606425,
        -0.048800312,
        -0.038056646,
        0.0024022334,
        -0.03370609,
        -0.0669519,
        0.07532024,
        -0.023623344,
        -0.07756102,
        0.01551739,
        -0.072123095,
        0.02727704,
        -0.08234108,
        0.048023105,
        -0.06534395,
        -0.11079363,
        0.036890704,
        -0.060525756,
        -0.10142184,
        0.070571765,
        0.024742993,
        0.0068577253,
        -0.08457173,
        0.016226701,
        0.035454046,
        -0.099396914,
        0.038539402,
        -0.07743846,
        -0.05312642,
        0.002776521,
        -0.040465564,
        0.052921563,
        -0.07772118,
        -0.020973537,
        -0.042881798,
        -0.057926033,
        0.001891172,
        -0.04011407,
        0.034969267,
        -0.100063734,
        -0.0062410394,
        -0.025874028,
        5.087851E-5,
        -0.004632339,
        0.0511381,
        -0.020861981,
        0.026708852,
        -0.06932409,
        0.012876409,
        -0.06100407,
        -0.1218747,
        -0.009248714,
        0.013903355,
        -0.0243064,
        0.026187781,
        -0.023766078,
        0.042036347,
        -0.05022866,
        0.031784166,
        -0.08547273,
        -3.3083896E-5,
        2.761449E-4,
        -0.031537373,
        0.014943387,
        -0.0685096,
        -0.08131478,
        -0.14294855,
        0.0017777911,
        -0.11352114,
        -0.0066763954,
        1.246566E-4,
        -0.09504099,
        0.043345913,
        -0.031986482,
        0.01389312,
        -0.035492126,
        0.007231374,
        -0.108665615,
        0.10038058,
        -0.07339995,
        -0.0015897403,
        -0.07312437,
        0.074268214,
        -0.07373299,
        -0.06859815,
        0.027519748,
        -0.009518212,
        -0.06474413,
        0.015230119,
        -0.050804246,
        -0.03250475,
        -0.049839698,
        0.0014234995,
        -0.016379716,
        -0.039274655,
        -0.036836363,
        -0.021999396,
        -0.036523715,
        -0.07032985,
        -0.08139667,
        -0.009678346,
        0.0075585023,
        -0.055997234,
        0.0066019096,
        -0.09254686,
        -0.06946054,
        -0.027968096,
        -0.051922284,
        0.040940966,
        -0.0774571,
        -0.009137702,
        -0.013213314,
        -0.0013066456,
        -0.05597656,
        -0.056651507,
        0.013344173,
        0.022894941,
        -0.03373375,
        -0.036005806,
        0.02964444,
        -0.103039235,
        -0.030242119,
        -0.072157376,
        -0.0960487,
        -0.07003159,
        -0.025816325,
        -0.05579927,
        -0.04670619,
        0.06570466,
        0.06417345,
        0.023631336,
        -0.05308877,
        0.0049995803,
        0.004519947,
        -0.052289266,
        3.917418E-4,
        0.0028594437,
        -0.07336432,
        0.03831672,
        -0.1153055,
        -0.032818496,
        -0.008161796,
        -0.04591268,
        -0.055553786,
        -0.050658423,
        -0.054905992,
        -0.0050942693,
        -0.05355701,
        0.051679116,
        -0.046419434,
        -0.09360605,
        -0.010654059,
        0.008416261,
        -0.015390883,
        -0.027651457,
        -0.024338953,
        -0.13753681,
        -0.039505333,
        0.048270505,
        -0.09831691,
        -0.15655749,
        -0.101146005,
        -0.045844607,
        -0.07505411,
        -0.11916199,
        0.017436163,
        -0.11552061,
        -0.04070496,
        -0.10000803,
        -0.08984421,
        -0.0808658,
        -0.014370439,
        -0.055243667,
        -0.015684761,
        0.011286,
        -0.050465167,
        -0.046279833,
        0.0706788,
        -0.061744742,
        0.03377674,
        -0.14926614,
        0.0011139667,
        -0.075583026,
        0.018494641,
        -0.10394793,
        -0.034602743,
        -0.02797589,
        -2.8323676E-4,
        0.01783302,
        -0.11963736,
        -0.0031096395,
        -0.059693772,
        -0.08175041,
        -0.03850779,
        -0.034674574,
        -0.067902975,
        -0.07427311,
        -0.048230305,
        -0.07311844,
        -0.11784222,
        -0.08296029,
        -0.0653209,
        -0.06522837,
        -0.0057084654,
        -0.017818926,
        -0.06822741,
        -0.052166436,
        -0.07303416,
        0.024677472,
        -0.15492086,
        -0.01301485,
        0.0099628465,
        -0.07533402,
        0.15199979,
        0.031553596,
        -0.08586423,
        -0.031582408,
        -0.100560315,
        -0.08966743,
        -0.099839985,
        -0.07163599,
        -0.09324075,
        -0.11824138,
        -0.11256758,
        -0.06462131,
        -0.09787115,
        -0.078307435,
        -0.020401744,
        -0.07964921,
        -0.061729316,
        -0.06374645,
        -0.07565625,
        -0.032695826,
        -0.044187177,
        -0.051704336,
        -0.10951775,
        -0.025932407,
        -0.08433123,
        0.06141326,
        -0.031484228,
        -0.21088766,
        0.10100882,
        0.05060322,
        -0.07768267,
        -0.1254649,
        -0.16380338,
        -0.043137845,
        -0.0130097745,
        -0.085788086,
        -0.115563616,
        -0.18342301,
        -0.18679476,
        -0.13073267,
        -0.10440725,
        -0.15638998,
        -0.15263976,
        -0.1404147,
        -0.118157715,
        -0.09573324,
        -0.100325085,
        -0.11678618,
        -0.08232976,
        -0.11333831,
        -0.043964103,
        -0.16316812,
        -0.052479114,
        -0.125308,
        -0.046114426,
        -0.18954176,
        0.059015222,
        -0.11311573,
        -0.07878386,
        0.03280579,
        -0.06968599,
        -0.16318576,
        -0.09463575,
        -0.16486457,
        -0.09017945,
        -0.13342454,
        -0.12870464,
        -0.121522635,
        -0.16485818,
        -0.04328964,
        -0.06322762,
        -0.09710037,
        -0.10476421,
        -0.11802094,
        -0.11619307,
        -0.08270877,
        -0.20540263,
        -0.09701957,
        -0.09361123,
        -0.13634191,
        -0.046872087,
        -0.045234054,
        -0.029468773,
        -0.12349318,
        0.117102884,
        -0.08141166,
        0.022951357,
        -0.052075017,
        0.028380875,
        -0.09296416,
        -0.10081357,
        -0.083216645,
        -0.12956303,
        -0.17134775,
        -0.09530838,
        -0.063106604,
        -0.07120165,
        -0.14791515,
        -0.07006705,
        -0.08566237,
        -0.12435635,
        -0.07761852,
        -0.15657324,
        -0.067154296,
        -0.09290149,
        -0.13776524,
        -0.11362621,
        -0.08174947,
        -0.10897039,
        -0.084995896,
        -0.07544667,
        -0.18363826,
        0.04748755,
        0.0079074325,
        0.1311693,
        0.010630744,
        0.051025145,
        0.0027879677,
        -0.046988454,
        -0.14557731,
        -0.022358129,
        -0.054330304,
        -0.059294373,
        -0.03571268,
        -0.011287097,
        -0.066612825,
        -0.03964877,
        -0.081013165,
        -0.07879188,
        -0.11681144,
        -0.026488904,
        -0.07289509,
        -0.13870683,
        -0.08089979,
        -0.17714338,
        -0.12635656,
        -0.18675932,
        -0.108690515,
        -0.06270089,
        -0.1524478,
        0.09132233,
        0.04946821,
        0.12914793,
        0.1071287,
        0.063289635,
        0.14285839,
        0.018868402,
        0.045017,
        -0.048838023,
        -0.10715621,
        -0.006946134,
        -0.09337796,
        0.012404433,
        -0.09901655,
        -0.061747305,
        -0.04694222,
        -0.081731476,
        -0.08813294,
        -0.133476,
        -0.031669594,
        -0.12089804,
        -0.011793929,
        -0.09131129,
        -0.040326227,
        -0.11188983,
        -0.101559624,
        -0.14891186,
        -0.21369322,
        0.13532639,
        0.12816851,
        0.115365095,
        0.1310599,
        0.1172936,
        0.18832247,
        0.12799828,
        0.11292169,
        0.079680994,
        0.008418062,
        0.016465468,
        -0.07670388,
        0.003919052,
        -8.106727E-4,
        -0.05551527,
        -0.056116294,
        -0.05491154,
        -0.012199299,
        -0.066546604,
        -0.068605214,
        -0.03923952,
        -0.101220295,
        -0.05975866,
        0.011663447,
        -0.08740085,
        -0.056516223,
        -0.13893874,
        -0.13569209,
        0.026814327,
        0.05127529,
        0.18274254,
        0.21050486,
        0.15971759,
        0.07940875,
        0.22473565,
        0.18173435,
        0.15487187,
        0.100699015,
        0.14575027,
        0.026561573,
        0.09193493,
        -0.021543019,
        0.06797441,
        -0.05143597,
        9.86588E-4,
        -0.0114680175,
        0.032712206,
        0.0075377077,
        -0.065674305,
        0.04145342,
        -0.08389805,
        0.03145385,
        -0.08784566,
        -0.017139137,
        -0.07691354,
        -0.07640101,
        0.02468463,
        0.05898934,
        0.11912183,
        0.031509783,
        0.10888945,
        0.147124,
        0.15587549,
        0.13357826,
        0.2050236,
        0.16865534,
        0.20270489,
        0.18696892,
        0.18038039,
        0.13812046,
        0.11720277,
        0.11124352,
        0.17678055,
        0.008117764,
        0.07849803,
        0.05901178,
        0.12692271,
        0.01845205,
        0.040818937,
        -0.010773123,
        0.00442216,
        0.11268253,
        -0.039790716,
        0.025054859,
        -0.0079715,
        0.09417592,
        0.04069943,
        0.098263614,
        0.07179205,
        0.08455138,
        0.07667962,
        0.14770667,
        0.1606997,
        0.14387387,
        0.15302323,
        0.25345817,
        0.15485469,
        0.19392923,
        0.115355715,
        0.19366452,
        0.08793462,
        0.21309495,
        0.11924739,
        0.18071052,
        0.08509906,
        0.18554468,
        0.13375197,
        0.119692355,
        0.041809645,
        0.10094931,
        0.14803861,
        0.15967704,
        0.053924005,
        -2.1124078E-4,
        0.06810748,
        -0.0069287308,
        0.07086202,
        0.06650396,
        0.092394546,
        0.030810077,
        0.091512546,
        0.070430025,
        0.13587205,
        0.13903312,
        0.098606125,
        0.17485112,
        0.21120998,
        0.14218335,
        0.20574956,
        0.15770847,
        0.20844315,
        0.115697816,
        0.096353255,
        0.12074775,
        0.04526517,
        0.18901773,
        0.058674816,
        0.064838424,
        0.1939232,
        0.07425918,
        -0.06656431,
        0.10958847,
        -0.057208568,
        -0.085126214,
        0.041518617,
        -0.055191018,
        0.067208774,
        0.011986913,
        0.0435012,
        0.024297586,
        0.10826241,
        0.04848709,
        0.15279254,
        0.08787773,
        0.08349646,
        0.12925558,
        0.12447637,
        0.10471139,
        0.10226453,
        0.20700075,
        0.19971554,
        0.16042575,
        0.13416177,
        0.11056655,
        0.16643184,
        0.11305844,
        0.14043577,
        0.1359726,
        -0.16588873,
        0.062147148,
        -0.018944576,
        0.048042234,
        0.0044418895,
        -0.06636285,
        0.042055737,
        -0.017920207,
        -0.006807173,
        -0.006237527,
        -0.02499812,
        0.07341354,
        -0.02557846,
        0.07714809,
        0.046876803,
        0.08425657,
        0.016430557,
        0.1552378,
        0.10351702,
        0.14104088,
        0.07402054,
        0.07785227,
        0.2187419,
        0.16912518,
        0.18930992,
        0.076026015,
        0.24313371,
        0.056536984,
        -0.2077253,
        0.07349934,
        -4.4769855E-4,
        -0.012057509,
        -0.09264211,
        0.028797451,
        -0.12025612,
        0.007038853,
        -0.039666552,
        -0.067597754,
        0.046551175,
        -0.08056525,
        0.017726982,
        -0.06477313,
        -9.166666E-4,
        -0.0364021,
        0.04079541,
        -0.025457805,
        0.09648021,
        0.11862282,
        0.12829211,
        0.06397808,
        0.08380954,
        0.08375482,
        0.104092516,
        0.16477789,
        0.07903244,
        0.19437242,
        -0.13591643,
        -0.11572914,
        -0.039285835,
        0.058153007,
        -0.01040193,
        -0.047635768,
        -0.0014320281,
        -0.010540473,
        -0.122158945,
        0.021270515,
        -0.02994695,
        -0.060393598,
        -0.059980918,
        0.018103817,
        -0.024170922,
        0.009015636,
        -0.014840649,
        0.0032628344,
        -0.038953282,
        -0.05757355,
        0.061488915,
        -0.026429635,
        -0.005944982,
        0.06051682,
        0.10698324,
        0.12589258,
        0.039123762,
        -0.013557069,
        -0.2602469,
        -0.10039757,
        -0.074063905,
        -0.025466649,
        0.024398042,
        -0.07642764,
        0.06392656,
        -0.010931916,
        0.039176356,
        -0.06697513,
        -0.0170633,
        0.010707054,
        0.032211293,
        -0.037796944,
        -0.06149268,
        0.04941828,
        -0.09913014,
        -0.018498262,
        -0.052179378,
        -0.049023423,
        0.0144575,
        0.072455585,
        0.076325655,
        0.032947328,
        0.029414305,
        0.09626819,
        -0.057274725,
        0.062361114,
        -0.17527533,
        -0.1965792,
        -0.05568566,
        -0.07934861,
        -0.062083267,
        -0.08258068,
        -0.1057236,
        -0.1014825,
        -0.021628097,
        -0.11232134,
        -0.1484285,
        -0.030404538,
        -0.13746431,
        -0.08912117,
        -0.0062421714,
        -0.16329369,
        -0.0322419,
        -0.09559338,
        -0.050979048,
        -0.06077692,
        -0.13554138,
        -0.025352517,
        -0.061753754,
        -0.0016267662,
        0.038296543,
        0.012898757,
        0.041959662,
        0.0066362154,
        0.05410999,
        0.037132155,
        -0.024379686,
        -0.061047412,
        0.015559315,
        0.09076941,
        0.09265775,
        -0.06668857,
        -0.07394769,
        0.035128146,
        -0.012450644,
        0.04655444,
        -0.026011085,
        0.053945716,
        -0.019485842,
        -0.050440703,
        -0.05601835,
        0.019560304,
        0.08932267,
        -0.060909722,
        -0.06489649,
        -0.043306533,
        0.038118947,
        -0.10625256,
        -0.0064373533,
        0.031703208,
        -0.06988857,
        -0.043696437,
        0.08376824,
        0.02485828,
        -0.031311493,
        -0.027568735,
        -0.028984353,
        0.022951022,
        -0.06755766,
        0.039732162,
        -0.034458965,
        -0.0506666,
        -0.038739555,
        0.05214137,
        -0.023405507,
        0.11889545,
        0.07199723,
        0.08925239,
        -0.038119588,
        0.088752165,
        -0.04167516,
        -0.07035484,
        -0.02725358,
        0.06654487,
        0.0054398947,
        -0.027831702,
        -3.098543E-4,
        0.07747771,
        -0.06417604,
        0.055248063,
        0.03715616,
        -0.0130407,
        0.040221527,
        0.07385868,
        -0.07442037,
        -0.03225847,
        0.06691451,
        0.09542918,
        0.07826493,
        0.12952092,
        0.1303118,
        0.06297807,
        0.0660529,
        0.1304337,
        0.01770742,
        0.0837197,
        -0.007949913,
        0.084802374,
        -0.04843251,
        -0.04808458,
        0.04261842,
        -0.06490382,
        -0.053628236,
        0.018951392,
        0.043675058,
        0.048099127,
        -0.067796275,
        -0.03537551,
        0.05932521,
        0.031898763,
        0.009929327,
        0.08039981,
        0.08323328,
        0.049250938,
        0.020590385,
        0.08474199,
        0.05715243,
        0.07875836,
        0.027271315,
        0.14684837,
        0.04257657,
        0.09937743,
        0.04384836,
        0.040678777,
        0.060272206,
        -0.054061532,
        0.07654967,
        -0.10598253,
        0.06956234,
        -0.09471291,
        -0.009883003,
        -0.07769006,
        -0.06853016,
        -0.082834736,
        -0.055091973,
        -0.05120585,
        -0.0539161,
        4.4961332E-4,
        0.014385001,
        -0.013146468,
        0.07941873,
        -0.082819685,
        -0.05112878,
        -0.006285159,
        0.049906082,
        0.11243163,
        0.004355641,
        0.05156331,
        0.085236505,
        0.04766875,
        0.048002433,
        0.021115035,
        0.019079424,
        -0.10207608,
        -0.064281516,
        -0.021489073,
        0.026845915,
        -0.037240215,
        -0.053192742,
        0.05137324,
        0.014263244,
        -0.10226701,
        -0.09806296,
        -0.09051487,
        -0.021383487,
        0.033490367,
        -0.08240434,
        0.03687474,
        0.07735906,
        0.089619,
        0.0794746,
        -0.028053958,
        -2.5411515E-4,
        0.14653917,
        0.07440965,
        0.008643285,
        0.059540946,
        0.020212505,
        0.01905146,
        -0.062286656,
        0.11927329,
        -0.012296704,
        2.5745918E-4,
        0.0015127312,
        0.0097480435,
        -0.10317065,
        -0.027033865,
        -0.005552131,
        0.025630802,
        0.012707118,
        -0.083522625,
        0.083506905,
        0.012578625,
        0.020486645,
        0.077699095,
        0.09570406,
        0.023795,
        0.060085397,
        0.019380115,
        0.10790767,
        -0.008507834,
        0.03378779,
        0.098920666,
        -0.05948849,
        -0.07630662,
        -0.1378492,
        0.0011362601,
        0.046584927,
        -0.051321354,
        0.004694795,
        -0.028765798,
        -0.058802694,
        -0.08523238,
        -0.049319297,
        -0.05210277,
        -0.047733564,
        0.014591044,
        -0.0069060028,
        0.055866025,
        -0.0024540378,
        0.028128956,
        0.04795515,
        -0.04091842,
        0.0021075367,
        -0.012960207,
        -0.07288771,
        0.053395104,
        0.041989837,
        -0.0383873,
        -0.02096688,
        -0.040897604,
        0.004924769,
        -0.044553924,
        -0.036755398,
        -0.06838553,
        -0.10406472,
        0.01938362,
        -0.1022171,
        0.02587211,
        0.012816577,
        -0.055740867,
        -0.002554105,
        -4.0428923E-4,
        0.062884256,
        -0.04330245,
        -0.04797162,
        -0.022285251,
        -0.08395156,
        0.052016854,
        0.107271925,
        -0.040374033,
        -0.029402187,
        -0.01563749,
        0.079392046,
        0.0020049366,
        -0.059055686,
        0.14540787,
        -0.032860033,
        -0.054362528,
        -0.14800109,
        -0.230453,
        -0.048608977,
        0.019879244,
        0.024072953,
        0.0064715864,
        -0.039715685,
        -0.00157799,
        0.0038483418,
        0.09163562,
        -0.033918116,
        -0.07903771,
        0.067006335,
        -0.011649735,
        -0.06798172,
        -0.016341338,
        -0.007253874,
        -0.007942975,
        -0.075187914,
        0.057103112,
        0.05314399,
        -0.026527796,
        0.026829962,
        0.0026549022,
        0.08363177,
        0.11901604,
        -0.021209786,
        -0.06569744,
        -0.17046545,
        -0.09533056,
        0.020337194,
        0.008564634,
        0.085113406,
        -0.044011664,
        -0.008448149,
        -0.0035076234,
        0.051471524,
        -0.042582907,
        0.060474694,
        -0.021707019,
        0.023536984,
        0.043805476,
        0.039011784,
        0.07557949,
        0.085490406,
        -0.052446686,
        -0.065647475,
        -7.9540256E-4,
        -0.03839948,
        -0.013077291,
        -0.026252445,
        -0.012988396,
        -0.03106734,
        -0.0057590026,
        0.0563938,
        -0.21756332,
        -0.2981664,
        -0.13416825,
        0.038853858,
        0.002591144,
        0.0013723699,
        -0.040578596,
        0.03174268,
        -0.044326704,
        0.030641636,
        0.08563103,
        0.028718978,
        -0.06385374,
        0.009496978,
        0.011382513,
        -1.7328007E-4,
        0.009725146,
        0.049055528,
        0.10356009,
        0.06786232,
        0.11178747,
        0.10438392,
        -0.014864215,
        0.0026686927,
        -0.019474858,
        0.13454354,
        -0.01885416,
        -0.0671064,
        -0.12559555,
        -0.3189163,
        -0.096667066,
        -0.0577485,
        0.09969964,
        0.042255364,
        0.11141474,
        0.01691582,
        0.06629973,
        -0.028416617,
        0.11413462,
        0.005131795,
        0.07810926,
        0.058168784,
        -0.007787459,
        0.049957845,
        0.11719658,
        -0.025588624,
        0.05099774,
        0.06519886,
        -0.04385829,
        0.0066879685,
        -0.031841125,
        0.109189324,
        -0.026343606,
        0.0794134,
        0.025218746,
        -0.07335189,
        -0.23386987,
        -0.15637061,
        -0.09442471,
        -0.05745339,
        0.034393895,
        0.08332747,
        -0.0066931075,
        -0.010317416,
        -0.034102775,
        0.049942043,
        0.13839588,
        -0.0037364182,
        0.122252196,
        -0.010023659,
        0.034176037,
        -0.0014525346,
        0.048186947,
        0.080570765,
        -0.08871418,
        -0.004699187,
        0.08599377,
        -0.024808306,
        -0.02764909,
        -0.0729272,
        -0.035802018,
        0.10678512,
        0.061452143,
        -0.035965487,
        -0.21091491,
        -0.23957191,
        -0.06545873,
        0.07176912,
        0.10869528,
        0.010347715,
        0.0025066994,
        -0.002523002,
        0.062447935,
        -0.06372829,
        0.13982977,
        0.09642662,
        0.05708173,
        -0.009910713,
        0.0547166,
        0.094077855,
        0.13800696,
        -0.063413806,
        0.07026198,
        0.07574071,
        -0.038702473,
        0.07172027,
        0.005522931,
        0.061367076,
        0.08546121,
        -0.023186265,
        -0.09328152,
        -0.18830894,
        -0.17230137,
        -0.1404403,
        -0.0552582,
        0.020190142,
        0.06808232,
        0.03072325,
        0.049286578,
        -0.06498088,
        -0.15302151,
        6.19416E-4,
        0.018308025,
        -0.0072926804,
        -0.015345414,
        -0.008521659,
        0.015413352,
        0.026778264,
        0.0116365375,
        -0.014419869,
        0.07058804,
        0.034596972,
        -0.06795001,
        0.006946491,
        -0.025329147,
        -0.06586735,
        -0.027899137,
        -0.021466289,
        0.010438912,
        -0.08005349,
        -0.23664734,
        -0.0903445,
        0.027680973,
        0.008370886,
        -0.061564293,
        -0.025959982,
        -0.050958533,
        -0.12860654,
        -0.14187358,
        -0.15917148,
        0.040110573,
        -0.064449266,
        0.004929772,
        -0.03545017,
        0.013782573,
        -0.08173701,
        -0.076856256,
        0.08250701,
        0.0061641703,
        -0.08487499,
        0.005472179,
        0.106046274,
        0.06303613,
        0.010963214,
        0.13830751,
        -0.034820024,
        -0.058925446,
        -0.15784909,
        -0.056494225,
        0.029471628,
        0.003988431,
        -0.037089314,
        0.03456603,
        0.0357438,
        -0.0284247,
        -0.21789232,
        -0.20020953,
        -0.03360567,
        -0.080688074,
        -0.015263842,
        -0.13048615,
        -0.062731236,
        0.008795773,
        0.047468185,
        -0.12389758,
        -0.015841546,
        0.05380012,
        -0.009206908,
        0.08417193,
        -0.108233064,
        0.066007406,
        0.014039016,
        -0.06563119,
        0.0136783905,
        -0.110505834,
        -0.12617855,
        0.005817321,
        -0.022218196,
        -0.004614153,
        0.0044806986,
        0.038274925,
        -0.036487717,
        -0.19519354,
        -0.15133221,
        -0.07764682,
        -0.07073315,
        -0.09200041,
        -0.17320795,
        0.004554262,
        -0.08251755,
        -0.041315604,
        -0.07911532,
        -0.14198747,
        0.036489625,
        0.029090136,
        0.05426429,
        0.03478566,
        0.006529402,
        -0.08400879,
        -0.12124337,
        0.04958754,
        -0.013262266,
        -0.091188304,
        0.007992605,
        -0.04434695,
        0.00837582,
        0.023999305,
        -0.032887764,
        -0.03630195,
        -0.036017694,
        -0.17760503,
        -0.15530749,
        -0.06854861,
        -0.10739579,
        -0.01868952,
        -0.03471422,
        -0.15041757,
        -0.03776764,
        -0.12034653,
        -0.12114577,
        -0.1431832,
        -0.03572567,
        -0.105608396,
        -0.09594167,
        -0.16330373,
        -0.004428254,
        -0.020375215,
        -0.00859793,
        7.6829677E-4,
        -0.08363097,
        -0.1163455,
        0.038023233,
        0.009934891,
        -0.0010881453,
        0.012333607,
        -0.05135343,
        -0.06486001,
        -0.10977818,
        -0.19525555,
        0.0032442426,
        0.0247496,
        -5.20859E-4,
        -0.10913712,
        -0.036715068,
        -0.016421715,
        -0.14658423,
        -0.10734356,
        0.044094343,
        0.038594063,
        0.079281315,
        0.028090958,
        -0.14340365,
        -0.041842334,
        -0.08698042,
        0.023166392,
        -0.07609207,
        -0.02102899,
        -0.0866332,
        0.010904032,
        0.014852216,
        -5.9427657E-5,
        0.11605373,
        0.010242867,
        0.062096372,
        -0.064058475,
        -0.10524705,
        -0.07555666,
        -0.1302963,
        -0.047296718,
        -0.06902053,
        -0.025557872,
        0.010969305,
        -0.09318601,
        0.050801493,
        -0.093399756,
        -0.047472917,
        -0.0781526,
        0.055912275,
        0.05970813,
        -0.09974245,
        0.08341991,
        0.06350055,
        0.082274094,
        -0.03990588,
        -0.014888744,
        0.013563715,
        -0.05673471,
        0.07287274,
        0.02065979,
        0.06065977,
        0.012075991,
        -0.045350786,
        -0.15331842,
        -0.038208693,
        -0.06298727,
        -0.025045183,
        -0.007970242,
        0.031364877,
        -0.04772688,
        -0.08403854,
        0.014151352,
        -0.044281755,
        0.035893597,
        -0.10424289,
        0.043178126,
        -0.052829895,
        -0.11068696,
        1.9093411E-4,
        -6.4210506E-4,
        0.017504334,
        -0.085229136,
        -0.036089122,
        -0.059794705,
        0.011272594,
        0.07559228,
        0.074027404,
        0.041577417,
        0.07253681,
        0.027451333,
        0.013372831,
        0.023969332,
        -0.06978081,
        0.03471369,
        -0.031193933,
        -0.035394624,
        -0.07825142,
        -0.015318085,
        0.013530191,
        -0.14275686,
        -0.017742803,
        -0.012953349,
        -0.04751622,
        -0.015067843,
        -0.009029108,
        0.10319909,
        0.04102119,
        -0.087577425,
        -0.06366211,
        -0.08245591,
        0.04948475,
        -0.009610434,
        0.0035871323,
        0.009373143,
        0.037983272,
        0.051525664,
        0.10437745,
        -0.009350381,
        0.030702876,
        0.011743964,
        0.01541492,
        0.10505025,
        0.0836829,
        -0.028090272,
        0.0845784,
        0.050072502,
        -0.016377939,
        0.05606466,
        -0.052935902,
        0.069986925,
        0.01630141,
        -0.0190029,
        0.027059082,
        0.13512275,
        -0.0136803845,
        -0.029947622,
        0.014136397,
        0.07786392,
        -0.017431265,
        0.016096676,
        0.05647858,
        0.059182256,
        0.043355405,
        0.04737195,
        0.09906723,
        -0.036150955,
        0.101067,
        0.006829859,
        0.08657379,
        0.048015717,
        -0.02039049,
        0.12810858,
        0.1250478,
        0.05411218,
        0.013228813,
        -0.038274936,
        0.010166683,
        -0.044070043,
        -0.020249225,
        0.02200116,
        -0.007053428,
        0.0972516,
        0.08863894,
        0.011090574,
        -0.0419503,
        -0.039670017,
        0.0625507,
        0.080903396,
        0.04126481,
        -0.005906406,
        0.12458227,
        0.03500347,
        -0.04932055,
        0.03177287,
        0.05051534,
        -0.02798958,
        0.023789367,
        0.088356175,
        0.07733231,
        0.10860399,
        0.10462688,
        -0.0017580736,
        0.008250159,
        0.12770145,
        0.1224541,
        0.092688315,
        -0.03299594,
        0.11389253,
        0.07855552,
        -0.039465956,
        0.08288013,
        0.04491655,
        0.06261219,
        0.0682675,
        0.066302985,
        0.044198107,
        0.009909315,
        0.018960608,
        -0.028223377,
        0.036940727,
        0.025000352,
        0.039090026,
        -0.07111231,
        0.03986557,
        -0.008825004,
        0.1095801,
        0.033656575,
        0.02735586,
        0.018018331,
        0.05641966,
        0.048074335,
        0.06567544,
        0.0019221078,
        0.05206037,
        -0.0056433105,
        0.04942947,
        -0.041826233,
        0.053195935,
        0.049214024,
        0.041881036,
        0.017518632,
        0.047920126,
        0.02003381,
        0.0109340325,
        -0.037090942,
        -0.02031104,
        0.03232113,
        -0.021277267,
        -0.033143897,
        0.014654283,
        0.03060115,
        0.049150646,
        -0.055830568,
        0.03532216,
        -0.011441014,
        0.16695178,
        0.04852348,
        0.012777246,
        0.034719843,
        -0.039710358,
        0.03929035,
        -0.05245676,
        0.094417505,
        0.014264376,
        -0.05193765,
        0.061513577,
        0.10151694,
        0.0023858922,
        -0.09130608,
        0.004694134,
        -0.070833206,
        -0.08876868,
        -0.08143471,
        -0.09578028,
        -0.10083854,
        -0.09652259,
        -0.05554388,
        -0.048636906,
        -0.009078515,
        -0.044596255,
        -0.017267864,
        -0.060087863,
        -0.099239066,
        -0.06238116,
        -0.017790144,
        0.11240096,
        0.04416452,
        0.037736364,
        -0.002246696,
        0.13435543,
        0.11299044,
        0.057182025,
        -0.025950857,
        -0.09224809,
        -0.079098724,
        0.047214847,
        0.032022707,
        -0.010790824,
        -0.05477541,
        0.054879576,
        -0.03557661,
        -0.12643863,
        0.032860506,
        -0.07902348,
        -0.08836825,
        -0.12741445,
        -0.13831513,
        -0.0726325,
        -0.054139186,
        -0.06507471,
        -0.034322094,
        -0.09830164,
        0.07430906,
        0.03383616,
        0.1448431,
        -0.0033961842,
        0.15267089,
        -0.0047412245,
        0.034993816,
        0.03718835,
        0.067236744,
        0.08554119,
        0.02856671,
        0.012254743,
        -0.06553674,
        -0.026355015,
        0.037852716,
        0.065915935,
        -0.019985521,
        0.009761775,
        -0.13107002,
        -0.061288264,
        -0.052594375,
        0.0017797524,
        -0.018207073,
        -0.045921374,
        -0.067868896,
        -0.11456532,
        -0.03095666,
        0.047872856,
        -0.118979976,
        2.5269395E-4,
        0.09942854,
        0.008605007,
        -0.018929752,
        -0.03177446,
        0.07768529,
        -0.04853787,
        0.056577858,
        -0.0477431,
        0.0511557,
        0.05803833,
        -0.024214776,
        -0.0116278175,
        0.054455422,
        -0.09258718,
        0.030331219,
        -0.06128586,
        -0.08685699,
        0.05567899,
        -0.01572349,
        -0.050702184,
        -0.08867771,
        -0.040987026,
        -0.011951408,
        0.021307569,
        -0.11590589,
        0.05757804,
        -0.09042525,
        -0.11042787,
        -0.03362115,
        0.066079274,
        0.07315044,
        0.0878559,
        0.08482551,
        -0.07559056,
        0.10400409,
        0.10542966,
        0.053789716,
        0.012105302,
        0.0051333774,
        -0.006716976,
        0.08293663,
        0.04141615,
        -0.073591396,
        0.05472157,
        -0.07302116,
        -0.097524226,
        -0.11657514,
        -0.096696034,
        -8.1098976E-4,
        -0.13713877,
        -0.13689348,
        -0.08340428,
        -0.08945949,
        -0.14878333,
        0.00210328,
        0.0017026955,
        -0.06493001,
        -0.01213839,
        -0.06864939,
        0.033368573,
        0.0674639,
        0.006154442,
        -0.048815392,
        0.014738911,
        -0.040220715,
        -0.063900135,
        -0.015398828,
        -0.046805114,
        -0.014954734,
        0.08866775,
        -0.08166765,
        0.017277317,
        -0.10927975,
        -0.01602453,
        -0.00842221,
        -0.062980756,
        -0.09574386,
        -0.014221488,
        -0.06657738,
        -0.06870962,
        -0.016570872,
        -0.13239084,
        -0.034578267,
        -0.099404216,
        -0.11480631,
        -0.11736095,
        -0.085846856,
        -0.074947596,
        0.063480385,
        0.057876524,
        -0.018063933,
        -0.027478037,
        -0.037072577,
        0.050683104,
        0.02497145,
        0.037281033,
        0.10122536,
        0.080034465,
        -0.040713646,
        -0.05711237,
        -0.046228316,
        -0.015642371,
        -0.1004298,
        -0.104223035,
        -0.03739604,
        -0.13537376,
        -0.033732034,
        -0.03457206,
        -0.032300666,
        -0.09043267,
        -0.08984249,
        -0.20036735,
        -0.04107016,
        -0.10652568,
        -0.06822486,
        -0.03466923,
        0.034328606,
        -0.07470801,
        0.084710166,
        -0.047414903,
        0.06955656,
        0.086662896,
        0.043598663,
        -0.0028573787,
        0.09698397,
        -0.028985957,
        -0.01802229,
        -0.014921492,
        -0.0041236305,
        0.023773707,
        0.052249346,
        -0.13221468,
        -0.08444602,
        -0.122764364,
        -0.20651893,
        -0.101037286,
        -0.18095838,
        -0.18855739,
        -0.12630321,
        -0.079518974,
        -0.026568595,
        0.029016005,
        0.012756798,
        -0.015528722,
        -0.013215937,
        -0.021522073,
        0.052336242,
        0.032241773,
        0.06901081,
        0.07625222,
        0.10631306,
        0.046408355,
        0.11731609,
        -0.049923033,
        0.10237507,
        0.080994315,
        -0.011750811,
        -0.084111236,
        -0.030187782,
        0.0037096608,
        -0.079073526,
        -0.17056155,
        -0.09697043,
        -0.18003622,
        -0.068613656,
        -0.22024135,
        -0.13228306,
        -0.14533082,
        -0.088549756,
        -0.005437513,
        -0.009564465,
        0.013515026,
        -2.3425166E-5,
        -0.014783379,
        0.057524532,
        0.005198998,
        -0.020674692,
        0.026274092,
        0.029685346,
        -0.04593531,
        -0.0800812,
        0.021001436,
        0.04559186,
        0.071157545,
        -0.014133616,
        -0.07124469,
        0.0065238103,
        -0.12236303,
        -0.14146557,
        -0.15996753,
        -0.009391814,
        -0.15678263,
        -0.15046571,
        -0.1113547,
        -0.060924057,
        -0.07052926,
        0.00473931,
        0.014930144,
        -0.046980504,
        0.046672877,
        0.0030594715,
        0.060295343,
        -0.089669734,
        0.0118132755,
        0.105159804,
        0.006924869,
        -0.016937459,
        0.10003411,
        -0.014651123,
        0.034693025,
        -0.09726209,
        -0.059409294,
        -0.023565544,
        -0.124235325,
        -0.07832955,
        -0.061351154,
        -0.073099375,
        -0.122484125,
        -0.1625383,
        -0.09425834,
        -0.0334191,
        -0.07732803,
        0.04510829,
        -0.0045168684,
        -0.055608645,
        0.042924307,
        -0.042716857,
        -0.0027196023,
        -0.032906923,
        0.027351758,
        0.008570867,
        0.07204034,
        0.07563987,
        0.09217962,
        0.0853795,
        0.06702404,
        -0.03581741,
        0.035223074,
        -0.007226746,
        0.024041174,
        -0.008753657,
        -0.0753303,
        9.097287E-4,
        -0.020453224,
        0.012773685,
        0.043873552,
        -0.02040857,
        -0.04772309,
        -0.01239749,
        0.070596606,
        -0.096371666,
        0.07904021,
        -0.058259726,
        -0.0150174685,
        0.0628453,
        -0.056706265,
        0.038851168,
        -0.05343077,
        0.06896385,
        -0.01179338,
        -0.02228756,
        0.010545019,
        -0.10941126,
        -0.10008464,
        -0.12046111,
        0.06273099,
        0.017039677,
        -0.08944734,
        -0.07669696,
        -0.102185525,
        0.058603942,
        -0.08747516,
        0.07565971,
        0.0150687955,
        0.023509903,
        0.06910862,
        0.10222425,
        0.063452765,
        0.02429144,
        -0.008589408,
        0.0030323418,
        -0.031853415,
        -0.0047772536,
        0.0048755994,
        0.015034144,
        0.06926365,
        -0.068639554,
        0.051569954,
        -0.048848934,
        0.048850793,
        0.0023907735,
        0.005032849,
        -0.0824814,
        -0.14323743,
        -0.10945261,
        -0.02971569,
        -0.10248958,
        0.07178197,
        -0.028174784,
        0.10778389,
        0.055352427,
        0.11943595,
        0.10608196,
        0.11240287,
        0.101045094,
        0.07704304,
        0.1522508,
        0.061895072,
        -0.061195686,
        0.078597695,
        0.062313627,
        0.059997678,
        -0.0058067306,
        0.007985107,
        -0.05691823,
        -0.050398838,
        0.0082404185,
        -0.015146594,
        -0.088072315,
        -0.09326979,
        -0.028556192,
        -0.0064215977,
        -0.03608116,
        0.004871315,
        -0.014391276,
        -0.035435155,
        0.095734924,
        0.023384731,
        0.07876679,
        0.12938663,
        0.16235104,
        0.06487738,
        0.15836318,
        0.113964126,
        0.04181357,
        0.10099624,
        0.018171644,
        -0.0836961,
        0.049511567,
        -0.045874543,
        -0.046471015,
        -0.014490149,
        0.08849026,
        -0.071258396,
        -0.061303537,
        -0.15506808,
        -0.06258084,
        -0.11379793,
        -0.04808888,
        -0.07698773,
        -0.06266455,
        -0.023383677,
        -0.054252952,
        0.05324651,
        0.11330057,
        0.07338878,
        0.024121467,
        0.022890784,
        0.024620127,
        0.01335199,
        0.05859863,
        0.042870276,
        0.06347676,
        0.024488194,
        -0.06636605,
        0.05037294,
        -0.07428539,
        -0.021446768,
        0.110849924,
        -0.08666684,
        -0.02594893,
        -3.8838256E-4,
        -0.10714819,
        0.035553608,
        -0.11783547,
        -0.047194958,
        -0.082016885,
        -0.09897485,
        -0.035923768,
        0.112617865,
        0.08234052,
        0.06322996,
        0.041004013,
        -0.04282301,
        0.028249972,
        0.07891119,
        -0.0641209,
        -0.023296809,
        -0.05297639,
        -0.121862404,
        -0.04522644,
        -0.032137442,
        0.018259345,
        0.02552656,
        0.0193442,
        0.031136597,
        -0.015786823,
        -0.05317942,
        -0.025987914,
        -0.045705706,
        -0.08726999,
        -0.105961576,
        -0.07950951,
        -0.024860129,
        -0.048683506,
        0.025443295,
        0.009285993,
        0.08346797,
        -0.023498882,
        -0.021378752,
        -0.04223143,
        0.058163825,
        0.0035810869,
        -0.07414718,
        -0.21079132,
        -0.10160596,
        -0.17311838,
        -0.15278925,
        -0.05402881,
        0.0057143257,
        -0.01621996,
        -0.0199365,
        0.038128763,
        -0.09563877,
        0.032898277,
        0.082688406,
        0.015758807,
        -0.039575543,
        0.048035417,
        0.10388375,
        0.006360929,
        -0.06227227,
        0.06637733,
        -0.05025189,
        0.051642466,
        0.018908357,
        0.01795025,
        0.084260374,
        0.05364921,
        -0.06767511,
        -0.096645474,
        -0.14151867,
        -0.22998032,
        -0.13580783,
        -3.469817E-5,
        -0.0328071,
        -0.0032874064,
        -0.07056477,
        -0.034634013,
        -0.06758838,
        -6.0115434E-4,
        -0.04598355,
        -0.064606376,
        0.046050336,
        -0.00853367,
        -0.01472723,
        0.046568036,
        -0.054955043,
        0.07142119,
        0.08950397,
        0.019320974,
        0.034809962,
        0.056921422,
        -0.008486961,
        -2.5799315E-4,
        -0.023846399,
        0.06500201,
        -0.021657102,
        -0.1999034,
        -0.12614326,
        -0.19321655,
        -0.11974101,
        -0.013279936,
        -0.116448894,
        0.018145919,
        -0.06547243,
        -0.0063031716,
        -0.010326961,
        0.048407253,
        -0.048559383,
        0.09527605,
        -0.021137217,
        -0.039276633,
        0.052842144,
        0.07086489,
        -0.042288367,
        0.051486198,
        0.09006167,
        -0.05861718,
        0.08141316,
        0.039001033,
        -5.2959996E-4,
        0.07608317,
        -0.0028134806,
        -0.11033004,
        -0.21125688,
        -0.12852941,
        -0.17025177,
        -0.09389116,
        0.060569048,
        -0.05642083,
        0.015561145,
        -0.0052741445,
        0.029705513,
        -0.049889386,
        -0.02742795,
        -0.036569014,
        -0.06686067,
        -0.018266754,
        0.04105077,
        0.06689323,
        0.0014108743,
        -0.03115821,
        -0.0470577,
        -0.0021651129,
        -0.026710214,
        -0.050301928,
        -0.012803037,
        -0.035720855,
        -0.03965314,
        0.0343239,
        -0.10446823,
        -0.099161774,
        -0.10669585,
        -0.121197894,
        -0.12455313,
        -0.09501861,
        -0.026029253,
        -0.0543701,
        -0.06260726,
        -0.050977033,
        -0.119576216,
        -0.05780013,
        0.018615693,
        -0.07564696,
        -0.041296374,
        -0.065635525,
        -0.01590871,
        0.07492994,
        -0.10443914,
        -0.046216693,
        -0.023045795,
        0.03149202,
        0.08711937,
        -0.027807264,
        0.11346773,
        0.0269533,
        -0.029890094,
        -0.048202496,
        0.030789701,
        -0.1262836,
        -0.1201853,
        -0.056622524,
        -0.07956363,
        -0.02319232,
        0.03454564,
        -0.0903716,
        0.001993631,
        -0.043493606,
        0.0045962743,
        -0.070975445,
        -0.02410434,
        -0.018981403,
        0.002225663,
        0.116648845,
        -0.015817072,
        -0.0628127,
        0.037956756,
        0.010069183,
        0.012117141,
        -0.011143054,
        0.020738563,
        8.2043285E-4,
        -0.0025026503,
        0.03135705,
        0.08633928,
        0.023286076,
        -0.07942926,
        0.03456418,
        -0.12363657,
        0.029858304,
        -0.03429637,
        -0.09279646,
        -0.13481398,
        -0.016272957,
        -0.08067445,
        -0.08277917,
        -0.06463706,
        -0.022415496,
        -0.11920528,
        -0.086796634,
        -0.07720372,
        -0.0056273905,
        -0.024509192,
        0.10423588,
        -0.06978802,
        0.015002442,
        -0.029041445,
        -0.032187305,
        -0.018334016,
        0.12666352,
        0.0870214,
        0.006296044,
        0.046229094,
        0.12282561,
        0.12482284,
        0.030009245,
        -0.011953157,
        -0.06820817,
        0.057379205,
        0.0879616,
        0.0066799927,
        0.03449639,
        0.022792624,
        0.0026214414,
        -0.051850833,
        -0.048897684,
        -0.005635243,
        0.06896939,
        0.005468943,
        0.05374551,
        0.04997381,
        0.051239625,
        0.06376279,
        0.07813476,
        -0.002859891,
        -0.008856412,
        -0.030375618,
        -0.004064221,
        0.015361696,
        0.04682518,
        0.049444597,
        -0.033856396,
        0.13562895,
        0.009905705,
        0.006208187,
        -0.021716261,
        -0.06483559,
        0.07880016,
        -0.0059840195,
        -0.030437607,
        0.057978354,
        -0.10827133,
        0.018914847,
        -0.048574124,
        -0.06972022,
        0.056897473,
        0.04508247,
        -0.06742253,
        0.04281225,
        0.015938416,
        0.023710996,
        -0.024795987,
        0.0963467,
        -0.06523806,
        0.006218287,
        0.019835986,
        0.0619643,
        0.11759903,
        -0.00983179,
        0.11164008,
        0.027635826,
        0.12877393,
        0.059364412,
        0.07020805,
        -0.011736826,
        -0.022095777,
        -0.040472217,
        0.056896,
        -0.0010457698,
        -0.009654501,
        0.088482514,
        0.06608717,
        0.056859337,
        0.042113356,
        0.12067624,
        -0.016184442,
        -0.04118965,
        -0.043941997,
        0.046710037,
        0.110016175,
        0.044227086,
        -0.060465354,
        -0.10004947,
        0.06530504,
        -0.037205752,
        0.05791939,
        0.10320431,
        0.033742454,
        0.013686079,
        0.09233343,
        0.1189911,
        0.018157683,
        0.100748435,
        0.13111438,
        0.13590391,
        0.03193956,
        -0.0010967164,
        0.10186129,
        -0.038568918,
        0.09318745,
        0.055132885,
        -0.02376275,
        0.008470815,
        0.031064324,
        0.04592261,
        -1.01829646E-4,
        0.046941184,
        0.08896763,
        -0.018992288,
        0.012869718,
        -0.07957527,
        0.015402867,
        -0.0071368883,
        -0.070158735,
        0.048692,
        0.045344923,
        0.10545226,
        0.07019662,
        0.035798244,
        0.058811978,
        0.016604345,
        0.010295717,
        -0.04963592,
        0.0028680437,
        -0.099185005,
        -0.009205558,
        -0.07874721,
        -0.1188402,
        0.032867286,
        -0.03932225,
        0.015477876,
        -0.010095692,
        0.1639575,
        0.097385794,
        -0.07582791,
        0.037766963,
        0.053518318,
        0.08272371,
        -0.04692447,
        0.061623365,
        0.011061208,
        -0.034859825,
        0.007081244,
