{
  "inputLayer": {
    "nodes": 784
  },
  "evaluateLayers": [
    {
      "weights": [
        0.06537535,
        0.07861749,
        -0.03346862,
        0.080392465,
        0.022595443,
        0.021604,
        -0.014784813,
        -0.073394395,
        0.09997127,
        0.07405156,
        0.112470604,
        -0.07764824,
        -0.011400772,
        0.046836313,
        0.00402214,
        0.05068173,
        0.06524512,
        -0.061048187,
        0.011035448,
        0.019346215,
        0.091013625,
        0.086827815,
        0.07873329,
        -0.023102656,
        0.01844769,
        -0.0032369173,
        -0.042671554,
        0.05513349,
        0.078372695,
        0.09009885,
        0.030208588,
        0.060526643,
        -0.018071916,
        0.049280647,
        0.107374646,
        0.029116262,
        -0.050159983,
        0.08679042,
        0.10226861,
        0.048826993,
        0.02089134,
        0.13064393,
        0.021825744,
        -0.08532039,
        -0.019679857,
        0.06206184,
        -0.015269726,
        -0.03896557,
        0.087520845,
        -0.05462175,
        -0.0852,
        0.016979968,
        0.021811,
        -0.07767677,
        0.03965525,
        -0.04099991,
        -3.958226E-4,
        0.06885761,
        0.08861412,
        0.05865073,
        0.036753707,
        0.111526385,
        -0.027371269,
        0.04097282,
        -0.03604322,
        0.107506864,
        0.14779523,
        0.08829051,
        0.13500395,
        0.0733118,
        -0.04614081,
        0.020237407,
        0.01335484,
        0.0064529823,
        -0.018120404,
        0.007761396,
        -0.019994227,
        0.04893578,
        0.07526007,
        -0.010564863,
        0.033260383,
        0.029577898,
        -0.033327315,
        0.08072805,
        0.03519607,
        -0.07494797,
        -0.04325676,
        0.008551044,
        0.026195964,
        -0.004509382,
        -0.01128582,
        -0.036577895,
        0.08799735,
        0.08510716,
        0.08048102,
        0.028864443,
        0.14440207,
        0.11649402,
        0.13117334,
        0.11226599,
        0.11165966,
        0.02618123,
        -0.021230923,
        0.015861247,
        -0.04093002,
        -0.03506096,
        0.04287971,
        0.0052785445,
        -0.051799364,
        0.06738132,
        -0.036597364,
        -0.09958299,
        0.027739964,
        -0.034841567,
        0.01547749,
        -0.028173134,
        0.079954095,
        -0.079768464,
        0.046438627,
        -0.026152244,
        -0.07736569,
        0.11709667,
        -0.017386476,
        0.08945142,
        0.055605162,
        0.09364961,
        0.08606217,
        0.103740215,
        -0.02512153,
        -0.026661247,
        -0.022534253,
        0.033262055,
        -0.09852644,
        -0.06956364,
        -0.046893757,
        -0.02772814,
        0.0018102651,
        -0.025503105,
        -0.09471261,
        -0.08434396,
        0.052653436,
        0.09401675,
        -0.004269157,
        0.020282077,
        -0.03125456,
        -0.025917418,
        -0.037073817,
        -0.023105932,
        0.08785412,
        -0.035769984,
        0.0530147,
        -0.047789916,
        0.0021207072,
        0.11011078,
        -0.018084431,
        0.07761825,
        0.13725062,
        -0.0021383406,
        -0.059264757,
        0.056516137,
        -0.052784752,
        -0.08078794,
        0.029511295,
        0.026784,
        -0.039298143,
        -0.09123679,
        0.06420734,
        -0.07858757,
        0.032256205,
        0.08295161,
        0.01713929,
        0.077470824,
        -0.057113037,
        -0.05591801,
        -0.091516115,
        -0.0671165,
        -0.113048226,
        -0.06526525,
        -0.05793964,
        0.022063566,
        -0.08097669,
        -0.044687696,
        0.018985733,
        0.11562839,
        0.066560626,
        0.082344614,
        -0.008977862,
        0.0061596255,
        -0.030577928,
        -0.11858896,
        -0.048004292,
        -0.038579877,
        -0.096707284,
        -0.02431498,
        -0.08290284,
        0.021039246,
        0.03328788,
        0.061208457,
        0.056133978,
        -0.06443455,
        -0.03831954,
        -0.07669243,
        -0.12505859,
        -0.010133146,
        0.004151886,
        -0.113230914,
        -0.12853275,
        -0.015986208,
        -0.0028572064,
        0.02224125,
        -0.1364233,
        -0.096128486,
        0.022009687,
        -0.014732005,
        0.07295715,
        -0.02474568,
        -0.08978691,
        -0.007117886,
        -0.015744617,
        -0.10854613,
        0.048818704,
        0.047144733,
        0.010157683,
        -0.06968996,
        -0.054320764,
        -0.005002545,
        0.05550885,
        -0.038064405,
        -0.0044311355,
        -0.101640806,
        -0.15798457,
        -0.15067045,
        -0.15916793,
        -0.09871151,
        -0.08900713,
        -0.060466137,
        -0.121091224,
        -0.07787359,
        -0.068747245,
        -0.15554835,
        -0.07209263,
        0.047772557,
        -0.10003824,
        0.07100043,
        -0.0018162518,
        -0.04797615,
        -0.03325349,
        0.02191441,
        -0.077594176,
        -0.11352065,
        0.06190812,
        0.07394469,
        -0.078866564,
        -0.040414672,
        0.034398798,
        -0.12149902,
        0.02774479,
        0.032728203,
        -0.15157647,
        -0.12975864,
        -0.14676729,
        -0.065425545,
        -0.12735696,
        -0.13181107,
        -0.104818225,
        -0.19306524,
        -0.090347014,
        -0.0068888143,
        -0.11323754,
        0.031352263,
        0.03293668,
        0.03686222,
        0.035422016,
        0.02266108,
        -0.04270084,
        0.047926243,
        0.045270495,
        -0.025773445,
        0.038941517,
        0.033750195,
        0.09604777,
        -0.0028277882,
        0.06506056,
        0.04771795,
        0.031963397,
        0.04407925,
        -0.090978056,
        -0.059491545,
        -0.041100852,
        -0.15861985,
        -0.08426222,
        -0.15616186,
        -0.1051881,
        -0.15296671,
        -0.051694285,
        -0.05784991,
        -0.011976642,
        -0.09141014,
        0.04645966,
        -0.014846672,
        0.022608133,
        -0.0019269332,
        -0.0202423,
        0.055866282,
        0.09980562,
        0.08549946,
        0.0076045687,
        0.015615741,
        0.063929565,
        -0.033280566,
        0.0061904737,
        -0.058386937,
        -0.09421037,
        -0.06909306,
        -0.009946781,
        0.04808523,
        -0.07902357,
        0.030668477,
        -0.09214147,
        -0.06909706,
        -0.10394142,
        -0.024350917,
        -0.1397628,
        -0.10660979,
        0.075629584,
        0.00585913,
        -0.018261382,
        0.09645596,
        0.058306843,
        -0.001492675,
        0.019976491,
        0.024852473,
        -0.059895493,
        0.030041412,
        -0.006580083,
        0.031675126,
        0.003926234,
        -0.014872089,
        -0.05148157,
        -0.0062918533,
        0.055023834,
        0.054994155,
        -0.038709912,
        0.056401145,
        -0.0070685092,
        -0.03595922,
        -0.022447674,
        0.0037363295,
        -0.01840182,
        0.010866628,
        0.0061084256,
        0.093372785,
        0.052366495,
        0.014396629,
        0.061842106,
        -0.013381453,
        0.018391628,
        0.049781118,
        -0.0051750806,
        0.017966678,
        0.121008694,
        0.048928674,
        -0.0018870758,
        0.085491695,
        0.0135123655,
        0.058869388,
        -0.014039087,
        -0.033139523,
        0.017151767,
        0.035407607,
        -0.008039314,
        0.023278592,
        -0.05304,
        -0.017048834,
        0.04235978,
        0.010469897,
        -0.0052440064,
        0.048530173,
        0.040159598,
        0.047749244,
        0.061911903,
        0.083692886,
        0.15121667,
        0.0781783,
        0.059571084,
        0.08808059,
        0.046599086,
        0.033865403,
        0.008464706,
        0.07782128,
        0.13361362,
        0.051049143,
        0.099279985,
        0.069627024,
        0.003857896,
        0.088662855,
        0.047629572,
        -0.061012514,
        -0.009703684,
        0.05632258,
        0.0840996,
        0.061394475,
        0.054189373,
        -0.02980674,
        0.09482664,
        -0.0017182372,
        0.016677463,
        -0.013737305,
        -0.01624881,
        -0.05442466,
        -0.00841749,
        -0.09089776,
        0.032239825,
        -0.07045469,
        0.038330972,
        0.01574548,
        -0.07555641,
        0.02949712,
        0.055677716,
        0.013166524,
        0.024136445,
        0.07178517,
        0.110404894,
        0.038915828,
        0.057158027,
        -0.024286585,
        0.018110592,
        0.05546238,
        0.07135311,
        0.10643732,
        0.06707973,
        0.11746009,
        -0.010333701,
        0.0020273847,
        0.04991044,
        -0.07922305,
        -0.06057399,
        -0.0796506,
        -0.03303937,
        -0.14368288,
        -0.08481823,
        0.03301531,
        0.0071445825,
        0.049405463,
        0.09323805,
        0.06913409,
        0.060584694,
        -0.039420955,
        0.013557411,
        0.05548979,
        -0.03562196,
        0.051726397,
        0.09281767,
        0.06581378,
        0.044302866,
        0.03398577,
        -0.022512393,
        0.019997185,
        -0.06883621,
        -0.072776146,
        -0.01836603,
        0.0019707796,
        0.03061302,
        -0.094504505,
        0.009193938,
        -0.10547196,
        -0.13897787,
        -0.009555005,
        -0.08762825,
        -0.041698635,
        -0.07181734,
        0.086337574,
        0.112415716,
        0.028455475,
        0.11371146,
        -0.010855703,
        -0.06351049,
        0.01929774,
        -1.0001994E-4,
        -0.04351453,
        0.070591874,
        -0.049142413,
        -0.028219588,
        -0.03563317,
        -0.089752965,
        0.05553154,
        -0.08847514,
        -0.061383583,
        -0.09886694,
        -0.04233474,
        -0.06441843,
        0.007416982,
        -0.088558204,
        -0.033303395,
        -0.16523571,
        -0.089135885,
        -0.065201834,
        -0.05180781,
        -0.038336553,
        -0.031477265,
        0.0010258859,
        -0.029052932,
        0.0805323,
        0.055677123,
        0.046206012,
        0.056064896,
        -0.07704347,
        0.026851669,
        0.0026875446,
        0.029163392,
        0.041678,
        -0.0040197056,
        -0.0027533483,
        -0.0508095,
        -0.008682681,
        -0.03325604,
        -0.114289135,
        -0.07063434,
        0.014784309,
        -0.054440405,
        -0.026513003,
        -0.05766704,
        0.0077140527,
        -0.14364026,
        -0.14579743,
        0.030522225,
        0.040972576,
        0.109444566,
        0.09573159,
        0.036560707,
        0.08162657,
        0.09035806,
        -0.08440606,
        0.0052513205,
        0.07008868,
        0.08981166,
        -0.031984385,
        -0.05215581,
        -0.013985615,
        -0.09150035,
        -0.111020476,
        0.0027923707,
        -0.064788796,
        -0.12056016,
        -0.03772845,
        -0.008978722,
        -0.07770345,
        -0.098802775,
        -0.13581696,
        -0.087520905,
        -0.12634908,
        -0.050121352,
        -0.015631804,
        -0.039107647,
        -0.07292912,
        -0.026529485,
        0.06269052,
        -0.07188251,
        0.006373421,
        0.032491677,
        -0.044113893,
        0.06453999,
        -0.10558825,
        -0.014072928,
        0.009981694,
        0.08978698,
        -0.041130416,
        0.039981827,
        -0.055227924,
        -0.07631831,
        0.03063827,
        -0.01774207,
        0.039817393,
        -0.021108523,
        -0.017828187,
        -7.608745E-4,
        0.052655593,
        0.0773561,
        -0.085471235,
        0.05469917,
        -0.019475857,
        0.08976786,
        0.10368781,
        -0.07053636,
        -0.06829616,
        -0.008454884,
        0.08589455,
        0.07872314,
        -0.10448135,
        0.04742125,
        0.05398227,
        0.07787807,
        0.028462477,
        -0.04004552,
        0.105337396,
        0.07195229,
        -0.0369589,
        -0.051476255,
        0.06822257,
        0.061641313,
        0.11469494,
        0.0640727,
        -0.04024015,
        0.10289542,
        -0.06112506,
        0.103107326,
        0.079550646,
        0.05941092,
        0.08793574,
        0.09525776,
        -0.08144425,
        -0.0523843,
        0.0069697257,
        -1.0323221E-4,
        0.07919382,
        -0.022993272,
        0.08099396,
        -0.10284799,
        0.07461921,
        0.05440545,
        0.03804219,
        0.053003617,
        0.07212729,
        -0.06812116,
        -0.031393953,
        0.074588485,
        -0.0060795136,
        -0.03977567,
        0.03140693,
        -0.0014422251,
        0.11337285,
        0.071288906,
        0.09759737,
        0.02788595,
        0.078524314,
        0.050379343,
        0.094830856,
        0.035983343,
        -0.019702768,
        0.10545381,
        0.08849108,
        -0.006850515,
        -0.030366195,
        0.1024595,
        -0.081368454,
        0.04055263,
        0.08079554,
        -0.06649907,
        -0.07575986,
        0.06218017,
        -0.038260356,
        -0.07018085,
        0.016382676,
        0.02256264,
        0.014488996,
        -0.022374572,
        0.043494295,
        -0.07090603,
        0.011257484,
        0.020073174,
        0.05431722,
        -0.03600129,
        0.026466673,
        0.10175753,
        -0.001625711,
        0.07155933,
        -0.052333046,
        0.0061079212,
        0.033371758,
        0.09942048,
        -0.027006105,
        -0.0073136054,
        -0.041859623,
        0.032550067,
        0.028161593,
        0.06549289,
        0.07277523,
        -0.028222056,
        -0.050133254,
        -0.04614474,
        0.042558752,
        -0.013512311,
        -0.064232066,
        -0.0043799705,
        0.05481228,
        -0.027964672,
        -0.045476258,
        0.10339274,
        -0.00806807,
        -0.026423452,
        0.095760286,
        0.09628731,
        -0.021852827,
        0.089585595,
        -0.07650106,
        0.09356085,
        -0.017726453,
        0.08700904,
        -0.060441494,
        -0.06589849,
        0.06459138,
        -0.091160245,
        -0.07476794,
        -0.087824486,
        0.020790657,
        0.023019383,
        -0.06432169,
        0.008991916,
        -0.01834524,
        -0.08133615,
        0.045323495,
        0.0037953267,
        0.051018547,
        -0.034104124,
        0.028433058,
        0.011857758,
        0.0899622,
        0.008162592,
        -0.011452532,
        -0.038153414,
        0.087941155,
        -0.0217221,
        0.08912204,
        0.045834497,
        -0.015643373,
        -0.06473009,
        0.017526885,
        0.06340607,
        -0.032557122,
        -0.07298487,
        -0.08994949,
        -0.04944902,
        -0.068343215,
        0.0570481,
        -0.06872309,
        0.064083554,
        -0.016049583,
        -0.08972213,
        -0.054974835,
        -0.07593644,
        0.029685477,
        -0.105377235,
        0.06014821,
        0.029890006,
        0.07362408,
        0.022551015,
        -0.041878097,
        -0.028961992,
        -0.047049057,
        0.01621697,
        -0.021270128,
        -0.0821146,
        -0.027495265,
        0.022785455,
        0.016607529,
        -0.0025522248,
        -0.04648609,
        -0.074310884,
        0.07098626,
        -0.06612812,
        -0.08372494,
        -0.09736852,
        -0.0902191,
        0.0021856476,
        -0.07572576,
        0.081656896,
        -0.030121936,
        0.07909802,
        0.010103605,
        0.076445244,
        -0.052701876,
        -0.05026769,
        -0.08923434,
        0.041457813,
        0.048500292,
        -0.10173787,
        0.018931529,
        0.013502292,
        0.069429465,
        -0.013073332,
        -0.0018500936,
        -0.0973635,
        -0.08938981,
        0.053520557,
        -0.02668269,
        -0.006554478,
        -0.08108689,
        -0.04174135,
        -0.060445897,
        0.012291156,
        -0.022914277,
        0.096638195,
        -0.010084279,
        0.06891103,
        -0.077653944,
        0.08796877,
        0.06439169,
        0.026451398,
        -0.034621857,
        -0.03643174,
        -0.08357135,
        0.06373792,
        -0.00876942,
        0.050872535,
        0.003894767,
        -0.09038381,
        0.025699975,
        0.094707005,
        -0.08997803,
        -0.08176871,
        0.056058183,
        0.046138905,
        -0.011271717,
        0.046887796,
        0.09095157,
        -0.010502121,
        -0.06483696,
        -0.060485486,
        0.1018861,
        0.05655033,
        -0.091437995,
        0.10370374,
        0.04123031,
        0.09684589,
        -0.08134992,
        -0.05182807,
        0.08780451,
        -0.02910213,
        -6.571161E-4,
        -0.054267317,
        0.044432666,
        -0.10232511,
        0.09687897,
        0.009079238,
        0.071154006,
        0.074582376,
        -0.06749435,
        -0.058689002,
        0.005171646,
        -0.09374272,
        0.0022741652,
        -0.0054928586,
        0.028180478,
        0.039514434,
        0.07210381,
        0.039995935,
        0.015260441,
        -0.06621538,
        0.014482279,
        0.07879455,
        -0.09277388,
        0.062165286,
        -0.07372544,
        -0.064211234,
        0.050156128,
        -0.062184148,
        0.059276614,
        -0.07570894,
        -0.07885505,
        0.041399952,
        0.049584407,
        -0.06828471,
        0.01159726,
        0.021696713,
        0.063081354,
        -0.05696215,
        -0.04841964,
        0.04802398,
        0.041254137,
        0.04955096,
        -0.09129824,
        0.08463226,
        0.012600993,
        -0.09493383,
        0.102624595,
        0.014563323,
        -0.08777219,
        0.0045275292,
        -0.01997211,
        -0.018014334,
        0.031122625,
        0.0035670607,
        0.08362571,
        -0.0772795,
        -0.015774222,
        0.028535912,
        0.034554124,
        0.062159345,
        -0.08039071,
        -0.08773829,
        0.008450578,
        0.07658781,
        -0.052578114,
        0.06381788,
        0.04996406,
        0.07573044,
        0.06426267,
        0.01433947,
        -0.021180103,
        -0.0023351451,
        -0.098292485,
        -0.011133681,
        -0.09053333,
        -0.011673379,
        -0.018867647,
        -0.054641563,
        0.07856348,
        -0.090320244,
        0.04009227,
        -0.047442116,
        -0.039301366,
        -0.042160187,
        -0.047989905,
        -0.011143019,
        0.011879068,
        -0.028528485,
        -0.0899788,
        0.04323852,
        0.026965627,
        -0.10552548,
        -0.013794387,
        -0.05669414,
        -0.048749596,
        -0.096746266,
        0.09286163,
        0.040108547,
        0.035435937,
        0.011883755,
        -0.06913366,
        -0.024230896,
        -0.08247511,
        -0.035910584,
        0.030483233,
        -0.021999089,
        0.04604753,
        -0.0054738987,
        -0.0023353787,
        -0.06679931,
        0.038532354,
        0.075031675,
        -0.07219903,
        -0.01083498,
        0.04583563,
        -0.11431553,
        0.008869849,
        0.05336308,
        0.0331129,
        0.026666585,
        0.07807764,
        0.0046963333,
        -0.08108478,
        -0.020002421,
        0.05211321,
        0.016364532,
        -0.041239895,
        0.011663392,
        -0.057039775,
        -0.015799586,
        0.074766845,
        0.07763321,
        0.0074661644,
        -0.041528296,
        0.058341395,
        0.027098285,
        -0.024139531,
        -0.07932492,
        -0.059122812,
        0.059519053,
        0.09436903,
        -0.04516732,
        0.0086569125,
        -0.06698112,
        -0.055579722,
        0.052234244,
        -0.10895642,
        0.054695956,
        -0.088289365,
        0.037400648,
        -0.07662282,
        0.014942397,
        0.0028748414,
        -0.011137308,
        -0.087177776,
        0.017497431,
        -0.045253336,
        0.005615974,
        -0.09421143,
        -0.07307751,
        -0.023659833,
        -0.011550655,
        -0.09581528,
        0.076405,
        0.015696963,
        0.005222423,
        0.001981712,
        -0.038284913,
        0.056948792,
        -0.056618594,
        -0.02392263,
        -0.04504362,
        -0.104542665,
        -0.078052044,
        -0.01373468,
        -0.10385165,
        0.043273106,
        -0.04146651,
        0.0055343774,
        -0.023724271,
        -0.06154851,
        0.07162295,
        0.04843978,
        -0.074115865,
        -0.076919705,
        0.034548644,
        -0.10543514,
        0.07970937,
        -0.04911595,
        -0.027468732,
        0.026299696,
        -0.07788753,
        -0.062895715,
        -0.0676027,
        -0.052015096,
        0.061690245,
        0.011007328,
        0.04197087,
        -0.008194376,
        0.014753402,
        0.029471183,
        -0.13183807,
        0.011076454,
        -0.0657562,
        -0.11218216,
        0.07653081,
        -0.08911698,
        0.04039417,
        0.019852165,
        -0.047858603,
        -0.026236007,
        -0.0695641,
        0.0661601,
        -0.044091925,
        0.0639583,
        -0.10448999,
        0.021492304,
        0.024101876,
        0.091752246,
        0.03270791,
        -0.028192371,
        -0.08517609,
        -0.010250627,
        -0.018272907,
        0.09742876,
        0.07356916,
        -0.030645205,
        -0.08783524,
        -0.02869893,
        -0.058820505,
        0.0328785,
        -0.0067354725,
        -0.05032138,
        -0.057398006,
        0.022807473,
        -0.042924635,
        0.06167889,
        -0.08743415,
        -0.07901903,
        6.3316734E-4,
        -0.11016971,
        -0.04033414,
        0.012010183,
        0.075918525,
        -0.022345353,
        -0.036431648,
        0.08502187,
        0.022243818,
        -0.030149955,
        -0.11033766,
        0.030775277,
        -0.004366841,
        0.1017444,
        -0.022787748,
        0.07621847,
        0.012324836,
        -0.092589885,
        0.034992006,
        -0.114528604,
        0.0064329724,
        -0.0057837944,
        -0.031461637,
        -0.049563438,
        -0.063452214,
        0.089960285,
        -0.06781068,
        0.07376337,
        0.034404363,
        -0.030584153,
        -0.019618493,
        0.074713565,
        -0.011839607,
        -0.02735753,
        -0.02024896,
        -0.020514287,
        0.07046893,
        -0.10600308,
        -0.1261763,
        0.013881346,
        -0.04581086,
        -0.0034132279,
        0.11279321,
        -0.053649385,
        -0.012690388,
        0.015798798,
        -0.11034972,
        -0.06522574,
        -0.035467274,
        0.024081266,
        -0.11054608,
        0.07103136,
        -0.03142975,
        0.039294127,
        0.047889523,
        0.09174737,
        0.009009221,
        -0.023103323,
        0.07547628,
        -0.019704774,
        -0.026496395,
        0.036116045,
        -0.07331074,
        0.07241452,
        -0.06795355,
        -0.041460767,
        -0.10248892,
        -0.07909596,
        0.02669427,
        0.029692553,
        0.02163925,
        -0.062732786,
        -0.06675691,
        -0.09884339,
        -0.11502283,
        0.054541122,
        -0.08234321,
        -0.0486849,
        0.0471298,
        0.0075912154,
        -0.06342232,
        -0.09313867,
        -0.029679336,
        0.05181836,
        -0.074791275,
        0.08405188,
        0.0050778706,
        0.028419498,
        0.06843922,
        0.0948068,
        0.061023857,
        -0.011053333,
        -0.06431839,
        -0.09153061,
        -0.0041171904,
        -0.016856601,
        0.024318432,
        -0.047628593,
        0.042071145,
        -0.04438846,
        -0.0396542,
        -0.10091629,
        -0.025835825,
        -0.10683699,
        -0.103644475,
        0.018545423,
        -0.067497,
        -0.062917165,
        0.03723333,
        0.04637046,
        -0.020862572,
        -0.025674457,
        0.017924368,
        0.06959045,
        0.07271715,
        -0.019577805,
        0.031723622,
        -0.005556029,
        0.042702436,
        0.08526839,
        -0.02164476,
        -0.07970689,
        -0.095013194,
        -0.07735882,
        0.081790015,
        -0.08646189,
        -0.007791404,
        -0.038914286,
        -0.030008314,
        -0.02405904,
        -0.07469138,
        -0.092822656,
        0.05153593,
        -0.094987765,
        -0.03000141,
        0.0675272,
        0.07291008,
        0.045941018,
        0.076019816,
        0.014329867,
        0.016977841,
        0.0669388,
        0.09573693,
        0.12361589,
        0.09960772,
        -0.040040404,
        -0.043252565,
        -0.05256337,
        -0.08823716,
        0.072533116,
        0.08821818,
        0.1004405,
        -0.0879308,
        -0.07519063,
        0.030259471,
        0.06444924,
        -0.059190497,
        -0.13461827,
        -0.058425553,
        -0.027675398,
        0.05046855,
        -0.059731744,
        0.08905047,
        0.021830305,
        -0.0755281,
        0.015904138,
        0.035360366,
        -0.014180275,
        0.0074447896,
        0.014791192,
        0.07582024,
        -0.028999148,
        -0.029508263,
        0.005914048,
        -0.005355335,
        -0.097120546,
        -0.003721825,
        -0.03606393,
        0.10565583,
        0.033071946,
        -0.047200326,
        -0.010208837,
        0.084747545,
        -0.028875513,
        0.044128694,
        0.06201847,
        -0.03546929,
        -0.0015119896,
        0.015188065,
        0.084213614,
        0.022464763,
        -0.044628788,
        -0.030361949,
        0.02046461,
        -0.07419506,
        0.0112505555,
        0.05597054,
        0.05763548,
        -0.01174013,
        0.04045967,
        -0.07426853,
        -0.026272347,
        -0.13017152,
        -0.05183877,
        0.035510197,
        0.12265225,
        0.05867861,
        -0.0016175413,
        -0.15608647,
        0.025427083,
        0.07779104,
        0.08732323,
        0.10093932,
        -4.1316607E-4,
        0.095705055,
        -0.051615644,
        -0.044915732,
        -0.012050382,
        0.071403034,
        -0.008214755,
        -0.099509805,
        0.052870702,
        -0.09004127,
        -0.02782316,
        0.04171749,
        -0.043166272,
        0.032422967,
        -0.028796628,
        -0.044160906,
        -0.09263178,
        -0.008945528,
        -0.16291146,
        0.019566735,
        0.18072893,
        0.08028341,
        -0.051935185,
        -0.11193001,
        0.016222712,
        0.074304506,
        0.111444905,
        -0.01194026,
        -0.016879747,
        0.049560282,
        0.07136551,
        0.004929447,
        -0.0155989425,
        0.05425796,
        0.04969724,
        0.06243635,
        -0.086551495,
        0.05067055,
        -0.0973947,
        0.020640537,
        -0.036094382,
        0.0017496747,
        -0.084955186,
        -0.052676972,
        -0.13828991,
        -0.061630536,
        -0.045169346,
        0.07257502,
        0.07001256,
        0.060567737,
        -0.06275602,
        -0.17726794,
        -0.12259823,
        -0.08262988,
        0.030204646,
        0.10097513,
        -0.022270968,
        0.0072916485,
        -0.07656919,
        0.009865183,
        0.027350992,
        0.004365209,
        0.027043857,
        -0.06405556,
        -0.06974883,
        0.08680241,
        -0.101013996,
        -0.102933414,
        -0.09680322,
        -0.07725093,
        -0.008605654,
        -0.13018687,
        -0.06039337,
        -0.16168667,
        -0.058715496,
        -0.02403415,
        0.14959069,
        0.0730168,
        0.009201668,
        -0.0667392,
        -0.09830883,
        -0.087427035,
        0.10124774,
        0.080309264,
        0.11254014,
        0.051875703,
        0.10051705,
        0.041899685,
        0.024227118,
        0.016291074,
        -0.07229839,
        -8.0014876E-4,
        -0.08633591,
        0.06897215,
        0.08244439,
        0.059001483,
        -0.030932821,
        -0.0037172937,
        -0.1304257,
        -0.02780401,
        -0.072730124,
        -0.045732148,
        -0.025275245,
        0.114007145,
        0.027458943,
        0.13032238,
        -0.09979729,
        -0.05845252,
        -0.108491704,
        -0.07537196,
        -0.02419595,
        -0.0020241549,
        -0.0029718238,
        0.0027149837,
        0.00805074,
        -0.020632274,
        -0.078104384,
        -0.0091739455,
        0.0052501587,
        -0.09930725,
        -0.00855696,
        -0.09494807,
        0.06856717,
        -0.06367844,
        -0.0799545,
        -0.07920186,
        -0.089095704,
        -0.08310327,
        -0.09526031,
        -0.011737782,
        -0.06587356,
        -8.5952104E-4,
        -0.025199447,
        0.08343697,
        -0.06816155,
        -0.022590755,
        0.0048700552,
        -0.16673902,
        -0.042743865,
        0.0124548115,
        0.04153987,
        -0.03563269,
        0.01789031,
        -0.045238346,
        -0.003954892,
        0.08108626,
        -0.035948362,
        -0.0871793,
        -0.09883558,
        0.032789107,
        -0.066882774,
        -0.044006526,
        -0.034984015,
        -0.06635768,
        0.0037016233,
        -0.03772526,
        0.028889488,
        0.003202013,
        -0.082038596,
        0.038819507,
        0.02984597,
        0.043315258,
        0.07860682,
        -0.055646103,
        -0.12686035,
        0.021736335,
        -0.042942554,
        -0.042100452,
        -0.069028094,
        0.0035950448,
        -0.045169935,
        -0.06654172,
        0.07454475,
        -0.04702654,
        0.031728435,
        0.074712135,
        0.08523319,
        -0.009866103,
        -0.050883535,
        -0.08194516,
        -0.096077114,
        0.014790217,
        0.09577445,
        -0.03160538,
        0.020227721,
        -0.08155752,
        -0.0812442,
        0.080403745,
        -0.057249866,
        -0.034309592,
        0.06497423,
        -0.04283479,
        -0.093767285,
        -0.13144098,
        -0.09404684,
        -0.06909169,
        -0.051229414,
        0.10088314,
        -0.085488304,
        -0.053352047,
        -0.036872905,
        0.06270383,
        -0.07613255,
        0.063179865,
        -0.06527496,
        -0.03596547,
        0.036413204,
        0.007840103,
        0.023702608,
        -0.033606756,
        0.05320916,
        0.07417037,
        -0.056534283,
        -0.07392102,
        0.030094953,
        -0.08131948,
        0.039033454,
        0.07914752,
        -0.100667365,
        0.06340962,
        -0.060699545,
        -0.05268383,
        0.03451174,
        0.049148127,
        0.025753828,
        -0.074821055,
        -0.03615317,
        0.004777243,
        -0.08326143,
        0.037796114,
        0.0607386,
        0.09794007,
        -0.026837762,
        -0.04359104,
        -0.06806506,
        0.060899265,
        0.039720383,
        0.08591751,
        -0.0052368483,
        -0.032981284,
        -0.052911628,
        -0.0060164146,
        0.03289773,
        0.049712535,
        0.07745065,
        0.026584962,
        -0.040591374,
        -0.08250567,
        0.058167145,
        0.02813453,
        -0.022151088,
        0.05549357,
        0.08031343,
        0.07806957,
        -0.02636136,
        -0.042010337,
        0.046854265,
        0.09529672,
        0.033534292,
        -0.034976482,
        0.09433849,
        -0.057601698,
        0.033339024,
        0.05155756,
        0.025558593,
        0.043771494,
        -0.058319516,
        6.6715543E-4,
        0.045519657,
        -0.065349005,
        0.080711946,
        -0.015354359,
        -0.06233514,
        -0.058653943,
        -0.06948832,
        0.013556475,
        -0.10180451,
        0.001982151,
        -0.01442346,
        0.008393506,
        0.07614155,
        0.0027718677,
        -0.024834769,
        0.091442965,
        -0.02065838,
        -0.07942407,
        -0.055384293,
        0.098553896,
        0.074534744,
        0.09762246,
        0.027651275,
        0.016625319,
        -0.051293045,
        0.08221854,
        0.050030004,
        0.07660994,
        -0.07751795,
        -0.030632775,
        0.04610736,
        -0.032357097,
        0.062686846,
        -0.046105318,
        -0.013519629,
        -0.040658448,
        -0.027648998,
        -0.012270873,
        -0.024048561,
        0.022412455,
        0.06849497,
        0.081409514,
        -0.024012646,
        -0.050169196,
        -6.5920723E-4,
        0.082447946,
        0.0032387383,
        0.044145513,
        -0.01767102,
        0.08704764,
        0.013757349,
        0.09554757,
        0.07894234,
        0.06434548,
        0.010405274,
        0.10338224,
        -0.057766464,
        0.039665114,
        0.01861188,
        -0.08406247,
        -0.022390334,
        0.003151499,
        -0.08725737,
        -0.014837884,
        0.095875345,
        -0.05561121,
        0.09737735,
        -0.061093647,
        -0.052102998,
        0.04853607,
        -0.02971778,
        -0.026863912,
        -0.06742234,
        0.100704856,
        0.040742867,
        0.069104366,
        -0.0714496,
        -0.061970197,
        0.10001255,
        0.04097537,
        0.09924286,
        0.07076822,
        -0.030016975,
        0.086563945,
        0.033922665,
        -0.047822125,
        -0.05030449,
        -0.0016924861,
        -0.08498701,
        0.002434256,
        0.052284047,
        -0.060165353,
        0.1003289,
        0.0651292,
        0.049411945,
        -0.03604242,
        0.036219276,
        0.11044454,
        0.03348337,
        -0.017964913,
        -0.088800356,
        -0.040272146,
        0.08007483,
        0.03976485,
        0.07572244,
        -0.09293114,
        -0.044776045,
        0.004400482,
        -0.08906178,
        0.010511653,
        0.016684923,
        -0.052048076,
        0.09311511,
        -0.029499473,
        -0.03489312,
        0.059290893,
        0.10359676,
        -0.0083178645,
        -0.06273076,
        -0.09220237,
        -0.032548387,
        -0.048042126,
        0.076925315,
        -0.027551183,
        -0.04703438,
        -0.010337188,
        0.06281887,
        -0.023990134,
        0.05880854,
        0.05848478,
        0.042841602,
        -0.070983514,
        -0.0675853,
        0.04647523,
        -0.08296685,
        0.048375543,
        -0.07925348,
        -0.030437239,
        -0.032300003,
        -0.028121945,
        -0.00891679,
        -0.04896543,
        -0.067998596,
        -0.06338185,
        0.04547595,
        0.08194657,
        0.03816234,
        -0.07833102,
        -0.05439224,
        0.030215727,
        0.07758263,
        0.12290021,
        -0.01017331,
        0.0153588215,
        0.104129374,
        -0.06822658,
        0.094895154,
        0.07833483,
        0.047245592,
        0.058071557,
        -0.07751205,
        0.079018615,
        0.080717444,
        0.09895966,
        -0.059507992,
        -0.05218793,
        -0.0713928,
        0.06670748,
        0.028100569,
        -0.0028262292,
        0.015116207,
        0.0058840956,
        0.018278614,
        0.01573908,
        -0.057769176,
        -0.11446028,
        -0.06939001,
        0.013891563,
        -0.089067146,
        0.013401468,
        0.015691789,
        0.027752304,
        0.11920319,
        -0.05562564,
        0.01210678,
        0.022131322,
        -0.0025808865,
        0.0059442488,
        0.018586177,
        0.06235171,
        -0.031059548,
        0.04843957,
        0.02175579,
        -0.035842255,
        0.004490499,
        0.079170085,
        0.0061859293,
        -0.032494374,
        -0.091736,
        -0.07575481,
        -0.051318713,
        -0.051678233,
        7.170607E-4,
        0.0057976367,
        -0.07695484,
        0.014836172,
        0.046056494,
        0.06790331,
        0.07274241,
        0.15896055,
        0.11356468,
        -0.0048623793,
        0.09285808,
        -0.089291066,
        -0.028589379,
        0.03819498,
        0.07045726,
        0.0067234524,
        -0.07553807,
        0.017429484,
        0.027264904,
        0.06643778,
        0.06876112,
        0.055246145,
        -0.020908434,
        7.9765706E-4,
        0.026187126,
        -0.10864626,
        -0.04162723,
        0.035668854,
        -0.021634081,
        -0.16494073,
        -0.20446378,
        -0.022660172,
        -0.061523195,
        -0.06043269,
        0.054108467,
        0.020592475,
        0.110153794,
        0.012255587,
        -0.07764458,
        -0.10428003,
        -0.08067496,
        -0.06501694,
        -0.038138166,
        0.08787458,
        0.017877571,
        -0.07768418,
        0.007985977,
        0.07030022,
        0.016135925,
        -0.012817341,
        -0.050847653,
        -0.0855552,
        -0.11549896,
        0.010842814,
        -0.085708156,
        0.0022683006,
        -0.0011663098,
        -0.05093888,
        -0.12896097,
        -0.18307999,
        -0.0057755294,
        0.12624365,
        0.12814847,
        0.08838276,
        0.088232175,
        0.08114657,
        -0.04062141,
        -0.068807356,
        0.07506667,
        0.019913489,
        0.03748492,
        -0.054510213,
        0.07913756,
        0.006516731,
        0.01877514,
        0.009682452,
        -0.0491117,
        0.0999143,
        0.045230094,
        0.08496532,
        -0.056770865,
        -0.086576596,
        -0.10430252,
        -0.038688604,
        0.011249255,
        -0.18473117,
        -0.08361485,
        -0.16928948,
        0.09007611,
        0.06667705,
        0.17057618,
        0.06153106,
        -0.037090734,
        -0.007963758,
        -0.12684229,
        0.020771177,
        0.059780862,
        -0.034545697,
        0.05411997,
        0.049746078,
        0.024015313,
        -0.07074371,
        -0.014916312,
        0.027985921,
        0.037812505,
        0.03760805,
        0.019528875,
        0.0719713,
        -0.07524373,
        -0.056971967,
        -0.108115345,
        0.010027225,
        -0.11646832,
        -0.03990807,
        -0.20154946,
        -0.088290624,
        0.10950268,
        0.06972832,
        0.07223923,
        0.025150588,
        -0.050309822,
        -0.11054284,
        0.010286301,
        -0.11558299,
        -0.03740966,
        0.080391034,
        0.09141573,
        -0.07449661,
        -0.07880003,
        0.06419664,
        0.020715987,
        0.015269961,
        -0.07680408,
        -0.011749925,
        0.060156446,
        0.06655651,
        0.06671548,
        -0.08723525,
        -0.020755846,
        -0.060857315,
        -0.113755606,
        -0.15003741,
        -0.08654687,
        -0.024516273,
        0.19362614,
        0.1013813,
        -0.0063101724,
        0.056226026,
        -0.025056943,
        -0.051866144,
        0.030237582,
        -0.095787175,
        -0.049826346,
        -0.022176689,
        -0.050170608,
        -0.08657863,
        -0.07104425,
        0.0074378815,
        -0.071083084,
        -0.021423671,
        -0.11900415,
        0.059589803,
        -0.06454592,
        -0.038618565,
        -0.016140377,
        -0.027357906,
        -0.06550489,
        -0.1084684,
        -0.046482787,
        -0.13251011,
        -0.0047607743,
        0.020736067,
        0.14481823,
        0.030282313,
        -0.060068365,
        0.014045679,
        5.7797524E-4,
        -0.09703364,
        -0.060213692,
        -0.11503986,
        0.069720335,
        -0.014212452,
        0.0632434,
        -0.03305078,
        -0.030697314,
        -0.017228607,
        -0.081943445,
        -0.069094755,
        0.024301559,
        0.012358772,
        0.04318829,
        0.09640702,
        0.00915931,
        0.065699324,
        -0.085988075,
        0.04420547,
        -0.14471862,
        -0.05990334,
        0.08391822,
        0.14470242,
        0.114101924,
        -0.03594013,
        -0.037623335,
        -0.06156796,
        -0.10082005,
        -0.09285088,
        -0.11494485,
        0.05775829,
        0.07989853,
        0.08016005,
        -0.09761565,
        0.02019084,
        -0.011027216,
        -0.09964505,
        0.06736748,
        -0.06442252,
        -0.04481488,
        0.018976258,
        -0.049696904,
        0.08150697,
        -1.5186891E-4,
        0.050318655,
        -0.06210999,
        -0.09357645,
        -0.09005592,
        0.0085545555,
        0.07777368,
        0.05095596,
        -0.058143843,
        -0.09993892,
        -0.13897908,
        -0.04196984,
        -0.11505317,
        -0.002315201,
        0.04682891,
        0.047762457,
        -0.020365335,
        -0.04709088,
        0.04351091,
        0.10045411,
        0.0643389,
        0.07539646,
        -0.0578148,
        -0.06281009,
        -0.09176291,
        -0.049847975,
        -0.07469751,
        0.109080434,
        0.049510803,
        0.057471633,
        0.088421285,
        0.028299844,
        0.023850596,
        -0.025659977,
        0.02515746,
        0.118679434,
        0.0080246795,
        0.0031416616,
        -0.016839286,
        0.033665992,
        -0.06679514,
        -0.087546185,
        0.037376095,
        -0.03764955,
        -0.023309218,
        0.042258993,
        -0.087024204,
        -0.04370804,
        -0.09787935,
        0.004118406,
        -0.031694546,
        -0.006347231,
        -0.085087135,
        -0.065623276,
        0.05392226,
        -0.03365859,
        0.086825885,
        0.07874135,
        0.04780977,
        0.022726392,
        0.007869266,
        0.019657915,
        -0.028465448,
        -0.042094946,
        -0.012197775,
        -0.06952174,
        -0.04012625,
        0.045956716,
        0.06777984,
        -0.08202034,
        0.06422353,
        0.0060790335,
        0.09473158,
        -0.043558225,
        -0.08982584,
        0.025457589,
        -0.02226532,
        -0.09228093,
        0.0868247,
        0.047066268,
        -0.06255228,
        -0.051812597,
        0.02642008,
        0.022057636,
        0.07703464,
        0.041138943,
        -0.024681749,
        -0.0131985005,
        -0.025047155,
        0.057579376,
        -0.024616718,
        -0.0061453846,
        -0.040507324,
        -0.11382238,
        0.022092992,
        -0.055208854,
        -0.0790224,
        0.0059583383,
        -0.045373928,
        -0.0659947,
        0.021392632,
        -0.04457736,
        -0.07770154,
        -0.05802531,
        -0.09106066,
        -0.037331372,
        -0.049077448,
        0.037502754,
        -0.046874646,
        -0.09789501,
        -0.03922871,
        0.043423712,
        -0.010527624,
        -0.0016858983,
        0.092635125,
        0.0351592,
        0.053716127,
        -0.10530484,
        0.07345216,
        0.050059315,
        0.03384271,
        -0.01607654,
        -0.047978934,
        0.033975698,
        0.029010298,
        -0.08375802,
        0.049853526,
        0.066446036,
        -0.029773146,
        -0.063071266,
        0.0330686,
        6.2173646E-4,
        0.08521726,
        0.07266614,
        0.041469917,
        -0.027607592,
        -0.021643883,
        -0.06985628,
        -0.0910587,
        0.0105356965,
        -0.0015334119,
        0.100000076,
        -0.015116597,
        -0.062280502,
        0.029902596,
        -0.038305596,
        0.03510407,
        0.037523877,
        0.07174434,
        -0.06289336,
        0.007962079,
        0.091272175,
        0.026183901,
        -0.05651314,
        0.007924429,
        0.034607247,
        -0.06355168,
        -0.051896106,
        0.029842254,
        0.001738412,
        -0.029194476,
        -0.015709773,
        -0.008566933,
        0.0918563,
        0.07323482,
        -0.04850671,
        -0.07630148,
        -0.086263284,
        0.06849403,
        -0.10297128,
        0.088592164,
        0.0044783023,
        -0.0020866876,
        -0.007373132,
        -0.005565175,
        0.058993302,
        0.02145798,
        0.018195653,
        -0.046198186,
        0.020837134,
        0.01592504,
        0.09359426,
        -0.060857557,
        0.0284529,
        0.07022024,
        0.08357344,
        -0.027754195,
        0.06523819,
        0.03414001,
        -0.095435165,
        -0.022134462,
        0.052669734,
        0.010966349,
        0.021515975,
        0.059438054,
        -0.06145865,
        -0.090290345,
        0.014026446,
        0.042894095,
        -0.038536295,
        -0.019694712,
        0.06850642,
        -0.055092566,
        -0.015243992,
        0.041197896,
        0.06422311,
        -0.051608853,
        0.090369724,
        -0.09833853,
        0.028273523,
        0.05840049,
        0.016553175,
        -0.06230445,
        -0.05208296,
        -0.0063952575,
        0.020827275,
        -0.052125983,
        -0.08495309,
        0.061268456,
        -0.04675879,
        -0.10027984,
        -0.050649587,
        0.04450586,
        0.07149873,
        0.04136033,
        -0.025142675,
        -0.034314763,
        -0.07542847,
        0.063610494,
        0.015037621,
        0.080156945,
        -0.03440999,
        -0.008510472,
        -0.07400131,
        -0.09580212,
        -0.09787725,
        0.046415195,
        0.016104167,
        -0.0450624,
        -0.024564711,
        0.08799066,
        0.10180548,
        0.048891813,
        -0.07205697,
        -0.08415817,
        0.0077839117,
        -0.042407397,
        -0.024469486,
        -0.025960797,
        0.0074161757,
        0.039072152,
        -0.06170946,
        -0.07787231,
        0.067485586,
        0.010144574,
        0.08043641,
        -0.011248743,
        -0.10011731,
        0.023238176,
        0.0068674637,
        -0.035487834,
        -0.06381574,
        -0.07902739,
        -0.046992797,
        0.019645631,
        -0.004599995,
        -0.022143232,
        0.01342878,
        0.088957414,
        0.019620968,
        -0.09642215,
        0.07360808,
        -0.049353335,
        0.06114538,
        0.0515346,
        -0.052822772,
        0.048000008,
        0.032096624,
        -0.032080423,
        -0.008869963,
        -0.029534891,
        0.04903924,
        0.0016362672,
        -0.09915745,
        0.008003561,
        0.04297566,
        -0.012208637,
        -0.024028642,
        -0.040352743,
        0.080492325,
        0.02633445,
        -0.07439996,
        -0.057227753,
        -0.026745154,
        0.02588764,
        0.024836717,
        0.07200718,
        0.09154871,
        -0.09079769,
        -0.06127239,
        0.02569838,
        0.06089005,
        0.06959634,
        0.06950114,
        0.026370276,
        0.05607261,
        -0.068269275,
        -0.06557749,
        0.07358449,
        0.031001547,
        -0.032635085,
        0.028954001,
        -0.04375229,
        -0.048053157,
        -0.050658513,
        -0.017655587,
        -0.0042999387,
        0.07160597,
        -0.089763716,
        -0.08880815,
        -0.010557498,
        0.047183014,
        -0.018187532,
        0.020102208,
        -0.03891684,
        -0.06567398,
        -0.030665135,
        0.020787178,
        -0.07212526,
        -0.07997347,
        0.045077916,
        -0.10509405,
        0.053821046,
        -0.022849979,
        -0.024429007,
        0.065251686,
        0.056804843,
        -0.10214846,
        0.028926855,
        0.008773647,
        -0.04183687,
        -0.08776579,
        0.050839737,
        -0.007350137,
        0.029343575,
        -0.016404174,
        0.02365608,
        -0.02585129,
        0.050674442,
        -0.10338222,
        -0.004106873,
        -0.046155397,
        0.030140141,
        0.054970715,
        0.03309115,
        -0.083797164,
        -0.02792001,
        -0.0049894983,
        0.014621244,
        0.08345801,
        0.085360155,
        -0.005665899,
        -0.0055107786,
        -0.09275097,
        -0.020531243,
        -0.01650133,
        0.08902763,
        -0.07590899,
        -0.073913865,
        0.059851445,
        -8.618965E-5,
        -0.070625626,
        -0.005305905,
        -0.055029966,
        -0.07887817,
        0.012489701,
        0.06126636,
        -0.0018864647,
        -0.021938007,
        -0.04384725,
        0.089362964,
        0.0039014632,
        0.012135354,
        0.024763511,
        -0.07969251,
        0.07778513,
        0.04631755,
        0.05361957,
        0.0029148217,
        -0.07873873,
        0.016631871,
        -0.006746309,
        0.090677455,
        0.004850471,
        -0.05446122,
        -0.077001184,
        -0.11624441,
        -0.035683565,
        0.05563573,
        -0.06791394,
        0.013080704,
        -0.03273244,
        0.039028473,
        0.037981153,
        -0.08567667,
        -0.056537505,
        0.058978777,
        -0.0036549808,
        -0.01873486,
        -0.03959,
        0.020863403,
        -0.010051945,
        -0.0758854,
        -0.06482793,
        -0.06745997,
        -0.05748075,
        0.06986706,
        0.04693492,
        0.06472688,
        -0.06646264,
        -0.054381073,
        0.06618269,
        -0.06228446,
        0.049737737,
        -0.05643489,
        -0.002684411,
        -0.08980996,
        0.069531985,
        0.08295576,
        -0.10351299,
        0.05171212,
        0.025855187,
        0.047544394,
        -0.018055174,
        0.034389663,
        0.053893365,
        -0.015511545,
        -0.047717012,
        -0.0920498,
        -0.08101187,
        -0.04850027,
        -0.007083528,
        0.10077265,
        -0.08371015,
        0.009635554,
        -0.057050705,
        -0.026669439,
        0.025576595,
        -0.031361435,
        -0.07499905,
        0.08908102,
        0.038661774,
        -0.054261737,
        0.04002509,
        -0.10645975,
        0.08647564,
        -0.10108681,
        -0.08661977,
        -0.05886638,
        0.03533476,
        -0.027665498,
        -0.0073466124,
        0.060895666,
        -0.05461299,
        -0.008827473,
        -0.09475525,
        -0.084253035,
        -0.06489479,
        0.09324408,
        -0.031475786,
        -0.023657866,
        -0.06598739,
        -0.040610753,
        0.022610942,
        0.09579872,
        0.06867569,
        0.042853832,
        -0.074245326,
        -0.0030443673,
        0.0023669251,
        -0.07053328,
        0.0010831523,
        0.0580227,
        -0.0836661,
        0.01796353,
        0.046967622,
        -0.04218204,
        -0.054797884,
        0.029932119,
        -0.042152904,
        0.036686234,
        0.027605783,
        -0.07038829,
        -0.022966703,
        0.073671475,
        -0.022432452,
        -0.07342996,
        0.016581884,
        -0.009259677,
        -0.052947536,
        0.05315773,
        0.048291475,
        0.01617508,
        0.0333242,
        0.115015104,
        -0.02258107,
        0.045010176,
        -0.03317646,
        -0.010336293,
        -0.04513873,
        0.06612861,
        -0.03221422,
        0.013348705,
        0.049286786,
        -0.1039507,
        0.008767273,
        -0.048336685,
        -0.043193016,
        0.077033065,
        0.049892858,
        0.06697419,
        -0.02290797,
        0.09123692,
        0.03024885,
        0.09889216,
        -0.04739499,
        0.08851955,
        0.122350566,
        0.016442938,
        -0.0029144953,
        0.1222037,
        0.059893962,
        -0.040642403,
        0.10276033,
        0.043612886,
        0.08390691,
        -0.0259028,
        -0.008398833,
        0.06635592,
        -0.06276966,
        -0.09670799,
        0.026746705,
        0.053981986,
        0.016073493,
        -0.044892218,
        -0.050649337,
        -0.079723224,
        -0.073467575,
        -0.059627995,
        -0.0023365251,
        -0.052287005,
        -0.08827507,
        -0.03476447,
        0.015196711,
        0.03988945,
        0.05639497,
        0.1133493,
        0.05973642,
        0.10119037,
        0.028000211,
        0.15310243,
        -0.057477903,
        0.06356517,
        0.060353804,
        0.015497239,
        0.012009602,
        0.109503604,
        0.061360836,
        0.071002446,
        0.090417385,
        0.00882916,
        0.08474419,
        0.03497138,
        0.09341407,
        -0.07429602,
        -0.007235116,
        0.08944055,
        0.02705912,
        0.06294673,
        0.042142153,
        0.021599978,
        -0.09007842,
        0.033358276,
        0.009069425,
        0.017669706,
        0.009429848,
        -0.01736266,
        -0.022238625,
        0.02590976,
        0.0737049,
        0.036062766,
        0.041445103,
        0.020405347,
        -0.03480867,
        0.051733192,
        0.004539039,
        0.04415524,
        0.06584599,
        -0.073257655,
        0.079778135,
        -0.0068599223,
        0.001622915,
        0.04440498,
        0.09921712,
        0.100305356,
        0.032735776,
        0.025533805,
        -0.091630876,
        0.006534877,
        0.050823167,
        -0.03609761,
        -0.054642655,
        -0.07343497,
        -0.010850971,
        0.06994046,
        -0.0347174,
        0.09720435,
        -0.024600662,
        0.06963968,
        -0.018925712,
        -0.024010634,
        -0.001352564,
        -0.009617527,
        0.037570257,
        -0.05982442,
        0.057148922,
        -0.03595816,
        -0.0034908568,
        0.039558608,
        0.09759851,
        -0.016483402,
        -0.08175384,
        -0.09035368,
        -0.06140159,
        0.027521675,
        0.032432638,
        -0.08256904,
        0.031625185,
        -0.059120823,
        -0.08388866,
        -0.039924815,
        0.051908482,
        -0.038101703,
        0.093801655,
        -0.016020872,
        0.11192972,
        0.008403129,
        0.11159401,
        -0.06839923,
        -0.0125492085,
        0.026761193,
        -0.08876797,
        0.024004424,
        0.045823373,
        0.009262679,
        0.059986025,
        0.048675764,
        -0.059989035,
        0.070582494,
        0.080231756,
        -0.0721976,
        -0.070334144,
        -0.058037717,
        -0.080384076,
        -0.0064709582,
        -0.06291193,
        -0.055558596,
        -0.015619568,
        -0.059076365,
        0.034099802,
        -0.067082174,
        0.03661375,
        0.07117119,
        0.1192626,
        0.06280435,
        0.0011103578,
        0.05461016,
        -0.07255056,
        -0.044791598,
        0.02145122,
        -0.015645001,
        0.0041019986,
        -0.009782876,
        0.08482059,
        0.0055731563,
        -0.048104405,
        0.077932484,
        0.036559805,
        -0.07463635,
        0.03366599,
        0.048942264,
        -0.020993544,
        -0.07248507,
        0.037893634,
        -0.04401228,
        -0.035990067,
        0.0038246375,
        0.015737515,
        0.059254512,
        0.059608597,
        0.04409194,
        0.062842295,
        0.17631114,
        0.07487755,
        0.12894592,
        0.096397564,
        0.08324291,
        -0.013898853,
        0.08486473,
        0.062541895,
        -0.04279665,
        -0.024092797,
        -0.08015837,
        -0.059219006,
        -0.101443596,
        -0.015962971,
        0.0670304,
        -0.03965184,
        0.07197501,
        0.05527514,
        -0.10767403,
        -0.081987485,
        0.0049906415,
        -0.07143539,
        0.024739884,
        0.031779863,
        -0.0025255715,
        0.09379521,
        0.03952346,
        0.17049275,
        0.15494502,
        0.27667198,
        0.21804407,
        0.18329844,
        0.18180318,
        0.10609348,
        0.039572895,
        -0.028534833,
        0.010505086,
        -0.0816821,
        0.027304376,
        -0.09915511,
        -0.08201164,
        0.010132925,
        0.07053447,
        -0.07421846,
        -0.042234812,
        0.07161104,
        0.06858334,
        -0.05165577,
        0.027547227,
        -0.097106144,
        -0.122327566,
        -0.05632055,
        -0.15035419,
        -0.058954928,
        -0.09282843,
        0.03879645,
        0.13327186,
        0.12892088,
        0.19971527,
        0.18172462,
        0.15508904,
        0.09471173,
        0.022061935,
        -0.053802278,
        -0.013972246,
        -0.041716803,
        -0.036617894,
        -0.012472327,
        0.017100085,
        -0.05138308,
        -0.09313032,
        -0.05348188,
        -0.029096946,
        -0.046338513,
        -0.09391546,
        0.06478731,
        0.037756152,
        0.0070198975,
        -0.021231797,
        -0.0030440567,
        -0.09855476,
        -0.13803825,
        -0.13301386,
        -0.16336082,
        -0.19898921,
        -0.10152427,
        0.019412901,
        0.014808725,
        0.049624123,
        0.04482838,
        -0.013220939,
        0.053130593,
        -0.04689871,
        -0.02894224,
        0.06930121,
        -0.001728451,
        -0.07278473,
        -0.055288516,
        -0.0052646203,
        -0.018747931,
        -0.071130924,
        0.0478734,
        -0.009148755,
        -0.035099518,
        -0.0853264,
        -0.0461269,
        0.008876455,
        -0.08636584,
        -0.10213765,
        -0.14582083,
        -0.27353883,
        -0.17966701,
        -0.2353752,
        -0.30044293,
        -0.30010396,
        -0.23574236,
        -0.17820805,
        -0.052218474,
        -0.09850971,
        -0.019181535,
        -0.039713677,
        0.119626455,
        -0.02266289,
        -0.035327688,
        0.016936598,
        -0.055515658,
        0.0051081423,
        -0.059302382,
        0.051299617,
        -0.056119934,
        -0.0403678,
        0.09069975,
        0.07052875,
        -0.015809366,
        0.03829405,
        -0.047680575,
        -0.12748228,
        -0.045981873,
        -0.14234729,
        -0.18272658,
        -0.24983928,
        -0.21967453,
        -0.16496062,
        -0.1264902,
        -0.1571065,
        -0.07515608,
        1.2423843E-5,
        -0.010561967,
        -0.010332734,
        -0.06849953,
        -0.050189923,
        0.00592742,
        -0.061984256,
        -0.06580659,
        -0.048280373,
        0.0835311,
        -0.010877142,
        -0.050500665,
        -0.04615639,
        -0.066156544,
        0.039780945,
        0.027552422,
        0.021509456,
        -0.10904184,
        0.050534748,
        -0.05025975,
        -0.0038621011,
        -0.027504804,
        0.058272284,
        -0.07306933,
        -0.063085854,
        -0.01593139,
        0.040169884,
        -0.121795975,
        -0.029124746,
        -0.039543457,
        0.059972595,
        -0.023596581,
        0.04082952,
        -0.0075920294,
        0.030840034,
        -0.016475907,
        -0.09498235,
        0.005491066,
        -0.009659655,
        0.002811807,
        0.076240934,
        -0.08536971,
        -0.024077471,
        -0.090717815,
        0.0013725648,
        -0.03263428,
        0.10657,
        0.0023523825,
        0.04686324,
        0.025901131,
        0.002098065,
        0.058704246,
        0.04486259,
        -0.074583836,
        -0.021286922,
        0.065384574,
        0.013232566,
        -0.04734881,
        0.0016602852,
        -0.016895832,
        0.047187407,
        0.023850529,
        0.012977899,
        0.038814105,
        -0.023601603,
        -0.031514015,
        -0.07807076,
        -0.015861545,
        0.06529015,
        0.04335836,
        -0.0642819,
        -0.056875855,
        -0.07378516,
        -0.06879745,
        -0.08364261,
        0.03934261,
        0.04595008,
        -0.017741302,
        0.07979319,
        -0.006041999,
        0.040604908,
        0.07183308,
        0.013429656,
        -0.06677708,
        -0.012973503,
        -0.068454266,
        0.06087378,
        0.019690072,
        0.023531778,
        0.002857813,
        0.07473377,
        0.06934747,
        0.05579256,
        -0.07234646,
        -0.08661541,
        0.008020492,
        0.079717346,
        -0.061349627,
        -0.0881408,
        0.067509755,
        -0.1215289,
        0.05064052,
        -0.045438893,
        0.018566735,
        -0.013198531,
        0.03774267,
        -0.044077866,
        0.041374072,
        0.026164293,
        -0.07719372,
        0.021563372,
        -0.044829007,
        0.039009273,
        0.03661418,
        -0.10001342,
        0.031311337,
        0.04558939,
        0.06528368,
        -0.024358118,
        0.039766416,
        -0.09477936,
        -0.013844251,
        0.078227624,
        -0.068539366,
        -0.041851524,
        0.053039487,
        -0.11170613,
        0.009688616,
        0.0017217831,
        -0.03225545,
        -0.107298486,
        0.012846019,
        -0.01386108,
        -0.07472184,
        0.01954958,
        -0.088464834,
        -0.052113485,
        -0.025474591,
        0.02965351,
        -0.083211474,
        0.010829267,
        0.039938774,
        -0.006702624,
        0.03667731,
        -0.09537487,
        0.031101247,
        -0.07577615,
        0.040975586,
        0.08810166,
        0.013187473,
        0.098233774,
        0.06097697,
        0.021565998,
        0.08548692,
        0.07062373,
        0.016393773,
        -0.035541866,
        -0.05991689,
        0.04428641,
        -0.09621835,
        -0.08804519,
        -0.0647008,
        -0.08503514,
        -0.07527006,
        -0.007338231,
        -0.001369676,
        -0.07675189,
        0.040825475,
        0.02109192,
        -0.04798978,
        0.019746765,
        -0.08401695,
        -0.04238089,
        0.07363321,
        -0.061968166,
        -0.06393202,
        -0.05984545,
        0.021555595,
        0.015940163,
        -0.064546205,
        0.07232404,
        -0.08607325,
        -0.04999705,
        0.03576331,
        -0.003086465,
        -0.00961596,
        0.012953359,
        -0.0841996,
        -0.02165393,
        -0.006739035,
        0.039155174,
        0.0034985347,
        0.006403779,
        0.015846202,
        -0.022209952,
        0.030026859,
        0.027640944,
        0.020285683,
        -0.08879149,
        -0.011084106,
        -0.06272647,
        -0.025600426,
        0.050836843,
        0.061155286,
        0.07800782,
        0.016033998,
        -0.002369209,
        -0.046428736,
        0.026827179,
        0.083415195,
        -0.04604379,
        -0.0011939919,
        -0.08585035,
        -0.097182356,
        -0.05436585,
        -0.086643614,
        -0.09302972,
        -0.062456656,
        -0.09481385,
        0.022458533,
        0.010037093,
        0.043285824,
        -0.029414576,
        -0.028727671,
        -0.078567706,
        -0.069810025,
        -0.08091107,
        -0.061250765,
        0.024035607,
        -0.02641532,
        0.030177675,
        0.014478775,
        -0.074407555,
        0.059905976,
        0.079447,
        0.07804149,
        0.05652741,
        -0.09037892,
        -0.08412574,
        -0.053615246,
        -0.02320647,
        -0.06539049,
        0.08778947,
        -0.00882942,
        -0.028857304,
        -0.02440389,
        0.10385448,
        0.04133348,
        0.101220325,
        -0.06367614,
        -0.020337947,
        -0.05878192,
        0.05998849,
        -0.036988452,
        -0.013620787,
        -0.08274463,
        -0.013183073,
        -0.08049705,
        0.08574372,
        -0.043834638,
        -0.0089492705,
        0.085273236,
        0.04865751,
        0.014905893,
        0.09499408,
        -0.0681587,
        0.104830414,
        0.057447772,
        0.09964357,
        0.07595345,
        -0.07699068,
        0.11145776,
        0.03577253,
        0.07211399,
        0.030610578,
        0.11342202,
        0.026158974,
        0.10231763,
        0.07275678,
        -0.09649899,
        0.07909749,
        -0.08288455,
        0.016000407,
        -0.0022944654,
        0.085008584,
        0.048855767,
        0.039429843,
        0.08747443,
        0.085210666,
        -0.0694345,
        0.09569193,
        0.022116154,
        0.034581035,
        -0.058013313,
        0.010772749,
        -0.050681226,
        0.056113727,
        0.044810966,
        0.019782187,
        0.065213285,
        -0.014269501,
        -0.040343817,
        0.086060144,
        -0.06419531,
        0.0011017643,
        6.0391444E-4,
        -0.084978424,
        0.049659234,
        0.030988509,
        0.087448135,
        -0.0619058,
        -0.07595862,
        0.084861554,
        0.027072415,
        0.05341328,
        -0.004202371,
        -0.039066497,
        0.06230435,
        -0.079079814,
        -0.067225814,
        0.09849154,
        -0.045021508,
        -0.09108782,
        -0.07863849,
        0.026803663,
        0.0039732847,
        0.0040857904,
        0.07510765,
        0.015702244,
        0.017504996,
        0.063585185,
        -0.011067861,
        0.03574356,
        -0.06976803,
        0.06590203,
        -0.114563726,
        -0.040617146,
        0.06413514,
        -0.005224864,
        -0.046513803,
        -0.070160076,
        -0.089909956,
        0.08001018,
        -0.08234287,
        0.031056419,
        0.026239216,
        -0.03145829,
        0.054594256,
        -0.029877732,
        -0.059300534,
        0.06516279,
        -0.07257078,
        -0.048753835,
        0.094843425,
        0.08730839,
        0.03789121,
        0.014751896,
        -0.06854679,
        0.081294164,
        0.038664974,
        -0.05932573,
        0.044709213,
        0.02338011,
        -0.0016507291,
        -0.060550675,
        -0.01752586,
        -0.06599029,
        -0.08342604,
        -0.055581037,
        -0.089112446,
        0.081616566,
        0.04230453,
        0.01033639,
        -0.02020452,
        -0.027269688,
        0.053276327,
        -0.06947497,
        -0.05844898,
        0.067825824,
        -0.06697562,
        -0.04824787,
        0.038729694,
        0.023205688,
        -0.088893436,
        -0.04245199,
        -0.0742547,
        0.06974086,
        -0.078493305,
        0.00839347,
        -0.029985087,
        -0.013195722,
        -0.004425648,
        -0.06596509,
        -0.07510764,
        0.0031812012,
        -0.035635613,
        -0.080138855,
        0.009092492,
        -0.02519034,
        -0.09088184,
        -0.0197626,
        0.060837325,
        0.09339221,
        0.03245048,
        0.07492463,
        0.08115639,
        0.050240416,
        0.048991717,
        -0.064556286,
        0.0061577847,
        0.04942631,
        0.0044065746,
        0.0069483304,
        -0.010240897,
        -0.019560013,
        0.050463613,
        -0.04699228,
        0.007821551,
        0.00683218,
        0.05271177,
        -0.08340815,
        0.055048697,
        -0.09976572,
        -0.020896576,
        0.026468156,
        -0.08013929,
        0.04050479,
        0.03052556,
        0.03500513,
        0.05410321,
        -0.10089234,
        -0.019957827,
        -0.035420384,
        0.039991807,
        -0.018155975,
        -0.045055747,
        0.066749796,
        0.03160255,
        -0.082407266,
        -0.06971257,
        -0.017509505,
        0.015207239,
        -0.066363014,
        4.3105858E-4,
        -0.022161188,
        0.05973175,
        -0.044656467,
        0.07590697,
        0.03894818,
        -0.046940725,
        -0.012813019,
        0.08633392,
        0.009386434,
        -0.023195336,
        0.024932537,
        -0.09925635,
        0.057735715,
        -0.02568199,
        0.054709382,
        0.09431408,
        0.010723905,
        0.05663916,
        0.06613415,
        0.0096265385,
        0.03274309,
        -0.0035959992,
        -0.06659544,
        0.06848674,
        0.043999266,
        0.07509907,
        0.03872655,
        0.058555074,
        0.051685184,
        -0.012492421,
        -0.078547224,
        0.008914813,
        0.05076821,
        0.06298137,
        0.0018835028,
        0.015083005,
        -0.07544667,
        -0.019069571,
        0.040879168,
        -0.02203802,
        0.046025164,
        0.09213713,
        0.031856384,
        0.03608009,
        0.090533115,
        0.08569923,
        0.009184082,
        -0.082861274,
        -0.12265475,
        -0.024270894,
        0.012483036,
        0.027552567,
        -0.09635955,
        -0.054926287,
        -0.027321951,
        -0.091605775,
        -0.02064593,
        -0.01219891,
        0.027554186,
        -0.024446309,
        0.03953835,
        0.038217377,
        -0.026467353,
        0.019947385,
        -0.022588288,
        -7.8293204E-4,
        -0.03973315,
        0.08634631,
        -0.06615094,
        -0.087481916,
        0.040924333,
        0.08456168,
        0.07021112,
        -0.11174945,
        -0.11877205,
        0.006815659,
        -0.10163502,
        -0.004321692,
        -0.052733,
        0.034519657,
        0.044440378,
        0.052465033,
        -0.011490785,
        -0.026954519,
        0.008149505,
        -0.0416341,
        -0.041741617,
        0.06738583,
        -0.03829887,
        -0.044360828,
        0.057458643,
        -0.0034047856,
        0.041164596,
        0.026295498,
        -0.0022615665,
        -0.050935056,
        0.04113633,
        0.032643277,
        -0.05074325,
        -0.10676632,
        0.03383425,
        -0.118989,
        0.05517025,
        0.04838677,
        -0.057075895,
        0.066879585,
        -0.041097946,
        -0.008222594,
        -0.02275179,
        -0.05191599,
        -0.0024191346,
        -0.042805143,
        -0.028790142,
        0.031527027,
        -0.07926362,
        0.08254418,
        -0.048046693,
        0.058246132,
        -0.07547181,
        -0.05161154,
        0.006012249,
        0.036958903,
        -0.046425384,
        0.09861871,
        0.07045287,
        0.058807798,
        -0.10315321,
        0.05846676,
        0.08493916,
        0.04899998,
        0.032923073,
        0.014706685,
        -0.105990365,
        -0.08950027,
        -0.03848181,
        0.004991706,
        0.07200086,
        -0.10029203,
        -0.015839128,
        -3.2167212E-4,
        -0.018444529,
        -0.028007114,
        -0.010170467,
        0.028205344,
        -0.032924443,
        0.04269612,
        0.026396638,
        -0.018453214,
        0.0060669445,
        -0.036404908,
        -0.01637501,
        -0.068554334,
        -0.033633936,
        0.105319254,
        -0.023574373,
        0.020776363,
        -0.02744418,
        0.06669287,
        0.045355637,
        -0.08931117,
        -0.040839568,
        -0.040544063,
        -0.0111544095,
        0.03199021,
        -0.10007824,
        0.035248168,
        -0.10971466,
        -0.01809773,
        -0.016377574,
        4.3520005E-5,
        -0.0171601,
        0.0014719062,
        0.011390997,
        -0.035322264,
        0.012026759,
        -0.008013816,
        -0.0314983,
        -0.052414555,
        0.015298392,
        0.04334708,
        -0.08640168,
        0.04713115,
        0.00594006,
        -0.0781935,
        -0.061467297,
        0.04821187,
        -0.016016206,
        -0.031619374,
        0.05969755,
        -0.030748934,
        0.10024174,
        0.022268705,
        0.033597082,
        -0.005469578,
        0.0043571168,
        0.017624596,
        -9.284809E-4,
        -0.055530075,
        0.04300568,
        -0.057348922,
        0.02514355,
        -0.08165081,
        0.01075228,
        0.014353978,
        0.018031426,
        0.06456454,
        -0.038350787,
        -0.03657263,
        -0.06392892,
        0.10302854,
        -0.06114658,
        -0.031186547,
        -0.065252356,
        0.027929384,
        -0.008422358,
        0.08115965,
        -0.07005241,
        0.03205775,
        0.043632895,
        0.032781057,
        -0.08152587,
        -0.0249617,
        -0.038072634,
        -0.06245889,
        -0.0053994535,
        0.036533218,
        -0.070670165,
        0.05003573,
        0.05021094,
        0.07971535,
        0.055671014,
        -0.019045496,
        -0.08320684,
        -0.013106615,
        0.042045474,
        0.030322984,
        -0.07828227,
        0.015976893,
        -0.008136474,
        0.062999375,
        -0.06562479,
        0.062351316,
        0.05191781,
        -0.056258224,
        -0.036867052,
        0.06724923,
        0.06746262,
        0.060535274,
        -0.028198902,
        -0.061142385,
        -0.14056225,
        -0.13906544,
        -0.02866816,
        -0.0058194874,
        0.07325485,
        -0.017802855,
        0.026171457,
        -0.03178725,
        -0.028672654,
        -0.038456436,
        0.04713327,
        -0.04071605,
        0.014639776,
        0.053825848,
        0.013484429,
        0.030624602,
        0.02740747,
        0.060803756,
        -0.0012387753,
        0.05025353,
        0.088945545,
        0.027458554,
        0.10198914,
        -0.053529777,
        0.14662205,
        0.13382052,
        0.057818882,
        0.07004,
        6.4462144E-4,
        0.002419827,
        -0.13656259,
        -0.120171204,
        -0.10895845,
        -0.13090338,
        -0.03036541,
        -0.030840324,
        0.021681493,
        -0.035991725,
        0.10326567,
        0.04076878,
        -0.087386936,
        0.051844914,
        -0.06737346,
        -0.05834896,
        -0.08728142,
        -0.021469666,
        0.001080524,
        -0.06433151,
        -0.104369186,
        0.069331884,
        0.05550654,
        0.05997611,
        0.16603816,
        0.10546552,
        0.15509921,
        0.14743581,
        0.11781169,
        -0.029073503,
        -0.010308824,
        -0.104072444,
        -0.10262952,
        -0.020727806,
        -0.10155497,
        -0.039693557,
        0.019189933,
        -0.0393249,
        -0.03730571,
        0.10431325,
        -0.00984091,
        0.041395,
        0.070717745,
        0.049545545,
        0.08428897,
        0.03951262,
        -0.034635823,
        -0.10558943,
        -0.12345477,
        -0.09031168,
        -0.103002235,
        -0.042974167,
        -0.06838855,
        0.11771561,
        0.1562845,
        0.18113802,
        0.23296258,
        0.21247526,
        0.14788875,
        0.12055762,
        0.073249295,
        -0.03451395,
        0.00813934,
        0.055561706,
        -0.035122287,
        0.035081644,
        -0.017379994,
        -0.04748141,
        -0.02082583,
        0.09435329,
        0.030039005,
        0.0692945,
        -0.082242556,
        0.036966626,
        -0.004158943,
        -0.13525616,
        -0.1510595,
        -0.15404445,
        -0.23398791,
        -0.15554507,
        -0.194764,
        -0.17639346,
        0.015214027,
        0.0152088655,
        0.1464924,
        0.2124702,
        0.19391665,
        0.113676056,
        0.14760415,
        0.08738339,
        0.074931264,
        -0.011119871,
        0.027453741,
        0.03691686,
        0.03220719,
        -0.06793143,
        0.04119292,
        -0.018620754,
        -0.018345218,
        -0.021189647,
        0.01828142,
        0.025545115,
        0.013703577,
        0.047337126,
        -0.10325152,
        -0.036827076,
        -0.126815,
        -0.18899699,
        -0.14472553,
        -0.3082562,
        -0.2275109,
        -0.1230849,
        -0.07448247,
        -0.053805854,
        0.06715803,
        0.064196594,
        0.024497194,
        0.13430896,
        0.0023151126,
        -0.035682436,
        -0.042201616,
        -0.040619675,
        0.01862058,
        -0.0646599,
        -0.04545745,
        -0.0630757,
        -0.06398879,
        -0.07373037,
        0.028356785,
        -0.050386604,
        0.011797889,
        -0.027530205,
        -0.08739078,
        -0.10930168,
        -0.047237884,
        -0.13704206,
        -0.17298074,
        -0.28179082,
        -0.24318342,
        -0.33640572,
        -0.2941811,
        -0.124458686,
        -0.1704522,
        -0.03745815,
        -0.09511744,
        -0.08784142,
        0.02680263,
        0.055591293,
        0.036701832,
        -0.058644444,
        0.012581401,
        -0.08214412,
        -0.059389677,
        -0.0013027822,
        -0.10139901,
        -0.09141608,
        -0.050387483,
        0.07385007,
        0.059652075,
        -0.0013622802,
        0.05201157,
        -0.04855999,
        -0.007920827,
        -0.053236008,
        -0.08469284,
        -0.08401557,
        -0.15563665,
        -0.11129625,
        -0.18611877,
        -0.118958965,
        -0.20402558,
        -0.096203454,
        -0.07383638,
        0.05300912,
        -0.07367287,
        -0.023262119,
        -0.014099814,
        -0.00806215,
        -0.03324106,
        0.062852964,
        0.01657751,
        0.07947332,
        0.0024069017,
        0.0030140583,
        -0.046253167,
        -0.03428917,
        0.06629046,
        -0.009783426,
        -0.020382078,
        0.09535748,
        -0.017973198,
        0.0881895,
        0.09713004,
        0.09098878,
        0.04220096,
        0.13309821,
        0.088744365,
        -0.07444003,
        -0.011678325,
        0.015830578,
        0.03851309,
        -0.04023844,
        0.031055626,
        0.049630422,
        -0.011836303,
        0.017561825,
        -0.07618844,
        0.04640073,
        -0.069408454,
        -0.029649492,
        0.0037975884,
        -0.09872661,
        -0.052744515,
        -0.07658253,
        0.007396578,
        0.0013986349,
        -0.023775455,
        -0.04795856,
        -0.014107162,
        0.118054576,
        0.05843595,
        0.086728506,
        0.21555892,
        0.028101772,
        0.09308969,
        0.085239865,
        0.13667709,
        -0.024866283,
        -0.019049402,
        0.08156549,
        -0.041909292,
        0.07496561,
        0.034971885,
        0.031565413,
        -0.036661506,
        0.0584282,
        0.034775518,
        0.08424424,
        -0.095528096,
        0.024959804,
        -0.018415269,
        0.07739131,
        0.07347218,
        0.06505254,
        -0.092202336,
        0.07970162,
        0.055817578,
        0.10246195,
        0.072989754,
        0.10893631,
        -0.044353154,
        0.14901927,
        -0.010571682,
        0.09109343,
        -0.005001496,
        0.07094287,
        -0.051597875,
        0.032130525,
        -0.024470009,
        -0.0063827783,
        0.03933481,
        0.035224434,
        -0.06847144,
        -0.07145255,
        -0.013839986,
        -0.037170567,
        -0.021873748,
        0.0345801,
        0.046855815,
        -0.0414787,
        -0.101680726,
        -0.022948634,
        0.01303659,
        -0.0051870625,
        0.022164552,
        -0.063600786,
        -0.026520193,
        -0.055681616,
        -0.019931268,
        -0.026635444,
        -0.033148073,
        0.020880217,
        0.014185677,
        0.027672773,
        0.045169022,
        0.009250077,
        0.08163561,
        0.016102295,
        -0.05757926,
        -0.0032197179,
        -0.06168131,
        0.05216108,
        -0.09112089,
        0.007991513,
        -0.08118191,
        -0.00325977,
        0.045413133,
        -0.06862218,
        -0.07176309,
        0.016555533,
        0.03667209,
        -0.019448027,
        0.045340277,
        0.01339811,
        -0.016183566,
        0.019435104,
        -0.02507691,
        -0.0024211877,
        -0.04719197,
        0.016242884,
        -0.028118663,
        0.029315766,
        -0.041780617,
        0.0047450145,
        -0.024260188,
        0.03148912,
        0.063595906,
        -0.05072067,
        -0.06616967,
        -0.04310006,
        -0.014922136,
        -0.06948235,
        -0.01723253,
        0.048972204,
        0.07803641,
        -0.08127326,
        -0.028877739,
        0.08714665,
        -0.045365103,
        -0.10840742,
        -0.1259093,
        -0.12366426,
        -0.12874691,
        -0.080572166,
        0.029009342,
        0.04492085,
        0.02888673,
        -0.070208184,
        0.07726701,
        -0.049701355,
        0.018258143,
        0.09848117,
        -0.089966476,
        0.06678612,
        0.04772029,
        -0.004463909,
        0.08684325,
        -0.022589447,
        0.04995776,
        -0.0277782,
        0.024077142,
        0.051677674,
        -0.0345656,
        0.06734447,
        0.07270114,
        -0.04671402,
        0.08468898,
        -0.0186575,
        0.0697706,
        -0.07844202,
        3.2604314E-4,
        0.058764342,
        0.047619503,
        -0.018676464,
        -0.03659456,
        -0.05414489,
        -0.013714502,
        -0.011859499,
        -0.0028051073,
        -0.026975675,
        -0.07138371,
        0.071956754,
        0.04954375,
        -0.03509575,
        -0.023274338,
        -0.06993811,
        -0.08323072,
        -0.0066024517,
        -0.040127095,
        0.05736302,
        -0.09491115,
        -0.040994633,
        0.06521118,
        0.0055685686,
        -0.07879639,
        -0.08446368,
        0.092573486,
        -0.0013582131,
        0.04978074,
        -0.022855124,
        0.030980345,
        0.05896814,
        -0.09939667,
        0.008106033,
        0.032562662,
        0.017616471,
        0.011741386,
        -0.07445065,
        0.02927354,
        0.04060515,
        -0.09448826,
        -0.090731464,
        -0.045316048,
        -0.07064674,
        0.06575678,
        -0.033598863,
        0.040264837,
        0.064938165,
        0.052297097,
        -0.007234763,
        0.033293016,
        0.09716545,
        0.07515173,
        0.022667464,
        -0.0021384356,
        0.088582456,
        -0.06465951,
        -0.013317667,
        -0.08656349,
        -0.07024998,
        0.061156392,
        -0.027417937,
        -0.13547154,
        -0.06590017,
        0.02461687,
        0.0508826,
        -0.094536036,
        0.051758733,
        -0.067793116,
        -0.027770722,
        0.076839626,
        0.06961736,
        0.08979965,
        -0.031209769,
        0.058011968,
        0.044098493,
        -0.08760089,
        -0.048583105,
        0.099273436,
        0.021282379,
        -0.055535145,
        -0.046685923,
        0.043964516,
        -0.015795382,
        0.0065254234,
        -0.035802662,
        -0.026819428,
        -0.08445505,
        -0.12217738,
        -0.11445429,
        -0.08522833,
        -0.048650667,
        -0.17091374,
        -0.036255483,
        -0.044378854,
        -0.04109549,
        -0.11827044,
        -0.03181956,
        -0.014160628,
        -0.06929939,
        0.021520866,
        -0.095951304,
        -0.019792365,
        0.07535647,
        -0.05064946,
        -0.089100055,
        0.01872424,
        -0.04197024,
        0.061597683,
        -0.0028849982,
        0.026300596,
        0.036322035,
        0.055678643,
        -0.02767594,
        -0.07936346,
        -0.06307996,
        -0.06423824,
        -0.05419616,
        -0.02324432,
        -0.07678527,
        -0.1973096,
        -0.034123626,
        -0.026185071,
        -0.15676649,
        -0.044223383,
        0.014175063,
        -0.11747148,
        0.036069322,
        -0.007086687,
        0.05626574,
        -0.081075765,
        -0.07019827,
        0.048666704,
        0.053283714,
        -0.015745286,
        -0.07187979,
        0.07952861,
        0.0559401,
        -0.05137331,
        0.050233852,
        -0.053794418,
        -0.060898956,
        0.016725343,
        0.06254783,
        -0.06555146,
        -0.048903055,
        0.043885864,
        -0.06637224,
        0.012560592,
        -0.18076287,
        -0.16695185,
        -0.015336502,
        -0.1213184,
        -0.060669832,
        -0.10834475,
        -0.081863984,
        0.013212293,
        -0.06045012,
        -0.02655051,
        0.057823777,
        0.055365615,
        -0.09216618,
        0.07371694,
        -0.073583335,
        -0.08518705,
        -0.06308389,
        -0.0094295135,
        0.021685371,
        0.06766603,
        0.06605226,
        0.14562353,
        0.14638114,
        0.15457353,
        0.09294586,
        0.02992767,
        0.035735443,
        0.008346498,
        0.05790448,
        -0.055950593,
        0.0066456175,
        -0.02783929,
        -0.07995783,
        0.058116388,
        0.06630118,
        0.026696475,
        -0.0060334923,
        0.025301483,
        0.036148902,
        -0.053961493,
        0.089636125,
        0.04748048,
        -0.09329896,
        0.0041845017,
        0.03619461,
        0.07635063,
        0.09221128,
        0.11697691,
        0.047644146,
        0.16676024,
        0.10169005,
        0.108425386,
        0.14218886,
        0.17492738,
        0.13753562,
        0.13366266,
        0.07160957,
        -0.078273736,
        0.06763183,
        -0.009241803,
        -0.037761733,
        -0.055422857,
        0.03737827,
        -0.031616084,
        -0.05380229,
        0.062296845,
        -0.055076286,
        0.047393873,
        -0.025586918,
        -0.0108930785,
        -0.09522535,
        -0.015247075,
        -0.08625778,
        -0.0070670675,
        -0.018757032,
        0.03699404,
        0.09893421,
        -0.026102003,
        -0.0015426859,
        0.07085544,
        -0.009306003,
        0.095789745,
        0.033355605,
        -0.0015054377,
        0.024997147,
        -0.026466282,
        -0.08151986,
        0.030575033,
        -0.07416343,
        -0.05207399,
        0.008852477,
        -0.09968259,
        -0.0073080165,
        0.029920414,
        0.025607796,
        -0.06438856,
        0.07822243,
        0.03808922,
        -0.08339364,
        -0.07168211,
        -0.040136013,
        0.04145917,
        -0.06511882,
        -0.080963284,
        -0.036641624,
        -0.08683959,
        0.005253481,
        -0.07252287,
        -0.08327895,
        -0.0061663864,
        0.043728597,
        0.08461257,
        0.050339017,
        0.067644015,
        -0.034189466,
        -0.0014569025,
        0.05027164,
        -0.07386525,
        -0.0654066,
        0.06562025,
        -0.0052141324,
        0.0059202905,
        -0.044061005,
        0.0059207818,
        0.048216075,
        -0.06114798,
        0.023317229,
        0.090213604,
        0.032205455,
        -0.04992991,
        -0.060822412,
        -0.1419349,
        -0.11275918,
        -0.00496767,
        -0.0098018125,
        -0.039602343,
        0.070329756,
        -0.049998973,
        0.025570849,
        -0.016248755,
        0.07360758,
        0.065933585,
        -0.049264155,
        -0.074032955,
        -0.061182946,
        -0.060661983,
        0.02953156,
        0.029557379,
        0.011015244,
        0.015287076,
        -8.940886E-4,
        0.0039415522,
        -0.041516185,
        0.015581215,
        -0.04236283,
        -0.013087121,
        0.045801066,
        -0.11025315,
        -0.029140713,
        0.049711805,
        0.024371788,
        -0.06402445,
        0.083347216,
        -0.015846588,
        -0.024208233,
        -0.010775785,
        0.013091942,
        0.059153304,
        0.018771153,
        -0.0012935385,
        0.0039366847,
        8.741976E-5,
        -0.062455386,
        -0.026739756,
        0.025161073,
        0.034053016,
        -0.10189892,
        0.028655805,
        -0.029327696,
        0.086663485,
        0.057553336,
        0.04540066,
        -0.08666745,
        -0.0138566,
        -4.8178885E-4,
        0.05018277,
        -0.07770732,
        -0.056277256,
        -0.01766017,
        -0.018706027,
        -0.022409562,
        0.084548146,
        -0.013215784,
        -0.05369865,
        -0.0345974,
        0.020841356,
        -0.084231935,
        -0.10149517,
        -0.109290205,
        -0.061129626,
        0.032739952,
        0.01925574,
        -0.07736323,
        -0.003956049,
        0.06257534,
        0.02879819,
        -0.030215548,
        -0.098401845,
        0.07333647,
        -0.106552325,
        0.03880119,
        0.025389526,
        -0.007891306,
        -0.069669515,
        0.048316456,
        -0.052923746,
        -0.0155468425,
        -0.028910032,
        -0.07984318,
        -0.07080486,
        -0.026037345,
        -0.004284092,
        -0.0553102,
        -0.058019035,
        -0.053648405,
        -0.07799058,
        0.010524548,
        0.0649974,
        -0.02553814,
        0.086252674,
        -0.0067793136,
        -0.012949534,
        0.01197405,
        -0.041606136,
        0.016405717,
        -0.034813516,
        -0.08895065,
        0.088675074,
        0.087907,
        -0.0062914123,
        0.057385605,
        -0.1007263,
        0.006757709,
        0.031812523,
        -0.023566775,
        0.0011529212,
        -0.083684035,
        0.058073875,
        -0.049355324,
        -0.08578744,
        -0.015194101,
        0.0024411124,
        -0.03717586,
        -0.10604819,
        -0.070492424,
        -0.06372542,
        -0.056983877,
        -0.025200361,
        0.11831072,
        0.0015159927,
        0.093782805,
        0.09943595,
        -0.053238124,
        0.08104837,
        0.062640406,
        -0.04639834,
        -0.004386433,
        0.05969428,
        0.09782658,
        0.015512053,
        0.05743359,
        0.0140887415,
        -0.00843312,
        -0.069504835,
        0.04087873,
        -0.056734364,
        -0.07749864,
        0.0069209947,
        -0.07839056,
        0.048767045,
        -0.10441539,
        -0.10260815,
        0.07702517,
        0.056702733,
        -0.012461532,
        -0.06712647,
        0.11498101,
        -0.07730028,
        -0.06636484,
        -0.08045425,
        0.015764995,
        -0.037061997,
        -0.045423068,
        0.03123322,
        0.042847272,
        0.04337562,
        0.031862337,
        0.051232986,
        0.053218618,
        0.09158532,
        0.05210394,
        0.084997125,
        -0.0050216876,
        -0.010224025,
        0.08188525,
        0.054341353,
        0.06281206,
        -0.0040731,
        -0.009398362,
        -0.022878332,
        -0.06938966,
        0.09545886,
        -0.03016609,
        0.0900485,
        -0.05826843,
        0.09246798,
        -0.06163834,
        0.08221585,
        0.020888451,
        -0.044982117,
        -0.009483636,
        -0.0033307013,
        0.096549496,
        0.08313075,
        0.07541422,
        -0.003995384,
        -0.034569602,
        0.039443593,
        0.052609734,
        0.058075182,
        0.0901391,
        0.011133328,
        -0.072832,
        0.07188306,
        0.029003067,
        0.07184888,
        0.02730754,
        0.041000366,
        -0.054400206,
        0.041038845,
        0.07423053,
        -0.04578481,
        -0.0028701639,
        0.064559996,
        -0.0025487042,
        -0.009066263,
        0.027793286,
        -0.07511042,
        0.06676666,
        -0.060064357,
        -0.015072734,
        -0.039812673,
        0.024210926,
        0.12472458,
        0.083500974,
        -0.022043217,
        0.08908573,
        0.033541553,
        0.059618667,
        0.07962517,
        0.04628081,
        0.0983452,
        0.058484025,
        0.07869684,
        0.062496472,
        0.16132511,
        0.14158624,
        0.0061925165,
        0.01915856,
        0.025597103,
        0.07984487,
        0.047705777,
        -0.033304602,
        -0.004291592,
        -0.06164465,
        -0.02853576,
        0.09783853,
        0.082071096,
        -0.061548263,
        -0.06398561,
        -0.04064945,
        -0.041182112,
        -0.016228737,
        -0.0048699337,
        -0.07562327,
        0.01903602,
        -0.016176688,
        0.044752497,
        -0.042111598,
        0.059327338,
        0.016394807,
        -0.018594468,
        0.10489481,
        0.1551737,
        0.03971604,
        -0.028616345,
        0.015624415,
        0.014615874,
        0.08309718,
        -0.08427868,
        0.039345432,
        0.09590587,
        0.036314867,
        0.06422285,
        -0.074481666,
        0.0021117146,
        0.037038244,
        0.08089954,
        -0.053445905,
        -0.038883604,
        -0.031129306,
        -0.031147664,
        -0.07402523,
        -0.05697067,
        -0.064418346,
        -0.13381131,
        0.027840437,
        -0.07538094,
        -0.10908453,
        0.012174718,
        -0.02219847,
        -0.035645656,
        0.05777551,
        0.077360086,
        0.06447313,
        0.032316964,
        -0.012632946,
        -0.06329964,
        -0.0909579,
        0.031848308,
        -0.030753532,
        -0.014824188,
        0.05641551,
        -0.05176859,
        0.0664106,
        -0.0906995,
        0.045600377,
        0.008706245,
        -0.06695729,
        -0.10111553,
        0.009364664,
        -0.1284021,
        -0.030110503,
        -0.044932086,
        -0.1368033,
        -0.0768653,
        0.007077152,
        -0.059073817,
        -0.055308774,
        -0.046984885,
        -0.027224792,
        -0.013980061,
        -0.029581243,
        -0.040637083,
        -0.074721105,
        0.0064192573,
        0.08724364,
        -0.07860005,
        0.04626658,
        -0.077136174,
        -0.043785937,
        -0.028097624,
        0.019834897,
        -0.0019333928,
        -0.013793375,
        -0.011206262,
        0.038547404,
        0.053711697,
        -0.031536397,
        -0.04724337,
        0.02296331,
        -0.12913351,
        0.02999397,
        -0.13569862,
        -0.13426346,
        0.011106089,
        -0.13136943,
        -0.013486442,
        0.0029761672,
        -0.0648599,
        0.022804623,
        0.014589616,
        0.01496393,
        -0.07892882,
        -0.08969469,
        0.026079992,
        -0.06026633,
        0.01655979,
        -0.09765717,
        0.07851133,
        -0.10728012,
        0.05167519,
        -0.010436447,
        -0.054425873,
        -0.099318,
        -0.08389616,
        -0.1075402,
        -0.005252477,
        -0.041283946,
        -0.10765823,
        0.026918627,
        -0.037605684,
        4.9753144E-4,
        -0.08070482,
        0.0126591185,
        0.0043561864,
        -0.002166356,
        -0.13595913,
        -0.048160095,
        -0.04487252,
        -0.05179489,
        -0.066376366,
        0.038174752,
        0.08743666,
        0.059232805,
        -0.041307252,
        -0.010899475,
        -0.0057582767,
        0.030090561,
        -0.04960384,
        -0.07225359,
        -0.08667144,
        -0.07237137,
        0.028863546,
        -0.008434627,
        -0.08093854,
        -0.083658226,
        -0.038992528,
        0.085556455,
        0.030507986,
        -0.010389475,
        0.025252927,
        0.03017029,
        -0.0037040324,
        -0.052036185,
        -0.079985745,
        -0.028016342,
        -0.12735826,
        -0.04732089,
        0.03859275,
        -0.08906418,
        -0.061049744,
        -0.03921017,
        0.0646781,
        0.002083329,
        0.018816533,
        0.079462856,
        0.08007898,
        -0.09869755,
        0.0076136296,
        -0.10779861,
        0.06502989,
        -0.032727014,
        0.06199526,
        0.033656806,
        0.029560348,
        0.09629794,
        -0.020422522,
        0.11264213,
        -0.0784003,
        0.021120895,
        -0.084344886,
        -0.02778491,
        -0.03981915,
        0.010696038,
        0.033515565,
        0.015996788,
        0.049937606,
        0.08359289,
        0.004388318,
        -0.081044555,
        0.08230566,
        0.05728162,
        0.03557751,
        -0.043973487,
        -0.0650655,
        -0.06729945,
        0.011071364,
        0.053845383,
        0.025566457,
        0.032797262,
        0.06625517,
        0.048599645,
        -0.09926162,
        -0.054519866,
        0.055123962,
        -0.038700417,
        -0.09278463,
        0.03980064,
        -0.121801764,
        -0.1029037,
        -0.070093095,
        -0.088598125,
        -0.022012934,
        -0.019916443,
        -0.07884778,
        0.0033816046,
        -0.040766474,
        -0.07911658,
        0.005778591,
        -0.029601917,
        0.05662089,
        -0.08872718,
        -0.07292712,
        -0.013203776,
        0.06490032,
        0.043818746,
        -0.051536564,
        0.061990928,
        -0.09263553,
        -0.10226775,
        0.01984426,
        -0.054077093,
        -0.09705765,
        -0.07951275,
        0.002015646,
        0.04169732,
        0.06524856,
        -0.009120617,
        -0.062128145,
        -0.08435082,
        -0.028857797,
        0.014628538,
        0.008647708,
        0.04911497,
        -0.06847229,
        0.04945051,
        -0.06983625,
        -0.04943364,
        -0.015647732,
        0.060114987,
        -0.08944136,
        -0.010633397,
        -0.0744421,
        0.079989314,
        -0.032758575,
        -0.004176379,
        0.022984268,
        -0.06436871,
        0.0051561925,
        0.028249761,
        -0.04516851,
        -0.07247636,
        0.048094224,
        -0.084357105,
        0.016576257,
        -0.029286806,
        -0.053677034,
        0.044063073,
        -0.050452344,
        -0.095505804,
        -0.05016758,
        0.06481896,
        -0.036396366,
        -0.038521998,
        0.02701697,
        0.011702856,
        0.055444397,
        0.012030973,
        -0.09236105,
        -0.09828882,
        -0.015156758,
        0.07357005,
        0.047926426,
        0.020834561,
        -0.060361084,
        -0.0087757725,
        -0.06901663,
        -0.028294126,
        -0.093062,
        0.059126653,
        0.018716052,
        0.014011151,
        -0.06345544,
        -0.11307684,
        0.067842826,
        -0.10530333,
        -0.078357935,
        0.031435985,
        0.040029466,
        0.010775577,
        -0.0780953,
        0.0635006,
        0.01046541,
        -0.06940325,
        0.015469556,
        -0.09512712,
        -0.001136053,
        -0.053379904,
        0.0059335926,
