{
  "inputLayer": {
    "nodes": 784
  },
  "evaluateLayers": [
    {
      "weights": [
        0.08237702,
        0.09909743,
        -0.006296614,
        0.116672195,
        0.072661445,
        0.086494096,
        0.05862308,
        0.00874657,
        0.18210845,
        0.14637914,
        0.17745844,
        -0.020166384,
        0.040864035,
        0.087881945,
        0.04000668,
        0.08682957,
        0.09322404,
        -0.03362795,
        0.028050903,
        0.024566943,
        0.0883791,
        0.087218694,
        0.09035148,
        -0.008475781,
        0.034571007,
        0.009308566,
        -0.029972306,
        0.073773384,
        0.09789521,
        0.11171308,
        0.057598874,
        0.0986211,
        0.032908097,
        0.114137724,
        0.18363383,
        0.107868224,
        0.024227327,
        0.14646356,
        0.15097587,
        0.09029381,
        0.057726234,
        0.16549401,
        0.055030882,
        -0.046277873,
        0.012939721,
        0.08906151,
        0.011587064,
        -0.022678342,
        0.093957655,
        -0.045865607,
        -0.07024289,
        0.025754655,
        0.023876844,
        -0.07917638,
        0.04225933,
        -0.030554455,
        0.017572768,
        0.08545839,
        0.10992359,
        0.08834434,
        0.0784052,
        0.1672933,
        0.033231802,
        0.102896675,
        0.018873062,
        0.15106374,
        0.1797365,
        0.112329416,
        0.15174867,
        0.08738355,
        -0.021574514,
        0.04993177,
        0.04459215,
        0.04797265,
        0.019312644,
        0.031333774,
        -0.00831208,
        0.05748714,
        0.08504848,
        -0.009638362,
        0.023892442,
        0.019450895,
        -0.036990345,
        0.085109904,
        0.046654783,
        -0.067111015,
        -0.035525754,
        0.020374281,
        0.04496127,
        0.021709552,
        0.016660089,
        -0.013140103,
        0.0979005,
        0.09622467,
        0.09070979,
        0.045937017,
        0.14904362,
        0.11179844,
        0.13793883,
        0.11396401,
        0.12626661,
        0.061340157,
        0.016673228,
        0.035516486,
        -0.03341211,
        -0.03812588,
        0.03577501,
        -0.013798547,
        -0.080404244,
        0.04153205,
        -0.048490293,
        -0.099057995,
        0.026898092,
        -0.043016117,
        0.0044589723,
        -0.041592255,
        0.06884101,
        -0.089814536,
        0.03445969,
        -0.048520174,
        -0.112604834,
        0.087084554,
        -0.037460342,
        0.08443361,
        0.050000828,
        0.0815122,
        0.069937594,
        0.09065801,
        -0.017888777,
        0.0152110895,
        0.023936002,
        0.06655393,
        -0.07320565,
        -0.053308915,
        -0.053917736,
        -0.059377015,
        -0.04128304,
        -0.062345784,
        -0.10905604,
        -0.086335555,
        0.034809593,
        0.06678841,
        -0.036652245,
        -0.017052144,
        -0.06525125,
        -0.06042725,
        -0.07309859,
        -0.06627342,
        0.03532786,
        -0.08543566,
        0.007934163,
        -0.07739801,
        -0.040190294,
        0.07424273,
        -0.02478726,
        0.05594601,
        0.12759669,
        0.024691226,
        -0.019292107,
        0.10715782,
        0.0015481218,
        -0.04031859,
        0.035344273,
        0.006306642,
        -0.0645972,
        -0.10723198,
        0.060741752,
        -0.079382285,
        -0.004984476,
        0.039287474,
        -0.03210376,
        0.027517376,
        -0.1036543,
        -0.10157099,
        -0.13652973,
        -0.10933175,
        -0.16198982,
        -0.11418689,
        -0.10499254,
        -0.028632434,
        -0.15142298,
        -0.095904164,
        -0.009723821,
        0.0896452,
        0.044779155,
        0.08171594,
        -0.0030634415,
        0.030566007,
        0.012565442,
        -0.06484059,
        -0.010996403,
        -0.02761265,
        -0.097177036,
        -0.021131294,
        -0.08111126,
        0.021737717,
        -0.015783522,
        0.009943938,
        2.5631388E-4,
        -0.1215494,
        -0.096866064,
        -0.13327096,
        -0.16977619,
        -0.04589399,
        -0.029931676,
        -0.15134242,
        -0.16264369,
        -0.065098196,
        -0.065483585,
        -0.030907214,
        -0.15225941,
        -0.095540695,
        0.023639759,
        -0.03268025,
        0.041669067,
        -0.023263516,
        -0.05495498,
        0.030737773,
        0.020332702,
        -0.08428426,
        0.048464067,
        0.046039604,
        0.0032926202,
        -0.07093276,
        -0.107381314,
        -0.05899751,
        -0.003163285,
        -0.10162361,
        -0.07089834,
        -0.16282065,
        -0.20604613,
        -0.19181055,
        -0.19742249,
        -0.14517283,
        -0.13262136,
        -0.08271518,
        -0.1357585,
        -0.05294979,
        -0.017104488,
        -0.10714382,
        -0.06278036,
        0.026354708,
        -0.1130659,
        0.063853405,
        -0.022219231,
        -0.012213853,
        0.007977973,
        0.03419696,
        -0.08122285,
        -0.109869584,
        0.06238775,
        0.07288439,
        -0.13036814,
        -0.09024692,
        -0.02071383,
        -0.18194637,
        -0.038929626,
        -0.023509435,
        -0.18888968,
        -0.16052365,
        -0.18242136,
        -0.124151334,
        -0.18667728,
        -0.14664876,
        -0.08736728,
        -0.13971676,
        -0.06449443,
        -0.00549719,
        -0.09324364,
        0.053502437,
        0.014632193,
        0.005875926,
        -0.0017570704,
        0.017597135,
        -0.021439642,
        0.048261836,
        0.0418222,
        -0.019014293,
        0.047491014,
        0.04130046,
        0.053469863,
        -0.039194755,
        0.021869162,
        0.0051568863,
        -0.009505156,
        0.028494071,
        -0.07747578,
        -0.049243372,
        -0.059139542,
        -0.2236631,
        -0.14937401,
        -0.20169942,
        -0.12220299,
        -0.14003623,
        -0.059352577,
        -0.025670659,
        0.050059352,
        -0.063692264,
        0.034272946,
        -0.0377111,
        0.016245658,
        0.032339823,
        0.0086353235,
        0.06879155,
        0.10726103,
        0.10225796,
        0.02475046,
        0.03172751,
        0.031023992,
        -0.057340268,
        -0.016094742,
        -0.07238441,
        -0.09673103,
        -0.041297417,
        0.046802383,
        0.107966736,
        -0.03898841,
        0.0197804,
        -0.12703702,
        -0.13911077,
        -0.17229694,
        -0.11015111,
        -0.14580077,
        -0.118260294,
        -0.010680909,
        -0.027292147,
        -0.028987113,
        0.07325738,
        0.058709055,
        0.022671875,
        0.061163455,
        0.04820877,
        -0.046573915,
        0.06307753,
        0.027168196,
        0.06021778,
        -0.018178374,
        -0.027941698,
        -0.06352533,
        -0.013635922,
        0.067056604,
        0.100662746,
        0.030229038,
        0.1345835,
        0.09966195,
        0.061918233,
        0.03854731,
        0.029050957,
        -0.028553782,
        -0.058893126,
        -0.075689115,
        -0.02091901,
        0.01708307,
        0.031558175,
        0.011461106,
        -0.036326557,
        0.025957067,
        0.04892398,
        0.010515014,
        0.038238607,
        0.13906015,
        0.086580776,
        0.037020233,
        0.124131,
        0.002136388,
        0.05115184,
        -0.02200478,
        -0.038190126,
        0.021393867,
        0.070612445,
        0.046151496,
        0.08477927,
        0.033540588,
        0.0668655,
        0.09379307,
        0.13969633,
        0.11942836,
        0.15460235,
        0.093754604,
        0.04522491,
        0.08902673,
        0.11778931,
        0.13740408,
        0.097390905,
        0.074542776,
        0.09470227,
        0.054748915,
        0.062014785,
        0.05539458,
        0.12586074,
        0.18367372,
        0.10566032,
        0.0968715,
        0.062482208,
        -3.3329873E-4,
        0.08131497,
        0.045903414,
        -0.03872648,
        0.021949502,
        0.06900617,
        0.073727496,
        0.039027557,
        0.051665504,
        0.026242593,
        0.13919438,
        0.10379205,
        0.06376072,
        0.07829527,
        0.036123574,
        -0.06085319,
        -0.008455738,
        -0.033544898,
        0.069354735,
        -0.038542222,
        0.06570262,
        0.04313778,
        -0.032768868,
        0.05490249,
        0.08147655,
        0.062006395,
        0.029576657,
        0.06476037,
        0.107400656,
        0.03321119,
        0.05054803,
        -0.017789751,
        0.035940744,
        0.044681374,
        0.06830743,
        0.0810034,
        0.06896146,
        0.075777,
        -0.02032818,
        -0.0022242176,
        -0.015319161,
        -0.07013834,
        -0.035563834,
        -0.1151352,
        -0.04791194,
        -0.09812061,
        -0.090470254,
        0.038495075,
        0.0131655615,
        0.043506104,
        0.08121149,
        0.0536365,
        0.048314873,
        -0.013623047,
        0.024652308,
        0.051083878,
        -0.03853832,
        0.0584129,
        0.09039249,
        0.075805835,
        0.06777746,
        0.049048644,
        0.0018635897,
        0.019705717,
        -0.021402473,
        -0.04504749,
        0.029043261,
        -0.017070813,
        0.012386538,
        -0.054012336,
        0.051131066,
        -0.027941281,
        -0.049061667,
        0.032784656,
        -0.09390045,
        -0.03880696,
        -0.086448506,
        0.045768544,
        0.06627216,
        -0.008419345,
        0.07701155,
        -0.0041406616,
        -0.04710966,
        0.01583644,
        -0.0014606765,
        -0.03331536,
        0.086224504,
        -0.021666864,
        0.013760958,
        0.0066235135,
        -0.057209775,
        0.029202504,
        -0.08766465,
        -0.039378714,
        -0.056483492,
        -0.013338654,
        -0.040761188,
        -0.012965177,
        -0.09648585,
        0.035095178,
        -0.06314442,
        -0.04221056,
        -0.05453987,
        -0.061604545,
        -0.06392164,
        -0.0978369,
        -0.07118507,
        -0.08150444,
        0.0405076,
        0.055469602,
        0.07096561,
        0.06589214,
        -0.06836663,
        0.033313826,
        0.009363037,
        0.03349869,
        0.047354724,
        0.041434504,
        0.042480484,
        -0.054451797,
        0.016859483,
        0.035207994,
        -0.011541851,
        -0.058298595,
        -0.012164427,
        -0.10184148,
        -0.051055554,
        -0.07599389,
        -0.0039190114,
        -0.1501831,
        -0.14659368,
        -0.0027585754,
        0.002945487,
        0.02600595,
        0.008422409,
        -0.022622218,
        0.04318275,
        0.089290015,
        -0.05444834,
        0.021886854,
        0.07882353,
        0.0951516,
        -0.029295374,
        -0.06895195,
        -0.060413897,
        -0.0867796,
        -0.08240664,
        0.009708276,
        -0.047891855,
        -0.044351622,
        -0.006044599,
        -0.0072321296,
        -0.061108377,
        -0.08292736,
        -0.1350476,
        -0.1283145,
        -0.18419287,
        -0.11769908,
        -0.071591824,
        -0.083735816,
        -0.123545505,
        -0.10133853,
        -0.0025522024,
        -0.12456698,
        -0.029045094,
        0.030317754,
        -0.013984457,
        0.081876926,
        -0.09653003,
        -0.008344907,
        0.016849866,
        0.08336852,
        -0.08277441,
        0.0072469455,
        -0.021950616,
        -0.05003336,
        0.028700449,
        -0.0062484997,
        0.029949214,
        -0.01746663,
        0.03194062,
        0.0050790464,
        0.07102693,
        0.041518595,
        -0.1507735,
        -0.021647114,
        -0.097471535,
        0.01773491,
        0.053843953,
        -0.103238985,
        -0.10126494,
        -0.043452814,
        0.05372795,
        0.072935306,
        -0.079423785,
        0.06424991,
        0.063507125,
        0.0838017,
        0.037926722,
        -0.028363233,
        0.076318555,
        0.036395226,
        -0.023100277,
        -0.040044695,
        0.06270354,
        0.044822246,
        0.095654085,
        0.09321214,
        0.021230662,
        0.12917045,
        -0.009533732,
        0.1079672,
        0.03508985,
        -0.013474965,
        0.0061518066,
        0.047053926,
        -0.07929088,
        -0.05789184,
        -0.015485464,
        -0.028845688,
        0.05665411,
        -0.022260582,
        0.09651905,
        -0.08486009,
        0.08708766,
        0.06101091,
        0.04206911,
        0.05063563,
        0.059820518,
        -0.077451214,
        -0.039691664,
        0.07228469,
        -0.015970131,
        -0.03594833,
        0.03935119,
        0.030634841,
        0.077131756,
        0.06269157,
        0.12883899,
        0.05766972,
        0.06501407,
        0.022536568,
        0.062767506,
        0.035942182,
        -0.006906534,
        0.096438,
        0.05989301,
        -0.029594645,
        -0.027916064,
        0.11467407,
        -0.07318542,
        0.054204043,
        0.09166783,
        -0.06481278,
        -0.074865274,
        0.06387852,
        -0.030483376,
        -0.056219067,
        0.015930891,
        0.0034176195,
        0.008024931,
        0.003654427,
        0.084963955,
        -0.022100028,
        -0.008784286,
        0.043312173,
        0.10281736,
        0.011241985,
        0.023132807,
        0.086263396,
        -0.004399635,
        0.07219665,
        -0.06382115,
        -0.013285244,
        0.021785235,
        0.10346215,
        -0.0043528057,
        0.016703628,
        -0.038864456,
        0.04049143,
        0.031800456,
        0.060499523,
        0.060784016,
        -0.040038213,
        -0.04740389,
        -0.038142864,
        0.034323093,
        -0.019108701,
        -0.07707388,
        -0.01012325,
        0.060650885,
        0.019459115,
        -0.018310193,
        0.12411836,
        0.0057319924,
        -0.032938138,
        0.073635764,
        0.080476165,
        -0.017385697,
        0.08926521,
        -0.08365003,
        0.096933626,
        -2.7815317E-4,
        0.11699314,
        -0.02408269,
        -0.03172892,
        0.065167904,
        -0.086989485,
        -0.07085348,
        -0.09097589,
        0.008036178,
        0.0013801132,
        -0.077272855,
        -0.0026794518,
        -0.034055375,
        -0.07823864,
        0.043164752,
        -0.015366116,
        0.03486725,
        -0.022567067,
        0.04053151,
        0.013009226,
        0.07850811,
        -0.007100561,
        -0.013561045,
        -0.015367568,
        0.11826786,
        -0.00575106,
        0.10432633,
        0.07392693,
        0.024395464,
        -0.02037409,
        0.057218425,
        0.09392218,
        -0.03102261,
        -0.06736495,
        -0.08291111,
        -0.046715066,
        -0.07053308,
        0.04796595,
        -0.072274335,
        0.06733825,
        -0.011473107,
        -0.0816059,
        -0.03573488,
        -0.057642233,
        0.031475086,
        -0.09913186,
        0.07259082,
        0.05440222,
        0.095235914,
        0.044019856,
        -0.005331847,
        0.02399389,
        0.0035569514,
        0.05899597,
        0.023254111,
        -0.041691143,
        0.0137390895,
        0.06044664,
        0.048249926,
        0.018281857,
        -0.045085978,
        -0.06866097,
        0.07740649,
        -0.0571236,
        -0.074015774,
        -0.08671526,
        -0.07613768,
        0.023385657,
        -0.041002337,
        0.11405769,
        -0.0015022735,
        0.102816455,
        0.035372667,
        0.10169665,
        -0.016894933,
        0.013331022,
        -0.01404581,
        0.10135551,
        0.11182466,
        -0.037017927,
        0.078108646,
        0.063945584,
        0.110813245,
        0.019639425,
        0.027127016,
        -0.07131502,
        -0.067815945,
        0.06725707,
        -0.027636683,
        -0.0053354693,
        -0.079538986,
        -0.042177234,
        -0.06377783,
        0.009797145,
        -0.026718598,
        0.095690995,
        -0.007243731,
        0.06623341,
        -0.08898828,
        0.08018379,
        0.054122403,
        0.016910706,
        -0.03204938,
        -0.032000463,
        -0.08850222,
        0.052724708,
        -0.021739895,
        0.03667424,
        -8.0168364E-4,
        -0.08537024,
        0.034766324,
        0.10569931,
        -0.07781767,
        -0.06872322,
        0.06932078,
        0.058186896,
        -0.013157954,
        0.047238097,
        0.09395417,
        -0.008630796,
        -0.062483538,
        -0.05578107,
        0.106037766,
        0.07172793,
        -0.072407946,
        0.11281842,
        0.04681082,
        0.10990982,
        -0.07015701,
        -0.051533524,
        0.09452395,
        -0.023351962,
        -0.002136505,
        -0.056260962,
        0.044797756,
        -0.100574516,
        0.10092145,
        0.018533396,
        0.079926535,
        0.0836793,
        -0.056427274,
        -0.046568837,
        0.018042412,
        -0.07939628,
        0.0016823839,
        -0.0049143303,
        0.03072389,
        0.043891024,
        0.07757099,
        0.045781866,
        0.028797632,
        -0.041376587,
        0.037226185,
        0.08725458,
        -0.07436602,
        0.08060948,
        -0.068821765,
        -0.07337542,
        0.045804176,
        -0.056584314,
        0.049206845,
        -0.082310796,
        -0.0807003,
        0.049302127,
        0.058897316,
        -0.060818132,
        0.013517703,
        0.023967052,
        0.068041116,
        -0.048530143,
        -0.036383126,
        0.063040845,
        0.044447254,
        0.050138265,
        -0.08948381,
        0.09089983,
        0.020463187,
        -0.08600373,
        0.12086472,
        0.038116116,
        -0.062452294,
        0.03554077,
        0.022994844,
        -0.004260635,
        0.014255497,
        -0.015709007,
        0.08184434,
        -0.058527768,
        0.0049290634,
        0.043914508,
        0.027612692,
        0.06617426,
        -0.07224937,
        -0.084569685,
        0.0038370288,
        0.07320869,
        -0.05054465,
        0.070147924,
        0.06084315,
        0.090764634,
        0.06733401,
        0.018377986,
        -0.0133910775,
        0.012942877,
        -0.08053415,
        0.005453966,
        -0.07637025,
        0.0094666695,
        0.013404325,
        -0.015822742,
        0.11066225,
        -0.076481715,
        0.012297716,
        -0.0927807,
        -0.036135297,
        -0.008035208,
        -0.0010837652,
        0.019729031,
        0.010355892,
        -0.023352608,
        -0.08275634,
        0.037879374,
        0.016165776,
        -0.11116817,
        -0.012449089,
        -0.05090625,
        -0.03999224,
        -0.0841145,
        0.095852226,
        0.04458638,
        0.05024812,
        0.03349416,
        -0.04842496,
        -0.0106646195,
        -0.07626215,
        -0.027644172,
        0.044966035,
        -8.741205E-4,
        0.07224187,
        0.016192239,
        0.0029178455,
        -0.058584586,
        0.038266696,
        0.044762224,
        -0.06388794,
        0.016382378,
        0.05429726,
        -0.09339081,
        0.008638548,
        0.036473196,
        0.022483127,
        0.023758907,
        0.07692345,
        0.0070952303,
        -0.07734486,
        -0.010167585,
        0.05376562,
        0.025101645,
        -0.02095683,
        0.03699584,
        -0.034941155,
        -0.008460336,
        0.06880405,
        0.058259003,
        -0.007053777,
        -0.029230947,
        0.08220845,
        0.044756994,
        0.0037029814,
        -0.050427195,
        -0.04990088,
        0.005551124,
        0.04291705,
        -0.01952337,
        0.016280385,
        -0.049183875,
        -0.04452061,
        0.049790367,
        -0.110714644,
        0.053161778,
        -0.090229,
        0.038594417,
        -0.0734518,
        0.023087647,
        0.010223832,
        0.001738992,
        -0.06286286,
        0.04558061,
        -0.02145144,
        0.012476535,
        -0.09629335,
        -0.08477168,
        -0.03343226,
        0.014807014,
        -0.06302294,
        0.073015355,
        0.04280823,
        0.0031131792,
        0.032047354,
        -0.02776494,
        0.05161359,
        -0.027825803,
        -0.034678545,
        -0.053450044,
        -0.10058077,
        -0.07839022,
        -0.014227461,
        -0.10759355,
        0.039471123,
        -0.04072349,
        0.00665652,
        -0.018643104,
        -0.05456269,
        0.08583333,
        0.07357108,
        -0.046024315,
        -0.056744736,
        0.042545393,
        -0.11719529,
        0.06336511,
        -0.042535536,
        -0.025205998,
        0.004417099,
        -0.03444674,
        -0.02162409,
        -0.066209674,
        -0.025014497,
        0.069183946,
        -0.009640309,
        -2.792209E-4,
        -0.059336133,
        -0.023310503,
        0.015105936,
        -0.14234348,
        0.0028104673,
        -0.07518583,
        -0.11541282,
        0.07458615,
        -0.09163746,
        0.041645713,
        0.024060601,
        -0.036007095,
        -0.001742693,
        -0.043092772,
        0.08165387,
        -0.045568973,
        0.028891053,
        -0.13132922,
        -0.0022491515,
        -0.027543053,
        0.040757768,
        0.039248284,
        -0.0119404225,
        -0.058347065,
        0.02284731,
        0.015020327,
        0.077534206,
        -0.0084397895,
        -0.07167471,
        -0.11636335,
        -0.062462803,
        -0.08112891,
        0.018014831,
        -0.01921203,
        -0.0553248,
        -0.06176454,
        0.017939627,
        -0.04262204,
        0.061472517,
        -0.083346136,
        -0.0656215,
        0.010492522,
        -0.10981137,
        -0.0671842,
        -0.05841017,
        0.012172322,
        -0.047286935,
        -0.044907395,
        0.041969884,
        0.035047248,
        0.012892809,
        -0.073567055,
        0.0030515753,
        0.026120462,
        0.09491493,
        -0.044932544,
        0.032082837,
        -0.06286502,
        -0.15089369,
        -0.014472852,
        -0.13487232,
        -0.0044207997,
        -0.012413284,
        -0.03735498,
        -0.054674845,
        -0.06144698,
        0.083212905,
        -0.076616,
        0.06858404,
        0.035414044,
        -0.030876355,
        -0.059054375,
        0.021120861,
        -0.034369156,
        0.006620984,
        -0.012309031,
        -0.05242681,
        0.0657943,
        -0.03760746,
        -0.053363476,
        0.019165235,
        8.8711065E-4,
        0.011668989,
        0.104129314,
        -0.05460619,
        -0.071732044,
        -0.045273725,
        -0.1467443,
        -0.083402246,
        -0.049511228,
        0.012823032,
        -0.12078689,
        0.061215065,
        -0.03166551,
        0.027253596,
        0.031748224,
        0.07704104,
        0.0072684754,
        -0.02872312,
        0.051366393,
        -0.013383358,
        0.010727663,
        0.04838466,
        -0.054910664,
        0.045564596,
        -0.05275859,
        0.003945712,
        -0.024119996,
        -0.03319108,
        0.011498839,
        0.026158774,
        0.0646928,
        -0.025707718,
        -0.117031954,
        -0.1404607,
        -0.12550068,
        0.04765556,
        -0.094197646,
        -0.05967818,
        0.0374349,
        0.0010690709,
        -0.061806627,
        -0.10863274,
        -0.045313925,
        0.046723597,
        -0.07207046,
        0.067883186,
        -0.014361162,
        0.031814527,
        0.059115075,
        0.06353796,
        0.036813606,
        -0.004128391,
        -0.035330705,
        -0.088447124,
        -0.012168244,
        -0.011535746,
        -0.048319437,
        -0.05376019,
        0.11453663,
        -0.03758267,
        -0.10939976,
        -0.12703308,
        -0.04090331,
        -0.11724798,
        -0.11626851,
        0.010230799,
        -0.07197129,
        -0.063747965,
        0.04753902,
        0.022288242,
        -0.035094745,
        -0.020105215,
        0.023399463,
        0.04323127,
        0.04981784,
        -0.026050057,
        0.02517138,
        0.006751863,
        0.044164978,
        0.07622635,
        -0.010129644,
        -0.066527545,
        -0.0842661,
        -0.07821805,
        -0.001825775,
        -0.07127709,
        0.064911865,
        -0.037361484,
        -0.07473344,
        -0.05240969,
        -0.098816514,
        -0.11949542,
        0.034058113,
        -0.10006553,
        -0.024802657,
        0.07806931,
        0.09239568,
        0.017424008,
        0.057403088,
        0.017277095,
        0.025362803,
        0.061894488,
        0.07712477,
        0.1291235,
        0.14309533,
        0.001743611,
        -0.040438447,
        -0.050583143,
        -0.025828851,
        0.11743394,
        0.019610338,
        -0.022671044,
        -0.14886694,
        -0.08462361,
        0.058879122,
        0.060281664,
        -0.089951694,
        -0.17244324,
        -0.07459445,
        -0.050916754,
        0.03665144,
        -0.05902951,
        0.10244495,
        0.04463884,
        -0.047932364,
        -0.0043459604,
        0.020108186,
        -0.013983275,
        0.02291443,
        0.03759357,
        0.08553307,
        0.025829842,
        0.0123444805,
        -0.046586543,
        -0.086474344,
        -0.1365492,
        0.060022436,
        0.100875154,
        0.021627367,
        -0.0705983,
        -0.092190824,
        -0.06035519,
        0.10863315,
        -0.031628236,
        0.04517202,
        0.046626955,
        -0.041472033,
        -0.008335639,
        0.011232493,
        0.09086741,
        0.044188946,
        -0.013277101,
        0.0016789235,
        0.014741702,
        -0.07801138,
        0.015019296,
        0.07963567,
        0.10233925,
        0.013269262,
        0.054054063,
        -0.092083596,
        -0.102822274,
        -0.17981492,
        -0.03813482,
        0.12236215,
        0.19813606,
        0.005837365,
        -0.085613385,
        -0.18540102,
        -0.051942293,
        0.08930964,
        0.083310105,
        0.09377898,
        -0.0013665197,
        0.06935809,
        -0.058194567,
        -0.046652388,
        -0.004608512,
        0.096577905,
        0.02000814,
        -0.07209622,
        0.057832703,
        -0.07732579,
        -0.0051536746,
        0.08246565,
        0.011387576,
        0.07590509,
        -0.03066853,
        -0.07646171,
        -0.13857205,
        -0.07033212,
        -0.15199561,
        0.10359426,
        0.20041794,
        0.07099007,
        -0.14271566,
        -0.1612759,
        -0.054129045,
        0.10753255,
        0.1271347,
        0.0050022807,
        -4.3786797E-4,
        0.03661957,
        0.0661912,
        0.0010693242,
        -0.0058491584,
        0.077247925,
        0.07330493,
        0.08356355,
        -0.07830558,
        0.07552181,
        -0.05434637,
        0.07402909,
        0.02872919,
        0.049815744,
        -0.06759162,
        -0.058224607,
        -0.16706935,
        -0.14564794,
        -0.100739114,
        0.116809815,
        0.1582037,
        0.11486727,
        -0.10489889,
        -0.2429805,
        -0.19201556,
        -0.060746167,
        0.0496937,
        0.13688196,
        0.015028259,
        0.016035894,
        -0.067228846,
        0.012942287,
        0.039538827,
        0.023653952,
        0.045272183,
        -0.047129497,
        -0.053449582,
        0.115408994,
        -0.058244523,
        -0.052474596,
        -0.043024465,
        -0.038530763,
        0.014019123,
        -0.12031428,
        -0.086208336,
        -0.24225341,
        -0.1388961,
        -0.019313725,
        0.21638317,
        0.1202817,
        0.0029182793,
        -0.14864548,
        -0.19600381,
        -0.16280462,
        0.088353135,
        0.09232432,
        0.13962696,
        0.07844194,
        0.124758,
        0.06408581,
        0.046462346,
        0.03682109,
        -0.055874027,
        0.012077428,
        -0.06462974,
        0.0945424,
        0.11155002,
        0.08948333,
        0.0056631267,
        0.023647143,
        -0.11399855,
        -0.035371754,
        -0.12006161,
        -0.1460712,
        -0.16235487,
        0.070174694,
        0.09152589,
        0.18932886,
        -0.06765095,
        -0.083737746,
        -0.18940388,
        -0.17277488,
        -0.06103934,
        0.012241722,
        0.0168712,
        0.048694197,
        0.044819176,
        0.017038528,
        -0.049076542,
        0.009485507,
        0.019065443,
        -0.08920103,
        0.0059749335,
        -0.07817219,
        0.08454139,
        -0.049393803,
        -0.06258869,
        -0.06152351,
        -0.08199708,
        -0.08853461,
        -0.12783849,
        -0.102720946,
        -0.19507076,
        -0.033438187,
        0.02960372,
        0.13919246,
        -0.024035018,
        -0.020120872,
        -0.049292415,
        -0.24360378,
        -0.08493886,
        0.012562898,
        0.054243773,
        0.014527749,
        0.06097959,
        -0.0017504459,
        0.024733042,
        0.09677212,
        -0.025020612,
        -0.07931177,
        -0.094332285,
        0.0375793,
        -0.06478498,
        -0.04532115,
        -0.03577507,
        -0.06746767,
        -0.0012721828,
        -0.047379564,
        -7.512447E-4,
        -0.08197838,
        -0.17041433,
        -0.003117516,
        0.043743346,
        0.08831496,
        0.12153953,
        -0.016991714,
        -0.13246875,
        -0.021132657,
        -0.07034452,
        -0.034528926,
        -0.03832268,
        0.038588922,
        -0.0038018872,
        -0.027379649,
        0.10035467,
        -0.031603396,
        0.04000386,
        0.08138038,
        0.08171869,
        -0.013713105,
        -0.058299676,
        -0.09465476,
        -0.1129774,
        -0.004106458,
        0.078172006,
        -0.055152196,
        -0.02787343,
        -0.15598604,
        -0.14965898,
        0.034189187,
        -0.05019944,
        -0.023619145,
        0.083978854,
        9.005654E-4,
        -0.06019773,
        -0.12864459,
        -0.09280336,
        -0.056248102,
        -0.018362341,
        0.12742956,
        -0.04599327,
        -0.01723513,
        -0.01079145,
        0.07613337,
        -0.0709822,
        0.06683544,
        -0.074816875,
        -0.045883894,
        0.021482307,
        -0.013147174,
        -0.0017744357,
        -0.062828854,
        0.02588399,
        0.040601905,
        -0.10591688,
        -0.13321887,
        -0.028310066,
        -0.12341123,
        0.030863931,
        0.08092346,
        -0.07374435,
        0.09835389,
        -0.034366626,
        -0.04885505,
        0.027384052,
        0.04930554,
        0.04405373,
        -0.045925792,
        0.0056814975,
        0.043187477,
        -0.054614373,
        0.051752843,
        0.06526694,
        0.100035906,
        -0.037669446,
        -0.05607483,
        -0.08392137,
        0.03960891,
        0.014837096,
        0.061638426,
        -0.02870348,
        -0.062548965,
        -0.09170627,
        -0.047167853,
        -0.009424442,
        0.0130458,
        0.05942479,
        0.035079613,
        -0.005721456,
        -0.04787374,
        0.07976194,
        0.029919162,
        -0.029440071,
        0.048218332,
        0.08889953,
        0.105609775,
        0.012602476,
        -0.0056905304,
        0.07089579,
        0.106669545,
        0.03949993,
        -0.03283683,
        0.082046,
        -0.0706466,
        0.02026454,
        0.03566632,
        0.006377964,
        0.022893503,
        -0.081971705,
        -0.026218954,
        0.017318465,
        -0.085821174,
        0.06973269,
        -0.02498703,
        -0.06244595,
        -0.04866904,
        -0.043833803,
        0.043813188,
        -0.08188593,
        0.007170423,
        -0.014545491,
        0.004060087,
        0.08208051,
        0.024203483,
        0.0048119733,
        0.11610808,
        -0.0066982913,
        -0.071993604,
        -0.050185844,
        0.10002937,
        0.08366205,
        0.1088524,
        0.04209882,
        0.034153014,
        -0.031579927,
        0.100490116,
        0.06624147,
        0.09215677,
        -0.06210946,
        -0.021161964,
        0.04975161,
        -0.036304493,
        0.053755403,
        -0.05901211,
        -0.030411553,
        -0.060735356,
        -0.042114843,
        -0.014147708,
        -0.02134972,
        0.028756604,
        0.07209942,
        0.0794795,
        -0.026562614,
        -0.049348094,
        0.0018529624,
        0.085043706,
        0.007976771,
        0.048146028,
        -0.007573313,
        0.100464895,
        0.030864943,
        0.11346874,
        0.09718273,
        0.08433435,
        0.031114697,
        0.124466516,
        -0.036232974,
        0.057443023,
        0.031581637,
        -0.07935027,
        -0.024786463,
        -0.0055618505,
        -0.10012852,
        -0.034033176,
        0.07797392,
        -0.06747287,
        0.0927256,
        -0.061282527,
        -0.05415614,
        0.051452618,
        -0.01959571,
        -0.011018171,
        -0.052969825,
        0.10516285,
        0.044093616,
        0.072872825,
        -0.06309739,
        -0.05036748,
        0.115102544,
        0.057060156,
        0.11375872,
        0.08652849,
        -0.009840703,
        0.10782972,
        0.051951576,
        -0.028443417,
        -0.03651288,
        0.0011094413,
        -0.089241244,
        -0.004971104,
        0.039027274,
        -0.081408955,
        0.073123075,
        0.036759026,
        0.027460834,
        -0.052206703,
        0.023711849,
        0.1068965,
        0.0395165,
        0.0029215293,
        -0.066382624,
        -0.032519434,
        0.08521687,
        0.04641405,
        0.08109101,
        -0.08643758,
        -0.034014117,
        0.016520228,
        -0.07355088,
        0.030756088,
        0.037231263,
        -0.039680615,
        0.099165626,
        -0.023296278,
        -0.035602164,
        0.042377926,
        0.08129003,
        -0.028492676,
        -0.08293339,
        -0.11434915,
        -0.059463095,
        -0.07935079,
        0.042836633,
        -0.056915645,
        -0.056704156,
        -8.4692345E-4,
        0.0823941,
        0.006517933,
        0.084058456,
        0.06694167,
        0.04896218,
        -0.06533846,
        -0.06587403,
        0.047315028,
        -0.07700938,
        0.058217347,
        -0.060037464,
        -0.008740058,
        -0.018477129,
        -0.026048834,
        -0.01374845,
        -0.054001074,
        -0.09076355,
        -0.10271812,
        0.006715791,
        0.050537724,
        0.012347753,
        -0.10232362,
        -0.07932788,
        -0.007094884,
        0.030572804,
        0.075000525,
        -0.032755427,
        0.035848945,
        0.13531013,
        -0.029074866,
        0.118126154,
        0.08615126,
        0.050534874,
        0.05677178,
        -0.08293057,
        0.07212427,
        0.075609945,
        0.09694692,
        -0.049897674,
        -0.037546147,
        -0.06659208,
        0.05323377,
        0.0066328607,
        -0.022739507,
        -0.020928347,
        -0.038583487,
        -0.027501157,
        -0.018263206,
        -0.0876345,
        -0.15396124,
        -0.1114295,
        -0.03262447,
        -0.13001394,
        -0.017206933,
        0.012766018,
        0.06786769,
        0.15073049,
        -0.024639865,
        0.04137105,
        0.052192442,
        0.011937874,
        0.0034280177,
        0.005403383,
        0.047353853,
        -0.046358544,
        0.033817753,
        0.018635355,
        -0.027385663,
        0.005410277,
        0.057428133,
        -0.020396758,
        -0.058311038,
        -0.122060254,
        -0.10859704,
        -0.09125315,
        -0.09190483,
        -0.049294043,
        -0.05922231,
        -0.14289989,
        -0.05127599,
        0.013980542,
        0.08294662,
        0.11270142,
        0.21835212,
        0.14294513,
        0.019623853,
        0.1291751,
        -0.04723814,
        -0.0074923146,
        0.035216466,
        0.05192067,
        -0.012517175,
        -0.094108604,
        0.0039952737,
        0.023102116,
        0.07199316,
        0.07270354,
        0.046014696,
        -0.03284162,
        -0.011821061,
        0.009318857,
        -0.13656433,
        -0.07600934,
        -0.006042279,
        -0.075497806,
        -0.22691154,
        -0.2710721,
        -0.09461431,
        -0.07398541,
        -0.005681869,
        0.13312675,
        0.09550636,
        0.1593437,
        0.04717401,
        -0.03033791,
        -0.07117118,
        -0.0723743,
        -0.07476614,
        -0.059553318,
        0.068799645,
        0.005497654,
        -0.07975509,
        0.007904601,
        0.07461356,
        0.032365818,
        0.0016352844,
        -0.03990423,
        -0.068620674,
        -0.12097202,
        -0.030733125,
        -0.114590965,
        -0.03010456,
        -0.05104817,
        -0.11573003,
        -0.21766081,
        -0.24646753,
        0.015637431,
        0.18775328,
        0.16798556,
        0.12708765,
        0.13448392,
        0.1269424,
        -0.0037837408,
        -0.06256823,
        0.054994438,
        -0.004795848,
        0.014730127,
        -0.07187097,
        0.07274674,
        0.0076791462,
        0.02107525,
        0.017985051,
        -0.023162397,
        0.13110088,
        0.07597808,
        0.10936273,
        -0.065191135,
        -0.14048432,
        -0.12804145,
        -0.06818375,
        -0.043764677,
        -0.25430265,
        -0.17135043,
        -0.20141383,
        0.14590114,
        0.12736891,
        0.17385702,
        0.07591012,
        0.013145277,
        0.041993897,
        -0.09892056,
        0.008305281,
        0.031017462,
        -0.06428321,
        0.034241024,
        0.034973025,
        0.017040307,
        -0.075163856,
        -0.01177549,
        0.03825468,
        0.06285219,
        0.07469231,
        0.060551316,
        0.12619239,
        -0.07702409,
        -0.12973939,
        -0.1420167,
        -0.018815443,
        -0.17985164,
        -0.13764787,
        -0.25477165,
        -0.056618158,
        0.19231805,
        0.10330183,
        0.0958664,
        0.03462234,
        -0.010550524,
        -0.08417105,
        0.009711317,
        -0.13109092,
        -0.06176626,
        0.049214277,
        0.0762901,
        -0.087498136,
        -0.08928264,
        0.055574782,
        0.018342879,
        0.022165198,
        -0.0488402,
        0.0061751795,
        0.08133651,
        0.13570416,
        0.08395248,
        -0.19583192,
        -0.09792314,
        -0.056700192,
        -0.14120756,
        -0.19544643,
        -0.08881022,
        0.07422842,
        0.2285239,
        0.07251786,
        0.011823855,
        0.04534256,
        -0.031133488,
        -0.07145034,
        0.006780449,
        -0.12671937,
        -0.0823527,
        -0.0600065,
        -0.06226279,
        -0.09760046,
        -0.08300059,
        1.2647957E-4,
        -0.07120276,
        0.0011796259,
        -0.09626855,
        0.063069314,
        -0.03306118,
        0.06512024,
        0.05232324,
        -0.0990319,
        -0.12673429,
        -0.106994025,
        -0.093304545,
        -0.1974382,
        -0.031420887,
        0.1043055,
        0.13824736,
        0.030179387,
        -0.026086504,
        6.9364056E-4,
        -0.020109596,
        -0.116715916,
        -0.07533558,
        -0.13916115,
        0.03525864,
        -0.0501503,
        0.05589548,
        -0.04052103,
        -0.039414857,
        -0.024512328,
        -0.08441529,
        -0.052646816,
        0.026929278,
        -0.00748353,
        0.047696456,
        0.15563573,
        0.10831668,
        0.053398777,
        -0.16522096,
        0.0032508883,
        -0.17859183,
        -0.13039146,
        0.018532274,
        0.15314394,
        0.07994994,
        -0.029458255,
        -0.019698273,
        -0.058101397,
        -0.0938954,
        -0.079311036,
        -0.11334027,
        0.040518213,
        0.052884202,
        0.050248586,
        -0.10482397,
        0.011924153,
        -0.01855344,
        -0.10696752,
        0.061820682,
        -0.06692637,
        -0.048355114,
        -0.010281573,
        -0.065093964,
        0.0870989,
        0.087550126,
        0.1213401,
        -0.08218641,
        -0.089543894,
        -0.08685487,
        -0.03754504,
        0.06404603,
        0.079205215,
        -0.07498045,
        -0.11479746,
        -0.14172415,
        -0.048835266,
        -0.10364014,
        0.011228322,
        0.034769844,
        0.025921848,
        -0.04262504,
        -0.064383954,
        0.03661623,
        0.09103749,
        0.056207377,
        0.0667173,
        -0.06567596,
        -0.06481748,
        -0.091018416,
        -0.055859465,
        -0.084236205,
        0.08395708,
        0.05602427,
        0.08005714,
        0.04400789,
        -0.0063996366,
        0.025189476,
        -0.015023476,
        0.08899397,
        0.09189763,
        -0.04706723,
        -0.021843059,
        -0.030290788,
        0.0140219005,
        -0.068233326,
        -0.08914918,
        0.0164706,
        -0.05148877,
        -0.03157749,
        0.039363466,
        -0.092917874,
        -0.052925706,
        -0.10717338,
        -0.0028418705,
        -0.03779297,
        -0.009623853,
        -0.081388,
        -0.059104178,
        0.026434427,
        -0.035588335,
        0.06520506,
        0.024013018,
        0.004015254,
        0.012805124,
        0.019367216,
        0.040362824,
        0.0025879918,
        -0.052541353,
        -0.024315659,
        -0.051226225,
        -0.06552268,
        0.038653992,
        0.068872936,
        -0.07031248,
        0.057152256,
        0.007425308,
        0.10390235,
        -0.039457064,
        -0.093045875,
        0.020175278,
        -0.026433874,
        -0.09493981,
        0.08328477,
        0.04228437,
        -0.051669586,
        -0.039292455,
        0.012964488,
        0.0014680923,
        0.04921838,
        0.02764965,
        -0.029159306,
        0.00898387,
        -4.5096816E-4,
        0.06276416,
        -0.041820116,
        -0.007429039,
        0.010973108,
        -0.09449309,
        -0.009103899,
        -0.062269263,
        -0.078742824,
        0.021201126,
        -0.026018983,
        -0.055137936,
        0.030483475,
        -0.038496148,
        -0.0799912,
        -0.059675198,
        -0.09134162,
        -0.03682903,
        -0.04892673,
        0.030329144,
        -0.04825073,
        -0.08841952,
        -0.038276177,
        0.016132079,
        -0.031889476,
        -0.023815164,
        0.09036345,
        0.07537171,
        0.0828007,
        -0.041323893,
        0.09180522,
        0.04269616,
        0.07040146,
        0.02476032,
        -0.04664002,
        0.02507236,
        0.024879934,
        -0.06779155,
        0.07610032,
        0.08468715,
        -0.017249692,
        -0.054667726,
        0.03341585,
        0.0019498015,
        0.08677443,
        0.074176155,
        0.038872022,
        -0.036362343,
        -0.043802828,
        -0.07527645,
        -0.08004231,
        0.009992332,
        -0.025941437,
        0.039579358,
        -0.044950336,
        -0.019499294,
        0.06808881,
        0.01222405,
        0.02291688,
        -0.0070969444,
        0.049811356,
        -0.057700064,
        -8.313005E-4,
        0.054142024,
        0.0053803376,
        -0.06313345,
        0.0205484,
        0.048831753,
        -0.052111782,
        -0.0445596,
        0.03476055,
        0.0039369185,
        -0.028721133,
        -0.015339405,
        -0.012191847,
        0.076799065,
        0.04203678,
        -0.06322081,
        -0.07286258,
        -0.07852855,
        0.053968698,
        -0.11036712,
        0.027652815,
        -0.012147077,
        0.02191927,
        -0.0029284968,
        -0.014746508,
        -0.0020878953,
        -0.048377227,
        -0.0019029314,
        -0.048301995,
        -0.007673437,
        -0.017454647,
        0.076705955,
        -0.07097356,
        0.027281519,
        0.07568486,
        0.090572074,
        -0.019253906,
        0.0708654,
        0.037618816,
        -0.097806744,
        -0.031030135,
        0.04542932,
        0.0016161738,
        0.01179461,
        0.05153254,
        -0.06096657,
        -0.068940334,
        0.04516132,
        0.05261268,
        -0.0014864419,
        -0.021815138,
        0.038209278,
        -0.07446998,
        -0.05838357,
        -0.021748947,
        0.028074874,
        -0.03925139,
        0.06759468,
        -0.14071058,
        7.8646035E-4,
        0.03750028,
        0.0030903828,
        -0.06800457,
        -0.051704947,
        0.0037331416,
        0.030600676,
        -0.04609392,
        -0.08834788,
        0.04940066,
        -0.05326687,
        -0.094941705,
        -0.048023183,
        0.029811041,
        0.051153336,
        0.055284787,
        -0.007587432,
        -0.022996146,
        -0.04420661,
        0.060110383,
        0.00853951,
        0.033015102,
        -0.048961915,
        -0.017203776,
        -0.0565411,
        -0.06581456,
        -0.10398754,
        0.003522921,
        -0.0065294523,
        -0.05163582,
        -0.03531385,
        0.0786542,
        0.09912047,
        0.058109745,
        -0.061569124,
        -0.0750681,
        0.009552707,
        -0.048877183,
        -0.034064855,
        -0.035226144,
        -0.002263337,
        0.02562743,
        -0.07284905,
        -0.056606453,
        0.047319137,
        -0.0032267212,
        0.06756762,
        -0.022793083,
        -0.08259514,
        0.038260598,
        0.027022991,
        0.0039270828,
        -0.023148237,
        -0.05126017,
        -0.054635283,
        -0.0053052567,
        -0.00945189,
        -0.020520719,
        0.008977707,
        0.08347845,
        0.020708086,
        -0.08864361,
        0.08381762,
        -0.03993438,
        0.065297686,
        0.049962312,
        -0.057937942,
        0.03321856,
        0.02498105,
        -0.01709193,
        0.0059439903,
        -0.035891008,
        0.018668177,
        -0.006213952,
        -0.10656443,
        0.0046104416,
        0.08252768,
        0.022389837,
        0.010865906,
        -0.0049233,
        0.108276516,
        0.05165265,
        -0.065936044,
        -0.05279986,
        -0.026256895,
        0.022936713,
        0.020498786,
        0.06943851,
        0.09511782,
        -0.08622796,
        -0.053545974,
        0.034891557,
        0.06749631,
        0.07174201,
        0.06846682,
        0.028406542,
        0.069543205,
        -0.046852224,
        -0.047092643,
        0.072275646,
        0.016513072,
        -0.04221603,
        0.019202333,
        -0.015689446,
        0.0046326173,
        -0.009157505,
        0.009655815,
        0.010839101,
        0.09409514,
        -0.061467137,
        -0.07080098,
        -0.0013082911,
        0.04681278,
        -0.024792688,
        0.014845673,
        -0.042706486,
        -0.063032575,
        -0.028197577,
        0.02581539,
        -0.06510133,
        -0.07196005,
        0.053877912,
        -0.09840189,
        0.06089164,
        -0.008720624,
        -0.002550131,
        0.08289572,
        0.06859183,
        -0.09245069,
        0.021913007,
        0.005701568,
        -0.027244443,
        -0.051002745,
        0.07586116,
        0.011244622,
        0.04539376,
        0.0036300528,
        0.042688277,
        -0.021721572,
        0.04806795,
        -0.1073382,
        -0.008407225,
        -0.049714826,
        0.026508544,
        0.055237938,
        0.035857815,
        -0.07815536,
        -0.018821826,
        0.0058665434,
        0.027949538,
        0.09583002,
        0.09645506,
        0.002676112,
        0.004226258,
        -0.07482071,
        0.00852138,
        0.009283387,
        0.11124249,
        -0.060757842,
        -0.05494403,
        0.085372105,
        0.018208165,
        -0.053951487,
        0.008490964,
        -0.045310695,
        -0.074761875,
        0.0065861973,
        0.054725233,
        -0.003996708,
        -0.022087319,
        -0.043148838,
        0.0893707,
        0.0047006286,
        0.018250205,
        0.031910315,
        -0.07257658,
        0.08443635,
        0.05278891,
        0.061207548,
        0.0073545217,
        -0.07964235,
        0.01330765,
        -0.0076547377,
        0.09269345,
        0.0031968653,
        -0.0502032,
        -0.055129122,
        -0.08304967,
        -0.0037585173,
        0.0728189,
        -0.06085234,
        0.022356637,
        -0.036711257,
        0.021175006,
        0.030467581,
        -0.07701316,
        -0.04739308,
        0.061957803,
        -0.0038989217,
        -0.014419628,
        -0.031366184,
        0.027554255,
        -0.004914272,
        -0.07288959,
        -0.06295797,
        -0.06598524,
        -0.055881217,
        0.069925435,
        0.047656097,
        0.06713313,
        -0.054835666,
        -0.04419138,
        0.06431068,
        -0.07299224,
        0.054788396,
        -0.019260056,
        0.048504125,
        -0.050323747,
        0.08371495,
        0.10522406,
        -0.08142209,
        0.053560056,
        0.026414897,
        0.059295073,
        -0.003179124,
        0.030387783,
        0.044730734,
        -0.009159872,
        -0.03522591,
        -0.08627305,
        -0.079716235,
        -0.04929597,
        -0.008060488,
        0.09852544,
        -0.083363794,
        0.01481958,
        -0.04671813,
        -0.014587949,
        0.038393214,
        -0.018583609,
        -0.073803306,
        0.085070185,
        0.042878453,
        -0.03500902,
        0.06553068,
        -0.07214674,
        0.09757596,
        -0.077044114,
        -0.042929977,
        -0.029519863,
        0.054479692,
        -0.012282427,
        0.0019805038,
        0.056599937,
        -0.060618877,
        0.001442235,
        -0.08117501,
        -0.08290372,
        -0.069513045,
        0.08747943,
        -0.036187325,
        -0.031493105,
        -0.07025596,
        -0.03928482,
        0.020635871,
        0.096830614,
        0.065820284,
        0.039916426,
        -0.0696572,
        -0.0037549376,
        -0.0010710839,
        -0.054595508,
        0.020956257,
        0.08986205,
        -0.060383096,
        0.03754038,
        0.073276214,
        -0.016824756,
        -0.031603217,
        0.054836955,
        -0.026124852,
        0.032762215,
        0.022453839,
        -0.058934756,
        -0.010092111,
        0.06947403,
        -0.031114908,
        -0.08088458,
        0.00995564,
        -0.017938748,
        -0.059580866,
        0.04753061,
        0.03248496,
        -0.0041657207,
        0.0029173591,
        0.100089625,
        -0.006770991,
        0.044294957,
        -0.051037,
        0.0047937,
        -0.04427477,
        0.05431321,
        -0.019089604,
        0.01692423,
        0.036586497,
        -0.10395866,
        0.0123406565,
        -0.032867346,
        -0.035002645,
        0.06829628,
        0.044552423,
        0.07987979,
        -0.00612422,
        0.084021755,
        0.019786378,
        0.08785241,
        -0.05281559,
        0.089538075,
        0.13047512,
        0.021748906,
        -0.020459302,
        0.08256871,
        0.024660397,
        -0.0374215,
        0.095364936,
        0.01482273,
        0.028072966,
        -0.044972144,
        -0.011001912,
        0.041619502,
        -0.04359168,
        -0.09327998,
        -0.023548987,
        0.009390765,
        -0.004861725,
        -0.056841325,
        -0.05527739,
        -0.072902136,
        -0.056605108,
        -0.03368838,
        0.024729393,
        -0.062252175,
        -0.09979685,
        -0.036661603,
        0.024826372,
        0.05592402,
        0.075139776,
        0.113943554,
        0.04244703,
        0.078207485,
        -0.002236659,
        0.14262676,
        -0.059367735,
        0.036307693,
        0.017235398,
        0.01402686,
        -0.0011616673,
        0.046336725,
        -6.373335E-6,
        0.015444053,
        0.019276442,
        -0.033597425,
        0.036439296,
        0.005087361,
        0.09229828,
        -0.04310441,
        0.033002354,
        0.12838472,
        0.06171903,
        0.05010864,
        0.034057874,
        0.02894492,
        -0.0723435,
        0.050880652,
        0.019655325,
        0.0019323726,
        -0.01688653,
        -0.03563539,
        -0.019768447,
        0.029305544,
        0.067776166,
        0.026684407,
        0.029525667,
        -0.002127302,
        -0.001413805,
        0.032921825,
        -0.032369364,
        0.010768363,
        0.021698993,
        -0.048233245,
        0.07254398,
        -0.011440481,
        0.004733389,
        0.059592687,
        0.13310982,
        0.142422,
        0.06928417,
        0.014614433,
        -0.09742836,
        0.014432387,
        0.06634477,
        -0.016584529,
        -0.039996453,
        -0.080412306,
        -0.038186308,
        0.06002154,
        0.008414784,
        0.09766747,
        5.3934974E-4,
        0.09401545,
        -0.036251143,
        -0.0201856,
        0.022756184,
        -0.010935368,
        0.029467188,
        -0.035179153,
        0.027534647,
        0.019030796,
        0.02457507,
        0.030178847,
        0.08366521,
        -0.021333555,
        -0.051119525,
        -0.051824596,
        -0.02844104,
        0.019412134,
        0.030418603,
        -0.06932588,
        0.058342963,
        -0.02607611,
        -0.050108768,
        -0.020756131,
        0.053956002,
        0.0053702416,
        0.1393017,
        0.007626918,
        0.07780567,
        -0.021296868,
        0.061051726,
        -0.064285666,
        0.006874883,
        0.06000382,
        -0.023003995,
        0.059447978,
        0.048672933,
        0.036697764,
        0.08938679,
        0.06519516,
        -0.04336605,
        0.06674986,
        0.09121816,
        -0.042620707,
        -0.04928875,
        -0.06815671,
        -0.08030007,
        0.010857227,
        -0.034348823,
        -0.026427727,
        0.016844334,
        -0.02856633,
        0.07277929,
        -8.942018E-4,
        0.09125212,
        0.078937545,
        0.094020836,
        0.061338387,
        -0.0042323982,
        0.02895159,
        -0.046992883,
        -0.03715532,
        0.058998123,
        0.003882884,
        0.010697097,
        0.035865877,
        0.09135754,
        0.03194498,
        -0.0019106809,
        0.082474545,
        0.039141037,
        -0.056714002,
        0.04415532,
        0.03947916,
        -0.018782226,
        -0.06013134,
        0.049283892,
        -0.04120291,
        -0.03904572,
        -0.0073593673,
        0.010171253,
        0.08651486,
        0.08144326,
        0.10608029,
        0.14991182,
        0.20050384,
        0.05447418,
        0.08306045,
        0.019392828,
        -0.004477612,
        -0.058681402,
        -0.0018689743,
        0.038100354,
        0.00854806,
        0.019360127,
        -0.013518513,
        0.008821902,
        -0.055035606,
        -0.011457952,
        0.07428133,
        -0.038287863,
        0.059175566,
        0.046854235,
        -0.113979906,
        -0.09460189,
        -0.018620992,
        -0.10169197,
        -0.040743418,
        -0.045257073,
        -0.018892985,
        0.08697322,
        0.102519564,
        0.23842223,
        0.18139412,
        0.25321648,
        0.20337775,
        0.114505194,
        0.11355757,
        0.068000115,
        0.019174613,
        0.038103137,
        0.05180241,
        -0.028858038,
        0.059551667,
        -0.026502203,
        -0.039491057,
        0.014600838,
        0.06725569,
        -0.08520207,
        -0.05600422,
        0.053670496,
        0.051227417,
        -0.07817661,
        -0.010610005,
        -0.15724832,
        -0.22849286,
        -0.15785876,
        -0.22864331,
        -0.17663895,
        -0.1677148,
        0.041266836,
        0.13457002,
        0.1945558,
        0.26711667,
        0.29101038,
        0.24632691,
        0.16873103,
        0.07263698,
        4.583297E-4,
        0.046979092,
        0.014250068,
        -0.033252355,
        0.0054330076,
        0.021026356,
        -0.046745464,
        -0.09377929,
        -0.07252973,
        -0.04169723,
        -0.061205674,
        -0.109810285,
        0.039958254,
        0.008297224,
        -0.049131144,
        -0.12158198,
        -0.10912359,
        -0.22157742,
        -0.31359,
        -0.33277643,
        -0.37955785,
        -0.39216617,
        -0.19637117,
        -0.029268166,
        0.021042092,
        0.12789387,
        0.10612156,
        0.045295496,
        0.035103586,
        -0.018003259,
        -0.015958782,
        0.05396466,
        -0.009942225,
        -0.07327224,
        -0.048591603,
        -0.0049390816,
        -0.042333115,
        -0.08167761,
        0.037960462,
        -0.018156432,
        -0.049937643,
        -0.09782233,
        -0.07279853,
        -0.050864063,
        -0.14559636,
        -0.18139564,
        -0.2290294,
        -0.36572766,
        -0.36160812,
        -0.43728325,
        -0.5179865,
        -0.51851654,
        -0.40992168,
        -0.2812532,
        -0.09599771,
        -0.09825564,
        -0.018586885,
        -0.042357568,
        0.05886033,
        -0.032387592,
        -0.03172164,
        0.011521042,
        -0.057560686,
        0.003541261,
        -0.08225381,
        0.044107486,
        -0.06256569,
        -0.041273985,
        0.08498389,
        0.06319375,
        -0.0334057,
        0.029744165,
        -0.013897402,
        -0.091236204,
        0.016264448,
        -0.051375173,
        -0.07920675,
        -0.14359283,
        -0.1422524,
        -0.14400543,
        -0.09836976,
        -0.15860282,
        -0.06072986,
        -0.0017389728,
        -0.025049383,
        -0.06795135,
        -0.10877542,
        -0.051923692,
        -0.02016125,
        -0.07804567,
        -0.06892486,
        -0.048363473,
        0.06300558,
        -0.015621648,
        -0.054724585,
        -0.04816973,
        -0.07043462,
        0.03373221,
        0.02380876,
        0.029792232,
        -0.055766523,
        0.09078729,
        0.02735027,
        0.11576946,
        0.13580115,
        0.22147176,
        0.09041671,
        0.05611653,
        0.056518976,
        0.06108483,
        -0.07321866,
        -0.01038117,
        -0.05526586,
        0.030326903,
        -0.038614392,
        0.014411222,
        -0.056856807,
        -0.0010857412,
        -0.021900054,
        -0.09603975,
        -0.011668552,
        -0.00988088,
        -0.004627628,
        0.06320904,
        -0.092871286,
        -0.025487242,
        -0.08321099,
        0.009605967,
        -0.02627134,
        0.09602943,
        -0.0010364489,
        0.0621054,
        0.09121546,
        0.025134921,
        0.07818079,
        0.050315764,
        -0.034898568,
        -0.042515505,
        0.057891957,
        0.0076726847,
        -0.009221455,
        0.0015764734,
        -0.037981864,
        0.015448025,
        -0.04464126,
        -0.027146839,
        0.024749786,
        -0.025249504,
        -0.035456754,
        -0.08024118,
        -0.028128864,
        0.050600305,
        0.036882013,
        -0.059484527,
        -0.03425038,
        -0.032033432,
        -0.0040210267,
        -0.05432472,
        0.017018165,
        0.026125254,
        -0.010642257,
        0.07382143,
        -0.038924582,
        0.022839354,
        0.06516469,
        0.025731288,
        -0.039964944,
        0.017087368,
        -0.06672765,
        0.04434719,
        0.0017618048,
        -0.02145374,
        -0.049529813,
        0.042970486,
        0.050151985,
        0.05561915,
        -0.06711978,
        -0.09044843,
        -0.0030886785,
        0.07054274,
        -0.059387006,
        -0.07396019,
        0.089434974,
        -0.06917292,
        0.11224393,
        0.0037209608,
        0.040535193,
        -0.009105739,
        0.042020377,
        -0.070775606,
        0.024477843,
        0.037554927,
        -0.027813978,
        0.056207124,
        -0.007612429,
        0.037485022,
        0.032815736,
        -0.08846055,
        0.03763609,
        0.023657069,
        0.044265576,
        -0.03852723,
        0.030103913,
        -0.10060169,
        -0.0133581,
        0.067774795,
        -0.083701685,
        -0.053799238,
        0.05579191,
        -0.096321404,
        0.027085373,
        0.024579769,
        -0.0068774936,
        -0.080008104,
        0.03959968,
        0.031098664,
        -0.020343564,
        0.04270088,
        -0.036943045,
        0.0058279033,
        0.007925119,
        0.072558515,
        -0.04540623,
        -0.004526918,
        0.015106086,
        0.011131293,
        0.055624977,
        -0.07773515,
        0.042856023,
        -0.07918745,
        0.029356133,
        0.081153855,
        0.010199371,
        0.0879495,
        0.047465384,
        0.014033092,
        0.088439,
        0.0849706,
        0.0375311,
        -0.01654482,
        -0.034724224,
        0.07301015,
        -0.06677139,
        -0.040466987,
        -0.0154573,
        -0.06444365,
        -0.05431294,
        7.877256E-4,
        0.02735122,
        -0.028718434,
        0.04890619,
        -0.013738368,
        -0.063412085,
        0.039603762,
        -0.056893107,
        -0.010883022,
        0.076490976,
        -0.07469447,
        -0.08046822,
        -0.06814074,
        0.018217226,
        0.0076897894,
        -0.07425468,
        0.06287533,
        -0.08662822,
        -0.041035622,
        0.052420538,
        0.012329101,
        -0.0016602355,
        0.020040838,
        -0.066741325,
        -0.0047535985,
        9.6788845E-4,
        0.04332746,
        1.645656E-4,
        -0.0028218015,
        0.013968074,
        -0.0034972155,
        0.03415529,
        0.01953428,
        0.019129349,
        -0.071493715,
        0.0072732377,
        -0.056952912,
        -0.039198857,
        0.031426832,
        0.043001205,
        0.06754515,
        0.011607252,
        -0.01281837,
        -0.061149318,
        0.010323344,
        0.071657054,
        -0.04888098,
        0.0042415126,
        -0.07434024,
        -0.08802965,
        -0.053374864,
        -0.08260815,
        -0.0833504,
        -0.059973694,
        -0.10101323,
        -0.0050924444,
        -0.022501785,
        0.02800203,
        -0.029403053,
        -0.026585406,
        -0.069800064,
        -0.055700827,
        -0.06750865,
        -0.051983725,
        0.018078996,
        -0.03996544,
        0.013177255,
        2.3031607E-4,
        -0.07899745,
        0.057903904,
        0.069201164,
        0.0614154,
        0.037899844,
        -0.10533659,
        -0.095034435,
        -0.056340933,
        -0.01622128,
        -0.059106268,
        0.08616177,
        -0.014430781,
        -0.03519058,
        -0.03771454,
        0.08875266,
        0.011946574,
        0.067583375,
        -0.06953621,
        -0.0096988045,
        -0.05089365,
        0.06404119,
        -0.032776378,
        -0.0045649796,
        -0.078945465,
        -0.022510996,
        -0.09498143,
        0.06749111,
        -0.05655978,
        -0.015483534,
        0.08241263,
        0.04115887,
        0.0031748072,
        0.08237759,
        -0.07833537,
        0.097910814,
        0.050906636,
        0.096232556,
        0.07380493,
        -0.07853947,
        0.103957824,
        0.023770515,
        0.06293154,
        0.0165877,
        0.093445666,
        0.0016495043,
        0.09029245,
        0.079955146,
        -0.08922888,
        0.07723648,
        -0.08302849,
        0.014205619,
        -0.006142422,
        0.07315993,
        0.033287097,
        0.022532342,
        0.07559844,
        0.07876899,
        -0.072397284,
        0.09211229,
        0.01677252,
        0.028695736,
        -0.06237766,
        0.009045405,
        -0.051647026,
        0.051859826,
        0.04220304,
        0.019070655,
        0.059344143,
        -0.021694511,
        -0.038248263,
        0.083719015,
        -0.072862126,
        -0.010149659,
        4.5018166E-4,
        -0.0750379,
        0.05598143,
        0.025584374,
        0.07831335,
        -0.07054228,
        -0.08629643,
        0.07382264,
        0.015339209,
        0.042105887,
        -0.012124692,
        -0.042775065,
        0.060008142,
        -0.07466412,
        -0.060572103,
        0.10610288,
        -0.037000094,
        -0.0858414,
        -0.07342853,
        0.032940116,
        0.0020272024,
        -0.002416716,
        0.071253695,
        0.01977079,
        0.030227238,
        0.074060746,
        0.0027903412,
        0.047849666,
        -0.06339656,
        0.064954,
        -0.112006366,
        -0.019643186,
        0.10550733,
        0.04895885,
        0.010395157,
        -0.016577875,
        -0.046525322,
        0.10112113,
        -0.07335144,
        0.034758385,
        0.02750359,
        -0.027251778,
        0.058445394,
        -0.027318874,
        -0.056845747,
        0.06525809,
        -0.06862552,
        -0.04567607,
        0.078778185,
        0.05768577,
        0.009487773,
        -0.0033572603,
        -0.0713264,
        0.08145344,
        0.046537776,
        -0.054994084,
        0.04953732,
        0.0198236,
        0.0042900546,
        -0.034442402,
        0.028015893,
        -0.008939501,
        -0.026583022,
        -0.0017032571,
        -0.05027455,
        0.09448633,
        0.041247897,
        0.00913937,
        -0.015125841,
        -0.02685731,
        0.053115685,
        -0.07244326,
        -0.06806743,
        0.05582177,
        -0.071566276,
        -0.055989634,
        0.019232394,
        -0.0018675786,
        -0.10385556,
        -0.03903551,
        -0.048586592,
        0.09269991,
        -0.050449565,
        0.024089603,
        -0.015815565,
        -0.0020012776,
        0.022601977,
        -0.021320006,
        -0.03902503,
        0.047973026,
        0.013186021,
        -0.029912317,
        0.03626752,
        -0.018542144,
        -0.095068865,
        -0.021401338,
        0.059245028,
        0.08885808,
        0.026352437,
        0.06505784,
        0.060919497,
        0.025388861,
        0.032455962,
        -0.08156461,
        -0.008614226,
        0.032482505,
        -5.429568E-4,
        0.016256008,
        0.007955093,
        -5.8873574E-4,
        0.05512886,
        -0.04404243,
        0.0027288531,
        0.007291984,
        0.06905417,
        -0.04721367,
        0.080520414,
        -0.07362688,
        0.008138212,
        0.061158027,
        -0.048747152,
        0.045278437,
        0.023439722,
        0.033368796,
        0.049653392,
        -0.10576977,
        -0.030502833,
        -0.048902173,
        0.017621616,
        -0.04622013,
        -0.061880976,
        0.048895627,
        0.020932758,
        -0.08012347,
        -0.064692564,
        -0.014782985,
        0.005501422,
        -0.0715816,
        -0.0016925707,
        -0.040790044,
        0.051496163,
        -0.049281936,
        0.05235181,
        0.016357051,
        -0.051494036,
        -0.01543082,
        0.07454265,
        0.027349314,
        -0.0026566186,
        0.036966473,
        -0.101780206,
        0.049895078,
        -0.031919498,
        0.04958781,
        0.07929944,
        -0.00900794,
        0.035344955,
        0.046318006,
        0.0024472384,
        0.029471382,
        -0.0027642138,
        -0.054822847,
        0.045257512,
        0.025472842,
        0.035297662,
        -0.033303753,
        -0.0018762588,
        0.034083385,
        0.0021998286,
        -0.06023641,
        -0.012889028,
        0.005513645,
        0.029223358,
        0.007638277,
        0.014281026,
        -0.055178262,
        8.038882E-4,
        0.05678403,
        -0.012298344,
        0.044470206,
        0.09013322,
        0.027846886,
        0.019885492,
        0.07237045,
        0.07807482,
        0.018355682,
        -0.06283123,
        -0.0936974,
        4.0315808E-4,
        0.0040376834,
        0.0088925855,
        -0.081453696,
        -0.043645445,
        -0.031333983,
        -0.057597864,
        0.0068391506,
        -0.0016366118,
        0.038504317,
        -0.0031269267,
        -0.0019669845,
        0.0018428804,
        -0.04597047,
        -0.0048345504,
        -0.04720222,
        -0.012111322,
        -0.04181489,
        0.0678515,
        -0.06630709,
        -0.06805327,
        0.036476705,
        0.07423264,
        0.0633395,
        -0.10579255,
        -0.10626791,
        0.018807763,
        -0.076222576,
        -0.015641129,
        -0.067623995,
        0.005970867,
        0.004619585,
        0.03922302,
        -0.009714858,
        -0.01848714,
        -0.021651639,
        -0.034245666,
        -0.004506614,
        0.04316675,
        -0.013039498,
        -0.04090499,
        0.05565485,
        -0.021095777,
        0.0028755886,
        -0.013330274,
        -0.02900538,
        -0.089092776,
        0.02738976,
        0.05395977,
        -0.055210438,
        -0.109418705,
        0.038958162,
        -0.11316393,
        0.039997827,
        0.039097153,
        -0.037001755,
        0.062770955,
        -0.025145521,
        -0.010621516,
        -0.021964114,
        -0.008944052,
        0.0036010956,
        -0.029507697,
        -0.024416573,
        0.026462365,
        -0.06687113,
        0.023172654,
        -0.02893173,
        0.017970448,
        -0.054779433,
        -0.0065787192,
        0.012449551,
        0.038071897,
        -0.07129534,
        0.06977259,
        0.060130753,
        0.061262935,
        -0.10809528,
        0.06188677,
        0.09270026,
        0.047864024,
        0.012559126,
        0.010231265,
        -0.07057459,
        -0.06480315,
        -0.012570615,
        0.026724802,
        0.06288178,
        -0.07461282,
        -0.01772447,
        -0.021941671,
        -0.022145387,
        0.008514371,
        0.01765125,
        -3.319378E-4,
        -0.008416567,
        0.018687403,
        0.019344643,
        -0.014418195,
        0.0247657,
        -0.001835008,
        -0.009632611,
        -0.07816205,
        -0.045041177,
        0.08796974,
        -0.030329794,
        0.026279919,
        -0.009498141,
        0.07538096,
        0.056958795,
        -0.06537824,
        -0.012447572,
        -0.0045220694,
        -0.0021396906,
        0.028881831,
        -0.06258285,
        0.048027713,
        -0.025197444,
        0.032092024,
        -0.029283017,
        -0.03036806,
        -0.013929596,
        0.025607184,
        0.0030864652,
        -0.018343924,
        0.010860888,
        0.0045637786,
        -0.009811429,
        -0.03386036,
        0.020258194,
        0.039792497,
        -0.10242902,
        0.019925276,
        0.0018920957,
        -0.06986116,
        -0.04339186,
        0.055889893,
        0.0039107506,
        -0.02372034,
        0.06793901,
        -0.0025362154,
        0.044619825,
        -0.02063341,
        0.022932649,
        -0.02436068,
        -0.002314387,
        -0.013867995,
        0.0049033687,
        -0.055026274,
        -0.013396874,
        -0.047348656,
        0.004800388,
        -0.074732095,
        -0.01412755,
        0.01924708,
        0.031078354,
        0.049809404,
        -0.026327794,
        -0.02386269,
        -0.055936996,
        0.083588235,
        -0.06636438,
        -0.028088331,
        -0.04972552,
        0.035531163,
        0.010777121,
        0.110627085,
        -0.0046515814,
        0.057723247,
        0.004930686,
        -0.008136728,
        -0.059337426,
        -0.013727998,
        -0.030177064,
        0.02013348,
        0.008160276,
        0.024609521,
        -0.04252821,
        0.044802967,
        -0.028642317,
        0.018735431,
        0.031888835,
        -0.00537265,
        -0.065714836,
        0.0056883073,
        0.045219414,
        0.030128017,
        -0.07342881,
        0.0045147585,
        -0.026979454,
        0.04140033,
        -0.075158045,
        0.05376991,
        0.07954455,
        0.0407263,
        0.085401565,
        0.118134454,
        0.023496885,
        0.006149947,
        -0.029865742,
        -0.07470777,
        -0.11394533,
        -0.009239172,
        0.01776289,
        -0.0026997956,
        0.06497444,
        0.014670318,
        -0.0013721066,
        -0.03539481,
        -0.014874028,
        -0.03326597,
        0.016087305,
        -0.019949304,
        0.02568129,
        0.039550465,
        -0.0010116482,
        0.027495716,
        -0.010701409,
        0.012840139,
        -0.047499243,
        0.014680073,
        0.102873705,
        0.0911562,
        0.18539247,
        0.029830549,
        0.17078376,
        0.14620395,
        0.055216633,
        -0.039150834,
        -0.13390279,
        -0.08743094,
        -0.09511181,
        -0.0040536267,
        0.006967181,
        -0.044534076,
        0.009859509,
        -0.032180365,
        0.018623691,
        -0.05267381,
        0.02443878,
        0.014641513,
        -0.09003757,
        0.033996902,
        -0.06964492,
        -0.05644585,
        -0.1395194,
        -0.085813545,
        -0.078572094,
        -0.14067674,
        -0.132445,
        0.07037669,
        0.061005652,
        0.10867879,
        0.18871824,
        0.18570231,
        0.21990977,
        0.12734188,
        0.035134222,
        -0.15052365,
        -0.112662725,
        -0.15658857,
        -0.15435082,
        -0.097116664,
        -0.07090415,
        -0.06113094,
        0.024578234,
        -0.01119939,
        -0.041727714,
        0.059945405,
        -0.029712316,
        6.8376254E-4,
        0.048616007,
        0.040293984,
        0.031603508,
        -0.023839068,
        -0.12004679,
        -0.20503575,
        -0.22948663,
        -0.18016097,
        -0.1438249,
        -0.011622773,
        0.0066820187,
        0.23616834,
        0.27986827,
        0.30904627,
        0.32067195,
        0.23424459,
        0.12914656,
        0.086824596,
        -0.0058906367,
        -0.038831763,
        0.0080247605,
        0.011377831,
        -0.01885373,
        0.03952962,
        -0.007366081,
        -0.042009015,
        -0.038693458,
        0.044986866,
        0.01441223,
        0.06779948,
        -0.1195366,
        -0.004232754,
        -0.06770305,
        -0.22657771,
        -0.28081384,
        -0.329277,
        -0.39809293,
        -0.26422542,
        -0.26143202,
        -0.09469269,
        0.13418722,
        0.17385387,
        0.24336287,
        0.31515765,
        0.27838776,
        0.21297947,
        0.21474157,
        0.13240592,
        0.08836937,
        0.035611782,
        0.07087261,
        0.010096905,
        0.04730541,
        -0.014042594,
        0.054075953,
        -0.040841144,
        -0.00935876,
        -0.009089902,
        -9.248191E-4,
        0.010959056,
        -0.017701384,
        -0.008735845,
        -0.18644544,
        -0.16960122,
        -0.30840927,
        -0.43445233,
        -0.4285943,
        -0.51086533,
        -0.39802477,
        -0.25157183,
        -0.059118677,
        -0.015113156,
        0.030934526,
        0.09289708,
        0.06342284,
        0.14132449,
        0.075059496,
        0.011509336,
        -0.011302809,
        -0.018517954,
        0.03571506,
        -0.01262986,
        -0.003539776,
        -0.04290778,
        -0.02523022,
        -0.04878993,
        0.025642488,
        -0.040060736,
        0.018608177,
        -0.028668562,
        -0.08584421,
        -0.121981025,
        -0.10080461,
        -0.26748878,
        -0.37322393,
        -0.49241444,
        -0.4766863,
        -0.52243125,
        -0.44725034,
        -0.30188623,
        -0.24486125,
        -0.10804362,
        -0.07000954,
        -0.07151684,
        0.016340526,
        3.937577E-4,
        0.033230856,
        -0.055958778,
        0.004187949,
        -0.04145188,
        -0.03169056,
        0.028322851,
        -0.0661743,
        -0.07990678,
        -0.049036857,
        0.09427749,
        0.09302944,
        0.055590287,
        0.11709574,
        0.020976324,
        0.05544171,
        0.021993611,
        -0.017880963,
        -0.017949618,
        -0.12619962,
        -0.12458681,
        -0.23470423,
        -0.16794103,
        -0.22801617,
        -0.13969901,
        -0.10331681,
        0.0032238585,
        -0.05638534,
        -0.01851497,
        0.020188704,
        0.017095612,
        -0.034974072,
        0.068142965,
        0.015358693,
        0.08774265,
        0.015639449,
        -0.0038620357,
        -0.04782945,
        -0.013668064,
        0.104584165,
        0.056798067,
        0.075161844,
        0.21539296,
        0.09378632,
        0.1974295,
        0.22166973,
        0.23260604,
        0.15999676,
        0.21116494,
        0.1473467,
        0.07742864,
        0.056365456,
        0.06655853,
        0.017562356,
        -0.054485984,
        0.028501311,
        0.03325503,
        -0.0018142887,
        0.012660431,
        -0.08154631,
        0.048003674,
        -0.07229559,
        -0.023571743,
        0.009225262,
        -0.10831599,
        -0.0622021,
        -0.06428866,
        0.034263425,
        0.040649936,
        0.056544468,
        0.06894372,
        0.08801752,
        0.16011079,
        0.069237694,
        0.0810494,
        0.18548602,
        0.019750597,
        0.12969981,
        0.110279724,
        0.11594217,
        0.03582735,
        -0.009594664,
        0.056033876,
        -0.035638936,
        0.032951076,
        0.0021118184,
        0.0051855254,
        -0.027939677,
        0.062222816,
        0.039856482,
        0.097062856,
        -0.0877193,
        0.015978362,
        -0.036297634,
        0.07334688,
        0.08029315,
        0.07917875,
        -0.062020063,
        0.12583037,
        0.109323315,
        0.10855729,
        0.037595958,
        0.10085807,
        -0.05370659,
        0.11619123,
        -0.0038368967,
        0.06986565,
        -0.0021861524,
        0.07496781,
        -0.023362199,
        0.036621656,
        0.012758105,
        -0.026085902,
        0.024636773,
        0.044392273,
        -0.041183267,
        -0.05989459,
        1.0993259E-4,
        -0.019679211,
        -0.015379535,
        0.024958415,
        0.028143551,
        -0.05325134,
        -0.106885135,
        -0.021082507,
        0.017191153,
        -0.0028812801,
        0.031247739,
        -0.03875946,
        0.008129801,
        -0.011516431,
        0.02792248,
        0.029623184,
        0.004166868,
        0.012754557,
        0.012543295,
        -0.011885567,
        0.021440864,
        -0.0046448046,
        0.05089456,
        0.010289236,
        -0.03856557,
        0.02574992,
        -0.034447864,
        0.07175922,
        -0.066545665,
        0.026131252,
        -0.07398266,
        -0.016059384,
        0.025819322,
        -0.08760608,
        -0.085657775,
        0.00294989,
        0.02266248,
        -0.025061764,
        0.05312515,
        0.027778002,
        0.0024989427,
        0.03918716,
        0.023226336,
        0.036000095,
        -0.03458508,
        0.015993651,
        -0.038148914,
        0.023920847,
        -0.04838636,
        -0.0147290565,
        -0.044633683,
        0.04022436,
        0.07621234,
        -0.029323,
        -0.05084351,
        -0.021291839,
        0.010611413,
        -0.058648773,
        -0.017869515,
        0.03499879,
        0.057596367,
        -0.10379799,
        -0.051718336,
        0.06325187,
        -0.06455485,
        -0.1152066,
        -0.11741437,
        -0.10154155,
        -0.10239208,
        -0.08094259,
        0.017627047,
        0.034259245,
        0.044853672,
        -0.062436853,
        0.053012308,
        -0.059935454,
        0.03467892,
        0.12704104,
        -0.08018151,
        0.06409391,
        0.042696793,
        0.0039015797,
        0.08787239,
        -0.0074833147,
        0.064036235,
        -0.029263781,
        0.015803343,
        0.042405542,
        -0.052223638,
        0.04770737,
        0.052942865,
        -0.06811896,
        0.063322805,
        -0.030465987,
        0.06372895,
        -0.07403708,
        0.004353815,
        0.03990254,
        0.022922277,
        -0.005385505,
        -0.0066084615,
        -0.029776137,
        0.008857501,
        0.020441538,
        0.053868614,
        0.026797218,
        -0.047697905,
        0.08909538,
        0.066203505,
        -0.0071367486,
        -0.0056043454,
        -0.05655797,
        -0.0778965,
        -0.011112248,
        -0.04595849,
        0.055857524,
        -0.10417569,
        -0.052265108,
        0.05189794,
        -0.011829069,
        -0.10048712,
        -0.11321692,
        0.049775895,
        -0.05723408,
        -0.015942018,
        -0.08770662,
        -0.032589607,
        -0.0044618603,
        -0.15995328,
        -0.051600907,
        -0.014487004,
        -0.017749023,
        -0.015862113,
        -0.09679018,
        0.013644776,
        0.035341103,
        -0.09371577,
        -0.08770946,
        -0.04316259,
        -0.06319881,
        0.07900607,
        -0.018850947,
        0.052362476,
        0.07752221,
        0.040166624,
        -0.023929061,
        0.01088508,
        0.063976504,
        0.03529969,
        -0.02595611,
        -0.0677286,
        0.004741674,
        -0.15533054,
        -0.09995381,
        -0.17033479,
        -0.15527096,
        -0.015634144,
        -0.095830746,
        -0.19427289,
        -0.117255755,
        -0.018307462,
        0.018685535,
        -0.11665777,
        0.040292874,
        -0.069774896,
        -0.030883806,
        0.067470424,
        0.06437906,
        0.09389787,
        -0.023100372,
        0.0670285,
        0.057307445,
        -0.103973754,
        -0.07241691,
        0.065011494,
        -0.026545122,
        -0.1094066,
        -0.113046825,
        -0.042145047,
        -0.11329371,
        -0.09784956,
        -0.13742104,
        -0.12621614,
        -0.19232093,
        -0.2215283,
        -0.21166858,
        -0.18223056,
        -0.13445693,
        -0.23556897,
        -0.087347046,
        -0.08285836,
        -0.05779076,
        -0.12266467,
        -0.037755795,
        -0.021768164,
        -0.07796998,
        0.019245246,
        -0.094359465,
        -0.015618232,
        0.087397106,
        -0.0720184,
        -0.1188907,
        -0.022270452,
        -0.09537328,
        -0.0025220178,
        -0.082842216,
        -0.07000162,
        -0.06536693,
        -0.048810657,
        -0.12532721,
        -0.16411698,
        -0.14804514,
        -0.14284867,
        -0.13053347,
        -0.09979052,
        -0.1448449,
        -0.24402058,
        -0.07362715,
        -0.0608698,
        -0.181392,
        -0.06336825,
        0.0017370204,
        -0.12588347,
        0.027605137,
        -0.0147120105,
        0.053152673,
        -0.078147896,
        -0.05411018,
        0.020900438,
        0.017694782,
        -0.05977052,
        -0.12857378,
        0.008812556,
        -0.030251244,
        -0.14916785,
        -0.059407234,
        -0.15315199,
        -0.096198045,
        0.008573776,
        0.06866389,
        -0.038286943,
        -0.011248636,
        0.064494975,
        -0.047722507,
        0.011201895,
        -0.17006813,
        -0.1767379,
        -0.043757744,
        -0.14550562,
        -0.07767993,
        -0.11576207,
        -0.08879205,
        0.008698922,
        -0.061060667,
        -0.022202985,
        0.0725442,
        0.021237502,
        -0.13225548,
        0.02839092,
        -0.12769395,
        -0.15056647,
        -0.13687095,
        -0.08700868,
        -0.056603197,
        0.03682635,
        0.09428905,
        0.17651103,
        0.18764505,
        0.26482844,
        0.20212604,
        0.12642328,
        0.08184838,
        0.00929676,
        0.04002533,
        -0.06104113,
        -0.018575056,
        -0.04942662,
        -0.08112613,
        0.06141528,
        0.06346106,
        0.031016558,
        0.0012504603,
        0.03308628,
        0.050531037,
        -0.09199442,
        0.04678508,
        0.002409743,
        -0.141378,
        -0.04382796,
        -0.0103638945,
        0.035735153,
        0.06446681,
        0.12587446,
        0.088285185,
        0.2075466,
        0.18323004,
        0.23037931,
        0.23033315,
        0.23282982,
        0.20743093,
        0.15890163,
        0.06780728,
        -0.08482515,
        0.02377781,
        -0.04098459,
        -0.036058694,
        -0.04835372,
        0.047759242,
        -0.0179194,
        -0.04667397,
        0.06502437,
        -0.047278147,
        0.006218449,
        -0.06958348,
        -0.052320924,
        -0.13509089,
        -0.04509313,
        -0.090989105,
        0.0100849755,
        0.003662548,
        0.070141934,
        0.09248425,
        -0.06349982,
        -0.07095787,
        0.03258117,
        0.01076682,
        0.09147727,
        0.05956417,
        0.040853348,
        0.08166422,
        -0.028965358,
        -0.14109148,
        -0.015553275,
        -0.10128841,
        -0.053491518,
        0.02575629,
        -0.08942123,
        -0.012383494,
        0.019365048,
        0.024588086,
        -0.105411805,
        0.036690462,
        0.003009932,
        -0.11189407,
        -0.08567302,
        -0.02395415,
        0.06184076,
        -0.016364688,
        -0.05603758,
        -0.08231024,
        -0.1647177,
        -0.1352922,
        -0.12212844,
        -0.07740249,
        -0.019833539,
        0.031526055,
        0.08698951,
        0.12226669,
        0.090645276,
        -0.06345304,
        -0.03397262,
        0.037776943,
        -0.0660806,
        -0.06201723,
        0.06346867,
        -0.01665328,
        -0.010699475,
        -0.05027544,
        -0.034874752,
        0.008755925,
        -0.09517436,
        -0.0054638917,
        0.078933276,
        0.040485047,
        -0.043469228,
        -0.047226343,
        -0.15209168,
        -0.10983478,
        0.0069872094,
        -0.0021334216,
        0.009367001,
        0.1372237,
        0.0128921075,
        0.070809044,
        0.039844796,
        0.10089985,
        0.073686,
        -0.06589794,
        -0.08655455,
        -0.050648924,
        -0.05586177,
        0.009132287,
        0.010009331,
        -0.0027669892,
        -0.0024162815,
        -0.0098438915,
        -0.034075264,
        -0.0774949,
        -0.012016519,
        -0.058143687,
        -0.029794812,
        0.0332428,
        -0.102007285,
        -0.021800311,
        0.029220533,
        0.062428895,
        0.012620451,
        0.09431503,
        -0.020969098,
        0.03880975,
        0.042501025,
        0.06807877,
        0.11384531,
        0.0524743,
        0.022200044,
        0.021766165,
        0.017362889,
        -0.039248094,
        -0.03046359,
        -0.014850765,
        0.004805706,
        -0.11833221,
        0.013305924,
        -0.03854409,
        0.05723953,
        0.033282883,
        0.031611167,
        -0.09710093,
        -0.04350167,
        -0.027405463,
        0.07043603,
        -0.052596938,
        -0.037384726,
        0.0043550516,
        -0.012624735,
        -0.083831936,
        -0.012179402,
        -0.05407247,
        -0.08970379,
        -0.013061872,
        0.0057354085,
        -0.07629583,
        -0.09553141,
        -0.0681728,
        -0.06453087,
        0.01142786,
        -0.0039741243,
        -0.107567325,
        -0.026410596,
        0.049425397,
        0.018910589,
        -0.038470164,
        -0.11875348,
        0.06231516,
        -0.11302546,
        0.024078669,
        -0.011142998,
        -0.044742282,
        -0.046978258,
        0.0420595,
        -0.051137,
        -0.041855764,
        -0.035530683,
        -0.05229591,
        -0.05736476,
        -0.046076957,
        -0.04204594,
        -0.11915594,
        -0.12685138,
        -0.089425206,
        -0.09066364,
        0.025537118,
        0.04795304,
        -0.066580385,
        0.036493137,
        -0.04205862,
        -0.030905824,
        0.009192001,
        -0.041933294,
        0.014387028,
        -0.03916301,
        -0.08742965,
        0.08453357,
        0.06376024,
        -0.0517042,
        0.029655496,
        -0.0747594,
        0.0069091534,
        -0.019356674,
        -0.015471906,
        0.07425737,
        -0.004404024,
        0.088772886,
        0.0056908336,
        -0.07590149,
        -0.024595056,
        -0.10336826,
        -0.06367182,
        -0.05939658,
        -0.07043403,
        -0.09116518,
        -0.105884805,
        -0.08923253,
        0.083819926,
        -0.004058485,
        0.10630117,
        0.11440939,
        -0.04378307,
        0.08943695,
        0.07454796,
        -0.047352854,
        -0.035898387,
        -0.002820407,
        0.05918238,
        0.0064677265,
        0.040523555,
        -0.015231595,
        0.010183707,
        -0.040820345,
        0.047595497,
        -0.032931723,
        -0.06168669,
        0.010226871,
        -0.04907079,
        -0.0036667192,
        -0.06120898,
        -0.022820776,
        0.06394671,
        -0.011554479,
        -0.08462657,
        -0.11332889,
        0.08531188,
        -0.079390675,
        -0.045572817,
        -0.060143944,
        0.030084299,
        -0.024852261,
        -0.036472958,
        0.018894427,
        -0.0018023364,
        -0.019042866,
        -0.0047454094,
        0.04481964,
        0.030647371,
        0.07170448,
        0.023551758,
        0.045723513,
        -0.032036092,
        0.009497804,
        0.048156768,
        0.025430202,
        0.041760262,
        -0.0015344748,
        0.014577673,
        0.0027758526,
        -0.07835133,
        0.017629487,
        -0.09997222,
        0.063494936,
        -0.06892018,
        0.096692435,
        -0.036004577,
        0.10095817,
        0.035954177,
        -0.038394943,
        -0.010783202,
        -0.022243587,
        0.052875742,
        0.040463895,
        0.05768559,
        -0.010522192,
        -0.04468464,
        0.0045063174,
        -0.02385969,
        0.011636645,
        0.038700018,
        0.021356162,
        -0.041066967,
        0.054688107,
        0.042948417,
        0.118318774,
        0.04118272,
        0.06529186,
        -0.037576955,
        0.01015423,
        0.04829476,
        -0.054023497,
        -8.471206E-4,
        0.07612313,
        0.02277835,
        0.014042781,
        0.046479635,
        -0.077934854,
        0.0545577,
        -0.086105116,
        -0.04543889,
        -0.058051,
        0.04253528,
        0.1306329,
        0.078322284,
        -0.046237875,
        0.04293778,
        -0.0050776917,
        0.010272485,
        0.035014585,
        0.063539825,
        0.0805987,
        0.040039934,
        0.08937793,
        0.068029724,
        0.13240851,
        0.13008961,
        0.011001736,
        0.021650862,
        0.015499837,
        0.06424291,
        0.052171826,
        -0.016776029,
        0.010778978,
        -0.053106744,
        -0.04117558,
        0.074301995,
        0.044996556,
        -0.096968874,
        -0.08343954,
        -0.036948685,
        -0.017117351,
        0.011595565,
        0.025474505,
        -0.026614279,
        0.029158661,
        -0.010546012,
        0.036923576,
        -0.032546297,
        0.018030904,
        0.017928092,
        -0.029759897,
        0.058472473,
        0.09652881,
        0.05216542,
        0.0034202558,
        0.020877184,
        -0.006300378,
        0.06966342,
        -0.07635948,
        0.045664523,
        0.098227486,
        0.03291993,
        0.045702692,
        -0.105783306,
        -0.036387585,
        -0.0017652444,
        0.05074051,
        -0.07929907,
        -0.04587867,
        -0.008350334,
        0.034807984,
        0.023504352,
        0.009042938,
        -0.013031345,
        -0.097648636,
        0.03377256,
        -0.08876555,
        -0.1361681,
        -0.0039714444,
        -0.017299538,
        -0.050479665,
        0.01982004,
        0.055121124,
        0.046056226,
        0.010443685,
        -0.022584217,
        -0.064031556,
        -0.096977964,
        0.02101011,
        -0.043966226,
        -0.03818726,
        0.02471457,
        -0.08736543,
        0.02473958,
        -0.13680393,
        -0.0028815384,
        -0.029532718,
        -0.07725651,
        -0.08773214,
        0.04591649,
        -0.07824792,
        0.029183635,
        0.021587815,
        -0.107155085,
        -0.07053405,
        -0.0370789,
        -0.078335114,
        -0.0649078,
        -0.07845073,
        -0.09281725,
        -0.05964094,
        -0.05888774,
        -0.0808938,
        -0.10203853,
        -0.0060508754,
        0.073457405,
        -0.0918085,
        0.03415044,
        -0.09527692,
        -0.06806423,
        -0.058019895,
        -0.017399764,
        -0.04693909,
        -0.059834607,
        -0.058982555,
        -0.0103197275,
        0.012511177,
        -0.049477644,
        -0.037648756,
        0.04260003,
        -0.101611346,
        0.013477322,
        -0.14223173,
        -0.121981286,
        0.028631574,
        -0.1135645,
        -0.027731042,
        -0.04067029,
        -0.10745929,
        -0.019601455,
        -0.026294572,
        -0.012895772,
        -0.099391624,
        -0.108837515,
        0.010907248,
        -0.07249696,
        0.0055147945,
        -0.11460128,
        0.056588106,
        -0.13602021,
        0.022040747,
        -0.036247633,
        -0.07749889,
        -0.12506329,
        -0.11043764,
        -0.12676264,
        -0.0128683075,
        -0.03201349,
        -0.09765716,
        9.323182E-4,
        -0.034946345,
        0.0415859,
        -0.026146557,
        0.060227714,
        0.009388593,
        -0.02171481,
        -0.16354077,
        -0.07655307,
        -0.073706,
        -0.07340287,
        -0.08560365,
        0.018813761,
        0.07178825,
        0.04630832,
        -0.046023447,
        -0.018906398,
        -0.017941754,
        0.013429968,
        -0.06735222,
        -0.08283968,
        -0.08708844,
        -0.07222574,
        0.023734866,
        -0.014724952,
        -0.07231549,
        -0.06184138,
        -0.015498312,
        0.07328772,
        0.04291915,
        0.03413216,
        0.07598645,
        0.05566442,
        -0.010020076,
        -0.07422156,
        -0.10562101,
        -0.05013591,
        -0.14458586,
        -0.06103341,
        0.02366597,
        -0.10419644,
        -0.07053032,
        -0.047808643,
        0.06505592,
        0.0024225882,
        0.01809121,
        0.07731576,
        0.07744907,
        -0.09863729,
        0.013667222,
        -0.10292602,
        0.07136121,
        -0.013313252,
        0.09354427,
        0.070775315,
        0.05164281,
        0.09531632,
        -0.013978774,
        0.13795762,
        -0.053126715,
        0.020395316,
        -0.106846645,
        -0.049982823,
        -0.06213369,
        -0.0058536646,
        0.023684017,
        0.0052110665,
        0.03618759,
        0.07063834,
        -0.0035300315,
        -0.08666439,
        0.085017726,
        0.06287848,
        0.0449058,
        -0.032320447,
        -0.053433347,
        -0.056994166,
        0.021526994,
        0.06754451,
        0.044946272,
        0.061516993,
        0.101117924,
        0.07722642,
        -0.08632718,
        -0.04367346,
        0.062783405,
        -0.014389166,
        -0.07188009,
        0.034683187,
        -0.13547724,
        -0.11591815,
        -0.087116726,
        -0.10057812,
        -0.030511571,
        -0.031156851,
        -0.09079616,
        -0.006394095,
        -0.046389632,
        -0.08252538,
        0.009812617,
        -0.023251085,
        0.066994995,
        -0.07400884,
        -0.05641412,
        0.001561007,
        0.07687856,
        0.057144523,
        -0.030833676,
        0.08460074,
        -0.07194784,
        -0.09010676,
        0.024277331,
        -0.04408595,
        -0.08162744,
        -0.06527853,
        0.008252671,
        0.041500065,
        0.058628142,
        -0.023378074,
        -0.07742001,
        -0.09436208,
        -0.03797852,
        0.0041279797,
        -0.0014530552,
        0.041825272,
        -0.07214706,
        0.048077006,
        -0.06501525,
        -0.043264452,
        -0.007649693,
        0.072041996,
        -0.075168766,
        0.0034152921,
        -0.06526656,
        0.08879899,
        -0.02127424,
        0.0016350554,
        0.021209257,
        -0.07201647,
        -0.0074110734,
        0.026193473,
        -0.040680926,
        -0.07438615,
        0.04276659,
        -0.09058823,
        0.0070989793,
        -0.041270588,
        -0.06505237,
        0.035108805,
        -0.057929758,
        -0.10268313,
        -0.057500966,
        0.059843525,
        -0.038170293,
        -0.038528144,
        0.020676889,
        0.0018549087,
        0.04240869,
        -0.0027164756,
        -0.110929094,
        -0.124123365,
        -0.043261882,
        0.050629582,
        0.024553528,
        1.1397232E-4,
        -0.069890544,
        -0.005496938,
        -0.064217225,
        -0.02973188,
        -0.10646118,
        0.048780423,
        0.011538902,
        -0.0031183478,
        -0.07756728,
        -0.1130169,
        0.07841083,
        -0.09108524,
        -0.06704657,
        0.036127936,
        0.04097337,
        -0.0027819101,
        -0.10166348,
        0.039132047,
        0.0030658077,
        -0.08107346,
        0.0020199767,
        -0.11120404,
        -0.02138681,
        -0.07593136,
