{
  "inputLayer": {
    "nodes": 784
  },
  "evaluateLayers": [
    {
      "weights": [
        0.03584756,
        0.03342971,
        -0.007957253,
        -0.042465236,
        -0.080059655,
        0.028654628,
        0.069257356,
        -0.02551825,
        0.05144655,
        0.035418734,
        0.18679725,
        0.11775979,
        0.016739262,
        0.051352005,
        0.13085632,
        0.021941654,
        0.17142388,
        0.21973251,
        0.18142018,
        0.03402307,
        0.08987233,
        0.03977458,
        0.03526984,
        0.07768793,
        0.03703882,
        -0.07647896,
        -0.0025148366,
        -0.0071881665,
        -0.06756951,
        -0.08110714,
        0.038113073,
        0.05593,
        -0.044064265,
        0.022408681,
        0.01847509,
        0.021890337,
        0.14479075,
        0.09113491,
        0.038327433,
        0.032904103,
        -0.041001897,
        -0.04770003,
        -0.09297756,
        -0.026582671,
        0.008086263,
        0.116417,
        0.06753678,
        -0.028026981,
        -0.09643856,
        -0.08349498,
        -0.021776468,
        0.00312372,
        -0.07299648,
        0.0033644452,
        -0.027577212,
        -0.09327266,
        -0.010205652,
        -0.079353,
        0.043032676,
        0.10642352,
        -0.03745627,
        -0.022132345,
        0.13496223,
        0.036847934,
        0.056363653,
        -0.025628276,
        0.005484424,
        -0.07225803,
        -0.22455701,
        -0.05531125,
        -0.08599954,
        0.045837782,
        0.04854577,
        0.09660207,
        -0.021358429,
        -0.005366768,
        -0.0098349145,
        -0.022555439,
        -0.0585837,
        -0.016710406,
        -0.0316708,
        -0.111180715,
        -0.066981405,
        -0.12944418,
        0.09004994,
        0.094607756,
        0.074591324,
        -0.02122818,
        0.17688085,
        0.13065217,
        0.027082784,
        0.007815987,
        -0.0033378622,
        -0.062281594,
        -0.089467324,
        -0.30155724,
        -0.30322888,
        -0.2151344,
        -0.12990172,
        0.030856611,
        -0.04819892,
        -0.061388306,
        0.044842817,
        -0.057874676,
        -0.18315628,
        -0.1503822,
        -0.04498024,
        -0.029629365,
        -0.14398496,
        0.019044846,
        0.00754842,
        -0.16638856,
        -0.06217969,
        -0.08838422,
        -0.03548705,
        0.09022538,
        0.13378114,
        0.05699526,
        0.0747536,
        0.15818724,
        -0.010279922,
        -0.110331185,
        -0.31844062,
        -0.22575663,
        -0.2081742,
        -0.23345828,
        -0.05942883,
        -0.0624247,
        0.032235,
        -0.100183375,
        -0.09500094,
        -0.11995505,
        -0.19249494,
        -0.11734955,
        -0.17981261,
        -0.20575516,
        -0.043821547,
        -0.10372452,
        -0.054557517,
        -0.08821808,
        -0.0112790195,
        0.0077581983,
        -0.014106138,
        0.05254811,
        0.19353077,
        0.11070093,
        0.06877999,
        -0.046090826,
        0.037361745,
        -0.16643755,
        -0.27313307,
        -0.3693328,
        -0.22302519,
        -0.15465932,
        0.035227764,
        0.02326793,
        -0.122675955,
        0.007234671,
        -0.074458845,
        -0.16960908,
        -0.19168003,
        -0.20229106,
        -0.096351504,
        -0.18942735,
        -0.18122573,
        0.0057798694,
        -0.028419573,
        -0.14302118,
        0.07745254,
        -0.08529142,
        -0.05388746,
        0.019523013,
        0.10935335,
        0.11418787,
        0.16743962,
        0.09784608,
        0.021923166,
        -0.1322748,
        -0.27917457,
        -0.37837258,
        -0.19200762,
        -0.061654095,
        -0.01381458,
        0.008291135,
        -0.014194056,
        -0.02041106,
        -0.08281472,
        -0.16220379,
        -0.2361967,
        -0.27783325,
        -0.2117268,
        -0.20283611,
        0.014215938,
        -0.111584514,
        -0.08628936,
        0.006454445,
        0.08424346,
        0.062495325,
        0.12502865,
        -0.017713415,
        0.10139278,
        0.10145699,
        0.1515167,
        0.004900873,
        0.042220935,
        -0.14598647,
        -0.43333507,
        -0.36965758,
        -0.14751321,
        0.071291715,
        0.08775584,
        0.080816835,
        0.018912628,
        -0.006543671,
        -0.21863669,
        -0.30924293,
        -0.2927114,
        -0.1939795,
        -0.08428787,
        -0.047844924,
        0.017907469,
        0.04769752,
        0.07412784,
        -0.044203803,
        0.07389034,
        -0.08555952,
        0.08104397,
        0.008177752,
        0.14337328,
        0.04725569,
        0.16465765,
        0.118372455,
        -0.12383878,
        -0.27934548,
        -0.39246014,
        -0.2242265,
        0.067713134,
        0.094172,
        0.11121231,
        0.02608889,
        0.06358417,
        -0.0342841,
        -0.17354986,
        -0.28765297,
        -0.27853352,
        -0.07963616,
        -0.09981112,
        0.06453669,
        -0.02130979,
        0.03874476,
        -0.022901366,
        -0.014808671,
        -0.043154553,
        0.088864125,
        0.0120339235,
        -0.016058832,
        -0.013404989,
        0.048361015,
        0.08144356,
        0.1465559,
        0.06878625,
        -0.21109538,
        -0.49560043,
        -0.18542601,
        0.10089643,
        0.17018713,
        0.033770207,
        0.15228683,
        0.17191166,
        -0.16923061,
        -0.32259598,
        -0.26371795,
        -0.08971201,
        -0.03412691,
        -0.050005853,
        -0.041722793,
        0.017248083,
        0.09620593,
        0.14440982,
        -0.10318687,
        0.09715168,
        -0.09149459,
        -0.07868296,
        0.06967227,
        0.042539142,
        0.0364434,
        0.098625705,
        0.032172818,
        0.04984009,
        -0.19848299,
        -0.47289675,
        -0.09531304,
        0.13014017,
        0.15807682,
        0.047719095,
        0.13870421,
        -0.02779466,
        -0.20433486,
        -0.24167347,
        -0.22940116,
        -0.15274985,
        -0.058299128,
        0.031826194,
        0.0065097827,
        0.12059935,
        0.10273308,
        0.06528557,
        -0.022414418,
        0.042823546,
        -0.10529226,
        -0.020413952,
        -0.006589181,
        0.08353463,
        0.06894406,
        0.12111747,
        0.07284154,
        -0.0027185194,
        -0.28806105,
        -0.30430672,
        -0.09793397,
        0.1522624,
        0.099631146,
        0.1628383,
        0.0681799,
        0.0026922966,
        -0.21880452,
        -0.27224144,
        -0.08096711,
        0.034681845,
        0.055661112,
        -0.04313876,
        0.069053456,
        0.0034648206,
        -0.0346204,
        0.10918816,
        0.004979442,
        0.06026192,
        -0.017178375,
        -0.069785215,
        -0.06891509,
        0.023811774,
        0.0071539725,
        0.031181302,
        0.14518571,
        0.10652785,
        -0.23236418,
        -0.26831993,
        -0.020363256,
        -0.0032470182,
        0.15292591,
        0.046853665,
        0.04256641,
        -0.02488397,
        -0.17044011,
        -0.19559014,
        -0.0992702,
        0.030820077,
        0.045543686,
        0.015303212,
        0.05741248,
        0.08128332,
        0.0766489,
        -0.065635845,
        0.08767006,
        -0.033467505,
        0.08402274,
        0.04732741,
        -0.04479794,
        0.137388,
        0.14496559,
        0.016311996,
        0.14099033,
        -0.013327155,
        -0.14995436,
        -0.24028397,
        -0.0192127,
        -0.031270314,
        0.025754392,
        0.097098194,
        -0.081204884,
        -0.15112267,
        -0.124893606,
        -0.13478166,
        0.023785999,
        0.060559828,
        0.01856998,
        0.0677414,
        -0.019296793,
        -0.03242443,
        0.00763278,
        0.020118125,
        -0.0407917,
        0.017987538,
        0.09092705,
        -0.04082677,
        0.053934544,
        0.019102888,
        0.018199801,
        -0.022875806,
        0.078725226,
        0.028440075,
        -0.0070519233,
        -0.11234192,
        -0.066302784,
        0.08703307,
        -0.020877426,
        0.06980306,
        -0.041902874,
        -0.08611211,
        -0.117447734,
        -0.0884214,
        0.015724571,
        0.08004169,
        0.08245203,
        0.09430655,
        -0.011446467,
        0.048105486,
        -0.023350522,
        -0.029052718,
        0.027548833,
        0.064720266,
        0.07260277,
        0.060282275,
        0.09363158,
        -0.037242968,
        0.0939269,
        0.096689574,
        0.00852651,
        0.04955227,
        -0.003359434,
        -0.019667407,
        -0.13145936,
        0.08249041,
        -0.032954846,
        -0.03333266,
        -0.055699386,
        -0.049147055,
        -0.04720231,
        0.039042663,
        0.010828969,
        0.06327243,
        0.0012696695,
        -0.04488355,
        0.027552636,
        0.010174698,
        -0.00844124,
        -0.04516041,
        -0.05328787,
        0.04966687,
        -0.052798305,
        0.005248215,
        -0.08135284,
        0.013184325,
        -0.0059745326,
        0.06164337,
        0.02070456,
        -0.018945502,
        -0.07137027,
        -0.026282704,
        0.01614386,
        -0.05380839,
        0.09323958,
        0.016375737,
        -0.06079966,
        -0.0022557373,
        -0.107858226,
        0.09433569,
        0.06470532,
        0.020222502,
        0.034190077,
        0.07186043,
        -0.06430042,
        -0.029765017,
        -0.055000648,
        0.026515102,
        -0.108353585,
        0.077227995,
        -0.01282516,
        0.035206374,
        0.060216345,
        -0.04414734,
        0.061526563,
        -0.019046685,
        0.04584671,
        0.052476507,
        0.091786034,
        0.04059299,
        0.012265875,
        -0.030693524,
        0.015526965,
        0.061257906,
        -0.011448565,
        0.01992403,
        0.060975906,
        0.05029964,
        0.065392815,
        0.028617099,
        0.09992603,
        -0.041004736,
        -0.025184948,
        -0.02418289,
        -0.018414333,
        0.02876873,
        0.024287665,
        -0.12424013,
        -0.050586864,
        -0.044294853,
        0.0014310923,
        -0.022355566,
        0.034800977,
        -0.060953267,
        0.03105568,
        -0.042752936,
        -0.05795011,
        -0.054290537,
        0.003014273,
        0.009555856,
        0.018082682,
        -0.041538104,
        0.0065768026,
        -0.018060343,
        -0.037341285,
        0.019877238,
        0.0468335,
        0.0063503063,
        -0.027839389,
        0.08408474,
        -0.02366698,
        0.018210748,
        2.3822045E-4,
        -0.089845575,
        0.036174767,
        -0.12445467,
        -0.024160637,
        0.023543416,
        -0.05828957,
        0.06189103,
        -0.03230471,
        -0.033989534,
        0.016240437,
        -0.011515933,
        0.046446126,
        0.010265603,
        -0.011019315,
        -0.010078264,
        -0.01937796,
        -0.016963474,
        0.05556354,
        -0.023769125,
        0.08375453,
        -0.031982712,
        -0.027811086,
        0.0016016678,
        0.010015572,
        -0.03524114,
        -0.042538833,
        -0.015013339,
        -0.060328662,
        0.0015541605,
        -0.0034456535,
        0.026496295,
        -0.063683994,
        -2.8433773E-4,
        -0.098964326,
        -0.022149213,
        -0.042209372,
        0.031786006,
        -0.012272631,
        -0.025185917,
        -0.029943472,
        0.038548026,
        0.0044908007,
        -0.02276391,
        0.020996572,
        0.0013980765,
        0.006347269,
        -0.0017189162,
        -0.038270142,
        -2.741561E-4,
        -0.0013508864,
        -0.0018407048,
        -0.062046766,
        -0.00953931,
        0.0767153,
        -0.0051642056,
        -0.044531718,
        0.025604846,
        -0.10416389,
        -0.012386193,
        0.02162607,
        0.0059725856,
        -0.04076051,
        0.0021361026,
        -0.027292198,
        0.015484063,
        -0.027305653,
        -0.015940187,
        0.054485127,
        -0.05142505,
        -0.0040148105,
        0.016336473,
        -0.030506289,
        0.02924198,
        -0.016378652,
        0.043950144,
        -0.03260244,
        0.022891512,
        -0.027501361,
        0.07364109,
        0.05169809,
        0.06920317,
        -0.03819254,
        0.06438658,
        0.057350382,
        -0.03833652,
        -0.081719734,
        -0.04607954,
        -0.029243184,
        0.019914787,
        0.00743253,
        0.019969655,
        -0.0656906,
        -0.03388201,
        0.027811168,
        -0.0045033926,
        0.050427437,
        0.04371919,
        0.06816541,
        0.011835023,
        0.030376166,
        -0.005494004,
        0.044546913,
        0.019977529,
        0.054002628,
        -0.041915692,
        -0.017966613,
        -0.08356237,
        -0.061985753,
        0.020203885,
        0.061017897,
        -0.045903035,
        -0.047931205,
        0.059873234,
        -0.11389001,
        -0.09759223,
        0.0048615425,
        0.06775657,
        0.026011623,
        -0.0038362835,
        0.07835548,
        -0.046888903,
        -0.05572797,
        -0.06025576,
        -0.028012438,
        -0.009654329,
        -0.0132917175,
        -0.049729455,
        0.013015699,
        -0.019507376,
        0.012991733,
        -0.016376697,
        0.017612763,
        0.055863596,
        -0.012154778,
        0.082871206,
        0.028464943,
        -0.0014305322,
        -0.021576425,
        -0.023094103,
        0.019596929,
        0.036162026,
        0.042168282,
        0.019902011,
        0.057449926,
        -0.07288666,
        -0.017170774,
        -0.034048855,
        -0.08355021,
        0.058411617,
        0.0027112982,
        0.06033977,
        -0.048986252,
        -0.020964338,
        0.083654724,
        -0.031233521,
        0.05247737,
        -0.017175786,
        0.018826911,
        -0.019637696,
        0.011027864,
        -0.012017367,
        -0.04410894,
        -0.067006715,
        -0.032768823,
        0.051716927,
        -0.06427562,
        -0.0017937417,
        -0.056393854,
        -0.082964204,
        0.01135966,
        -0.069405906,
        0.048705984,
        -0.013506858,
        -0.02148722,
        -0.029241323,
        0.043246802,
        -0.053894497,
        -0.026664801,
        0.0260757,
        0.0056650094,
        0.05096906,
        -0.035377074,
        -0.02298918,
        -0.03605307,
        -0.034982976,
        0.104504704,
        -0.0020502666,
        0.03893243,
        -0.021102626,
        0.100038245,
        -0.038710136,
        0.056648478,
        0.070266664,
        -0.03794457,
        5.9711677E-4,
        0.024860656,
        -0.013994154,
        -0.012500805,
        -0.01728365,
        -0.06099854,
        -0.008254129,
        -0.12779187,
        0.025877684,
        0.027237803,
        -0.039409533,
        -0.046072815,
        0.016886331,
        0.003661515,
        -0.0115229655,
        0.077097096,
        -0.021478007,
        0.1170225,
        -0.025168758,
        -0.055136245,
        -0.053321883,
        0.012219489,
        -0.022776198,
        0.0342817,
        0.013307344,
        -0.04553691,
        -0.031461935,
        0.00739277,
        -0.04013523,
        -0.059161812,
        -0.017612994,
        -0.04453658,
        -0.082138024,
        -0.009818836,
        -0.024573674,
        -0.05572158,
        -0.071743585,
        -0.118831895,
        -0.10029595,
        -0.0056670266,
        -0.08157905,
        -0.120955415,
        -0.038694836,
        -0.06165453,
        -0.054478604,
        -0.03042465,
        -0.08725635,
        -0.011484118,
        0.008102081,
        -0.047711417,
        -0.030597508,
        0.036022592,
        -0.07520423,
        0.02053885,
        0.002206128,
        -0.079593614,
        0.09244107,
        -0.07498346,
        -0.029064242,
        0.069449276,
        0.08024115,
        0.080019206,
        -0.0052395007,
        0.055921037,
        -0.029584825,
        -0.087708645,
        -0.056562655,
        0.005599003,
        0.07204011,
        -0.05836356,
        -0.06709791,
        0.07479596,
        -0.0735665,
        0.042647317,
        0.037961368,
        -0.04217515,
        -0.025880553,
        -0.033232197,
        0.07909743,
        0.042208306,
        -0.05130622,
        0.0547521,
        -0.029568618,
        -0.0799367,
        -0.009811623,
        -0.14600644,
        0.055942185,
        -0.1286053,
        -0.07819959,
        -0.08462044,
        -0.018901074,
        0.099809185,
        -0.09350679,
        -0.042069893,
        0.004080883,
        0.060672,
        0.06264484,
        -0.0019280609,
        0.039370887,
        -0.059112567,
        -0.11072685,
        0.030554825,
        -0.0765065,
        -0.028758228,
        -0.017790005,
        0.0024894166,
        0.10731676,
        -0.068769574,
        -0.04285827,
        -0.084036075,
        -0.049592834,
        -0.04595968,
        -0.028909368,
        -0.0957812,
        -0.12042919,
        -0.05019405,
        -0.09070936,
        0.006305896,
        0.09961178,
        -0.03259155,
        0.024533683,
        0.08928555,
        -0.101550706,
        -0.09231026,
        -0.009885255,
        -0.03406957,
        -0.12361389,
        -0.05718932,
        0.074013226,
        -0.15230839,
        -0.06386104,
        0.024567163,
        -0.09304878,
        -0.06663725,
        0.049108554,
        0.035596505,
        0.08795173,
        0.0042535504,
        -0.077353306,
        -0.045718014,
        -0.06829425,
        0.02250385,
        -0.023681955,
        0.0075102914,
        0.05720995,
        0.017472422,
        0.066681206,
        -0.014267947,
        -0.019529596,
        0.024862729,
        -0.0051843226,
        -0.037569873,
        -0.11821754,
        0.05821259,
        0.041457694,
        -0.12537119,
        -0.070209354,
        -0.10467937,
        -0.048925374,
        -0.098174796,
        -0.09164467,
        -0.044110354,
        -0.112975985,
        0.025818657,
        0.0013558586,
        0.015702099,
        -0.018079959,
        0.04267085,
        -0.0066402988,
        -0.011801161,
        0.013793615,
        -0.09459968,
        -0.030842004,
        0.08102142,
        0.047485832,
        0.048133556,
        0.11207777,
        -0.083518706,
        0.08354011,
        0.0026308752,
        0.05629347,
        -0.08240741,
        -0.047291078,
        -0.01745639,
        -0.053195864,
        -0.06353146,
        -0.0011234197,
        -0.10235525,
        -0.009437138,
        -0.007581605,
        0.011131602,
        -0.0916892,
        0.027766226,
        0.00987114,
        -0.013124417,
        0.040812194,
        -0.10345149,
        -0.07854903,
        -0.020758329,
        0.019474756,
        -0.042210523,
        -0.05355982,
        -0.07873668,
        0.010536071,
        0.05679555,
        -0.057100415,
        -0.07389033,
        0.09380332,
        -0.09937922,
        0.06455994,
        -0.023532338,
        -0.042698838,
        -0.005296572,
        -0.038833305,
        -0.040788192,
        0.050649416,
        -0.021793867,
        -0.06684565,
        0.023754692,
        -0.01709023,
        0.027024845,
        0.03137373,
        0.006153959,
        -0.08868034,
        0.056473043,
        -0.015008853,
        -0.11549728,
        0.016365051,
        -0.109836906,
        0.08476385,
        0.09606938,
        -0.025993792,
        0.05963105,
        -0.0418732,
        -0.016143687,
        -0.055510685,
        -0.026283134,
        0.036697477,
        -0.124936365,
        -0.061511565,
        -0.03170898,
        -0.09508996,
        -0.08031743,
        -0.034422126,
        -0.11047715,
        0.07010742,
        -0.057420876,
        -0.010083438,
        0.012560721,
        -0.04893133,
        0.03169598,
        0.034909554,
        -0.066774674,
        0.014594629,
        -0.07323383,
        -0.122477695,
        -0.0067369286,
        -0.0068024476,
        -0.105111614,
        0.034021575,
        0.023389684,
        0.007389314,
        0.12086028,
        0.028443266,
        0.049052645,
        -0.02912379,
        -0.06158098,
        0.010511673,
        -0.043973528,
        0.013089849,
        0.068757944,
        0.0014554855,
        0.059656393,
        -0.027900789,
        0.025719114,
        -0.0030349402,
        0.04834917,
        -0.08006031,
        -0.056654427,
        -0.030237112,
        0.017833827,
        0.009917085,
        0.04584345,
        -0.08789763,
        -0.06260337,
        0.032493543,
        -0.042515583,
        0.10094482,
        0.055340655,
        -0.005388039,
        -0.013135647,
        -0.022917202,
        -0.035577793,
        -0.0044514122,
        -0.069815524,
        -0.023004256,
        -0.033388678,
        -0.013203394,
        -0.050220456,
        -0.040778294,
        -0.0077437614,
        -0.004922538,
        0.06947393,
        -0.00838438,
        0.058917418,
        -0.06440611,
        0.07842116,
        -0.09814172,
        -0.0255186,
        -0.058202896,
        -0.06340688,
        -0.12225339,
        -0.15104757,
        -0.04085652,
        0.042945363,
        -0.065471224,
        -0.012915321,
        -0.012259362,
        0.039731827,
        0.050290607,
        0.040588465,
        -0.044245455,
        -0.092497766,
        0.049813963,
        0.020696433,
        -0.07929562,
        -0.01595546,
        -0.10365085,
        -0.020453535,
        0.123952635,
        -0.06988836,
        -0.0011348343,
        -0.041156,
        0.036505055,
        0.026326392,
        -0.072876096,
        -0.12044805,
        -0.0808893,
        0.02437229,
        -0.024356805,
        -0.1079568,
        0.0020853567,
        -0.009557725,
        0.04249468,
        0.06849344,
        0.11298692,
        -0.015216019,
        0.0665607,
        0.016692888,
        0.030333174,
        0.085500665,
        -0.072688274,
        -0.061693724,
        -0.036556054,
        0.0126247965,
        -0.026841037,
        -0.023817888,
        -0.023187688,
        0.0043066363,
        0.046250094,
        -0.049684573,
        0.043332845,
        0.012537084,
        0.08885065,
        0.007580473,
        0.009698383,
        0.024383547,
        -0.098278396,
        -0.19631359,
        -0.053518347,
        -0.04424733,
        0.14361048,
        0.014397866,
        0.0031934278,
        0.07630108,
        0.10679051,
        0.041397076,
        0.002262631,
        0.0627671,
        -0.0023976192,
        0.07131836,
        -0.04873936,
        -0.09700318,
        0.0050790533,
        -0.015278672,
        -0.05135538,
        0.0828721,
        0.07392472,
        0.059046928,
        -0.034448262,
        0.025643023,
        -0.05469134,
        -0.021675624,
        -0.09706489,
        -0.1255831,
        -0.11162197,
        -0.18042214,
        -0.14803007,
        0.09947374,
        -0.035936814,
        0.16346416,
        0.041535977,
        0.13844055,
        0.060745202,
        0.04198,
        0.13047944,
        0.12525664,
        0.1046076,
        -0.051523946,
        -0.086083375,
        -0.031837206,
        0.008970639,
        -0.08524952,
        -0.056183707,
        -0.01555951,
        0.117919944,
        0.011094807,
        0.09551231,
        0.09080776,
        -0.04758413,
        -0.06286615,
        -0.07034232,
        -0.057581436,
        -0.027943088,
        -0.24491666,
        -0.10366036,
        0.08532523,
        -0.022146346,
        0.029030187,
        -0.030922223,
        0.031981975,
        0.15628159,
        0.109216824,
        0.18563525,
        0.07783947,
        0.13012205,
        -0.011594725,
        0.019805321,
        -0.119850405,
        -0.010660472,
        -0.02922788,
        -0.1051722,
        -0.09314541,
        -0.09007333,
        0.00471866,
        -0.13297606,
        -0.08999217,
        0.009283803,
        0.038067035,
        -0.087385505,
        0.026217978,
        -0.15873854,
        -0.18884921,
        -0.024813548,
        -0.09085053,
        -0.08321151,
        -0.018175114,
        -0.08438213,
        0.053788558,
        -0.028383588,
        0.09843093,
        0.07909136,
        0.13251293,
        0.16943589,
        0.04981087,
        -0.08141032,
        -0.17847449,
        -0.11791211,
        -0.16045105,
        -0.15402289,
        -0.07787812,
        -0.16233648,
        -0.05424746,
        -0.05960578,
        -0.08743341,
        -0.14792313,
        -0.04635105,
        -0.0688119,
        0.03583561,
        -0.03565699,
        -0.175423,
        -0.10427387,
        -0.07403502,
        -0.057846215,
        -0.066452324,
        -0.06174124,
        -0.15350844,
        0.013408483,
        0.063461676,
        0.09457282,
        0.11454816,
        0.07699685,
        0.032995705,
        -0.06537475,
        -0.10463842,
        -0.19198541,
        -0.28280574,
        -0.22012332,
        -0.28658518,
        -0.21513222,
        -0.19751276,
        -0.09862329,
        -0.13704133,
        -0.15231675,
        -0.017014958,
        -0.12352843,
        -0.1198902,
        -0.078435354,
        -0.07256495,
        0.063389674,
        -0.026570788,
        -0.07745489,
        -0.10892906,
        -0.0035033636,
        -0.0251823,
        -0.0016106379,
        -0.0035853623,
        -0.004270077,
        0.05860004,
        0.0974138,
        0.089585364,
        -0.03348448,
        -0.17717257,
        -0.081803285,
        -0.03580016,
        -0.2286063,
        -0.14715518,
        -0.30347556,
        -0.09916734,
        -0.21618463,
        -0.24245706,
        -0.124842614,
        -0.16191296,
        -0.050086934,
        -0.10534079,
        -0.13816324,
        -0.014758547,
        -0.037077468,
        -1.3618794E-4,
        0.015084794,
        -0.049695943,
        0.06264856,
        0.003891451,
        -0.05826767,
        0.056196768,
        0.06778848,
        0.15312436,
        0.10858231,
        0.0712577,
        -0.02095492,
        -0.0056825057,
        -0.122988164,
        -0.13649659,
        -0.099870585,
        -0.22494216,
        -0.1859568,
        -0.26440996,
        -0.19419388,
        -0.12797473,
        -0.14113101,
        -0.15063368,
        -0.07559182,
        -0.026632031,
        -0.12181458,
        0.04397819,
        0.07940961,
        0.05583214,
        0.069295734,
        -0.021164872,
        0.0017276478,
        0.07651491,
        0.0043913727,
        0.056417335,
        -0.024382029,
        0.10260812,
        0.016958363,
        0.09994658,
        0.04066448,
        -0.06419343,
        0.049587607,
        -0.07996999,
        -0.014519565,
        -0.10064157,
        -0.08997318,
        -0.10728286,
        -0.071651705,
        -0.10731076,
        -0.08542029,
        -0.06341819,
        -0.20280977,
        -0.12369989,
        0.026191596,
        0.037282813,
        -0.013538592,
        0.013167764,
        -0.011307578,
        -0.036027953,
        -0.006554132,
        0.0030638971,
        -0.027657332,
        -0.007557266,
        0.09337373,
        0.02942469,
        0.012230017,
        -0.019537967,
        0.042644605,
        -0.035698432,
        -0.04520796,
        0.015506194,
        0.0467897,
        0.041688222,
        -0.089934595,
        -0.03236981,
        -0.12430293,
        -0.05923059,
        -0.04555847,
        -0.07349548,
        -0.03701767,
        -0.014116787,
        -0.078471154,
        -0.025931658,
        -0.04215296,
        0.08522565,
        0.11230919,
        -0.028142987,
        0.083363295,
        0.10128779,
        0.10442136,
        0.10115947,
        0.09416736,
        0.04417399,
        0.11358118,
        -0.013623379,
        0.044446398,
        -0.0022213396,
        0.030044662,
        -0.044987503,
        -0.052838918,
        -0.07623623,
        0.056329187,
        -0.080050744,
        -0.10429682,
        -0.16385454,
        -0.05895962,
        -0.12229039,
        -0.12346542,
        -0.004511201,
        -0.12852728,
        0.07059908,
        0.023863276,
        0.009972695,
        0.01714177,
        0.013528429,
        -0.023179617,
        0.014725567,
        -0.029459039,
        0.06380346,
        0.003834517,
        0.049758375,
        -0.04652976,
        0.05528883,
        0.0558272,
        6.3600525E-4,
        0.054139726,
        -0.0126336925,
        0.003714149,
        0.07234386,
        -0.008487199,
        0.08185208,
        -0.10624853,
        -0.09800333,
        -0.0054268404,
        -0.035206214,
        -0.13539939,
        -0.096497096,
        -0.0018540225,
        -0.018092208,
        0.10370818,
        -0.075254396,
        0.09471874,
        0.035106424,
        0.061280526,
        0.053592425,
        -0.017245278,
        0.004494271,
        0.07440412,
        -0.0031570946,
        0.10060412,
        -0.009167692,
        -0.038934402,
        0.084584765,
        -0.029332219,
        0.020826051,
        0.06940453,
        0.013746009,
        -0.042106856,
        0.014912429,
        -0.0156777,
        -0.09354763,
        -0.16860491,
        -0.1033319,
        -0.048197366,
        -0.052473966,
        0.056980044,
        -0.01382553,
        0.049261294,
        0.053814568,
        0.03179303,
        0.038530756,
        -0.088231,
        0.028080698,
        0.017000273,
        0.026576104,
        0.019930819,
        -0.07011218,
        -0.05571253,
        0.11574387,
        0.10312438,
        -0.010927686,
        0.03589424,
        -0.02976248,
        0.0326818,
        -0.035158068,
        0.080895245,
        -0.009438562,
        0.08888968,
        -0.044733275,
        -0.04923356,
        0.009892902,
        -0.06889592,
        -0.025387617,
        0.022820482,
        0.049892772,
        -0.018617034,
        -0.067806564,
        -0.041915134,
        -0.029264439,
        0.05647955,
        -7.817075E-4,
        -0.028718114,
        0.009402067,
        -0.04250005,
        0.039320003,
        0.024793344,
        -0.069946,
        -0.046422344,
        0.025680628,
        0.03929388,
        -0.05747377,
        0.017893275,
        0.0575983,
        -0.013727544,
        -0.045009833,
        0.06212741,
        6.7768904E-4,
        -0.06291317,
        0.040013846,
        -0.029940302,
        0.02556897,
        0.0068482105,
        0.052573394,
        -0.10414096,
        0.020104,
        0.017258389,
        -0.029943703,
        0.05476448,
        0.014390384,
        -0.0026060396,
        -0.06553759,
        0.035802174,
        0.0055089234,
        -0.04769206,
        -0.017810848,
        -0.055734444,
        -0.0032416226,
        0.04512071,
        0.01444244,
        -0.056389257,
        0.06637596,
        0.06831784,
        -0.04573765,
        0.040479835,
        -0.07734306,
        0.018845353,
        0.05134199,
        -0.09493831,
        -0.02172956,
        0.018223746,
        0.019384438,
        -0.03550534,
        0.0016565078,
        0.0013538203,
        0.023646755,
        -0.027373115,
        -0.10579135,
        0.07850421,
        -0.024905235,
        0.0333484,
        0.0055779642,
        0.02706803,
        0.023388006,
        0.005896631,
        0.007401072,
        0.012964155,
        0.049148858,
        0.046578057,
        -0.046235614,
        -0.02612099,
        0.032077838,
        -0.027459633,
        0.07765357,
        -0.07569697,
        -0.075736605,
        0.07904442,
        -0.06308421,
        0.06588621,
        0.045452956,
        0.004992295,
        0.012473398,
        -0.05268418,
        -0.0359644,
        0.044352707,
        0.05774418,
        -0.012492432,
        0.029289465,
        -0.034345448,
        -0.011875625,
        0.056849122,
        0.035060354,
        -0.0511661,
        0.10349988,
        -0.08527059,
        0.032260735,
        0.05129776,
        0.055829473,
        0.019651312,
        0.031019013,
        -0.0151832625,
        0.024341138,
        0.08974737,
        0.09764678,
        0.030827273,
        -0.08660376,
        0.045471005,
        0.009439922,
        0.039845534,
        -0.06506119,
        -0.10248583,
        -0.009133394,
        0.039692737,
        -0.027566276,
        -0.02174082,
        -0.06637096,
        -0.0125207845,
        -0.062964804,
        -0.087743066,
        -0.005800781,
        -0.17840718,
        -0.0741392,
        -0.06187952,
        -0.08376943,
        -0.14509183,
        -0.0744895,
        0.014702723,
        -0.037192352,
        -0.046817947,
        0.09746444,
        0.02007486,
        0.14665735,
        0.13087642,
        0.11767609,
        0.10304663,
        -0.0666883,
        0.030159947,
        0.042723317,
        -0.057770632,
        -0.10146842,
        -0.07319184,
        -0.085010014,
        -0.0875625,
        -0.0016232564,
        -0.039887905,
        -0.021511907,
        0.08777945,
        0.013281174,
        0.0813276,
        -0.058537338,
        -0.03986005,
        0.05667695,
        -0.0010883441,
        -0.04256913,
        0.0107541615,
        0.01854861,
        -0.034939926,
        0.017342638,
        0.08226346,
        0.07892722,
        0.09343985,
        -0.0016884662,
        0.019132162,
        -0.08702165,
        0.03253164,
        0.0054167463,
        -0.05577754,
        0.04337615,
        -0.008996183,
        0.03801419,
        0.004930755,
        -0.037392594,
        0.010702321,
        0.1158806,
        -0.027798956,
        0.095977604,
        0.0826216,
        0.065394945,
        -0.0092196185,
        0.09162187,
        0.069156185,
        7.262883E-4,
        0.024395667,
        0.02699088,
        0.017569045,
        0.0031341314,
        -0.030163338,
        0.012308146,
        0.009198032,
        -0.024516176,
        -0.05699363,
        -0.07478402,
        0.0025580106,
        0.06542872,
        -0.041376963,
        -0.10842919,
        -0.02879661,
        0.008606481,
        0.04273448,
        -0.058890052,
        0.066052996,
        0.020590471,
        0.040837992,
        -0.06767052,
        0.011312508,
        0.120732754,
        0.058918353,
        0.036038157,
        0.046536278,
        -0.020899342,
        0.12335613,
        0.06781284,
        0.06538641,
        0.08388646,
        0.07522486,
        0.07602302,
        0.053155646,
        0.057714548,
        -0.07219318,
        0.011020507,
        -0.037062168,
        -0.012545301,
        0.07813821,
        0.010580228,
        0.0673272,
        0.023878735,
        0.044379365,
        0.1096425,
        0.0012712595,
        0.07109972,
        0.07406878,
        0.07790275,
        0.08401543,
        -0.023328234,
        0.01912925,
        0.08149267,
        0.019927816,
        0.09815843,
        0.058422193,
        0.049789492,
        0.03225421,
        0.02622775,
        0.032503765,
        0.016734064,
        0.062998116,
        0.05070718,
        -0.054431573,
        -0.006812767,
        -0.022606075,
        -0.034814734,
        0.06372814,
        -0.021822823,
        0.14206253,
        -0.025577122,
        0.12895551,
        0.02329367,
        -0.0433836,
        0.118445605,
        0.0328099,
        -0.056735665,
        0.14166468,
        0.011954695,
        0.07354469,
        0.037247077,
        0.033094283,
        0.043685514,
        0.04431402,
        0.08634811,
        0.06612478,
        0.06763567,
        -0.029018553,
        0.048300482,
        0.08128592,
        0.04623657,
        -0.08988268,
        -0.063987345,
        0.05558716,
        0.06049408,
        0.033562373,
        -0.0051895473,
        0.0118806055,
        0.06436673,
        0.08555222,
        -0.01469127,
        -0.013299669,
        0.0084313145,
        0.022689203,
        0.13038392,
        -0.008840609,
        0.006033815,
        -0.025986955,
        0.043658752,
        -0.04405212,
        0.00815811,
        -0.03418949,
        -0.019292757,
        -0.12042558,
        -0.021154607,
        0.004677877,
        0.043516956,
        0.1060992,
        0.08155481,
        -0.03359251,
        0.033332154,
        -0.05671859,
        0.065650605,
        -0.043171205,
        0.054665446,
        0.15208893,
        0.011082295,
        0.14298652,
        0.011705046,
        0.10531486,
        0.06768834,
        -0.00962287,
        -0.02770675,
        -0.045405112,
        0.057816107,
        0.0022398606,
        -0.08631444,
        0.0176748,
        -0.112607345,
        -0.086906575,
        -0.019047363,
        -0.026897896,
        -0.13462815,
        -0.095844366,
        -0.16916865,
        0.029395765,
        -0.12070859,
        -0.18954383,
        -0.037970025,
        -0.08549918,
        0.103187166,
        0.020416033,
        0.05065844,
        0.030393682,
        0.01255778,
        0.049697403,
        0.11966057,
        -0.027326485,
        0.0030876743,
        -0.054962073,
        -0.010140861,
        0.056515794,
        -0.02096456,
        -0.020898487,
        0.06083826,
        -0.10760979,
        0.03307235,
        -0.09106451,
        -0.06680434,
        -0.008330383,
        -0.0019009075,
        -0.01899124,
        -0.027680948,
        -0.13237984,
        -0.032591246,
        -0.22167034,
        -0.11941414,
        0.012592615,
        -0.09480877,
        -0.015576275,
        0.059306286,
        0.042738687,
        0.023769153,
        0.11504576,
        -0.05100204,
        -0.06403951,
        -0.03408568,
        -0.06408888,
        -0.041720904,
        -0.066433065,
        0.048266556,
        -0.007887235,
        0.02438121,
        -0.02659621,
        0.009605339,
        0.03712879,
        -0.059830725,
        -0.12474181,
        0.005219385,
        -0.07837713,
        0.03878729,
        0.0062865065,
        3.7947792E-4,
        -0.18458252,
        -0.1495027,
        -0.046486344,
        -0.066566646,
        -0.13601287,
        -0.1330311,
        -0.07316581,
        -0.15845314,
        -0.09826172,
        -0.06102096,
        -0.100007154,
        -0.15708724,
        -0.051655225,
        -0.1397675,
        -0.064783566,
        -0.059915267,
        -0.08313148,
        -0.10645925,
        -0.05910753,
        -0.13610913,
        -0.10735687,
        0.01619206,
        0.008632981,
        -0.08605147,
        -0.039865937,
        -0.03536184,
        -0.06430321,
        0.011550116,
        -0.16771187,
        -0.13910022,
        -0.032482326,
        -0.16036846,
        -0.14860718,
        -0.07166005,
        -0.15871583,
        -0.15135594,
        -0.14005584,
        -0.26924348,
        -0.23819534,
        -0.27187014,
        -0.2684167,
        -0.25029585,
        -0.21791074,
        -0.23953258,
        -0.18043245,
        -0.047195442,
        -0.1761091,
        -0.048390526,
        -0.08958126,
        -0.042035814,
        -0.12626956,
        0.0028941142,
        -0.0831047,
        0.005464891,
        -0.07117508,
        -0.125023,
        -0.023429483,
        -0.10380465,
        -0.2082133,
        -0.22747791,
        -0.13291928,
        -0.12823063,
        -0.28536394,
        -0.15799542,
        -0.24446371,
        -0.28423032,
        -0.180534,
        -0.16321233,
        -0.22478229,
        -0.14577034,
        -0.2058288,
        -0.18951783,
        -0.23032257,
        -0.1704907,
        -0.122871645,
        -0.21302933,
        -0.10128167,
        -0.12944673,
        -0.13385494,
        -0.059766155,
        -0.010091969,
        -0.0044432785,
        -0.043998964,
        -0.0447446,
        -0.16077206,
        -0.16280796,
        -0.073403336,
        -0.17604402,
        -0.08764676,
        -0.21060126,
        -0.12555161,
        -0.026501568,
        -0.077559136,
        -0.06731736,
        -0.11331052,
        -0.054084957,
        -0.05023722,
        -0.018879784,
        -0.10307098,
        -0.027867354,
        -0.10655826,
        -0.0057835747,
        -0.16447331,
        -0.05955295,
        -0.009386781,
        -0.11217837,
        -0.035210535,
        -0.09757781,
        -0.13321306,
        -0.013516894,
        -0.006595115,
        0.021761917,
        -0.05889042,
        -0.09234718,
        0.011650729,
        -0.11172407,
        -0.12273539,
        0.08666092,
        -0.019366983,
        0.012625096,
        -0.049079847,
        0.118445285,
        0.09856174,
        0.107487574,
        0.07768494,
        0.122474894,
        0.08430297,
        0.08302999,
        0.08135105,
        -0.025718305,
        -0.008811055,
        -0.062150218,
        -0.07885631,
        -0.18228763,
        -0.032849524,
        -0.089630544,
        -0.013940079,
        -0.14515747,
        -0.0016622877,
        -0.14692862,
        -0.12143119,
        0.021839144,
        -0.010535872,
        0.11326575,
        0.0848614,
        0.11914906,
        -0.010329609,
        0.094836906,
        0.13731445,
        0.14959818,
        -0.009072988,
        0.14398943,
        0.03464225,
        0.09993553,
        0.06581994,
        0.07921674,
        0.06060233,
        0.077843115,
        0.109164245,
        0.09308177,
        0.05984235,
        0.074929714,
        -0.013657529,
        0.022979744,
        -0.09480612,
        -0.039723586,
        -0.07837914,
        -0.029593809,
        -0.07080857,
        -0.001815172,
        0.12964073,
        0.1053049,
        -0.02321581,
        0.09483648,
        0.043587342,
        -0.0012256217,
        0.055074707,
        -0.019871214,
        0.11039657,
        0.06791919,
        0.03599787,
        0.056325804,
        0.09678224,
        0.0048387446,
        0.09058835,
        0.06958842,
        0.10887774,
        0.008780338,
        0.10227683,
        0.12285982,
        0.09004547,
        0.0024241968,
        -0.05697913,
        0.10674594,
        0.070894584,
        -0.0054288628,
        0.09605072,
        0.14666061,
        0.007296031,
        0.11422642,
        0.063827775,
        -0.013142291,
        0.021769049,
        0.114260845,
        -5.7281315E-4,
        0.056778446,
        0.033612672,
        -0.014655957,
        0.11399641,
        0.1324871,
        -0.010258039,
        0.11051173,
        0.086900674,
        0.03471825,
        0.05046948,
        0.143104,
        -0.029518442,
        0.034620114,
        0.07722264,
        0.09988171,
        0.045556538,
        0.0877629,
        -0.019902105,
        0.084648676,
        -0.0021252718,
        0.069424085,
        -0.02374311,
        0.10423979,
        -0.007537101,
        0.07739006,
        -0.030087546,
        0.11778448,
        -0.011664894,
        0.09020028,
        0.012282573,
        0.06701524,
        -0.06798106,
        0.05262695,
        4.6645553E-5,
        0.04771669,
        -0.032483585,
        0.026777044,
        0.043203425,
        0.029590894,
        0.058723327,
        0.050235227,
        0.069217466,
        -0.005491622,
        0.03094775,
        0.06746599,
        0.018625082,
        -0.032132596,
        -0.023298146,
        0.036780655,
        0.05277152,
        -0.032975286,
        0.007049787,
        0.031965237,
        0.006673423,
        -0.03881293,
        -0.021389918,
        0.07547606,
        -0.039473604,
        0.024222668,
        -0.060686428,
        0.029681766,
        0.017548725,
        -0.054229338,
        -0.06683261,
        0.035794288,
        -0.11384503,
        0.01656044,
        -0.030487653,
        0.038392022,
        0.059253443,
        -0.013238203,
        0.062454525,
        0.081785105,
        -0.05369233,
        0.1401933,
        0.056591157,
        -0.07785028,
        -0.03860234,
        0.066977836,
        0.01536746,
        0.12900339,
        0.015673546,
        0.11330921,
        0.0055788667,
        -0.06149842,
        -0.039790142,
        -0.0791662,
        0.0066801035,
        -0.046560273,
        -0.07402549,
        0.03711208,
        -0.030845882,
        0.04428396,
        -0.07166826,
        -0.04538616,
        0.020473422,
        -0.013424702,
        -0.08240638,
        0.08741824,
        0.027427616,
        0.081700616,
        0.08551702,
        -0.005444285,
        -0.04873023,
        -0.10688174,
        0.05141523,
        -0.04611901,
        -0.007936397,
        0.0160871,
        0.038485344,
        -0.07376363,
        -0.059458584,
        -0.060977146,
        -0.05376562,
        0.01158198,
        0.033689518,
        -0.043932408,
        0.012123787,
        -0.07118507,
        -0.06734912,
        -0.040049113,
        0.017076565,
        -0.066108294,
        0.067888804,
        -0.04267858,
        -0.011663145,
        -0.044449817,
        0.02147179,
        -0.045634955,
        0.08836372,
        0.069283664,
        -0.052743006,
        -0.0785483,
        -0.037921607,
        -0.06671294,
        -0.057075366,
        0.059954677,
        0.0064802226,
        0.008610971,
        0.015027755,
        0.025415435,
        -0.058606885,
        -0.097855285,
        0.012756467,
        -0.09728093,
        -0.065440424,
        -0.011116649,
        -0.0580985,
        -0.09155449,
        -0.07046448,
        -0.061641622,
        -0.037698332,
        0.03101568,
        -0.12231662,
        -0.07423252,
        0.018758565,
        -0.075817786,
        0.058736026,
        -7.086217E-4,
        0.092701204,
        -0.049142726,
        0.07242541,
        -0.007859663,
        -0.0044590435,
        -0.053613983,
        0.05537964,
        0.03251383,
        -0.057487354,
        -0.10918443,
        -0.037259668,
        -0.15315388,
        -0.03718137,
        -0.04532767,
        -0.055932388,
        -0.14581317,
        -0.020081632,
        -0.040326472,
        -0.037063636,
        -0.18166846,
        -0.21638696,
        -0.12652007,
        -6.8488985E-4,
        0.037613396,
        -0.080890566,
        -0.011138059,
        0.056979205,
        0.05990252,
        -0.069716774,
        0.031351753,
        -0.039031293,
        0.036159143,
        0.038653936,
        -0.054710496,
        -0.057821363,
        -0.11298783,
        0.0058769705,
        -0.10841391,
        -0.076689534,
        0.0052834265,
        -0.14748545,
        -0.067426026,
        -0.020608936,
        -0.10593045,
        -0.08426599,
        -0.09760222,
        -0.03062891,
        -0.041914046,
        -0.016245864,
        -0.11498142,
        -0.16305439,
        -0.0063941893,
        -0.1385253,
        -0.111630596,
        -0.10477797,
        -0.108942986,
        0.028437609,
        -0.0313423,
        -0.05508072,
        -0.03892327,
        -0.108809985,
        0.034636505,
        -0.045838684,
        -0.054258738,
        -0.038420767,
        0.0049393503,
        -0.04155094,
        -0.055245157,
        -0.021931525,
        -0.031162485,
        -0.040153738,
        -0.041399725,
        -0.105327964,
        -0.07405832,
        -0.069196604,
        -0.046996545,
        -0.1416081,
        0.028337006,
        -0.011075281,
        0.025414072,
        -0.02015452,
        -0.071479775,
        -0.068735376,
        -0.03836927,
        -0.023258768,
        0.092698835,
        0.037269432,
        -0.021002933,
        -0.0035576553,
        -0.080333374,
        -0.032979626,
        0.005975629,
        0.032857362,
        -0.06229365,
        0.024287034,
        0.016061455,
        0.061383285,
        0.001779681,
        0.05600461,
        -0.015731957,
        0.06288918,
        -0.014933266,
        -0.04083012,
        8.1787957E-4,
        -2.3420065E-4,
        0.054057952,
        -0.11708783,
        -0.045023695,
        0.036371198,
        -0.014789461,
        -0.11184072,
        0.041185025,
        -0.06552975,
        0.0018748997,
        -0.038433425,
        0.053683806,
        -0.07011342,
        -0.026325315,
        0.043781128,
        0.0044126255,
        0.0054563917,
        -0.026779052,
        -0.046769947,
        0.08451713,
        -0.02261326,
        -0.04062571,
        0.049906224,
        0.11510536,
        0.0133942235,
        0.056840535,
        0.06281579,
        1.4132317E-4,
        0.06348713,
        -0.035085727,
        0.05985384,
        -0.030174803,
        -0.061865564,
        -0.017768996,
        0.0242731,
        0.08860411,
        -0.05253717,
        -0.004521548,
        -0.08200261,
        0.09156072,
        -0.048386108,
        -0.024605459,
        -0.03660667,
        -0.092907794,
        -0.017253704,
        0.06086724,
        -0.10149012,
        0.020125244,
        -0.10078895,
        -0.037056968,
        -0.06879556,
        0.011152919,
        -0.04910671,
        0.046429303,
        -0.026786081,
        0.06776426,
        0.013518512,
        -0.02889377,
        -0.0059919055,
        -0.09894086,
        -0.03399974,
        0.035115242,
        -0.058344495,
        0.084135704,
        5.698259E-4,
        -0.06822949,
        0.06510462,
        -0.05138103,
        -0.0070759826,
        -0.06444058,
        0.02825019,
        0.0446581,
        -0.08137484,
        0.02307126,
        0.053056616,
        -0.105553105,
        0.0524716,
        -0.025533548,
        -0.015528339,
        0.041329376,
        -0.11745285,
        -0.051864874,
        -0.05465284,
        -0.13763362,
        0.03461671,
        -0.05399722,
        0.032419425,
        -0.07744144,
        -0.04514472,
        -0.064288855,
        0.0015068825,
        0.005284896,
        0.052718103,
        0.045002226,
        0.060986765,
        -0.018819673,
        0.059480097,
        -0.050760306,
        -0.09461801,
        -0.095874466,
        0.053574733,
        -0.06936002,
        0.074119605,
        0.07210881,
        -0.06386529,
        -0.005736054,
        -0.0035793704,
        -0.049011752,
        -0.094845936,
        0.036604445,
        9.0454565E-4,
        -0.06821743,
        -0.05571384,
        -0.10399483,
        -0.01877136,
        -0.05984319,
        -0.0056767445,
        0.007154282,
        0.056580782,
        -0.044702448,
        0.05867789,
        -0.03494486,
        -0.059627574,
        -0.098794125,
        0.07659671,
        0.036336455,
        0.001638303,
        0.07068495,
        -0.09630507,
        -0.049842298,
        -0.07325566,
        0.07851588,
        -0.06452713,
        -0.04291833,
        -0.02920979,
        0.016254479,
        -0.02043565,
        -0.05308723,
        0.08654771,
        -0.023880003,
        -0.08080843,
        0.010157388,
        -0.078112036,
        0.024004435,
        -0.0818995,
        0.050253138,
        -0.06391622,
        -0.10767722,
        0.040091075,
        -0.059421733,
        -0.09799162,
        0.07820395,
        0.03647562,
        0.022663262,
        -0.06717695,
        0.032702163,
        0.045828585,
        -0.09439678,
        0.036651228,
        -0.08806389,
        -0.068000495,
        -0.015565686,
        -0.061189573,
        0.04521985,
        -0.07183168,
        -0.007904817,
        -0.029538672,
        -0.047833297,
        0.009932817,
        -0.037125874,
        0.03731432,
        -0.098529406,
        -0.0051577105,
        -0.026320914,
        0.0012003671,
        1.8623889E-6,
        0.057758708,
        -0.017693596,
        0.034705605,
        -0.058921106,
        0.025978813,
        -0.043323193,
        -0.10458563,
        0.0070366017,
        0.027742619,
        -0.025049414,
        0.008629964,
        -0.047036648,
        0.023276076,
        -0.06425626,
        0.0065720235,
        -0.10684305,
        -0.008344337,
        0.0049454034,
        -0.018980272,
        0.021516481,
        -0.064230554,
        -0.08265937,
        -0.14286156,
        0.007528707,
        -0.11446981,
        -0.015832644,
        -0.0079491045,
        -0.09583948,
        0.048241984,
        -0.024732675,
        0.028458176,
        -0.018740471,
        0.020266365,
        -0.09540627,
        0.11307263,
        -0.059456702,
        0.011554977,
        -0.07739956,
        0.056612987,
        -0.08790716,
        -0.0763289,
        0.023061555,
        -0.022156978,
        -0.07622812,
        0.009455002,
        -0.046809454,
        -0.0327998,
        -0.06748471,
        -0.01189584,
        -0.018247517,
        -0.035762414,
        -0.02693908,
        -0.022906788,
        -0.05108218,
        -0.08480565,
        -0.08742419,
        -0.010635741,
        0.022302672,
        -0.030614836,
        0.030900637,
        -0.08041085,
        -0.06650385,
        -0.030072344,
        -0.05195968,
        0.042713463,
        -0.08187176,
        -0.0053454405,
        0.0036451046,
        0.023990508,
        -0.04124752,
        -0.060245845,
        0.0132416645,
        0.02691972,
        -0.033090048,
        -0.035847597,
        0.028352987,
        -0.10667224,
        -0.03465267,
        -0.07364211,
        -0.09043829,
        -0.06798115,
        -0.030358853,
        -0.063021384,
        -0.055769052,
        0.05813976,
        0.08773846,
        0.06115372,
        -0.014742286,
        0.025399711,
        0.0036019834,
        -0.06700417,
        -0.01072017,
        0.0024664197,
        -0.06679795,
        0.05524957,
        -0.09161135,
        -0.004454336,
        0.015503232,
        -0.040952936,
        -0.060967643,
        -0.048369702,
        -0.051620964,
        -0.0031622406,
        -0.052755,
        0.058371983,
        -0.042853244,
        -0.088920295,
        -0.012345,
        0.0066936594,
        -0.010168297,
        -0.02826756,
        -0.02788475,
        -0.14166202,
        -0.012348121,
        0.090313815,
        -0.057076864,
        -0.13923064,
        -0.11760849,
        -0.07290048,
        -0.09459459,
        -0.13104829,
        0.030090574,
        -0.101086915,
        -0.02290103,
        -0.08071545,
        -0.06026235,
        -0.070734374,
        -0.018045638,
        -0.047245808,
        -5.039129E-4,
        0.017145732,
        -0.054928865,
        -0.058958843,
        0.06358214,
        -0.05393349,
        0.03460894,
        -0.15510878,
        0.0062938654,
        -0.07287768,
        0.020017862,
        -0.09306885,
        -0.0077270945,
        0.01245852,
        0.038296167,
        0.031186983,
        -0.14203453,
        -0.020142509,
        -0.07731779,
        -0.09395251,
        -0.018934267,
        -0.020234847,
        -0.06339587,
        -0.07045193,
        -0.009925166,
        -0.042278178,
        -0.116597414,
        -0.07039019,
        -0.048153423,
        -0.05503359,
        -0.0069342107,
        -0.03102724,
        -0.08181465,
        -0.048896972,
        -0.05986482,
        0.03563745,
        -0.14807162,
        -0.008780073,
        0.010122432,
        -0.059059117,
        0.1802215,
        0.07140432,
        -0.052279934,
        -0.023423882,
        -0.116773315,
        -0.086816914,
        -0.096170075,
        -0.0724378,
        -0.073080204,
        -0.09766718,
        -0.10454514,
        -0.06816062,
        -0.08187119,
        -0.06554591,
        -0.0022191557,
        -0.0592033,
        -0.05645306,
        -0.06613588,
        -0.07140941,
        -0.02904031,
        -0.034823593,
        -0.036823984,
        -0.09547621,
        -0.026718676,
        -0.08925804,
        0.051629394,
        -0.046874315,
        -0.20270845,
        0.1262683,
        0.08273002,
        -0.05271514,
        -0.11662314,
        -0.16961215,
        -0.036464635,
        -0.011964574,
        -0.083916396,
        -0.11100936,
        -0.16667402,
        -0.17469198,
        -0.12957963,
        -0.105466954,
        -0.16088358,
        -0.13940276,
        -0.12829006,
        -0.117889255,
        -0.08124881,
        -0.084857605,
        -0.107523724,
        -0.06407209,
        -0.09158075,
        -0.033423908,
        -0.17547242,
        -0.062353954,
        -0.14366695,
        -0.07084762,
        -0.18237218,
        0.07110297,
        -0.09343548,
        -0.057132263,
        0.044855036,
        -0.060038358,
        -0.15123683,
        -0.09271464,
        -0.17573786,
        -0.09904868,
        -0.12600562,
        -0.12435769,
        -0.13329299,
        -0.19024388,
        -0.07331266,
        -0.072954185,
        -0.1246145,
        -0.11467519,
        -0.094032064,
        -0.103467174,
        -0.08467951,
        -0.18999803,
        -0.07848854,
        -0.09490821,
        -0.14027971,
        -0.03855743,
        -0.04927562,
        -0.04342219,
        -0.10997324,
        0.12017415,
        -0.07258526,
        0.032352537,
        -0.044387527,
        0.048639897,
        -0.08022908,
        -0.10003279,
        -0.08814848,
        -0.14519823,
        -0.18005452,
        -0.09274705,
        -0.069853045,
        -0.087252915,
        -0.17815356,
        -0.09412721,
        -0.12088822,
        -0.13732392,
        -0.07659964,
        -0.15387072,
        -0.06391019,
        -0.0749551,
        -0.12483838,
        -0.11479337,
        -0.08400546,
        -0.09586471,
        -0.08337621,
        -0.08188571,
        -0.16988611,
        0.041848876,
        0.0035167239,
        0.12717693,
        0.012989788,
        0.06413909,
        0.0054634893,
        -0.043557983,
        -0.13606432,
        -0.025439262,
        -0.06461695,
        -0.05231188,
        -0.02846487,
        7.4658706E-4,
        -0.06212467,
        -0.046762265,
        -0.09985824,
        -0.08603369,
        -0.12144527,
        -0.016233183,
        -0.063741796,
        -0.12380312,
        -0.07307475,
        -0.18312368,
        -0.13520744,
        -0.18153135,
        -0.1052682,
        -0.06466101,
        -0.14060017,
        0.08350937,
        0.034202654,
        0.115654014,
        0.105079986,
        0.06795755,
        0.13920896,
        0.023515591,
        0.047011342,
        -0.046228133,
        -0.1122267,
        0.0013388383,
        -0.099591196,
        0.012722406,
        -0.08224703,
        -0.06055123,
        -0.05368305,
        -0.07707749,
        -0.08758858,
        -0.1211721,
        -0.034415055,
        -0.12148089,
        -0.0055263606,
        -0.083972596,
        -0.04293398,
        -0.10446005,
        -0.096305884,
        -0.1473638,
        -0.203991,
        0.11998986,
        0.10144717,
        0.0958914,
        0.12588395,
        0.11483861,
        0.19579548,
        0.13183151,
        0.10950526,
        0.08445384,
        0.018861637,
        0.017070929,
        -0.09371126,
        -0.026360635,
        -0.019786082,
        -0.0768708,
        -0.07746623,
        -0.05826863,
        -0.015037144,
        -0.07346061,
        -0.07822553,
        -0.046870183,
        -0.09452954,
        -0.04545018,
        0.02542399,
        -0.083471,
        -0.052729413,
        -0.13725165,
        -0.12335074,
        0.0058190105,
        0.028563457,
        0.1712862,
        0.22371227,
        0.17044227,
        0.086522534,
        0.23727302,
        0.19194227,
        0.15058963,
        0.089909986,
        0.12858786,
        0.016010566,
        0.05569778,
        -0.05814317,
        0.03798933,
        -0.07752504,
        -0.01533418,
        -0.038207773,
        0.004808131,
        -0.012939401,
        -0.08385033,
        0.036369856,
        -0.08408446,
        0.04023495,
        -0.088465095,
        -0.0153227225,
        -0.07584496,
        -0.068216376,
        0.0031057042,
        0.04718077,
        0.12458473,
        0.047912166,
        0.11566935,
        0.14489266,
        0.16429673,
        0.14421733,
        0.2056228,
        0.15917726,
        0.19337945,
        0.18195532,
        0.17451681,
        0.12252206,
        0.10829511,
        0.09786194,
        0.15293907,
        -0.019572355,
        0.055340692,
        0.033222403,
        0.10628566,
        0.002854238,
        0.029443964,
        -0.014215719,
        0.006271302,
        0.11617611,
        -0.045083735,
        0.027545985,
        -0.02319337,
        0.0996128,
        0.06871153,
        0.111125,
        0.06902851,
        0.06489047,
        0.076989576,
        0.15170819,
        0.1641881,
        0.14730215,
        0.15103117,
        0.24345893,
        0.15003152,
        0.18825562,
        0.09893406,
        0.18324228,
        0.07173792,
        0.19537626,
        0.10063928,
        0.1545844,
        0.059967034,
        0.17338715,
        0.13287272,
        0.122237585,
        0.043182492,
        0.09083209,
        0.13358787,
        0.14775474,
        0.03940283,
        0.015843034,
        0.1065731,
        0.020499818,
        0.07738272,
        0.047675837,
        0.0815962,
        0.018003374,
        0.086712666,
        0.08532393,
        0.13432725,
        0.1306201,
        0.10950684,
        0.17602086,
        0.19926092,
        0.13306953,
        0.21062146,
        0.16329715,
        0.19587032,
        0.08715825,
        0.078043975,
        0.12835757,
        0.057277877,
        0.19805269,
        0.061277024,
        0.05060534,
        0.17350455,
        0.049781542,
        -0.08514275,
        0.12520152,
        -0.014083638,
        -0.046261135,
        0.0554498,
        -0.06270589,
        0.057764612,
        0.0048125694,
        0.05147396,
        0.04519132,
        0.11094364,
        0.04944159,
        0.17242438,
        0.111331925,
        0.07818658,
        0.12466872,
        0.14184143,
        0.11921496,
        0.08691629,
        0.19011162,
        0.20594636,
        0.18129928,
        0.1482129,
        0.11935658,
        0.1678336,
        0.092398375,
        0.10823823,
        0.10278186,
        -0.18924184,
        0.058184203,
        0.004496994,
        0.08143628,
        0.029885937,
        -0.06908838,
        0.035671026,
        -0.013277847,
        0.012115383,
        0.022583494,
        -0.014472633,
        0.087061845,
        0.007497507,
        0.11369029,
        0.06419468,
        0.08988408,
        0.025057564,
        0.15757573,
        0.08982928,
        0.13537243,
        0.08459101,
        0.078604154,
        0.21283072,
        0.16406058,
        0.17962673,
        0.052465927,
        0.20685521,
        0.019650832,
        -0.23016462,
        0.054301135,
        0.0024032425,
        0.010092031,
        -0.06483564,
        0.037299223,
        -0.12449712,
        0.008256127,
        -0.027321782,
        -0.052760944,
        0.046002496,
        -0.07198389,
        0.033584535,
        -0.056633733,
        0.0055137896,
        -0.033039138,
        0.042202342,
        -0.023239225,
        0.10153385,
        0.12742248,
        0.13701287,
        0.05573586,
        0.058730718,
        0.06496986,
        0.09264814,
        0.14636014,
        0.045571256,
        0.15926175,
        -0.15430577,
        -0.14163099,
        -0.052691616,
        0.062134072,
        -3.6200508E-4,
        -0.043947857,
        -0.0046809902,
        -0.022201957,
        -0.13304833,
        0.013705629,
        -0.041751947,
        -0.070930324,
        -0.066304155,
        0.0031654374,
        -0.028400706,
        0.01964431,
        0.0030768465,
        0.02274385,
        -0.01999214,
        -0.03282218,
        0.08211764,
        -0.017928377,
        -0.015377866,
        0.056180004,
        0.10643222,
        0.1200983,
        0.019062258,
        -0.035241503,
        -0.27216905,
        -0.120937936,
        -0.09501322,
        -0.044540327,
        0.0030232335,
        -0.09429368,
        0.052790325,
        -0.023539577,
        0.0282886,
        -0.07574163,
        -0.027700381,
        0.0052833455,
        0.020212028,
        -0.056136444,
        -0.07269628,
        0.053873762,
        -0.08708012,
        0.0049496936,
        -0.026270075,
        -0.031347178,
        0.019665437,
        0.076748475,
        0.07805719,
        0.03476209,
        0.032728236,
        0.09766091,
        -0.06452128,
        0.053303264,
        -0.18199354,
        -0.20856623,
        -0.07189531,
        -0.10091776,
        -0.08840246,
        -0.10860399,
        -0.12301991,
        -0.10822861,
        -0.017553719,
        -0.09684136,
        -0.1309431,
        -0.015684538,
        -0.13484924,
        -0.080977984,
        0.0034471871,
        -0.15461074,
        -0.009203366,
        -0.062051207,
        -0.024903268,
        -0.04541525,
        -0.13269916,
        -0.019929726,
        -0.061749388,
        -0.002246891,
        0.037572138,
        0.013502942,
        0.041199878,
        0.0038587353,
        0.054544758,
        0.03788042,
        -0.022370407,
        -0.059927613,
        0.016666485,
        0.09144066,
        0.09449437,
        -0.06562355,
        -0.077605985,
        0.024423596,
        -0.025839025,
        0.03585748,
        -0.04125827,
        0.037653297,
        -0.035640873,
        -0.06966866,
        -0.07199245,
        0.01396574,
        0.07994866,
        -0.07500558,
        -0.07397429,
        -0.047306243,
        0.036117103,
        -0.104967676,
        -0.0046253754,
        0.033826556,
        -0.068390764,
        -0.042954087,
        0.08412812,
        0.025314031,
        -0.03086588,
        -0.029008342,
        -0.031495728,
        0.018494247,
        -0.074307404,
        0.032691214,
        -0.045670085,
        -0.0663692,
        -0.05145638,
        0.041588943,
        -0.03877188,
        0.10043552,
        0.054186262,
        0.06507967,
        -0.057083644,
        0.08178611,
        -0.051728766,
        -0.087491654,
        -0.039112404,
        0.059697513,
        6.5682235E-4,
        -0.029369185,
        6.0563046E-4,
        0.0794558,
        -0.062488407,
        0.05578612,
        0.037635714,
        -0.013778092,
        0.036859684,
        0.06858043,
        -0.08187696,
        -0.04379676,
        0.05712713,
        0.09315111,
        0.07957052,
        0.12920716,
        0.13136625,
        0.0649638,
        0.06361799,
        0.12451909,
        0.0039638174,
        0.061861265,
        -0.02340079,
        0.08281802,
        -0.05147289,
        -0.06121298,
        0.032129154,
        -0.07480419,
        -0.063261814,
        0.015609687,
        0.04340049,
        0.04935604,
        -0.06662343,
        -0.034887683,
        0.05947234,
        0.028381316,
        0.0023593628,
        0.07271555,
        0.07548333,
        0.041262582,
        0.021375738,
        0.094716474,
        0.071439795,
        0.08473117,
        0.019947244,
        0.14149922,
        0.04494181,
        0.09882797,
        0.034663375,
        0.028406428,
        0.0486222,
        -0.05676683,
        0.07938326,
        -0.10813857,
        0.06018747,
        -0.111408964,
        -0.025169376,
        -0.08406588,
        -0.068784535,
        -0.08340823,
        -0.055354565,
        -0.050973892,
        -0.05552395,
        -0.0065402007,
        0.005430607,
        -0.020744067,
        0.07586367,
        -0.08034888,
        -0.045463953,
        0.0056137857,
        0.0654739,
        0.11399785,
        -0.015975853,
        0.036844444,
        0.08183813,
        0.050736316,
        0.053390827,
        0.026407376,
        0.02854849,
        -0.09118887,
        -0.055397477,
        -0.020921733,
        0.014492862,
        -0.058888506,
        -0.06985778,
        0.046150114,
        0.014802118,
        -0.10562493,
        -0.10140134,
        -0.090539314,
        -0.026282486,
        0.02412477,
        -0.09320017,
        0.03203797,
        0.0787042,
        0.0960766,
        0.08790053,
        -0.014383301,
        0.01582947,
        0.14814408,
        0.065656535,
        0.0021389583,
        0.06081866,
        0.024858527,
        0.029685086,
        -0.053193256,
        0.13186839,
        0.0035307072,
        0.0070749596,
        -0.00859343,
        -0.011171655,
        -0.12813734,
        -0.041681346,
        -0.011489405,
        0.022321096,
        0.0056719114,
        -0.08899678,
        0.08262501,
        0.0047585494,
        0.011579018,
        0.068699546,
        0.087941386,
        0.018498488,
        0.063887954,
        0.030833103,
        0.12508191,
        0.0051730927,
        0.030619109,
        0.09865669,
        -0.05042274,
        -0.06002974,
        -0.12388146,
        0.01483284,
        0.054012213,
        -0.043888196,
        0.016050417,
        -0.031578995,
        -0.08006576,
        -0.11157848,
        -0.07380724,
        -0.06565026,
        -0.05764132,
        0.0050067483,
        -0.019366087,
        0.046273474,
        -0.007599828,
        0.018662434,
        0.037887596,
        -0.051022798,
        -0.012935611,
        -0.023215096,
        -0.07327439,
        0.060828574,
        0.05670082,
        -0.028602349,
        -0.025335168,
        -0.028266987,
        0.035440065,
        -0.019952139,
        -0.0177812,
        -0.053497966,
        -0.089030355,
        0.03074042,
        -0.095940895,
        0.017044377,
        -0.009877698,
        -0.077275865,
        -0.01218408,
        -0.004174587,
        0.056387775,
        -0.056905176,
        -0.066627584,
        -0.03994789,
        -0.09637548,
        0.040785603,
        0.09900485,
        -0.051801443,
        -0.04491935,
        -0.019524476,
        0.08792438,
        0.015914736,
        -0.04119007,
        0.16033939,
        -0.026902385,
        -0.033257287,
        -0.11191402,
        -0.20562154,
        -0.037052177,
        0.035301425,
        0.047550023,
        0.027034888,
        -0.03170451,
        -0.008393007,
        -0.006602599,
        0.0842938,
        -0.032074124,
        -0.07396427,
        0.06580939,
        -0.025204657,
        -0.08984094,
        -0.035265323,
        -0.023040792,
        -0.020885993,
        -0.0834509,
        0.046113666,
        0.039564967,
        -0.021902693,
        0.04074085,
        0.012097092,
        0.08928893,
        0.13018349,
        -0.0093927905,
        -0.038514853,
        -0.1367856,
        -0.0834166,
        0.013968432,
        0.008695811,
        0.106813215,
        -0.02542956,
        -0.0058010533,
        -0.0092549,
        0.05263373,
        -0.040972352,
        0.060688473,
        -0.013797695,
        0.021854619,
        0.030021545,
        0.024027705,
        0.0651732,
        0.07313574,
        -0.061111715,
        -0.06732571,
        -0.0066544986,
        -0.04077482,
        -0.0033734334,
        -0.020944575,
        -0.025789035,
        -0.053449605,
        -0.007860908,
        0.07891183,
        -0.18552272,
        -0.2806957,
        -0.14565466,
        0.0161936,
        -0.0014100969,
        0.013302668,
        -0.03683213,
        0.026541958,
        -0.05016169,
        0.031473763,
        0.08299358,
        0.020363046,
        -0.06122199,
        0.0031175606,
        0.001173268,
        -0.0050202385,
        0.009333868,
        0.04259918,
        0.10560715,
        0.08064803,
        0.11870655,
        0.11393972,
        -0.005502409,
        -0.002370327,
        -0.04578951,
        0.10962907,
        -0.015755069,
        -0.034945715,
        -0.08887288,
        -0.3071795,
        -0.117697656,
        -0.08226594,
        0.1040424,
        0.0489624,
        0.10601022,
        0.01155107,
        0.06540534,
        -0.02850456,
        0.110846646,
        -0.0038756614,
        0.074130364,
        0.047427002,
        -0.013779796,
        0.051318787,
        0.11537305,
        -0.035477854,
        0.0586282,
        0.08570582,
        -0.025367834,
        0.019861802,
        -0.027862936,
        0.09544066,
        -0.046462256,
        0.077222414,
        0.044613205,
        -0.04268926,
        -0.20641305,
        -0.14799878,
        -0.121203914,
        -0.08936437,
        0.030106653,
        0.07640041,
        -0.02718444,
        -0.030266391,
        -0.044716287,
        0.039704308,
        0.13619277,
        -0.0028792354,
        0.12100193,
        -0.015064757,
        0.03573504,
        -0.0017772903,
        0.038249053,
        0.06446489,
        -0.08238835,
        0.015235057,
        0.10675994,
        -0.00883815,
        -0.021656884,
        -0.07915945,
        -0.03890893,
        0.12018135,
        0.084529206,
        -0.008433237,
        -0.18577617,
        -0.23709445,
        -0.1011407,
        0.03303676,
        0.0951331,
        -2.3087801E-4,
        -0.025690775,
        -0.031091738,
        0.041567016,
        -0.08488075,
        0.13294041,
        0.10191013,
        0.061260343,
        -0.009060553,
        0.06497171,
        0.09184487,
        0.12314633,
        -0.08287728,
        0.075676955,
        0.09207031,
        -0.018730015,
        0.09243794,
        0.015652161,
        0.06921706,
        0.08924561,
        -0.01747721,
        -0.07827969,
        -0.16269891,
        -0.14483063,
        -0.13183545,
        -0.08346512,
        -0.013532775,
        0.0617666,
        0.031518087,
        0.036491256,
        -0.092797875,
        -0.17595348,
        -0.019939736,
        0.014098523,
        -0.0037621607,
        -0.012867509,
        -0.0025026572,
        0.02639702,
        0.02634139,
        -8.358288E-4,
        -0.027781565,
        0.07301575,
        0.045337465,
        -0.05023854,
        0.030586874,
        -0.012145247,
        -0.06493472,
        -0.03565016,
        -0.033165682,
        0.012211065,
        -0.06884412,
        -0.2287745,
        -0.087544784,
        0.02217206,
        -0.0066778203,
        -0.05565658,
        -0.011911196,
        -0.054029558,
        -0.13923205,
        -0.14658418,
        -0.16503116,
        0.050386008,
        -0.042797394,
        0.019901533,
        -0.020046597,
        0.027991284,
        -0.08276787,
        -0.08196947,
        0.078583464,
        0.0039116447,
        -0.082065456,
        0.016390182,
        0.1240206,
        0.07804241,
        0.008323264,
        0.12602524,
        -0.058558054,
        -0.078613326,
        -0.17774369,
        -0.084672324,
        0.014089571,
        0.0040521845,
        -0.040704045,
        0.048448764,
        0.053114027,
        -0.027183905,
        -0.21732515,
        -0.19680068,
        -0.031861056,
        -0.05781646,
        0.01625988,
        -0.102287546,
        -0.038770948,
        0.02434983,
        0.0473196,
        -0.1193126,
        -0.012246633,
        0.048876345,
        -0.011082618,
        0.087512605,
        -0.10136072,
        0.07239175,
        0.014655505,
        -0.07566556,
        -0.0020755627,
        -0.1279561,
        -0.15483487,
        -0.03715467,
        -0.045708213,
        -0.0105124395,
        -0.001677937,
        0.053522218,
        -0.02950042,
        -0.20184979,
        -0.1481578,
        -0.077745594,
        -0.06880211,
        -0.068370916,
        -0.14154238,
        0.03213854,
        -0.062215876,
        -0.0345644,
        -0.07780449,
        -0.13054064,
        0.04673115,
        0.02196937,
        0.051421683,
        0.03745236,
        0.011753521,
        -0.083747275,
        -0.12361654,
        0.045159705,
        -0.016236199,
        -0.094650134,
        -0.003993338,
        -0.06906096,
        -0.0063773156,
        0.011984066,
        -0.042195786,
        -0.033433758,
        -0.03906653,
        -0.18716983,
        -0.15203619,
        -0.06523962,
        -0.10109362,
        0.0026426073,
        -0.01252105,
        -0.13429977,
        -0.027232748,
        -0.12209594,
        -0.12039332,
        -0.1305863,
        -0.022499489,
        -0.10959949,
        -0.09595387,
        -0.15804803,
        0.0032251084,
        -0.015654588,
        -0.0048580267,
        0.004009327,
        -0.08002045,
        -0.112692654,
        0.041921396,
        0.005201412,
        -0.012703735,
        0.003947661,
        -0.059629023,
        -0.074004054,
        -0.123913765,
        -0.20066713,
        0.013880823,
        0.036321387,
        0.009523667,
        -0.09051382,
        -0.026627019,
        -0.010171793,
        -0.14385982,
        -0.10953942,
        0.048907436,
        0.051758587,
        0.09055215,
        0.026097586,
        -0.14251842,
        -0.037591618,
        -0.07972047,
        0.032825407,
        -0.06585689,
        -0.0113266045,
        -0.08415607,
        0.016044984,
        0.027287297,
        -1.6225345E-4,
        0.11162527,
        0.012617032,
        0.059945926,
        -0.07148957,
        -0.10972226,
        -0.06921441,
        -0.11300864,
        -0.027517926,
        -0.06005794,
        -0.019038968,
        0.0153477825,
        -0.09347367,
        0.056269478,
        -0.08949877,
        -0.036929965,
        -0.06578943,
        0.06173729,
        0.06172623,
        -0.09808712,
        0.08400518,
        0.06830485,
        0.08828657,
        -0.03229589,
        -0.009255812,
        0.01356121,
        -0.054343663,
        0.08874113,
        0.033061914,
        0.06845859,
        0.018267063,
        -0.042510137,
        -0.14659102,
        -0.026549242,
        -0.040360585,
        0.0016577294,
        0.01586749,
        0.045137003,
        -0.04772457,
        -0.08538115,
        0.016116342,
        -0.03273532,
        0.04721835,
        -0.095178604,
        0.048445534,
        -0.053747404,
        -0.10788468,
        0.0030688117,
        -0.0010583088,
        0.01783574,
        -0.087185554,
        -0.03683906,
        -0.061354443,
        0.0070131887,
        0.076881416,
        0.088066794,
        0.06033009,
        0.09048957,
        0.03855174,
        0.02200747,
        0.030169223,
        -0.060983974,
        0.056053746,
        -0.0057356562,
        -0.01639709,
        -0.07386922,
        -0.020656127,
        0.015425087,
        -0.1350846,
        -0.007982883,
        -0.0071846484,
        -0.044942383,
        -0.016838787,
        -0.016040167,
        0.1053718,
        0.042428758,
        -0.08815823,
        -0.06587836,
        -0.08673157,
        0.045102227,
        -0.009074672,
        0.0035263281,
        0.01704587,
        0.050613306,
        0.06735609,
        0.1209015,
        0.005228851,
        0.04425052,
        0.02153682,
        0.022726152,
        0.11839174,
        0.092547685,
        -0.027726267,
        0.07464369,
        0.043053407,
        -0.017583184,
        0.057881728,
        -0.053019196,
        0.067312926,
        0.009524158,
        -0.028664446,
        0.015322889,
        0.13814627,
        -0.009839187,
        -0.028083064,
        0.00935802,
        0.069592796,
        -0.020858038,
        0.022294547,
        0.06482082,
        0.07079609,
        0.051758174,
        0.058620315,
        0.11667206,
        -0.01752935,
        0.12018797,
        0.022716848,
        0.08895711,
        0.04109848,
        -0.032357715,
        0.11536607,
        0.109300554,
        0.03818858,
        -6.446578E-4,
        -0.048123498,
        0.00493757,
        -0.04768781,
        -0.028993987,
        0.0077900654,
        -0.021503497,
        0.099518426,
        0.090779684,
        0.01247956,
        -0.04529144,
        -0.050091363,
        0.054976918,
        0.08446501,
        0.055817127,
        0.010651582,
        0.1328613,
        0.039659467,
        -0.045336552,
        0.03723709,
        0.055741172,
        -0.028457094,
        0.017590474,
        0.08344249,
        0.073222354,
        0.097900786,
        0.085807085,
        -0.021355404,
        -0.0060226955,
        0.117553666,
        0.11474494,
        0.08472241,
        -0.04558509,
        0.100139014,
        0.06653975,
        -0.03796077,
        0.084530696,
        0.048216157,
        0.0666563,
        0.06717669,
        0.061863266,
        0.041472524,
        0.015572948,
        0.02399818,
        -0.030416502,
        0.031355917,
        0.020835746,
        0.03268719,
        -0.081353515,
        0.03053647,
        -0.013109622,
        0.11242874,
        0.034540888,
        0.012660613,
        -0.004383931,
        0.03463874,
        0.032477148,
        0.054630782,
        -0.009550063,
        0.039824568,
        -0.017212093,
        0.03922638,
        -0.049366113,
        0.055451635,
        0.05070119,
        0.045496684,
        0.025360005,
        0.05774213,
        0.027322177,
        0.014407468,
        -0.03236576,
        -0.021298707,
        0.022659224,
        -0.031243928,
        -0.03872139,
        0.014669516,
        0.033450726,
        0.048366245,
        -0.058548354,
        0.030798303,
        -0.019974712,
        0.1515326,
        0.025974762,
        -0.0073057422,
        0.02176099,
        -0.052316226,
        0.025802022,
        -0.06381722,
        0.085087314,
        0.007882564,
        -0.055252995,
        0.060779247,
        0.100009225,
        -7.685616E-4,
        -0.09449366,
        0.0028599678,
        -0.07001287,
        -0.08203418,
        -0.070513576,
        -0.08467092,
        -0.09159231,
        -0.08909236,
        -0.048870943,
        -0.044654824,
        -0.008693922,
        -0.045572333,
        -0.018278524,
        -0.060783826,
        -0.10079135,
        -0.06504597,
        -0.02160695,
        0.10761123,
        0.039676864,
        0.035361666,
        -0.0015180983,
        0.13654779,
        0.11567972,
        0.05858084,
        -0.025292384,
        -0.09401106,
        -0.081561714,
        0.044176992,
        0.029203674,
        -0.011510559,
        -0.051363356,
        0.06471895,
        -0.023002349,
        -0.11208351,
        0.04401655,
        -0.07152091,
        -0.08256157,
        -0.12461182,
        -0.13766068,
        -0.071750335,
        -0.0531372,
        -0.06375487,
        -0.032558702,
        -0.09659564,
        0.07479717,
        0.032270167,
        0.14034395,
        -0.005923755,
        0.15340696,
        -0.0032603445,
        0.036063332,
        0.03728719,
        0.06668599,
        0.0812321,
        0.02292722,
        0.007031351,
        -0.06876769,
        -0.02609088,
        0.044357266,
        0.07701718,
        -0.0088092545,
        0.020714125,
        -0.12463374,
        -0.056694422,
        -0.04815862,
        0.00484928,
        -0.013966571,
        -0.04128108,
        -0.06263245,
        -0.10903533,
        -0.025034072,
        0.054099116,
        -0.11415839,
        0.0032088412,
        0.098593235,
        0.008536156,
        -0.015928723,
        -0.028999109,
        0.07931509,
        -0.048603106,
        0.056160714,
        -0.05287307,
        0.044769507,
        0.053848434,
        -0.024418674,
        -0.0095452415,
        0.060827497,
        -0.08526821,
        0.036630183,
        -0.05737497,
        -0.08357253,
        0.057682633,
        -0.01309731,
        -0.045977835,
        -0.08190684,
        -0.034651723,
        -0.0051367856,
        0.028590333,
        -0.10879369,
        0.06624331,
        -0.08059238,
        -0.100211225,
        -0.029757671,
        0.06822626,
        0.07834952,
        0.09424588,
        0.089553185,
        -0.07405562,
        0.103908084,
        0.09957808,
        0.046980903,
        0.008596713,
        0.0042303246,
        -0.005712722,
        0.0857916,
        0.037785098,
        -0.07875285,
        0.049156822,
        -0.075959176,
        -0.09692234,
        -0.11622375,
        -0.092959955,
        0.006352619,
        -0.12888224,
        -0.12930243,
        -0.076294795,
        -0.08063512,
        -0.13648206,
        0.016047018,
        0.013820325,
        -0.062193085,
        -0.012969961,
        -0.06597587,
        0.040473424,
        0.07739543,
        0.014910777,
        -0.043996733,
        0.006231563,
        -0.05017694,
        -0.0698311,
        -0.016888242,
        -0.049456388,
        -0.019557754,
        0.075754315,
        -0.099129,
        -0.0022508057,
        -0.12684517,
        -0.02504068,
        -0.015079663,
        -0.06637741,
        -0.091642305,
        -0.0036472927,
        -0.056094,
        -0.058447365,
        -0.006738621,
        -0.12002269,
        -0.020728568,
        -0.090309545,
        -0.11558336,
        -0.121737085,
        -0.08501155,
        -0.06785503,
        0.07503052,
        0.0700018,
        -0.009714361,
        -0.03783916,
        -0.04991483,
        0.04207602,
        0.017882718,
        0.02601631,
        0.083826244,
        0.054029197,
        -0.07106012,
        -0.08700775,
        -0.07106182,
        -0.03371317,
        -0.114124484,
        -0.11293878,
        -0.03551452,
        -0.12612215,
        -0.021684794,
        -0.022705242,
        -0.022215772,
        -0.079700105,
        -0.077702306,
        -0.19500618,
        -0.045917902,
        -0.11188081,
        -0.06422369,
        -0.023910496,
        0.047174584,
        -0.0637744,
        0.09185101,
        -0.061111502,
        0.05367385,
        0.07438519,
        0.02856944,
        -0.024888758,
        0.06692641,
        -0.06701636,
        -0.0541847,
        -0.0385977,
        -0.011690434,
        0.025033396,
        0.048282962,
        -0.14181216,
        -0.08636574,
        -0.1171129,
        -0.19597341,
        -0.08887238,
        -0.1706788,
        -0.17866755,
        -0.11693529,
        -0.07704781,
        -0.03047217,
        0.027534988,
        0.016989848,
        -0.0051988177,
        -0.0011754329,
        -0.014239699,
        0.05498807,
        0.013930843,
        0.049046237,
        0.058504414,
        0.08630905,
        0.022817345,
        0.09145161,
        -0.07492421,
        0.09110711,
        0.08637026,
        0.0015739076,
        -0.069082595,
        -0.020843672,
        0.004619771,
        -0.08177836,
        -0.17324325,
        -0.09362152,
        -0.17009789,
        -0.056138773,
        -0.21190381,
        -0.12644431,
        -0.14264548,
        -0.08573799,
        -0.0024161397,
        -0.009503969,
        0.01316612,
        -1.8394314E-4,
        -0.015136832,
        0.05618889,
        -0.014100064,
        -0.041095916,
        0.007690486,
        0.012038325,
        -0.05623339,
        -0.08325145,
        0.025758853,
        0.056330964,
        0.08666056,
        0.0017256693,
        -0.05439037,
        0.020657834,
        -0.10999935,
        -0.13555576,
        -0.16054355,
        -0.008266397,
        -0.14771958,
        -0.14316565,
        -0.113635935,
        -0.06412743,
        -0.06935148,
        0.013743495,
        0.02236122,
        -0.04726979,
        0.040160377,
        -0.0031509632,
        0.06005161,
        -0.08823455,
        -0.0033924782,
        0.093475126,
        -4.0062377E-4,
        -0.019045753,
        0.10878492,
        -5.228899E-5,
        0.051351093,
        -0.08812464,
        -0.053264778,
        -0.016352683,
        -0.118286505,
        -0.06883465,
        -0.03690603,
        -0.051017445,
        -0.11484138,
        -0.16317941,
        -0.09298816,
        -0.030635266,
        -0.08090659,
        0.049655933,
        0.009984884,
        -0.037159026,
        0.057702914,
        -0.03919137,
        -0.004204046,
        -0.036732394,
        0.029913608,
        0.012602908,
        0.061864845,
        0.07317314,
        0.09837754,
        0.09885259,
        0.085564114,
        -0.017776785,
        0.050960433,
        -0.0016047123,
        0.020468948,
        -0.011063866,
        -0.0820476,
        0.0026004293,
        0.0015618858,
        0.038763843,
        0.057021964,
        -0.02003652,
        -0.041234717,
        -0.0010852176,
        0.076050326,
        -0.0882321,
        0.09253955,
        -0.046733975,
        -0.005283164,
        0.06614375,
        -0.0605908,
        0.03114562,
        -0.052612446,
        0.07159416,
        -0.016241213,
        -0.018621227,
        0.02580738,
        -0.08478627,
        -0.0818718,
        -0.10583877,
        0.073336095,
        0.013683882,
        -0.10163201,
        -0.08896595,
        -0.12114462,
        0.047935262,
        -0.08490963,
        0.0822718,
        0.010191252,
        0.015791155,
        0.066272385,
        0.10373592,
        0.059190907,
        0.01660995,
        -0.008825079,
        0.006898674,
        -0.03381007,
        -0.00972594,
        -0.0040298747,
        0.0028384686,
        0.06667538,
        -0.06464631,
        0.05282753,
        -0.039110016,
        0.06891228,
        0.032822873,
        0.028494276,
        -0.07058325,
        -0.14132708,
        -0.1162971,
        -0.04533971,
        -0.12265797,
        0.045576263,
        -0.045229316,
        0.10498553,
        0.04441916,
        0.09878676,
        0.09599016,
        0.106451325,
        0.091246076,
        0.06642907,
        0.1429839,
        0.073167555,
        -0.045124847,
        0.08337348,
        0.056671236,
        0.054996397,
        -0.014744293,
        0.005073486,
        -0.051428612,
        -0.042193163,
        0.02466756,
        0.0083922,
        -0.05731728,
        -0.06847464,
        -0.017542899,
        -0.015512895,
        -0.05565683,
        -0.019808771,
        -0.04264359,
        -0.06629205,
        0.08320284,
        0.027568541,
        0.06718743,
        0.11743269,
        0.15928432,
        0.06171341,
        0.14038078,
        0.08783503,
        0.020098299,
        0.110862866,
        0.035932668,
        -0.07636554,
        0.044800613,
        -0.05080896,
        -0.04893834,
        -0.015698992,
        0.09379453,
        -0.058738172,
        -0.04125814,
        -0.1302631,
        -0.03401478,
        -0.086095385,
        -0.035338335,
        -0.09153367,
        -0.09406187,
        -0.054695874,
        -0.078452714,
        0.042247653,
        0.12840499,
        0.099665575,
        0.025868602,
        0.01491433,
        0.018374348,
        0.0063052694,
        0.0379183,
        0.012756359,
        0.045201264,
        0.033412404,
        -0.058602888,
        0.055465274,
        -0.07341074,
        -0.024452537,
        0.11346689,
        -0.08575223,
        -0.021320961,
        0.0120203765,
        -0.0882907,
        0.059338212,
        -0.09328945,
        -0.02210191,
        -0.07112968,
        -0.11619777,
        -0.061278712,
        0.10148757,
        0.08228074,
        0.0749966,
        0.077210575,
        -0.007250529,
        0.046638552,
        0.09076939,
        -0.061919846,
        -0.026451927,
        -0.06533961,
        -0.13669327,
        -0.047638875,
        -0.027914112,
        0.014687905,
        0.02448637,
        0.022552177,
        0.034206383,
        -0.010633789,
        -0.04529066,
        -0.017868115,
        -0.039525215,
        -0.07566535,
        -0.08654278,
        -0.05928755,
        -0.0064405845,
        -0.04208633,
        0.016171755,
        0.010890842,
        0.10240347,
        0.0033436306,
        0.0076726247,
        -0.0021418529,
        0.08762758,
        0.021262888,
        -0.058485415,
        -0.19609028,
        -0.08234754,
        -0.16444379,
        -0.16144834,
        -0.06180238,
        -0.0010686875,
        -0.023396986,
        -0.022751356,
        0.04780065,
        -0.08807313,
        0.044309556,
        0.09485396,
        0.0257774,
        -0.04110031,
        0.050158564,
        0.117374025,
        0.022492524,
        -0.051379185,
        0.06449245,
        -0.057215672,
        0.065024436,
        0.045278937,
        0.048274748,
        0.11877052,
        0.082630046,
        -0.06301738,
        -0.088328056,
        -0.11299084,
        -0.20173416,
        -0.1132543,
        0.014171776,
        -0.035100684,
        -0.012937208,
        -0.07688733,
        -0.03338091,
        -0.06156251,
        0.013150152,
        -0.037793268,
        -0.05325306,
        0.059114702,
        4.8929936E-4,
        -0.019682327,
        0.041856345,
        -0.04788534,
        0.08498727,
        0.10020531,
        0.0199574,
        0.033065155,
        0.06049032,
        0.010097751,
        0.020976115,
        -0.009571989,
        0.0684498,
        -0.028555421,
        -0.19077155,
        -0.09570461,
        -0.16829312,
        -0.10498526,
        4.2706012E-4,
        -0.11323759,
        0.019306956,
        -0.061719548,
        0.0070723733,
        0.0049356623,
        0.05955778,
        -0.041215736,
        0.104651,
        -0.009023036,
        -0.03117914,
        0.05101015,
        0.06540496,
        -0.047048643,
        0.050969526,
        0.0892707,
        -0.05812334,
        0.081115015,
        0.040477052,
        0.007741866,
        0.08264691,
        -0.010887714,
        -0.12473936,
        -0.21985054,
        -0.12066667,
        -0.15389389,
        -0.0858945,
        0.07099981,
        -0.046974104,
        0.021383982,
        0.0013900909,
        0.04134571,
        -0.03304033,
        -0.01461908,
        -0.029413244,
        -0.06327294,
        -0.012493737,
        0.046179216,
        0.07063897,
        0.001393264,
        -0.03778906,
        -0.064060144,
        -0.022643471,
        -0.04421893,
        -0.06332769,
        -0.013774228,
        -0.034273665,
        -0.03828184,
        0.039189223,
        -0.10285378,
        -0.1053273,
        -0.10874221,
        -0.11225933,
        -0.11409437,
        -0.08650621,
        -0.014706366,
        -0.04595868,
        -0.056474213,
        -0.03672538,
        -0.105066165,
        -0.04298212,
        0.030168684,
        -0.06857966,
        -0.03953106,
        -0.06227364,
        -0.014898967,
        0.07474616,
        -0.1066303,
        -0.055692267,
        -0.04181047,
        0.010539218,
        0.06613334,
        -0.041711994,
        0.11278381,
        0.029918572,
        -0.03122204,
        -0.041729804,
        0.044722244,
        -0.11330974,
        -0.11291267,
        -0.041959234,
        -0.062657595,
        -0.006763615,
        0.04886712,
        -0.08227638,
        0.017880807,
        -0.022172567,
        0.019855775,
        -0.062438216,
        -0.017019741,
        -0.018063296,
        2.9902105E-4,
        0.121022105,
        -0.012754169,
        -0.064401306,
        0.037402853,
        0.010648955,
        0.0070827478,
        -0.025305917,
        0.009324481,
        -0.0013224632,
        0.001369508,
        0.030082326,
        0.08317754,
        0.022138592,
        -0.07749687,
        0.040146314,
        -0.11457052,
        0.047581546,
        -0.016170975,
        -0.07774838,
        -0.12476526,
        -0.008398098,
        -0.058888145,
        -0.0588015,
        -0.055739112,
        -0.02516672,
        -0.12391962,
        -0.090684265,
        -0.08046743,
        4.5607233E-4,
        -0.02006715,
        0.10184922,
        -0.065489374,
        0.021551102,
        -0.026730191,
        -0.040025838,
        -0.025874183,
        0.1281706,
        0.092045315,
        0.004865692,
        0.041596383,
        0.11356271,
        0.106263384,
        0.01169123,
        -0.017799888,
        -0.0633038,
        0.0630471,
        0.09153359,
        -5.664484E-4,
        0.03482443,
        0.03879094,
        0.01706099,
        -0.05260885,
        -0.057201825,
        -0.009377008,
        0.07137947,
        0.009783205,
        0.059428766,
        0.051182892,
        0.04656787,
        0.07040308,
        0.0867927,
        0.0013899667,
        -0.011947929,
        -0.037582338,
        -0.009160217,
        0.0168301,
        0.048699312,
        0.04380234,
        -0.04526019,
        0.11087834,
        -0.020951789,
        -0.01341405,
        -0.031091481,
        -0.06949202,
        0.07092336,
        -0.022127634,
        -0.040042806,
        0.060518175,
        -0.103623174,
        0.012729435,
        -0.053532176,
        -0.06679223,
        0.062832326,
        0.048955277,
        -0.06849635,
        0.03835057,
        0.009498624,
        0.034965787,
        -0.011779265,
        0.10431353,
        -0.06550117,
        0.0011004132,
        0.013720307,
        0.05871502,
        0.118741214,
        -0.011609183,
        0.10982551,
        0.01703504,
        0.11534779,
        0.04661906,
        0.061491113,
        -0.014453068,
        -0.03418807,
        -0.055100992,
        0.047092505,
        -0.0051203077,
        -0.007900979,
        0.08376354,
        0.06701372,
        0.060098395,
        0.044453494,
        0.11830596,
        -0.023830874,
        -0.0483462,
        -0.050040405,
        0.057219844,
        0.12321363,
        0.054763176,
        -0.055246137,
        -0.10059344,
        0.06676325,
        -0.03427733,
        0.0632232,
        0.10731857,
        0.026392601,
        -0.0013138647,
        0.07468417,
        0.10736749,
        0.0048419232,
        0.09020002,
        0.10983399,
        0.1085949,
        0.011584872,
        -0.008669544,
        0.10247093,
        -0.037736543,
        0.09318707,
        0.051684085,
        -0.031075237,
        0.001585085,
        0.024117801,
        0.0409763,
        -0.0029365602,
        0.04738168,
        0.090356275,
        -0.01699973,
        0.01586362,
        -0.075308405,
        0.01687195,
        -0.013822165,
        -0.08695449,
        0.018936636,
        0.010696539,
        0.07971418,
        0.06156366,
        0.04229215,
        0.06671916,
        0.01868299,
        0.012546412,
        -0.035312466,
        0.030839683,
        -0.0706163,
        0.021916011,
        -0.046617616,
        -0.095053,
        0.048069518,
        -0.02623946,
        0.025300162,
        -0.004837823,
        0.16532935,
        0.09821698,
        -0.07481699,
        0.039859466,
        0.057654854,
        0.08937209,
        -0.040232174,
        0.06079316,
        0.0037466746,
        -0.048777837,
        -0.01681611,
        0.04714864,
