{
  "inputLayer": {
    "nodes": 784
  },
  "evaluateLayers": [
    {
      "weights": [
        0.03582337,
        0.03279201,
        -0.009641605,
        -0.046200138,
        -0.089349665,
        0.010591254,
        0.040534094,
        -0.06512888,
        0.010323757,
        9.6663844E-4,
        0.16183154,
        0.108590946,
        0.024096096,
        0.07660075,
        0.1657077,
        0.045399345,
        0.17462319,
        0.21013214,
        0.16829342,
        0.029702911,
        0.09874458,
        0.059361592,
        0.05661073,
        0.09545699,
        0.04681975,
        -0.07253449,
        -5.581186E-4,
        -0.0068108207,
        -0.06831175,
        -0.08387285,
        0.03245724,
        0.044271834,
        -0.06787764,
        -0.0197215,
        -0.03813487,
        -0.042250272,
        0.08952698,
        0.06242066,
        0.039955296,
        0.06431206,
        0.0143353995,
        0.020604562,
        -0.02577787,
        0.026199142,
        0.035359945,
        0.12174428,
        0.06313871,
        -0.024057467,
        -0.07497246,
        -0.04948336,
        0.0148979165,
        0.03168305,
        -0.05537469,
        0.011974277,
        -0.024926413,
        -0.09275925,
        -0.010996052,
        -0.083176106,
        0.032547835,
        0.08211514,
        -0.08389256,
        -0.09016521,
        0.05771415,
        -0.03281275,
        0.014497989,
        -0.026815897,
        0.04789831,
        0.009182962,
        -0.13025658,
        0.027889414,
        -0.013696181,
        0.11008414,
        0.103112094,
        0.1289711,
        -0.0018549974,
        0.016142847,
        0.025979565,
        0.02516279,
        -0.008008357,
        0.025519483,
        -1.9424886E-4,
        -0.09144621,
        -0.05979908,
        -0.12775809,
        0.089009814,
        0.088925876,
        0.05626297,
        -0.061419837,
        0.108815365,
        0.04594651,
        -0.05544706,
        -0.05006324,
        -0.016694179,
        -0.02398231,
        -0.0020211781,
        -0.18929288,
        -0.20545147,
        -0.14163601,
        -0.07704561,
        0.07672383,
        0.009030689,
        0.009085097,
        0.10815091,
        -0.0075061577,
        -0.13727103,
        -0.09688096,
        0.009235494,
        0.01601504,
        -0.10672234,
        0.04623809,
        0.021312796,
        -0.16269128,
        -0.06290493,
        -0.0950407,
        -0.061029788,
        0.03480881,
        0.050596684,
        -0.030639516,
        0.0076248622,
        0.12453577,
        -0.012266983,
        -0.06720578,
        -0.2294775,
        -0.11958669,
        -0.13079982,
        -0.188851,
        -0.019638084,
        -0.01453601,
        0.09642114,
        -0.015463143,
        -0.02305756,
        -0.062369272,
        -0.13848537,
        -0.063443184,
        -0.13107501,
        -0.16958061,
        -0.013391341,
        -0.07870163,
        -0.03944015,
        -0.08442464,
        -0.010385336,
        0.0011592726,
        -0.043428406,
        -0.005343569,
        0.11412171,
        0.029081924,
        0.014153371,
        -0.074728265,
        0.040023226,
        -0.11762693,
        -0.1825609,
        -0.28195268,
        -0.19303407,
        -0.15320475,
        0.0720397,
        0.08150193,
        -0.07633098,
        0.05000076,
        -0.039965075,
        -0.1315523,
        -0.1401677,
        -0.14843741,
        -0.051978096,
        -0.16381156,
        -0.16437094,
        0.020693379,
        -0.022363588,
        -0.1477758,
        0.08227905,
        -0.08810073,
        -0.07566315,
        -0.028647454,
        0.04682882,
        0.04615965,
        0.1145359,
        0.067382865,
        0.027297566,
        -0.06412913,
        -0.1475913,
        -0.27846134,
        -0.19475617,
        -0.09703553,
        0.014602527,
        0.06282549,
        -0.009050049,
        -0.05860669,
        -0.10659135,
        -0.13046923,
        -0.17703043,
        -0.23153226,
        -0.18221891,
        -0.19440009,
        0.011442543,
        -0.12056712,
        -0.09705531,
        -0.006333551,
        0.09392338,
        0.070016935,
        0.12032655,
        -0.041172355,
        0.06075125,
        0.052343242,
        0.11268077,
        -0.016284525,
        0.05223877,
        -0.06773164,
        -0.27672204,
        -0.26608554,
        -0.19253224,
        0.025767177,
        0.15501226,
        0.13943663,
        -0.016881105,
        -0.09039299,
        -0.26980186,
        -0.26350373,
        -0.23182255,
        -0.16356976,
        -0.07684862,
        -0.06019478,
        -0.0075970828,
        0.013500839,
        0.044630926,
        -0.06628683,
        0.08814474,
        -0.06722808,
        0.09144566,
        0.003915794,
        0.10863876,
        0.008669765,
        0.14032298,
        0.10194163,
        -0.13855956,
        -0.22950773,
        -0.2798621,
        -0.19416817,
        -0.04957228,
        0.05836456,
        0.18531933,
        0.06816202,
        -0.012843036,
        -0.14931884,
        -0.1923425,
        -0.21271227,
        -0.23046416,
        -0.039624967,
        -0.05993011,
        0.06907624,
        -0.041500363,
        0.002376868,
        -0.0634033,
        -0.048949137,
        -0.028904878,
        0.10852019,
        0.02882958,
        -0.0074547897,
        -0.037964705,
        0.022875449,
        0.071474254,
        0.13825285,
        0.06971588,
        -0.12577288,
        -0.3484889,
        -0.18541701,
        -0.04693374,
        0.13953099,
        0.054774698,
        0.15049124,
        0.086589545,
        -0.27931103,
        -0.27985528,
        -0.14631274,
        -0.01083486,
        0.037590906,
        0.024754697,
        -0.030585721,
        0.011622143,
        0.08101549,
        0.10474898,
        -0.14445473,
        0.1059928,
        -0.07879759,
        -0.06721715,
        0.07829,
        0.027336715,
        0.021038817,
        0.08333278,
        -0.007978536,
        0.044055127,
        -0.07768189,
        -0.30499333,
        -0.10913761,
        -0.002974519,
        0.14607757,
        0.0728688,
        0.109285794,
        -0.15601432,
        -0.25135055,
        -0.120845504,
        -0.08158956,
        -0.07489491,
        0.021461103,
        0.088886365,
        0.005112937,
        0.11735331,
        0.08404774,
        0.018338153,
        -0.059659533,
        0.04339994,
        -0.10070818,
        -0.018143687,
        0.0035062728,
        0.07582961,
        0.05785035,
        0.09393594,
        0.013847901,
        -0.028520167,
        -0.1584293,
        -0.14430508,
        -0.16222069,
        -0.014070207,
        0.0584275,
        0.15273264,
        -0.024367923,
        -0.12544836,
        -0.23084158,
        -0.16125427,
        0.012520825,
        0.061988667,
        0.06771069,
        -0.0321566,
        0.07785491,
        0.008980723,
        -0.055126723,
        0.067250684,
        -0.027506756,
        0.055966094,
        -0.020776808,
        -0.078400865,
        -0.06664985,
        0.015464254,
        -0.0072841523,
        -0.014063849,
        0.09787656,
        0.0845569,
        -0.1185561,
        -0.13690783,
        -0.06586697,
        -0.11879734,
        0.09729561,
        -0.008771395,
        -0.044973325,
        -0.08004494,
        -0.12331353,
        -0.1022563,
        -0.068041846,
        0.0036446168,
        0.0014394978,
        -0.011255811,
        0.05834592,
        0.09248466,
        0.05439707,
        -0.11383068,
        0.049776427,
        -0.046889894,
        0.06879304,
        0.028129512,
        -0.043838866,
        0.13663556,
        0.12821376,
        -0.03373603,
        0.10032317,
        -0.04737534,
        -0.058698058,
        -0.09100022,
        0.022286007,
        -0.05596935,
        -0.0062934486,
        0.049719088,
        -0.12973468,
        -0.14113604,
        -0.02761347,
        -0.026386157,
        0.076682135,
        0.051408242,
        -0.023722367,
        0.04668291,
        -0.0488598,
        -0.037519615,
        -0.017984645,
        -0.038698357,
        -0.08415259,
        6.4284477E-4,
        0.068959564,
        -0.054614797,
        0.049082447,
        -0.0202617,
        -0.034682065,
        -0.061378125,
        0.06098091,
        -0.005015131,
        0.08098346,
        0.04652028,
        0.029019553,
        0.15730198,
        -0.0069082337,
        0.074257545,
        0.008564873,
        -0.008634376,
        -0.014216526,
        2.760003E-4,
        0.04589421,
        0.060021974,
        0.041515198,
        0.089772254,
        -0.03693309,
        0.060841635,
        -0.029374873,
        -0.06712227,
        0.0025990838,
        0.048842672,
        0.06165857,
        0.06394555,
        0.10201871,
        -0.08413985,
        0.03234164,
        0.06690246,
        -0.017095547,
        0.042077728,
        0.058544613,
        0.0478839,
        -0.0874202,
        0.16791485,
        -8.41083E-4,
        -0.02213348,
        4.7472073E-5,
        -0.01006909,
        -0.011055248,
        0.074153244,
        -0.0195587,
        -0.013646556,
        -0.058499947,
        -0.06099581,
        0.011240853,
        0.025072386,
        -0.00993107,
        -0.0603651,
        -0.05790934,
        0.037716955,
        -0.06139809,
        0.015124098,
        -0.0642203,
        -9.7332464E-4,
        -0.0301788,
        0.039515607,
        0.010334805,
        -0.011953317,
        -0.053354785,
        -0.025390027,
        0.035618935,
        -0.029089475,
        0.10400083,
        0.012271754,
        -0.053162742,
        0.017568685,
        -0.08955125,
        0.07200099,
        0.00935901,
        -0.041978486,
        0.0011506348,
        0.04738739,
        -0.090398,
        -0.039387904,
        -0.06611534,
        0.026793927,
        -0.09574621,
        0.06476281,
        -0.026717313,
        0.02812155,
        0.065060645,
        -0.03516005,
        0.08280328,
        -0.027316384,
        0.064355455,
        0.08272955,
        0.08829271,
        0.05189938,
        0.027436178,
        -0.040486675,
        0.0038042706,
        0.038253393,
        -0.025184397,
        0.03176316,
        0.028480908,
        -0.014653548,
        0.045917347,
        0.03190153,
        0.09933356,
        -0.03447855,
        -0.027653519,
        -0.027854212,
        -0.012562117,
        0.05028864,
        0.057793174,
        -0.13369802,
        -0.059627734,
        -0.049448963,
        -0.0020177483,
        -0.008180061,
        0.06671621,
        -0.053928856,
        0.05409368,
        -0.028934766,
        -0.09052279,
        -0.055464823,
        0.01603094,
        0.059063748,
        0.04577332,
        -0.034755684,
        0.02267091,
        0.015192462,
        -0.050762486,
        0.038320262,
        0.07160158,
        0.028734319,
        -0.028971367,
        0.09430687,
        -0.013493952,
        0.052449312,
        0.027767085,
        -0.060091097,
        0.07418848,
        -0.13201948,
        -0.03031024,
        0.02669138,
        -0.0458426,
        0.09222976,
        -4.9706432E-5,
        -0.025546895,
        0.0366821,
        0.024668783,
        0.065509886,
        0.027896905,
        0.020255186,
        0.035862006,
        0.015867485,
        -0.003828964,
        0.077847116,
        -0.0016725992,
        0.12864007,
        0.026466057,
        9.2919427E-4,
        -0.010634297,
        -0.010809969,
        -0.037368473,
        -0.026809221,
        0.0144275725,
        -0.051971063,
        0.013385595,
        0.017325314,
        0.016180482,
        -0.074546754,
        0.0011938716,
        -0.08791355,
        0.0037890894,
        -0.011659021,
        0.03842763,
        -0.020773735,
        -0.025241353,
        -0.022858275,
        0.023937594,
        0.004226255,
        0.020699594,
        0.07179444,
        0.018459091,
        -0.019294608,
        -0.011906658,
        -0.040811867,
        0.025845174,
        0.011420696,
        -0.008215393,
        -0.0662832,
        -0.008343447,
        0.076315306,
        -0.017195964,
        -0.063902155,
        0.009352235,
        -0.10361381,
        -0.021901445,
        0.009000091,
        0.0033302829,
        -0.039571896,
        0.009208304,
        -0.008369862,
        0.011555845,
        -0.060434263,
        -0.052480794,
        0.04962208,
        -0.06290664,
        -0.02362706,
        0.0068852534,
        -0.008928686,
        0.030123042,
        -0.04375755,
        0.03674138,
        -0.06581895,
        0.013087864,
        -0.015407099,
        0.0920419,
        0.053757243,
        0.06693371,
        -0.047490105,
        0.032394018,
        0.03578548,
        -0.053561553,
        -0.07411257,
        -0.055607986,
        -0.041143645,
        0.016488707,
        0.0042293016,
        0.023867367,
        -0.047611367,
        -0.01733905,
        0.02915633,
        -0.015318217,
        0.051001865,
        0.06964004,
        0.077177614,
        -0.004743975,
        0.050395355,
        0.002988474,
        0.06407545,
        0.030595027,
        0.049049072,
        -0.046968237,
        8.910417E-4,
        -0.07455587,
        -0.08076811,
        -0.004597665,
        0.014943175,
        -0.090500414,
        -0.059852142,
        0.06562179,
        -0.08933999,
        -0.1049061,
        -0.0031936036,
        0.062635906,
        0.02231643,
        0.0022767757,
        0.112586334,
        0.0043246076,
        0.0020298467,
        -0.04239995,
        -0.047519952,
        -0.023158299,
        -0.018876575,
        -0.03879877,
        0.05815232,
        -0.024868924,
        0.022890609,
        7.7580544E-4,
        0.029047653,
        0.062300473,
        7.662785E-4,
        0.09837336,
        0.03092,
        -0.015557466,
        -0.07810736,
        -0.06626483,
        0.02523179,
        0.06031377,
        0.077702686,
        0.017303875,
        0.05602459,
        -0.07123005,
        -0.015063538,
        -0.022322189,
        -0.061413705,
        0.107036725,
        0.06660219,
        0.09314932,
        -0.059649095,
        -0.036340374,
        0.071961544,
        -0.0065023564,
        0.12665702,
        0.012593341,
        0.051336206,
        -0.015941527,
        -0.005322139,
        -0.03153426,
        -0.058925357,
        -0.081042886,
        -0.029787928,
        0.033322558,
        -0.11741875,
        -0.023459446,
        -0.031111954,
        -0.043340687,
        0.043425072,
        -0.069680616,
        0.050888017,
        -0.007125219,
        -0.009835409,
        -0.008875514,
        0.05995799,
        -0.041076757,
        -0.007185895,
        0.035208758,
        -0.0024259505,
        0.04863406,
        -0.031277183,
        -0.041646488,
        -0.01752485,
        -0.019861188,
        0.14578222,
        -0.008029268,
        0.018015426,
        -0.022412345,
        0.09850632,
        -0.058042977,
        0.058011178,
        0.04928359,
        -0.08535852,
        -0.016818097,
        0.04540779,
        0.02004591,
        0.013475283,
        -0.017230337,
        -0.054418907,
        0.0042397506,
        -0.11294193,
        0.03919322,
        0.01948609,
        -0.061128933,
        -0.060700376,
        -2.6335118E-5,
        -0.028318448,
        -0.036589738,
        0.05849585,
        -0.07004034,
        0.07928041,
        -0.06604908,
        -0.058596324,
        -0.07138996,
        -9.4287714E-4,
        -0.0070130783,
        0.046342053,
        -0.0070642,
        -0.060895424,
        -0.06465972,
        -0.030029189,
        -0.058366332,
        -0.052700482,
        0.0019994592,
        -0.02390462,
        -0.07945024,
        -0.0013680597,
        -0.00961306,
        -0.043277178,
        -0.06832109,
        -0.12795779,
        -0.10694119,
        0.0044129165,
        -0.08723447,
        -0.15010072,
        -0.078294,
        -0.098521926,
        -0.09328072,
        -0.07532337,
        -0.117359415,
        0.008336856,
        0.026508719,
        -0.044087067,
        -0.01185055,
        0.049210228,
        -0.100436166,
        -0.0038927223,
        -0.017964745,
        -0.099000305,
        0.07374539,
        -0.08983621,
        -0.03042169,
        0.08089528,
        0.07973743,
        0.079633616,
        -0.0063967756,
        0.053008854,
        -0.034424324,
        -0.09222111,
        -0.05839651,
        0.00961214,
        0.08325366,
        -0.048119586,
        -0.059422605,
        0.079252765,
        -0.07219641,
        0.04880347,
        0.04788624,
        -0.034553282,
        -0.013326504,
        -0.022523887,
        0.08404582,
        0.0419283,
        -0.053826865,
        0.051757466,
        -0.03414466,
        -0.08314165,
        -0.011731462,
        -0.14723945,
        0.055213414,
        -0.12895337,
        -0.07972259,
        -0.0862964,
        -0.021902824,
        0.09485956,
        -0.09784761,
        -0.04221833,
        0.0117637655,
        0.07709188,
        0.08010047,
        0.00972104,
        0.05378289,
        -0.050395492,
        -0.10370012,
        0.050337467,
        -0.051923558,
        0.0026677223,
        0.020752247,
        0.03617468,
        0.13700077,
        -0.050008073,
        -0.039281502,
        -0.090345286,
        -0.059455622,
        -0.05228218,
        -0.032585025,
        -0.09786801,
        -0.121923536,
        -0.050970208,
        -0.092117086,
        0.0044181645,
        0.09576696,
        -0.038337298,
        0.022713415,
        0.09433973,
        -0.09064905,
        -0.07485308,
        0.0075049098,
        -0.020472826,
        -0.1073104,
        -0.048958845,
        0.07708159,
        -0.14231578,
        -0.043208066,
        0.060005847,
        -0.04202442,
        -0.012295171,
        0.10434374,
        0.07432118,
        0.0973919,
        -0.00658457,
        -0.09246481,
        -0.056652118,
        -0.07496635,
        0.017771091,
        -0.02635527,
        0.006635242,
        0.05613893,
        0.01539343,
        0.062145784,
        -0.018091727,
        -0.020237302,
        0.029281441,
        0.0027523595,
        -0.026668893,
        -0.10161663,
        0.080335036,
        0.07027786,
        -0.10634379,
        -0.05773224,
        -0.10183013,
        -0.046513,
        -0.09235035,
        -0.07750874,
        -0.007257276,
        -0.06829307,
        0.053024527,
        2.8796055E-4,
        -0.0018717827,
        -0.037298232,
        0.03033973,
        -0.015386153,
        -0.017853696,
        0.010934925,
        -0.095616065,
        -0.032359693,
        0.07760539,
        0.043666057,
        0.041024663,
        0.103748605,
        -0.0882369,
        0.08820902,
        0.006023127,
        0.059648767,
        -0.06491425,
        -0.012742518,
        0.0013073438,
        -0.04916337,
        -0.06807514,
        -0.005672173,
        -0.110871755,
        -0.011917346,
        0.008576513,
        0.026364569,
        -0.08942275,
        0.021825094,
        -1.8997309E-4,
        -0.029999763,
        0.027092082,
        -0.1146429,
        -0.08389775,
        -0.022975912,
        0.018363634,
        -0.04454444,
        -0.058534835,
        -0.086368866,
        -6.494777E-4,
        0.041536186,
        -0.069138825,
        -0.08246316,
        0.0828299,
        -0.10968178,
        0.07935994,
        -0.009289722,
        -0.048181515,
        -0.023991255,
        -0.060233828,
        -0.04943117,
        0.05380141,
        -5.5327375E-5,
        -0.028072508,
        0.051875934,
        0.002867404,
        0.044476017,
        0.038713895,
        0.009394779,
        -0.08925139,
        0.05466379,
        -0.01455076,
        -0.11563236,
        0.015476915,
        -0.11368006,
        0.07765254,
        0.084877186,
        -0.043294467,
        0.03287162,
        -0.068526074,
        -0.03978928,
        -0.08747536,
        -0.04286527,
        0.06462948,
        -0.1077913,
        -0.06652019,
        -0.050302092,
        -0.10550969,
        -0.06755781,
        -0.018137366,
        -0.08284756,
        0.109082185,
        -0.012178102,
        0.025294235,
        0.0338161,
        -0.042825233,
        0.041740038,
        0.053504553,
        -0.05083861,
        0.022999465,
        -0.068445444,
        -0.12157966,
        -0.009578742,
        -0.013645345,
        -0.118706144,
        0.0038420996,
        -0.021039052,
        -0.027772622,
        0.09150829,
        -0.01211984,
        0.049183257,
        0.030797888,
        -0.0014070275,
        0.038589064,
        -0.05596307,
        0.0108001875,
        0.08119401,
        0.011972906,
        0.052753266,
        -0.042251065,
        0.036312435,
        0.026451018,
        0.0713159,
        -0.06980988,
        -0.038997795,
        0.003123125,
        0.049376376,
        0.03413964,
        0.061746243,
        -0.08042943,
        -0.06656048,
        0.02132759,
        -0.06358834,
        0.0607934,
        0.007555535,
        -0.04208028,
        -0.053870324,
        -0.067421004,
        -0.0248991,
        0.056258768,
        -0.010179782,
        0.010912766,
        -0.0642526,
        -0.0580023,
        -0.07835307,
        -0.07764684,
        -0.05426086,
        -0.044706192,
        0.057763293,
        0.011319993,
        0.08070994,
        -0.052069806,
        0.09918481,
        -0.06594718,
        0.011458383,
        -0.024680052,
        -0.039034963,
        -0.10709397,
        -0.15832104,
        -0.055277556,
        0.022017002,
        -0.09819877,
        -0.043108623,
        -0.03065797,
        0.012969141,
        0.0391625,
        0.06714666,
        -0.0014674511,
        -0.04820746,
        0.06188628,
        -0.01289416,
        -0.10895502,
        -0.038209688,
        -0.14007416,
        -0.03810406,
        0.10601961,
        -0.08463355,
        -0.007691891,
        -0.041318465,
        0.04593297,
        0.0424458,
        -0.0471681,
        -0.08987493,
        -0.049111705,
        0.05218749,
        -0.005196895,
        -0.1148944,
        -0.01266468,
        -0.03576793,
        0.014625769,
        0.051144987,
        0.0994074,
        -0.03284004,
        0.061725095,
        0.023851372,
        0.05478674,
        0.124360465,
        -0.060462385,
        -0.05465695,
        -0.020882895,
        0.016079765,
        -0.020805433,
        -0.013682736,
        -0.023259405,
        0.0058202613,
        0.048986413,
        -0.06989646,
        0.01987689,
        -9.4936346E-4,
        0.086021274,
        0.013785062,
        0.025116097,
        0.044009708,
        -0.08033263,
        -0.20283215,
        -0.0735585,
        -0.07474749,
        0.11754329,
        -0.006947259,
        -0.028830623,
        0.054033082,
        0.09489759,
        0.029382613,
        -0.0071816226,
        0.09537214,
        0.04140399,
        0.13132747,
        -0.023139203,
        -0.09900185,
        -6.8653404E-4,
        -0.03550093,
        -0.10455959,
        0.061929647,
        0.064130306,
        0.009632915,
        -0.101810746,
        -0.027757753,
        -0.09171864,
        -0.045140795,
        -0.109878585,
        -0.11850116,
        -0.09277081,
        -0.19107667,
        -0.17683285,
        0.06528283,
        -0.06370884,
        0.13429081,
        0.004627006,
        0.11972702,
        0.015512628,
        -0.022576159,
        0.13089548,
        0.15700102,
        0.16604489,
        0.0158631,
        -0.03441388,
        -0.018110054,
        -0.02904531,
        -0.14634071,
        -0.14133103,
        -0.08773359,
        0.05017411,
        -0.064208314,
        0.033447765,
        0.04754384,
        -0.08001893,
        -0.08655081,
        -0.084356606,
        -0.052984823,
        -0.006492541,
        -0.2672612,
        -0.14929163,
        0.033617653,
        -0.061276745,
        -0.0040348633,
        -0.06506583,
        0.013159598,
        0.09586529,
        0.04285351,
        0.15719481,
        0.08637882,
        0.17946255,
        0.052900095,
        0.074746706,
        -0.10632024,
        -0.029011926,
        -0.051468976,
        -0.15842058,
        -0.1653344,
        -0.15876941,
        -0.036854982,
        -0.15691245,
        -0.095894195,
        0.015256148,
        0.04562613,
        -0.08248943,
        0.040135633,
        -0.13125852,
        -0.22434379,
        -0.08235473,
        -0.152463,
        -0.12467089,
        -0.028819606,
        -0.08234189,
        0.045038294,
        -0.08242445,
        0.03379569,
        0.018580243,
        0.12771419,
        0.20714927,
        0.09550344,
        -0.033939864,
        -0.14383455,
        -0.10871559,
        -0.12893286,
        -0.1196274,
        -0.060245078,
        -0.15174232,
        -0.023692897,
        -0.02054586,
        -0.04840659,
        -0.10550587,
        -0.008289843,
        -0.04238692,
        0.06337808,
        6.375691E-4,
        -0.21254793,
        -0.16044854,
        -0.12946707,
        -0.100701936,
        -0.075191624,
        -0.035188343,
        -0.14142954,
        0.0014602414,
        0.0366419,
        0.045853503,
        0.0898932,
        0.06659343,
        0.04354509,
        0.0063931253,
        -0.033563714,
        -0.15628436,
        -0.21084665,
        -0.122518875,
        -0.19898942,
        -0.13411856,
        -0.1123467,
        -0.014476061,
        -0.063978404,
        -0.0881962,
        0.04157442,
        -0.08223115,
        -0.08194001,
        -0.03360568,
        -0.097555816,
        0.028816223,
        -0.071098365,
        -0.12298028,
        -0.12531792,
        0.025558472,
        3.1586326E-4,
        -0.0012477015,
        -0.019697046,
        -0.048741248,
        0.05327133,
        0.09518765,
        0.117933534,
        0.026980104,
        -0.14244701,
        -0.03622446,
        0.020915313,
        -0.16918378,
        -0.06544956,
        -0.20653087,
        0.004875581,
        -0.119055904,
        -0.15240113,
        -0.046513397,
        -0.08930926,
        0.00133566,
        -0.06021199,
        -0.08657976,
        -0.02111612,
        -0.040801186,
        -0.011728835,
        2.7109322E-4,
        -0.046054795,
        0.08895448,
        0.026311023,
        -0.0656658,
        0.05568902,
        0.07198194,
        0.18828502,
        0.13327616,
        0.11501206,
        0.0018034301,
        -0.012613152,
        -0.12394876,
        -0.15167055,
        -0.11192881,
        -0.19885097,
        -0.12170284,
        -0.17379878,
        -0.100124545,
        -0.035991877,
        -0.05727727,
        -0.075126275,
        -0.020851439,
        0.024131319,
        -0.06969228,
        0.044723254,
        0.09060232,
        0.07688702,
        0.093295775,
        0.010963712,
        0.050174735,
        0.1178156,
        -0.0011738827,
        0.06767469,
        -0.011791719,
        0.11411898,
        0.0029003485,
        0.11829538,
        0.059402548,
        -0.08505154,
        0.04081775,
        -0.13043101,
        -0.063982226,
        -0.13149731,
        -0.08657333,
        -0.058840867,
        0.0044035693,
        -0.031089582,
        -0.005304617,
        0.010198208,
        -0.14382926,
        -0.07120597,
        0.07540508,
        0.039809845,
        -0.006063558,
        0.038162243,
        0.027166538,
        0.004954797,
        0.034890886,
        0.058688737,
        0.009108614,
        0.021279676,
        0.104474425,
        0.008813484,
        -0.029695878,
        -0.01811238,
        0.059153654,
        -0.056575414,
        -0.056486636,
        -0.015457182,
        0.016356466,
        0.004080989,
        -0.130802,
        -0.035912182,
        -0.09377484,
        -0.003838046,
        0.027845915,
        -0.0025996487,
        0.024521569,
        0.03698835,
        -0.03551204,
        -0.01955687,
        -0.041275606,
        0.09133398,
        0.12724277,
        -0.016533785,
        0.09562201,
        0.143125,
        0.16190976,
        0.13479985,
        0.10053014,
        0.05003651,
        0.10249482,
        -0.004548861,
        0.049701076,
        -0.026254522,
        0.022712499,
        -0.07214538,
        -0.07401388,
        -0.103068195,
        0.011145037,
        -0.11804754,
        -0.114012755,
        -0.13025548,
        0.005626484,
        -0.05500182,
        -0.06516714,
        0.04092394,
        -0.09140975,
        0.08570551,
        0.02667467,
        9.0799684E-4,
        0.004230398,
        -0.0015508548,
        -0.032422505,
        0.010221052,
        -0.01922778,
        0.056907862,
        -0.031038988,
        0.027652822,
        -0.08437033,
        0.027586393,
        0.03638774,
        -0.021527404,
        0.0355141,
        -0.056417286,
        -0.01421701,
        0.0544763,
        -0.051731143,
        0.033997044,
        -0.13271344,
        -0.08266313,
        0.044138566,
        0.02216085,
        -0.08596871,
        -0.055558413,
        0.030672483,
        0.0028727732,
        0.11394255,
        -0.07763123,
        0.0897302,
        0.03840995,
        0.058974896,
        0.03823261,
        -0.027228946,
        -0.009427052,
        0.048916478,
        -0.04228068,
        0.06381103,
        -0.052306026,
        -0.08187114,
        0.062945545,
        -0.0591237,
        -0.017443879,
        0.054624654,
        -0.015561596,
        -0.09348164,
        -0.046572305,
        -0.050589137,
        -0.09188892,
        -0.13717027,
        -0.05883132,
        -0.005788065,
        -0.014416562,
        0.08435897,
        0.004122237,
        0.060494427,
        0.052923206,
        0.030153645,
        0.049931597,
        -0.07911172,
        0.033488736,
        0.03627717,
        0.044113014,
        0.014701049,
        -0.10707795,
        -0.09762777,
        0.072900034,
        0.06071867,
        -0.036270466,
        0.022269161,
        -0.054464396,
        0.0076842173,
        -0.07038341,
        0.03452429,
        -0.062410552,
        0.06022101,
        -0.043764453,
        -0.028957583,
        0.045071296,
        -0.033220008,
        0.0049463385,
        0.042354356,
        0.06945945,
        -0.0040246095,
        -0.06279288,
        -0.041150138,
        -0.026435222,
        0.061504647,
        0.011188388,
        -0.009936495,
        0.044519514,
        -0.03366694,
        0.00305134,
        -0.032336324,
        -0.10689978,
        -0.07635624,
        0.03256145,
        0.06595582,
        -0.048795857,
        0.003785532,
        0.030828856,
        -0.053284474,
        -0.08555006,
        0.038963497,
        -0.0014188373,
        -0.047992945,
        0.06554295,
        -0.006914752,
        0.042903442,
        0.01792759,
        0.070325926,
        -0.08148217,
        0.045290384,
        0.038739145,
        -0.021067945,
        0.059263073,
        0.025614196,
        -0.001888012,
        -0.066626765,
        0.032845285,
        -0.031843767,
        -0.08146353,
        -0.024825314,
        -0.0628618,
        0.0029084187,
        0.068561554,
        0.031869926,
        -0.061320513,
        0.050906137,
        0.040890075,
        -0.077663176,
        0.020685606,
        -0.08294482,
        0.028188165,
        0.066691644,
        -0.08428805,
        -0.013070768,
        0.024230024,
        0.02552502,
        -0.022212794,
        0.025095593,
        0.024484998,
        0.03731673,
        -0.010762527,
        -0.08588848,
        0.084021494,
        -0.033667523,
        0.02808957,
        -0.016618958,
        0.018909752,
        0.038400903,
        0.0058132503,
        0.0027458537,
        0.02129028,
        0.06842675,
        0.054598294,
        -0.056139518,
        -0.052256152,
        0.007358804,
        -0.04472287,
        0.07058713,
        -0.07325913,
        -0.07181744,
        0.082087256,
        -0.059413467,
        0.0687907,
        0.04314547,
        0.004194316,
        0.01811196,
        -0.04386153,
        -0.030430865,
        0.054390065,
        0.06982627,
        -0.013833298,
        0.014203614,
        -0.053198513,
        -0.027740503,
        0.05979808,
        0.04245776,
        -0.058713607,
        0.08642304,
        -0.09997357,
        0.03081194,
        0.04763827,
        0.038435373,
        -0.014379218,
        0.005709229,
        -0.03312218,
        0.012867137,
        0.086437695,
        0.0979384,
        0.03182824,
        -0.086053565,
        0.045368314,
        0.010074539,
        0.043169532,
        -0.0597172,
        -0.094715476,
        0.0043160385,
        0.061420772,
        0.0016864506,
        0.009958982,
        -0.03588175,
        0.018412227,
        -0.033924263,
        -0.06978323,
        0.003654941,
        -0.1805531,
        -0.078925535,
        -0.07882603,
        -0.11269959,
        -0.17090416,
        -0.07663244,
        0.033645578,
        -0.006698424,
        -0.011187185,
        0.12428703,
        0.033741947,
        0.14378853,
        0.1177543,
        0.104054175,
        0.093107745,
        -0.06420569,
        0.035444167,
        0.049722593,
        -0.04735985,
        -0.08503363,
        -0.045131683,
        -0.050526764,
        -0.056630492,
        0.020284807,
        -0.033658504,
        -0.03043345,
        0.06731881,
        -0.018048907,
        0.047576718,
        -0.1053451,
        -0.08385787,
        0.019330263,
        -0.018307209,
        -0.03297218,
        0.042131603,
        0.067264415,
        0.022306029,
        0.066907756,
        0.111445665,
        0.07830166,
        0.07074348,
        -0.028728962,
        -0.0021075513,
        -0.08208172,
        0.040525522,
        0.01702222,
        -0.04144725,
        0.0639665,
        0.019323185,
        0.06425134,
        0.018090932,
        -0.0398394,
        0.0037193918,
        0.10271245,
        -0.05454495,
        0.06947498,
        0.057287835,
        0.021519734,
        -0.058518533,
        0.070587665,
        0.04720719,
        -0.02079752,
        0.028871188,
        0.056320034,
        0.066273354,
        0.044193584,
        -0.014800171,
        9.473473E-5,
        -0.027270593,
        -0.06707337,
        -0.100143984,
        -0.06959427,
        0.011016052,
        0.07650818,
        -0.027640209,
        -0.09113639,
        -0.014838106,
        0.017044555,
        0.048848126,
        -0.05705689,
        0.07878011,
        0.03669805,
        0.045676563,
        -0.069683954,
        0.019226465,
        0.12758185,
        0.050497036,
        0.033792578,
        0.041614737,
        -0.032965243,
        0.12166273,
        0.07502673,
        0.07234157,
        0.08651038,
        0.06646818,
        0.049565323,
        0.008047902,
        0.0025561396,
        -0.13213065,
        0.014942903,
        -0.030693611,
        -0.0064224587,
        0.08082124,
        0.0032950307,
        0.060415193,
        0.024139382,
        0.05730683,
        0.13383442,
        0.03590898,
        0.11102351,
        0.10896878,
        0.10566255,
        0.117251985,
        -0.00699374,
        0.030534403,
        0.106972866,
        0.042309098,
        0.12975968,
        0.074154526,
        0.047202535,
        0.029010579,
        0.006729766,
        0.00822648,
        -0.02334007,
        0.010074212,
        -0.018189508,
        -0.12749732,
        -0.0058628614,
        -0.023070693,
        -0.041133698,
        0.043491375,
        -0.053155754,
        0.11622077,
        -0.04104862,
        0.1365386,
        0.038625266,
        -0.03608862,
        0.12676135,
        0.03399375,
        -0.06262532,
        0.1529833,
        0.034091257,
        0.124599054,
        0.09425603,
        0.088693626,
        0.11235518,
        0.07499134,
        0.07725352,
        0.049414404,
        0.04473152,
        -0.050183296,
        0.025562342,
        0.03280364,
        -0.035052687,
        -0.17119083,
        -0.067274556,
        0.048291624,
        0.0417687,
        -7.862977E-4,
        -0.058851965,
        -0.03511643,
        0.035316065,
        0.075020075,
        -0.02962391,
        -0.028284607,
        -0.021627402,
        -0.009463235,
        0.11290805,
        -0.005958958,
        0.036699466,
        0.02330631,
        0.09069084,
        0.007931825,
        0.053411044,
        -0.034879196,
        -0.03676502,
        -0.1300813,
        -0.013841379,
        0.025285086,
        0.04673761,
        0.063348934,
        0.007244278,
        -0.10443858,
        0.026082085,
        -0.06729005,
        0.045647953,
        -0.08201934,
        0.0013065988,
        0.10713744,
        -0.02759738,
        0.124596335,
        -0.007793066,
        0.08203113,
        0.035802167,
        -0.0305778,
        -0.017953403,
        -0.027577462,
        0.054946065,
        -0.022567542,
        -0.11870661,
        0.009900215,
        -0.1228728,
        -0.10324585,
        -0.016763693,
        0.003238013,
        -0.09195268,
        -0.04953447,
        -0.16667211,
        -0.011168755,
        -0.17027403,
        -0.23196562,
        -0.04353264,
        -0.09381227,
        0.08669725,
        -0.0166874,
        0.007610468,
        -0.015960908,
        -0.044824097,
        0.011705718,
        0.10078265,
        -0.03554559,
        -0.021908555,
        -0.058586095,
        0.025503036,
        0.09708591,
        -0.029154673,
        -0.06728792,
        0.0031685554,
        -0.13315256,
        0.029520918,
        -0.103683025,
        -0.074616775,
        -6.8013265E-4,
        0.020061871,
        -0.006922483,
        -0.06187515,
        -0.18566744,
        -0.07056712,
        -0.24496181,
        -0.11828369,
        0.009679747,
        -0.10880366,
        -0.047024738,
        0.028325992,
        0.0030075426,
        -0.041761734,
        0.06605545,
        -0.059459604,
        -0.06477759,
        -0.03908899,
        -0.036264334,
        -0.008225003,
        -0.044195686,
        0.041982267,
        -0.036009643,
        -0.014952019,
        -0.03781449,
        -0.0025825268,
        0.019669136,
        -0.07514019,
        -0.1448835,
        -0.022435231,
        -0.11566696,
        -0.027153138,
        -0.066054575,
        -0.04298813,
        -0.2006542,
        -0.14140944,
        -0.044634443,
        -0.06799471,
        -0.144765,
        -0.13616072,
        -0.09355963,
        -0.20140569,
        -0.12070863,
        -0.043368228,
        -0.062508754,
        -0.10219929,
        0.0048658266,
        -0.12555367,
        -0.065429986,
        -0.045132063,
        -0.08142585,
        -0.09970325,
        -0.022919878,
        -0.10937022,
        -0.09825473,
        0.033804595,
        -0.0020048255,
        -0.1278229,
        -0.096820705,
        -0.10540841,
        -0.14463504,
        -0.036994334,
        -0.1885672,
        -0.1316553,
        -0.027278595,
        -0.1470634,
        -0.12445059,
        -0.03787039,
        -0.14948648,
        -0.14407548,
        -0.10612883,
        -0.21757291,
        -0.16082175,
        -0.18740599,
        -0.20012797,
        -0.21752062,
        -0.18420523,
        -0.18136325,
        -0.12314397,
        -0.007106115,
        -0.14087453,
        0.0017757125,
        -0.041862212,
        -0.0024108882,
        -0.13016748,
        -0.029044637,
        -0.12573159,
        -0.052386273,
        -0.14794986,
        -0.18196416,
        -0.048469067,
        -0.09719321,
        -0.20133656,
        -0.20430914,
        -0.085589565,
        -0.07902439,
        -0.26740608,
        -0.1330605,
        -0.20198531,
        -0.24186054,
        -0.1357337,
        -0.11860764,
        -0.20282069,
        -0.12304654,
        -0.17053495,
        -0.13013336,
        -0.18907623,
        -0.16914955,
        -0.11484642,
        -0.19223246,
        -0.08145297,
        -0.11820783,
        -0.1470871,
        -0.08870133,
        -0.040056564,
        -0.045578007,
        -0.1110507,
        -0.100590274,
        -0.18833306,
        -0.159698,
        -0.07332895,
        -0.16186462,
        -0.05637667,
        -0.19451201,
        -0.15539062,
        -0.0557591,
        -0.1019737,
        -0.09499619,
        -0.15508102,
        -0.10306489,
        -0.090177186,
        -0.04582347,
        -0.11075752,
        -0.039911624,
        -0.13653466,
        -0.05853914,
        -0.19277568,
        -0.076190874,
        -0.028421955,
        -0.1401386,
        -0.048400447,
        -0.121608935,
        -0.15141399,
        -0.031102657,
        -0.043588,
        -0.016386181,
        -0.08119094,
        -0.09154854,
        0.0012787652,
        -0.12407334,
        -0.13418415,
        0.0578057,
        -0.06774669,
        -0.026964426,
        -0.0900097,
        0.07448283,
        0.028741695,
        0.03768333,
        0.016938297,
        0.078073844,
        0.047332704,
        0.02055767,
        0.0065061287,
        -0.10626666,
        -0.04646545,
        -0.10039678,
        -0.14274551,
        -0.24148686,
        -0.05325381,
        -0.10581307,
        -0.022464067,
        -0.1482516,
        -0.008130621,
        -0.16227427,
        -0.131428,
        0.016549926,
        -0.033398796,
        0.086081654,
        0.067645766,
        0.10779268,
        -0.006594859,
        0.12288012,
        0.1630028,
        0.14648679,
        -0.044890635,
        0.11096069,
        0.0035442295,
        0.06052163,
        0.005221494,
        0.025317948,
        -0.017364142,
        -0.00859389,
        0.08464711,
        0.052709587,
        -0.015028253,
        0.017515166,
        -0.045064725,
        -0.005577073,
        -0.11624492,
        -0.032473445,
        -0.06161757,
        -0.025845919,
        -0.07236374,
        -0.013555974,
        0.10437554,
        0.08708737,
        -0.021807496,
        0.122894384,
        0.085834734,
        0.05384818,
        0.10457238,
        8.372889E-4,
        0.12709588,
        0.08595305,
        0.041460704,
        0.040729553,
        0.058524095,
        -0.023167845,
        0.045864027,
        0.024613002,
        0.09463029,
        -0.019550148,
        0.0572559,
        0.09065464,
        0.07575886,
        -0.014097364,
        -0.07319176,
        0.124674015,
        0.10420898,
        0.011760873,
        0.10170224,
        0.13117446,
        -0.016978744,
        0.09974252,
        0.06784071,
        0.0089139175,
        0.059000418,
        0.1592017,
        0.02115653,
        0.06375296,
        0.049866445,
        7.033821E-5,
        0.12054447,
        0.14313546,
        -0.024720345,
        0.09616096,
        0.07551468,
        0.032422636,
        0.06197937,
        0.13596563,
        -0.057231538,
        0.02163818,
        0.09215003,
        0.10615605,
        0.050636962,
        0.11515994,
        0.008622491,
        0.09582881,
        -0.007681223,
        0.054127935,
        -0.048394576,
        0.086983785,
        -0.01732197,
        0.06880612,
        -0.027466964,
        0.13181765,
        -0.017583478,
        0.078264795,
        0.020186435,
        0.071314156,
        -0.086259946,
        0.04491526,
        0.0022047772,
        0.06561161,
        -0.013313773,
        0.05874001,
        0.06921141,
        0.04675714,
        0.07318777,
        0.08936801,
        0.11254113,
        0.011176772,
        0.04387756,
        0.096714586,
        0.038669318,
        -0.03720562,
        -0.046194892,
        0.020607641,
        0.028910112,
        -0.058059815,
        -0.023118207,
        0.010101695,
        -0.011680579,
        -0.05970842,
        -0.05176233,
        0.055588484,
        -0.043513417,
        0.02722991,
        -0.074354865,
        0.015747868,
        0.040646367,
        -0.0061201444,
        -0.0046485798,
        0.09532422,
        -0.07479984,
        0.051022794,
        0.0073071257,
        0.06663562,
        0.0793699,
        0.0025740487,
        0.08152527,
        0.106756546,
        -0.046085935,
        0.1243292,
        0.02816172,
        -0.09142127,
        -0.060818404,
        0.03106072,
        -0.04449983,
        0.07480626,
        -0.027279178,
        0.07470096,
        -0.036518138,
        -0.10616713,
        -0.06102615,
        -0.087033056,
        -0.0052225366,
        -0.07499576,
        -0.08668761,
        0.05933589,
        0.016330285,
        0.09350979,
        -0.033145163,
        -0.018171364,
        0.034133803,
        -0.02097003,
        -0.10023834,
        0.080427095,
        0.04323569,
        0.10203186,
        0.097370245,
        -0.013231286,
        -0.06648793,
        -0.11699149,
        0.031004958,
        -0.08319912,
        -0.068035305,
        -0.045011863,
        -5.547592E-4,
        -0.090955146,
        -0.06918807,
        -0.067156315,
        -0.047734898,
        0.014718494,
        0.035834417,
        -0.07099553,
        -0.011741402,
        -0.08463823,
        -0.075485975,
        -0.040050168,
        0.028606635,
        -0.061733,
        0.06374661,
        -0.052085806,
        -0.023134368,
        -0.044993684,
        0.025063403,
        -0.035371363,
        0.09882817,
        0.071935676,
        -0.05900771,
        -0.0829927,
        -0.051525325,
        -0.09171587,
        -0.09514564,
        0.021730825,
        -0.01837364,
        0.009478894,
        0.037016567,
        0.051611286,
        -0.041900907,
        -0.09469724,
        0.014245587,
        -0.10441797,
        -0.06682697,
        -0.02583144,
        -0.08584035,
        -0.11530427,
        -0.08881528,
        -0.064249,
        -0.023714455,
        0.060424957,
        -0.08379947,
        -0.041090984,
        0.030421387,
        -0.06371213,
        0.0668527,
        1.9895294E-4,
        0.09309002,
        -0.044787586,
        0.073815525,
        -0.009498727,
        -0.01130643,
        -0.063392274,
        0.053977605,
        0.050077952,
        -0.024730045,
        -0.07643384,
        -0.018845607,
        -0.13928722,
        -0.026691489,
        -0.036162086,
        -0.043051332,
        -0.14578609,
        -0.036361642,
        -0.067931816,
        -0.0572126,
        -0.17833422,
        -0.18669234,
        -0.07707344,
        0.057637036,
        0.08305858,
        -0.055604674,
        0.010073098,
        0.07103759,
        0.065543555,
        -0.067596056,
        0.044423707,
        -0.02315425,
        0.05303261,
        0.052965775,
        -0.041218065,
        -0.04418059,
        -0.090160236,
        0.044512693,
        -0.06667172,
        -0.04675147,
        0.04052145,
        -0.11485865,
        -0.03520175,
        0.0032367068,
        -0.09227324,
        -0.08103178,
        -0.11044312,
        -0.044541817,
        -0.040041402,
        0.0067353803,
        -0.06962436,
        -0.112128265,
        0.03464749,
        -0.105247594,
        -0.081378676,
        -0.08533282,
        -0.10061609,
        0.030295495,
        -0.0141414,
        -0.03416303,
        -0.015163674,
        -0.08080402,
        0.06394168,
        -0.017658958,
        -0.020246992,
        4.5649384E-4,
        0.043274034,
        -0.007909349,
        -0.01947298,
        0.0078220535,
        -0.005682043,
        -0.022767302,
        -0.041898143,
        -0.11889675,
        -0.094080806,
        -0.0826858,
        -0.05207057,
        -0.13181597,
        0.057933252,
        0.024556968,
        0.05608794,
        0.0084162485,
        -0.04655283,
        -0.051850356,
        -0.030002026,
        -0.020496523,
        0.10637357,
        0.05784044,
        0.006443997,
        0.027186498,
        -0.04788686,
        -0.0018437691,
        0.039389588,
        0.06780218,
        -0.034817506,
        0.049016338,
        0.04226722,
        0.0853671,
        0.023318067,
        0.059704583,
        -0.032680124,
        0.035229933,
        -0.041097682,
        -0.05526757,
        -0.0058153877,
        0.0056211026,
        0.073791236,
        -0.094988205,
        -0.027357683,
        0.05004527,
        -0.0019107428,
        -0.09981858,
        0.046542842,
        -0.06524174,
        0.010869242,
        -0.024374034,
        0.07410969,
        -0.045488518,
        0.0019415811,
        0.07455871,
        0.034010183,
        0.02791074,
        -0.015488339,
        -0.04479399,
        0.09198652,
        -0.016561057,
        -0.03928062,
        0.03606748,
        0.08883194,
        -0.017018,
        0.032094598,
        0.0451653,
        -0.01438332,
        0.057899516,
        -0.02954846,
        0.070142746,
        -0.022854136,
        -0.05960861,
        -0.013931788,
        0.030309513,
        0.0909198,
        -0.0535015,
        -0.004518938,
        -0.08206805,
        0.0912819,
        -0.048733305,
        -0.024881318,
        -0.037760604,
        -0.09505829,
        -0.020191977,
        0.058511928,
        -0.10154192,
        0.018247146,
        -0.104701936,
        -0.039475635,
        -0.06536103,
        0.022669947,
        -0.03324493,
        0.065305084,
        -0.0085879555,
        0.082988635,
        0.019620284,
        -0.026886085,
        -0.005957033,
        -0.099500634,
        -0.03461537,
        0.034766935,
        -0.058205783,
        0.08439265,
        6.2879967E-4,
        -0.06813936,
        0.0652098,
        -0.051087517,
        -0.007180129,
        -0.06649316,
        0.023806771,
        0.039417278,
        -0.08478383,
        0.021119462,
        0.0522444,
        -0.106753506,
        0.04973901,
        -0.030842565,
        -0.024731215,
        0.031356562,
        -0.120658696,
        -0.042038836,
        -0.033605658,
        -0.11872745,
        0.044191804,
        -0.05022796,
        0.03577497,
        -0.07805456,
        -0.04517722,
        -0.063602075,
        0.0024423653,
        0.006234117,
        0.05335294,
        0.045098197,
        0.060881354,
        -0.01870398,
        0.058993645,
        -0.053927485,
        -0.10084042,
        -0.1012242,
        0.048368357,
        -0.07644091,
        0.074347876,
        0.07943554,
        -0.054247178,
        0.0067780567,
        0.004036333,
        -0.058673184,
        -0.12914893,
        -0.002925203,
        -0.022054594,
        -0.07219658,
        -0.057726797,
        -0.108124636,
        -0.019496761,
        -0.062360216,
        -0.005170401,
        0.00948757,
        0.059921764,
        -0.04204167,
        0.060742155,
        -0.03482213,
        -0.060415443,
        -0.099878676,
        0.075384796,
        0.036437444,
        0.0011508872,
        0.072958544,
        -0.095730945,
        -0.05954009,
        -0.07516389,
        0.09431885,
        -0.045645475,
        -0.035446145,
        -0.021032639,
        0.028611025,
        -0.026459828,
        -0.07851721,
        0.04834741,
        -0.063000664,
        -0.10912743,
        0.0020904192,
        -0.0751677,
        0.022548756,
        -0.08358706,
        0.050176222,
        -0.061863843,
        -0.1045522,
        0.043698687,
        -0.058872372,
        -0.0978333,
        0.07812646,
        0.038227163,
        0.028924106,
        -0.060966544,
        0.044320144,
        0.068083644,
        -0.07769594,
        0.05365497,
        -0.056721896,
        -0.029824346,
        0.016253104,
        -0.037238643,
        0.062156305,
        -0.055601288,
        -0.005851378,
        -0.034800764,
        -0.05471068,
        -0.004427396,
        -0.045802634,
        0.03681645,
        -0.10350373,
        -0.0135769015,
        -0.024021883,
        0.0052075726,
        0.0047928267,
        0.06488133,
        -0.016081104,
        0.03704737,
        -0.057958793,
        0.029074155,
        -0.033770736,
        -0.098622166,
        0.02119615,
        0.06960326,
        0.010655948,
        0.026123498,
        -0.021084266,
        0.0641724,
        -0.040813334,
        -0.0042290683,
        -0.09962755,
        0.027266465,
        0.039351646,
        -0.0011216303,
        0.04187726,
        -0.05915268,
        -0.078876846,
        -0.13478361,
        0.005688172,
        -0.12615575,
        -0.011737826,
        0.0021165789,
        -0.08528434,
        0.06054812,
        -0.02223598,
        0.032120403,
        -0.015371071,
        0.026771395,
        -0.090456076,
        0.10337403,
        -0.061148286,
        0.04916899,
        -0.050436493,
        0.059637416,
        -0.09622517,
        -0.082023226,
        0.0053341878,
        -0.054871526,
        -0.06152222,
        0.03442473,
        -0.057205014,
        -0.02693238,
        -0.07240753,
        -0.0073094578,
        -0.0078040725,
        -0.026500477,
        -0.02479479,
        -0.02900402,
        -0.057377506,
        -0.09248332,
        -0.08010861,
        0.002366313,
        0.025568774,
        -0.0247969,
        0.042182915,
        -0.061904218,
        -0.06344764,
        -0.051944792,
        -0.06326177,
        0.059770614,
        -0.0718016,
        -0.011134812,
        0.005787466,
        0.025407603,
        -0.06106073,
        -0.08960644,
        0.02189692,
        0.022759132,
        -0.05121787,
        -0.009280871,
        0.035923734,
        -0.10094638,
        -0.015892886,
        -0.08305281,
        -0.091141626,
        -0.06549608,
        -0.041868336,
        -0.09622526,
        -0.069012746,
        0.07334819,
        0.09336144,
        0.0722076,
        0.00592166,
        0.05772571,
        0.01618525,
        -0.0816187,
        -0.01499364,
        0.006578217,
        -0.07365,
        0.04847835,
        -0.08263139,
        -0.0053484277,
        -0.018425152,
        -0.07110523,
        -0.07175277,
        -0.08706659,
        -0.0723657,
        0.003262009,
        -0.072694585,
        0.056053407,
        -0.03442197,
        -0.081046,
        0.022687094,
        0.02653372,
        -0.00616543,
        -0.04650761,
        -0.03879276,
        -0.122646734,
        -0.0036161745,
        0.10720826,
        -0.026309589,
        -0.09926282,
        -0.098782495,
        -0.06520057,
        -0.0897167,
        -0.13919556,
        0.012628326,
        -0.11499945,
        -0.022261618,
        -0.095132776,
        -0.08088625,
        -0.11323497,
        -0.06778658,
        -0.09096329,
        -0.021174738,
        -0.016069075,
        -0.10183327,
        -0.082852885,
        0.050949384,
        -0.08163713,
        0.039802637,
        -0.15302438,
        0.005304941,
        -0.08690659,
        0.012624381,
        -0.06311609,
        0.0040151267,
        0.034919634,
        0.07877779,
        0.07903159,
        -0.10455775,
        0.018244177,
        -0.06432632,
        -0.12764812,
        -0.043828677,
        -0.033759102,
        -0.09292932,
        -0.09317566,
        -0.049457133,
        -0.0782613,
        -0.13555834,
        -0.07503287,
        -0.06718301,
        -0.106670976,
        -0.030879384,
        -0.04083489,
        -0.10698,
        -0.115443476,
        -0.10784145,
        0.01986106,
        -0.1659631,
        -0.037460968,
        -0.0068399454,
        -0.024196204,
        0.19781803,
        0.10273039,
        -0.0049680253,
        0.021528028,
        -0.08103846,
        -0.04036449,
        -0.10051979,
        -0.11304661,
        -0.062353283,
        -0.06915447,
        -0.12809664,
        -0.08393946,
        -0.08479057,
        -0.07011716,
        -0.0014882718,
        -0.0677578,
        -0.071358316,
        -0.059983913,
        -0.036373205,
        0.005401981,
        -0.027649103,
        -0.060045082,
        -0.13495776,
        -0.07375031,
        -0.1323119,
        6.923014E-4,
        -0.09122633,
        -0.17147435,
        0.14884906,
        0.11445507,
        -0.01386105,
        -0.076053135,
        -0.1344338,
        -0.0068333023,
        -0.01771335,
        -0.08164536,
        -0.043789092,
        -0.13136896,
        -0.18052258,
        -0.11124944,
        -0.06160608,
        -0.14390308,
        -0.15802628,
        -0.14683665,
        -0.14606415,
        -0.05747765,
        -0.06566162,
        -0.114499144,
        -0.08030713,
        -0.07738172,
        -0.030814158,
        -0.20091942,
        -0.084465675,
        -0.18756199,
        -0.10487021,
        -0.12713249,
        0.094471976,
        -0.063476786,
        -0.021149447,
        0.08034494,
        -0.02705146,
        -0.13283974,
        -0.083417505,
        -0.12465756,
        -0.03560969,
        -0.10596089,
        -0.10809667,
        -0.08754363,
        -0.16243684,
        -0.045728184,
        -0.05342334,
        -0.13256937,
        -0.13337024,
        -0.11235749,
        -0.15176222,
        -0.11978942,
        -0.19969554,
        -0.05115582,
        -0.06959066,
        -0.12439192,
        -0.021191409,
        -0.06847245,
        -0.052600738,
        -0.019488245,
        0.13711317,
        -0.045819335,
        0.06907082,
        -0.019117417,
        0.07716763,
        -0.049768217,
        -0.06950189,
        -0.029667871,
        -0.09645802,
        -0.18725257,
        -0.11885356,
        -0.0644849,
        -0.080938846,
        -0.18742882,
        -0.089555435,
        -0.090150125,
        -0.09855153,
        -0.052093837,
        -0.18198939,
        -0.045087326,
        -0.026495928,
        -0.09699314,
        -0.09769357,
        -0.06196268,
        -0.07214446,
        -0.094880044,
        -0.07039848,
        -0.049234517,
        0.050209418,
        0.020172602,
        0.1428526,
        0.015628617,
        0.07598967,
        0.029059395,
        -0.026421348,
        -0.09796674,
        0.031638186,
        -0.06915908,
        -0.08609234,
        -0.045280274,
        0.01576309,
        -0.08724401,
        -0.08080134,
        -0.063029274,
        -0.043084905,
        -0.13319056,
        -0.033074033,
        -0.033447832,
        -0.10180372,
        -0.06750759,
        -0.16676371,
        -0.11859676,
        -0.17049791,
        -0.10993964,
        -0.037475366,
        6.1000872E-5,
        0.08788856,
        0.03519496,
        0.10711791,
        0.076586,
        0.04433474,
        0.1453039,
        -0.0021836287,
        0.05830975,
        -0.0044821524,
        -0.061575964,
        0.06798723,
        -0.062100787,
        0.065126725,
        -0.099892035,
        -0.0700018,
        -0.01741414,
        -0.040249538,
        -0.105480224,
        -0.14739773,
        -0.0072223656,
        -0.11104575,
        0.0042426325,
        -0.033138555,
        -0.015153585,
        -0.08607272,
        -0.093698196,
        -0.09515793,
        -0.05135305,
        0.10948296,
        0.08186866,
        0.05926053,
        0.09105915,
        0.07793646,
        0.1718913,
        0.06911573,
        0.057318877,
        0.07526495,
        0.075253166,
        0.12907836,
        -0.030451015,
        0.0262265,
        -0.0016653857,
        -0.057221938,
        -0.072169885,
        -0.026244132,
        0.020036032,
        -0.024793021,
        0.009029251,
        0.0058335043,
        -0.06944162,
        0.023965254,
        0.07366684,
        -0.06459607,
        -0.037055094,
        -0.063687995,
        0.018398285,
        -0.019632513,
        -0.0045661908,
        0.13134888,
        0.19458614,
        0.1288187,
        0.032402936,
        0.16524862,
        0.12710637,
        0.08518,
        0.051896255,
        0.14318895,
        0.05315421,
        0.08667341,
        -0.07294947,
        0.0811739,
        -0.050508257,
        0.026205307,
        -0.006303803,
        0.067570575,
        0.07072592,
        -0.013812657,
        0.070510924,
        -0.056306172,
        0.06732779,
        -0.072273426,
        0.015665298,
        -0.027398644,
        0.03763503,
        -0.03292634,
        -5.2600575E-4,
        0.07701442,
        0.016076097,
        0.09143218,
        0.12486148,
        0.14716572,
        0.119249746,
        0.1787246,
        0.13068198,
        0.15812269,
        0.19276863,
        0.16735668,
        0.08900819,
        0.14371492,
        0.1329389,
        0.17536321,
        -0.030302856,
        0.06255775,
        0.057821948,
        0.11957043,
        0.010775747,
        0.033179853,
        -0.010411615,
        0.032433666,
        0.14254658,
        -0.025007024,
        0.08949695,
        -0.06760324,
        0.04039554,
        0.016944263,
        0.092570156,
        0.07191897,
        0.07633707,
        0.077138074,
        0.13819195,
        0.16682371,
        0.16210012,
        0.11066141,
        0.24145707,
        0.14148982,
        0.1633482,
        0.084535144,
        0.16860856,
        0.0515413,
        0.17753164,
        0.08693422,
        0.14128295,
        0.050788444,
        0.165761,
        0.12190105,
        0.13062505,
        0.06830139,
        0.0956852,
        0.1374851,
        0.15666507,
        -0.0145228915,
        -0.04851327,
        0.067052156,
        0.030055722,
        0.11740292,
        0.07554707,
        0.09335722,
        -0.0033456532,
        0.08790036,
        0.10815006,
        0.12029872,
        0.1223187,
        0.10662374,
        0.1592188,
        0.1810075,
        0.11598275,
        0.18336564,
        0.139194,
        0.16568193,
        0.05756253,
        0.04980902,
        0.08264362,
        0.007371745,
        0.1823403,
        0.06312959,
        0.043635152,
        0.15614556,
        0.019180523,
        -0.13890988,
        0.0657994,
        -0.04671383,
        -0.031471692,
        0.09982642,
        -0.019697985,
        0.112010725,
        0.04175931,
        0.058147833,
        0.022669835,
        0.14187832,
        0.057646006,
        0.14925054,
        0.08663033,
        0.031926125,
        0.0872276,
        0.14758469,
        0.11128022,
        0.03459141,
        0.1732932,
        0.19937952,
        0.13769089,
        0.11287972,
        0.10951637,
        0.15039589,
        0.063389085,
        0.06549663,
        0.05305687,
        -0.2384597,
        -0.0011131207,
        -0.025310785,
        0.09277257,
        0.06215761,
        -0.041242026,
        0.060808416,
        0.020151371,
        0.02809933,
        -0.016666438,
        -0.029007737,
        0.083088376,
        -0.00968084,
        0.12655747,
        0.04647545,
        0.06129219,
        0.02001748,
        0.16892998,
        0.07629875,
        0.14551473,
        0.08057614,
        0.04506814,
        0.20877433,
        0.15857616,
        0.137275,
        -0.010576492,
        0.140484,
        -0.042836472,
        -0.2732618,
        -5.066154E-4,
        -0.02972188,
        0.019112544,
        -0.03258676,
        0.057132535,
        -0.120965965,
        0.023430916,
        -0.012102013,
        -0.056267913,
        0.050450575,
        -0.062603675,
        0.03951778,
        -0.04059603,
        0.020296484,
        -0.03155696,
        0.029223125,
        0.0073277326,
        0.12974668,
        0.14260267,
        0.14855902,
        0.047805786,
        0.04125631,
        0.04404607,
        0.043647025,
        0.075699195,
        -0.023409015,
        0.10616872,
        -0.18412846,
        -0.1872499,
        -0.092536375,
        0.048553843,
        0.016546797,
        -0.013170747,
        0.02840611,
        0.013702549,
        -0.0908339,
        0.06377264,
        0.018437214,
        -0.04358536,
        -0.06491034,
        0.021002471,
        0.004737256,
        0.055637892,
        0.02572564,
        0.054224648,
        -0.03070539,
        -0.036251467,
        0.11264287,
        0.0041720276,
        -0.016838295,
        0.039519463,
        0.06948594,
        0.06805343,
        -0.02537002,
        -0.060531195,
        -0.28890476,
        -0.15151754,
        -0.13629828,
        -0.07621237,
        -0.013886297,
        -0.10261641,
        0.049824223,
        -0.006624135,
        0.04738598,
        -0.079132915,
        -0.031554673,
        0.0073940195,
        0.0051026708,
        -0.08761564,
        -0.09362414,
        0.04117023,
        -0.10639925,
        -0.0063296547,
        -0.04478157,
        -0.023430686,
        0.05717219,
        0.10992626,
        0.08340045,
        0.012278789,
        0.004997929,
        0.07395286,
        -0.07757377,
        0.048671864,
        -0.18820226,
        -0.22359085,
        -0.095430896,
        -0.12557848,
        -0.111548066,
        -0.14025834,
        -0.15018474,
        -0.12841132,
        -0.03222357,
        -0.12572412,
        -0.14681599,
        -0.0033263448,
        -0.13267612,
        -0.08189873,
        0.014766971,
        -0.13488042,
        0.008495694,
        -0.061826665,
        -0.027981456,
        -0.028708268,
        -0.10746968,
        0.002913316,
        -0.056342553,
        -0.006038075,
        0.038225986,
        0.013936085,
        0.051297847,
        0.01563974,
        0.05473606,
        0.03828726,
        -0.022056015,
        -0.05914347,
        0.01799503,
        0.09342655,
        0.09584922,
        -0.06567301,
        -0.079646274,
        0.017511865,
        -0.040612873,
        0.014456346,
        -0.06688295,
        0.015912812,
        -0.053318705,
        -0.08321953,
        -0.080440454,
        0.004240945,
        0.07055432,
        -0.08224788,
        -0.07593744,
        -0.04637602,
        0.036617547,
        -0.106265806,
        -0.006634161,
        0.032211818,
        -0.069248535,
        -0.04386953,
        0.08516657,
        0.026304482,
        -0.030334288,
        -0.028338045,
        -0.029770417,
        0.020077484,
        -0.0754046,
        0.029184056,
        -0.052925516,
        -0.083495505,
        -0.0878196,
        -0.009247414,
        -0.09988086,
        0.045228,
        0.007365424,
        0.02593367,
        -0.08271874,
        0.064934425,
        -0.066786736,
        -0.09747125,
        -0.040830653,
        0.06136633,
        0.0025912526,
        -0.029071122,
        -5.5966276E-4,
        0.07846249,
        -0.06356946,
        0.05500165,
        0.040460236,
        -0.010300685,
        0.041201625,
        0.07456955,
        -0.073372155,
        -0.037877183,
        0.05973202,
        0.090648055,
        0.06405594,
        0.093640104,
        0.0752121,
        -0.0016465122,
        -0.0054031885,
        0.066706315,
        -0.049688146,
        0.011995523,
        -0.06525753,
        0.05550832,
        -0.06677513,
        -0.06781054,
        0.034310378,
        -0.06980689,
        -0.058950294,
        0.018691579,
        0.04580945,
        0.050739408,
        -0.06676955,
        -0.035158582,
        0.062406845,
        0.032201346,
        0.009735051,
        0.08335307,
        0.08782535,
        0.045793235,
        0.019048402,
        0.08464158,
        0.035321046,
        0.021490708,
        -0.057251513,
        0.061318833,
        -0.02941894,
        0.04733503,
        -0.011108712,
        -0.021545708,
        0.0024477523,
        -0.09142609,
        0.05767778,
        -0.11483415,
        0.06988304,
        -0.0981216,
        -0.012776497,
        -0.073032975,
        -0.059211295,
        -0.080021314,
        -0.055312537,
        -0.0509863,
        -0.053644087,
        -0.004383757,
        0.009566738,
        -0.01560574,
        0.080893055,
        -0.084684014,
        -0.06245766,
        -0.023529975,
        0.013109278,
        0.0493964,
        -0.08701734,
        -0.014994276,
        0.04892537,
        0.023298936,
        0.02430417,
        -0.010738287,
        -0.0054511684,
        -0.11663139,
        -0.063143276,
        -0.013421888,
        0.036995772,
        -0.033940237,
        -0.042918935,
        0.0742005,
        0.035456486,
        -0.09962914,
        -0.101338685,
        -0.09082871,
        -0.024802994,
        0.024754098,
        -0.09688713,
        0.023114856,
        0.073926665,
        0.08775998,
        0.06964257,
        -0.03425585,
        -0.013261495,
        0.121678814,
        0.050055757,
        0.019250823,
        0.09348592,
        0.028332593,
        0.012929631,
        -0.08408703,
        0.110960856,
        -0.0076937694,
        0.010784873,
        -0.0011150895,
        0.0077336812,
        -0.10374305,
        -0.0042237747,
        0.030113459,
        0.056653228,
        0.018295592,
        -0.085552014,
        0.08404847,
        0.0034059377,
        0.0069943685,
        0.054833904,
        0.06754737,
        0.0036114696,
        0.05212145,
        0.022532443,
        0.1251981,
        -0.0073307557,
        0.01615436,
        0.11112819,
        -0.0064204037,
        -0.022489496,
        -0.12449208,
        -0.007660095,
        0.036294978,
        -0.074305184,
        -0.02239191,
        -0.070279874,
        -0.112506315,
        -0.129238,
        -0.07411173,
        -0.035194453,
        -0.019382847,
        0.030187309,
        -0.012057735,
        0.049179375,
        -0.004818192,
        0.013548467,
        0.026433257,
        -0.06858741,
        -0.034985356,
        -0.040703904,
        -0.07727126,
        0.07650501,
        0.070826836,
        -0.05022576,
        -0.07236906,
        -0.027149746,
        0.100892134,
        0.057050634,
        0.020637913,
        -0.044242084,
        -0.093055464,
        0.011729025,
        -0.13855383,
        -0.030787287,
        -0.04976543,
        -0.118149936,
        -0.0466741,
        -0.008271004,
        0.07141412,
        -0.05549855,
        -0.07504395,
        -0.049002822,
        -0.10313339,
        0.029265096,
        0.080195755,
        -0.07196183,
        -0.0696545,
        -0.03430942,
        0.09589249,
        0.031653516,
        -0.050719652,
        0.122063234,
        -0.08065822,
        -0.051866796,
        -0.07032145,
        -0.14782055,
        0.015164072,
        0.09123816,
        0.08532268,
        0.028916286,
        -0.03443244,
        -0.016055256,
        -0.025140844,
        0.031455476,
        -0.092923164,
        -0.106591046,
        0.05948066,
        -0.036037393,
        -0.10524806,
        -0.049691737,
        -0.042096812,
        -0.03740708,
        -0.10780063,
        0.018451,
        0.0071833986,
        -0.04394064,
        0.041850556,
        0.0078147985,
        0.05889116,
        0.086427644,
        -0.059341617,
        -0.041271944,
        -0.090685554,
        -0.03727268,
        0.0592802,
        0.062043287,
        0.13547345,
        -0.048491422,
        -0.007396214,
        -0.0064541604,
        0.04138902,
        -0.08521988,
        0.010182329,
        -0.025152637,
        0.023672292,
        0.029256439,
        0.015332318,
        0.059049793,
        0.054395396,
        -0.07817531,
        -0.092263065,
        -0.03666891,
        -0.07254816,
        -0.024902891,
        -0.022676276,
        -0.037466496,
        -0.08563228,
        -0.05372213,
        0.03868767,
        -0.16889566,
        -0.22678144,
        -0.12622063,
        0.021263938,
        0.018768456,
        0.015086692,
        -0.08670651,
        -0.00719767,
        -0.083804585,
        -0.021555696,
        0.039137103,
        -0.002705603,
        -0.055514965,
        0.005285204,
        -0.010321775,
        -0.015438457,
        -4.7273852E-4,
        0.024204252,
        0.09081172,
        0.05822727,
        0.08980913,
        0.091658495,
        -0.015677696,
        -0.0030687598,
        -0.046239212,
        0.0968506,
        -0.043836106,
        -0.05444441,
        -0.05684228,
        -0.26081166,
        -0.12884274,
        -0.109243825,
        0.12199592,
        0.057077534,
        0.06337901,
        -0.028151678,
        0.01325545,
        -0.09760463,
        0.06169558,
        -0.031169074,
        0.08004678,
        0.033033807,
        -0.04601952,
        0.019260453,
        0.084587455,
        -0.064088844,
        0.044536088,
        0.06261523,
        -0.052762333,
        0.011975168,
        -0.028243132,
        0.09756779,
        -0.039735507,
        0.08650828,
        0.04543269,
        -0.024611153,
        -0.14694051,
        -0.09995222,
        -0.14467369,
        -0.119240224,
        0.041337427,
        0.07096644,
        -0.071441464,
        -0.06951801,
        -0.09769928,
        -0.017661933,
        0.09987793,
        -0.011030042,
        0.12725326,
        -0.04114865,
        0.001039322,
        -0.036354125,
        4.7896363E-5,
        0.032453597,
        -0.09472499,
        -0.007858484,
        0.08766565,
        -0.0058596204,
        -0.0058975294,
        -0.052155323,
        -0.03292268,
        0.10711565,
        0.06048552,
        0.0018543998,
        -0.13219859,
        -0.19701648,
        -0.10812343,
        0.046258394,
        0.12879208,
        -0.031971138,
        -0.061594505,
        -0.03407591,
        0.039411664,
        -0.10283681,
        0.1347071,
        0.12726445,
        0.08327586,
        -0.024273487,
        0.050540034,
        0.06894361,
        0.09275657,
        -0.107553974,
        0.06583062,
        0.069379985,
        -0.040328633,
        0.09545032,
        0.034608267,
        0.099937394,
        0.091755524,
        -0.040609986,
        -0.10692066,
        -0.16703726,
        -0.13192616,
        -0.14479153,
        -0.121699445,
        -0.016692681,
        0.07912696,
        0.033593595,
        0.020208059,
        -0.07968162,
        -0.13499796,
        0.0025884097,
        0.034448113,
        0.03631252,
        0.016547149,
        0.017589195,
        0.03760459,
        0.014432558,
        -0.023594208,
        -0.03969984,
        0.06385174,
        0.023388453,
        -0.07414658,
        0.028648574,
        9.771185E-4,
        -0.054867316,
        -0.046973884,
        -0.06267116,
        7.172311E-4,
        -0.05265957,
        -0.22162132,
        -0.10936221,
        -0.010434166,
        5.5681355E-4,
        -0.010883619,
        0.0050584106,
        -0.10969503,
        -0.13276905,
        -0.10050783,
        -0.13721518,
        0.08235629,
        -0.002246096,
        0.03806105,
        1.7954988E-4,
        0.04323298,
        -0.08466819,
        -0.08804711,
        0.08799125,
        -0.0054684645,
        -0.10672534,
        -0.014078279,
        0.1097042,
        0.0825077,
        -0.003110545,
        0.090320185,
        -0.09823204,
        -0.07990183,
        -0.14923044,
        -0.0736119,
        -0.0014201888,
        -0.009737153,
        -0.008518532,
        0.11660949,
        0.043288827,
        -0.08885072,
        -0.20815684,
        -0.15187676,
        0.016625032,
        -0.006096905,
        0.06056626,
        -0.09197857,
        -0.02979239,
        0.045264218,
        0.06964334,
        -0.09739123,
        0.018141242,
        0.044947587,
        -0.028695311,
        0.057479937,
        -0.1202033,
        0.061969135,
        -0.008486207,
        -0.10875635,
        -0.028185057,
        -0.13534097,
        -0.15214154,
        -0.0252746,
        -0.016885402,
        0.035800815,
        0.04957903,
        0.08085129,
        -0.05974774,
        -0.21497452,
        -0.09394154,
        -0.033130646,
        -0.037126146,
        -0.02490749,
        -0.09597354,
        0.048304662,
        -0.04673921,
        -0.0011718483,
        -0.037978135,
        -0.08655686,
        0.083562486,
        0.022890233,
        0.04762802,
        0.024847453,
        0.0073599806,
        -0.09736473,
        -0.1407129,
        0.0370088,
        -0.018313995,
        -0.096179806,
        0.01332357,
        -0.005606485,
        0.06781794,
        0.082288094,
        -0.026551114,
        -0.040592548,
        -0.061399367,
        -0.16203581,
        -0.117981486,
        -0.04722155,
        -0.098216906,
        0.030159127,
        0.0124539025,
        -0.114883654,
        0.0074704904,
        -0.07859164,
        -0.071083665,
        -0.07802936,
        0.0023046122,
        -0.10615505,
        -0.09288771,
        -0.15703036,
        0.008239544,
        -0.018180512,
        -0.0062804213,
        0.02120453,
        -0.0640524,
        -0.09061792,
        0.1160057,
        0.09853744,
        0.035672206,
        0.031071927,
        -0.057188243,
        -0.074408785,
        -0.11080331,
        -0.1774701,
        0.027427843,
        0.043141216,
        -2.5561388E-4,
        -0.0758515,
        -9.2647306E-4,
        0.033035267,
        -0.09691289,
        -0.06007255,
        0.09621775,
        0.09019531,
        0.09351571,
        0.032408457,
        -0.13771342,
        -0.03081936,
        -0.06901799,
        0.042456884,
        -0.058916453,
        5.873778E-4,
        -0.077144824,
        0.048692573,
        0.10853183,
        0.053813778,
        0.12371375,
        0.020033037,
        0.07790355,
        -0.026446464,
        -0.048824944,
        -0.020021621,
        -0.081870325,
        -0.006302358,
        -0.032844108,
        0.016273838,
        0.0662996,
        -0.042058315,
        0.10668045,
        -0.05097694,
        -0.0065778256,
        -0.050786767,
        0.043269143,
        0.068459444,
        -0.0924355,
        0.09277359,
        0.08784571,
        0.10836265,
        -0.021247715,
        -0.011776679,
        0.022643587,
        -0.012739788,
        0.15513735,
        0.039064407,
        0.06589504,
        0.031128008,
        -0.011467812,
        -0.11512839,
        0.01774809,
        0.020613173,
        0.064530894,
        0.07635141,
        0.08714978,
        -0.010953029,
        -0.024251085,
        0.08155577,
        0.016148444,
        0.07216073,
        -0.08389451,
        0.04359003,
        -0.08326498,
        -0.100563936,
        0.00938026,
        0.008818969,
        0.03979969,
        -0.0644997,
        -0.027793532,
        -0.0609169,
        0.021333287,
        0.11019181,
        0.102550454,
        0.03282552,
        0.070149586,
        0.041326698,
        0.034929626,
        0.02558264,
        -0.064536124,
        0.100397326,
        0.035818126,
        -7.348278E-5,
        -0.07245591,
        0.016040485,
        0.088063985,
        -0.06776788,
        0.025770739,
        0.0033696983,
        -0.048768565,
        -0.036490433,
        -0.05331672,
        0.11104428,
        0.04793846,
        -0.07779413,
        -0.045614365,
        -0.07289831,
        0.037674382,
        -0.012808385,
        0.01808354,
        0.018621394,
        0.007191685,
        0.009708031,
        0.07671925,
        -0.01776887,
        0.026104629,
        -0.014399173,
        -8.744991E-4,
        0.12516287,
        0.07908339,
        -0.057236567,
        0.07722792,
        0.084296525,
        0.036310315,
        0.103352614,
        -0.03798256,
        0.063407786,
        -0.009337944,
        -0.065200135,
        -0.029529698,
        0.13748242,
        -0.0076753367,
        -0.024803469,
        0.015772743,
        0.07493799,
        -0.037368417,
        0.0038897186,
        0.059787724,
        0.055986214,
        0.007471171,
        0.014483249,
        0.07995332,
        -0.04975088,
        0.093428746,
        3.1932344E-5,
        0.058176436,
        -0.003791392,
        -0.076331966,
        0.090109155,
        0.11676801,
        0.051294427,
        0.0029297457,
        -0.04965967,
        -0.0097961,
        -0.07577194,
        -0.07080079,
        -0.038946074,
        -0.06510579,
        0.09550793,
        0.08643309,
        0.006784277,
        -0.055922773,
        -0.064961694,
        0.026256403,
        0.05944344,
        0.0394676,
        -0.0025265447,
        0.124311216,
        0.029146483,
        -0.062890485,
        0.023811921,
        0.059008606,
        -0.038884122,
        -0.020336082,
        0.027115908,
        0.031150667,
        0.07688019,
        0.07251528,
        -0.059187647,
        -0.042780597,
        0.094030894,
        0.08547662,
        0.044408005,
        -0.090803005,
        0.058861874,
        0.03130774,
        -0.03756812,
        0.08364874,
        0.046545487,
        0.05909977,
        0.05034114,
        0.030623252,
        0.011705301,
        0.0011381191,
        0.028749721,
        -0.016365388,
        0.052876957,
        0.042810258,
        0.042133845,
        -0.08393343,
        0.021136755,
        -0.037047315,
        0.07176985,
        -0.016936481,
        -0.043565795,
        -0.06380745,
        -0.03063622,
        -0.021513289,
        0.017601756,
        -0.046526033,
        -4.6034434E-4,
        -0.05587854,
        0.00783467,
        -0.07481993,
        0.059642926,
        0.05518441,
        0.05038977,
        0.031110032,
        0.06209597,
        0.017317332,
        0.0035332867,
        -0.030318687,
        -0.01058431,
        0.029196348,
        -0.02111651,
        -0.020646034,
        0.033244275,
        0.046635527,
        0.06291431,
        -0.058915555,
        0.0035357694,
        -0.07214688,
        0.08705512,
        -0.04622152,
        -0.07766663,
        -0.030530475,
        -0.09014049,
        -0.012433618,
        -0.0984615,
        0.05691032,
        -0.012356686,
        -0.06730799,
        0.060639195,
        0.09975536,
        -0.0012817637,
        -0.095483676,
        0.0018031716,
        -0.06942317,
        -0.07907242,
        -0.06572981,
        -0.079396226,
        -0.08577371,
        -0.08294837,
        -0.041884616,
        -0.03880041,
        -0.005747239,
        -0.045058675,
        -0.019790579,
        -0.06518569,
        -0.10862054,
        -0.074012674,
        -0.03140547,
        0.09861775,
        0.032877993,
        0.029701846,
        -0.0077468986,
        0.13032512,
        0.109441616,
        0.05565275,
        -0.025704322,
        -0.0943108,
        -0.08212796,
        0.043109648,
        0.027402094,
        -0.012590797,
        -0.047780644,
        0.07277974,
        -0.012530593,
        -0.10196028,
        0.05368988,
        -0.061666127,
        -0.07198668,
        -0.11718502,
        -0.13408142,
        -0.07104195,
        -0.055001155,
        -0.066986315,
        -0.03637492,
        -0.098263726,
        0.07468178,
        0.030950055,
        0.13959675,
        -0.007582788,
        0.14818338,
        -0.011606277,
        0.028642176,
        0.033411488,
        0.06708814,
        0.080586076,
        0.021384375,
        0.0043417495,
        -0.07095961,
        -0.025422698,
        0.051603995,
        0.08797101,
        0.0032689136,
        0.03329572,
        -0.11241071,
        -0.04464562,
        -0.03637199,
        0.013127335,
        -0.011056572,
        -0.04215047,
        -0.06631713,
        -0.11183693,
        -0.025389487,
        0.058620322,
        -0.10677579,
        0.007857265,
        0.10269581,
        0.009964362,
        -0.020181047,
        -0.036991976,
        0.07392358,
        -0.051304005,
        0.05626566,
        -0.053661466,
        0.042719334,
        0.050800093,
        -0.025496015,
        -0.0055407,
        0.07055286,
        -0.076189175,
        0.04331877,
        -0.050987687,
        -0.075128704,
        0.068783626,
        -0.0036448052,
        -0.041332345,
        -0.08178481,
        -0.0377929,
        -0.00990758,
        0.02699791,
        -0.10712596,
        0.07146853,
        -0.068961225,
        -0.08915769,
        -0.02112443,
        0.07299557,
        0.080447406,
        0.09641145,
        0.088368416,
        -0.07765021,
        0.10166919,
        0.09923592,
        0.04506357,
        0.0073462613,
        0.005764937,
        0.0011981943,
        0.094756156,
        0.040568702,
        -0.08027725,
        0.048162162,
        -0.071942605,
        -0.08828858,
        -0.11046053,
        -0.0923505,
        0.0054068104,
        -0.1309242,
        -0.1309461,
        -0.0729074,
        -0.07185684,
        -0.12100704,
        0.037276592,
        0.036573645,
        -0.04505564,
        -0.004242114,
        -0.060003374,
        0.046617314,
        0.082369104,
        0.015267397,
        -0.04413146,
        0.0055915257,
        -0.051412538,
        -0.06988157,
        -0.014027983,
        -0.043458443,
        -0.015289306,
        0.072141685,
        -0.10793549,
        -0.0101869255,
        -0.13102387,
        -0.027557006,
        -0.019579347,
        -0.069122575,
        -0.08997218,
        0.0039962404,
        -0.04241521,
        -0.033453643,
        0.029869085,
        -0.07741228,
        0.019840723,
        -0.06016931,
        -0.09787709,
        -0.11319985,
        -0.078904614,
        -0.06106864,
        0.079869755,
        0.07197063,
        -0.005040031,
        -0.03912924,
        -0.052057557,
        0.041823808,
        0.01887841,
        0.024974227,
        0.07674182,
        0.04051268,
        -0.09077344,
        -0.10938074,
        -0.092870526,
        -0.052202415,
        -0.12675723,
        -0.11816133,
        -0.029062383,
        -0.10761383,
        0.010774834,
        0.02759854,
        0.03954043,
        -0.014059624,
        -0.019249015,
        -0.16028604,
        -0.031882353,
        -0.10273343,
        -0.05084627,
        -0.014022834,
        0.049414422,
        -0.060472846,
        0.10016483,
        -0.06350277,
        0.049416877,
        0.068886556,
        0.0216295,
        -0.03909627,
        0.044252075,
        -0.096032396,
        -0.086679734,
        -0.07216998,
        -0.042563267,
        0.0032700703,
        0.037470687,
        -0.14372708,
        -0.081598945,
        -0.10236211,
        -0.15166406,
        -0.017987259,
        -0.0982962,
        -0.116508,
        -0.071845,
        -0.05473617,
        -0.020523878,
        0.042244267,
        0.03807675,
        0.0015065977,
        1.175775E-4,
        -0.009706044,
        0.06107441,
        0.009104625,
        0.03993539,
        0.047375042,
        0.06885831,
        -0.0041031544,
        0.05681969,
        -0.11472013,
        0.05163301,
        0.051149197,
        -0.03618904,
        -0.1017256,
        -0.04342895,
        -0.0073723495,
        -0.083472915,
        -0.15785816,
        -0.042774618,
        -0.10012986,
        0.004800521,
        -0.17703147,
        -0.109726414,
        -0.13895248,
        -0.07921597,
        0.013716483,
        0.006108303,
        0.013061268,
        0.0038952664,
        -0.00733533,
        0.059768453,
        -0.020766659,
        -0.051699717,
        -0.0074158753,
        -0.011368767,
        -0.08798866,
        -0.1229154,
        -0.015939118,
        0.013375182,
        0.0378565,
        -0.0484571,
        -0.09215673,
        7.91289E-4,
        -0.12758814,
        -0.13693032,
        -0.14270271,
        0.039909612,
        -0.09269632,
        -0.11123832,
        -0.10437672,
        -0.048885256,
        -0.043575782,
        0.050774653,
        0.055818334,
        -0.029163767,
        0.04607144,
        0.011012559,
        0.07358659,
        -0.08541674,
        -0.011114426,
        0.083454974,
        -0.013078052,
        -0.034851164,
        0.08962088,
        -0.023338975,
        0.02733011,
        -0.1232841,
        -0.10009719,
        -0.0555059,
        -0.12969281,
        -0.057966787,
        -0.018611267,
        -0.031921506,
        -0.09688654,
        -0.13709326,
        -0.07759327,
        -0.044104952,
        -0.103939064,
        0.04999519,
        0.028548239,
        0.0016240021,
        0.10841724,
        -0.0016838696,
        0.01818428,
        -0.0154666295,
        0.044563316,
        0.016874714,
        0.05676143,
        0.06693786,
        0.09189005,
        0.09450434,
        0.080547914,
        -0.024059273,
        0.050328575,
        -0.008493451,
        0.0048724096,
        -0.017885078,
        -0.07538741,
        0.021339005,
        0.029662352,
        0.072986074,
        0.07983869,
        -0.015019336,
        -0.04876307,
        -0.0143030165,
        0.07071336,
        -0.099177346,
        0.08644457,
        -0.040298905,
        0.04140341,
        0.11038239,
        -0.03749696,
        0.034366798,
        -0.06135035,
        0.06293699,
        -0.019864274,
        -0.023150228,
        0.023770018,
        -0.08098457,
        -0.07625427,
        -0.09768544,
        0.0904782,
        0.025281094,
        -0.09276242,
        -0.09041753,
        -0.13662603,
        0.04375993,
        -0.07965427,
        0.094492145,
        -8.94813E-4,
        -0.025561761,
        0.03008436,
        0.09344828,
        0.05621634,
        -0.013426686,
        -0.03201075,
        0.024815515,
        3.0535768E-4,
        0.012883476,
        0.0040873475,
        -0.0082730455,
        0.03753489,
        -0.08608831,
        0.05026254,
        -0.041038085,
        0.073892295,
        0.04643457,
        0.048173156,
        -0.042904556,
        -0.11041782,
        -0.09883412,
        -0.039474633,
        -0.13958372,
        0.007987438,
        -0.05903206,
        0.10296922,
        0.014219865,
        0.04195166,
        0.034923077,
        0.060519088,
        0.044351373,
        -0.0012228503,
        0.064916074,
        0.041473996,
        -0.02223529,
        0.10709593,
        0.06272052,
        0.0537751,
        -0.033883538,
        -0.024542896,
        -0.06970223,
        -0.042558856,
        0.025316032,
        0.016846621,
        -0.033670254,
        -0.030926641,
        0.03173204,
        0.022973228,
        -0.045056522,
        -0.017658312,
        -0.061802857,
        -0.10156877,
        0.06928666,
        0.0193029,
        0.018195054,
        0.056783732,
        0.12633918,
        0.029936459,
        0.052638486,
        -0.035712678,
        -0.07008687,
        0.09775129,
        0.057431247,
        -0.055536076,
        0.053948876,
        -0.05297564,
        -0.06663844,
        -0.03729822,
        0.08510972,
        -0.057425626,
        -0.036244757,
        -0.119727895,
        -0.008832438,
        -0.036682934,
        0.025253193,
        -0.062100846,
        -0.11179848,
        -0.08320449,
        -0.118112296,
        -0.0060654795,
        0.111383624,
        0.09887108,
        0.0015364825,
        -7.691204E-6,
        0.029195074,
        -0.0016067516,
        -0.021738775,
        -0.06893701,
        0.016264888,
        0.059879098,
        -0.04707894,
        0.0707309,
        -0.05592963,
        -0.027238712,
        0.10338655,
        -0.09891208,
        -0.022732526,
        0.011946065,
        -0.08330763,
        0.06794487,
        -0.07478294,
        0.017413246,
        -0.03261899,
        -0.10824614,
        -0.08503292,
        0.07454372,
        0.041167334,
        0.040571127,
        0.0984501,
        0.013063675,
        0.032492705,
        0.089508794,
        -0.034091495,
        0.007917725,
        -0.06576468,
        -0.14741588,
        -0.017110275,
        0.0013320508,
        0.0049787476,
        0.024165979,
        0.035369504,
        0.024646768,
        -0.024446951,
        -0.051416926,
        -0.013431759,
        -0.041840296,
        -0.073607646,
        -0.0841705,
        -0.052531738,
        0.005769996,
        -0.036413543,
        0.015896993,
        0.021212438,
        0.11478594,
        -9.3175004E-5,
        0.05075404,
        0.07971445,
        0.110134736,
        -0.028396636,
        -0.0815979,
        -0.15084176,
        6.400659E-4,
        -0.1252868,
        -0.14407954,
        -0.022456417,
        0.027289942,
        -0.026077164,
        -0.021273268,
        0.059477363,
        -0.1021675,
        0.027226869,
        0.09049324,
        0.0333972,
        -0.043763056,
        0.046411112,
        0.11365389,
        0.018884325,
        -0.06256557,
        0.049742732,
        -0.058061045,
        0.09602523,
        0.076696806,
        0.07518869,
        0.17845628,
        0.13576816,
        -0.06433857,
        -0.112088665,
        -0.07498151,
        -0.11728383,
        -0.020694574,
        0.056321934,
        -0.006047299,
        0.024491347,
        -0.06337457,
        -0.0227976,
        -0.048861187,
        0.01612863,
        -0.05278743,
        -0.06806646,
        0.06019975,
        0.0027509362,
        -0.02076057,
        0.035225373,
        -0.057570275,
        0.07230773,
        0.0817597,
        -2.6147586E-4,
        0.029087882,
        0.07218766,
        0.024339162,
        0.035953384,
        -0.00864285,
        0.061810076,
        -0.023499258,
        -0.14422426,
        -0.01748148,
        -0.10874191,
        -0.07800758,
        0.0058768135,
        -0.109268844,
        0.008310375,
        -0.06989317,
        0.029652447,
        0.027188262,
        0.06057723,
        -0.05620563,
        0.092114806,
        -0.012039645,
        -0.041051228,
        0.051442362,
        0.05881653,
        -0.058902644,
        0.030768184,
        0.06244528,
        -0.08214915,
        0.06512663,
        0.030950204,
        0.011466762,
        0.08459426,
        -0.03781003,
        -0.12693879,
        -0.1678176,
        -0.045689005,
        -0.11258846,
        -0.101087555,
        0.048866127,
        -0.069156654,
        -0.016285226,
        -0.031353623,
        0.039297014,
        -0.00813804,
        0.003303201,
        -0.035688862,
        -0.08566942,
        -0.032904677,
        0.02862258,
        0.0507223,
        0.0011709437,
        -0.044760585,
        -0.07555337,
        -0.047713604,
        -0.07888347,
        -0.09633222,
        -0.044030264,
        -0.05416565,
        -0.05105122,
        0.038274877,
        -0.10611436,
        -0.06165329,
        -0.01311065,
        -0.029265136,
        -0.0924591,
        -0.116504565,
        -0.020997155,
        -0.05391071,
        -0.068258576,
        -0.041265532,
        -0.10117398,
        -0.024950327,
        0.050602403,
        -0.07941617,
        -0.072416455,
        -0.095641255,
        -0.04096849,
        0.051276,
        -0.10861769,
        -0.061447073,
        -0.04612236,
        -0.0051279645,
        0.03628599,
        -0.08235772,
        0.079530485,
        0.012031616,
        -0.05240083,
        -0.059210394,
        0.043344125,
        -0.06491017,
        -0.020034628,
        0.042626742,
        -0.022280188,
        0.0014311938,
        0.061111666,
        -0.06306593,
        0.04476447,
        0.0031434665,
        0.03963526,
        -0.0374608,
        0.00891189,
        -0.02249764,
        -0.027313305,
        0.09378594,
        -0.036659308,
        -0.08712498,
        0.040334344,
        0.008077009,
        0.0039686156,
        -0.033843145,
        -0.016873298,
        -0.042635866,
        -0.035813034,
        0.0061373943,
        0.054312095,
        -0.016634757,
        -0.10439265,
        0.05747032,
        -0.054879453,
        0.108891964,
        0.03753391,
        -0.048244957,
        -0.09908779,
        0.033984426,
        -0.0108844675,
        -0.023553565,
        -0.032193836,
        0.008051444,
        -0.09021343,
        -0.08006634,
        -0.094213665,
        -0.016018553,
        -0.039129566,
        0.078078784,
        -0.059328914,
        0.024697676,
        -0.029967722,
        -0.054486964,
        -0.051645562,
        0.089080825,
        0.042760033,
        -0.043501686,
        -0.003930708,
        0.06457127,
        0.055644676,
        -0.012523207,
        -9.918137E-4,
        -0.03928218,
        0.07514796,
        0.09347275,
        0.0019155648,
        0.06451674,
        0.067586794,
        0.03159783,
        -0.047045346,
        -0.03983458,
        0.027096516,
        0.09773169,
        0.0030444507,
        0.040850002,
        0.03118628,
        0.020649329,
        0.076493986,
        0.092290394,
        2.965143E-4,
        -0.03018024,
        -0.069673285,
        -0.052853603,
        -0.03618272,
        -0.013537342,
        -0.01258769,
        -0.09905721,
        0.046635777,
        -0.07286911,
        -0.03928997,
        -0.0535923,
        -0.10470785,
        0.040871035,
        -0.042405244,
        -0.042588316,
        0.06396255,
        -0.105571456,
        0.013408175,
        -0.036522936,
        -0.030695695,
        0.083665416,
        0.036021557,
        -0.09128124,
        0.017285855,
        -0.014848721,
        0.042872913,
        -0.002727396,
        0.10956328,
        -0.0728482,
        -0.014700736,
        -0.006613874,
        0.039536875,
        0.08856471,
        -0.053651467,
        0.053732216,
        -0.045772184,
        0.06751087,
        0.004704341,
        0.012445037,
        -0.06936892,
        -0.07757205,
        -0.08393415,
        0.020961935,
        -0.031076472,
        -0.023427162,
        0.08786745,
        0.08220945,
        0.07401609,
        0.036042336,
        0.09162412,
        -0.0479402,
        -0.06856719,
        -0.06891818,
        0.06747747,
        0.13735989,
        0.07044952,
        -0.04422449,
        -0.08996988,
        0.082863696,
        -0.01199381,
        0.07640252,
        0.09464969,
        -0.013171045,
        -0.033856478,
        0.04752676,
        0.074542865,
        -0.042941775,
        0.0388724,
        0.0596483,
        0.059134144,
        -0.046684798,
        -0.074287824,
        0.05385812,
        -0.06006189,
        0.07689852,
        0.030368185,
        -0.06537155,
        -0.030123804,
        0.005367994,
        0.026359035,
        -0.012571094,
        0.04797239,
        0.09121998,
        -0.01606382,
        0.017658293,
        -0.078082174,
        0.009666487,
        -0.026751297,
        -0.104837134,
        -0.0033589767,
        -0.018992703,
        0.04746253,
        0.03792269,
        0.031455398,
        0.0721837,
        0.032804657,
        0.020011945,
        -0.029303784,
        0.042509962,
        -0.050126668,
        0.035385653,
        -0.03247319,
        -0.07796072,
        0.0679993,
        -0.010357607,
        0.038168672,
        0.0052559,
        0.172318,
        0.102384545,
        -0.07275332,
        0.043883804,
        0.062143043,
        0.09378701,
        -0.040895585,
        0.05713597,
        -0.004034631,
        -0.06459004,
        -0.044235844,
        0.006013336,
        -0.096414305,
