{
  "inputLayer": {
    "nodes": 784
  },
  "evaluateLayers": [
    {
      "weights": [
        0.035830084,
        0.032809876,
        -0.009740894,
        -0.04621256,
        -0.08954667,
        0.009919052,
        0.03590012,
        -0.08071717,
        -0.02528369,
        -0.06034756,
        0.0883741,
        0.043878518,
        -0.02671133,
        0.025480231,
        0.09633866,
        -0.07090819,
        0.0126713505,
        0.06339491,
        0.051814236,
        -0.055734772,
        0.06877513,
        0.026235823,
        0.0026909735,
        0.044817924,
        0.014531899,
        -0.064862184,
        0.050859656,
        0.07878397,
        -0.06822198,
        -0.083623365,
        0.032725874,
        0.04446079,
        -0.06799891,
        -0.021202091,
        -0.045157142,
        -0.060460772,
        0.05218609,
        0.015253378,
        0.014672202,
        0.051056013,
        0.014820883,
        0.030862529,
        -0.025226206,
        -0.027338088,
        -0.057781048,
        0.029415173,
        -0.020805849,
        -0.07659343,
        -0.07680701,
        -0.038748067,
        -0.0030478532,
        -0.007192915,
        -0.08638746,
        0.004560497,
        -0.021535052,
        -0.0246194,
        -0.010712542,
        -0.08218225,
        0.03367468,
        0.081296146,
        -0.086511225,
        -0.09741546,
        0.038431227,
        -0.06276013,
        -0.016072769,
        -0.041212462,
        0.059312746,
        0.03762681,
        -0.09827194,
        0.0656016,
        0.0014531609,
        0.09311405,
        0.06182219,
        0.083697096,
        -0.029313324,
        0.037397806,
        0.08269118,
        0.06968661,
        0.001046256,
        0.009510244,
        0.0033057055,
        -0.088455305,
        -0.061023787,
        -0.075922474,
        0.089278795,
        0.09059307,
        0.057688914,
        -0.06391507,
        0.0999658,
        0.026144026,
        -0.09402887,
        -0.091297224,
        -0.031283297,
        0.0013932347,
        0.06488533,
        -0.095700964,
        -0.12149605,
        -0.08524075,
        -0.06209953,
        0.04909983,
        -0.042059187,
        -0.021680854,
        0.13590556,
        0.08508567,
        -0.023560777,
        0.01752427,
        0.09488427,
        0.051397882,
        -0.071121305,
        0.09791232,
        0.059185,
        -0.0975383,
        -0.06339032,
        -0.09443278,
        -0.06298258,
        0.027362261,
        0.034604017,
        -0.06305447,
        -0.0422371,
        0.089959905,
        -0.009530366,
        -0.014033533,
        -0.117440246,
        0.038859174,
        0.011652762,
        -0.10853604,
        -0.008821286,
        -0.0531084,
        0.039987445,
        -0.037530128,
        0.023629826,
        0.061255574,
        0.0209792,
        0.118642844,
        0.025095781,
        -0.09640358,
        0.043546367,
        -0.010290919,
        0.029291911,
        0.01667511,
        -0.011919772,
        -0.0026625216,
        -0.05208615,
        -0.021049602,
        0.084270194,
        -0.017019067,
        -0.039959315,
        -0.10213669,
        0.04867889,
        -0.0522935,
        -0.0437286,
        -0.10378982,
        -0.03977995,
        -0.08796762,
        0.07060925,
        0.046103884,
        -0.09851972,
        0.085647054,
        0.05486993,
        0.0073316903,
        0.038350437,
        0.029632628,
        0.1146049,
        -0.060198493,
        -0.10151021,
        0.079637796,
        0.03754108,
        -0.044883072,
        0.079721965,
        -0.098136425,
        -0.09336053,
        -0.0567564,
        -1.9769525E-4,
        -0.01893847,
        0.06136755,
        0.041275904,
        0.036309563,
        0.012509433,
        0.019063111,
        -0.07948743,
        -0.05488356,
        -0.090475164,
        -0.042499863,
        0.012572316,
        -0.040849235,
        -0.023577657,
        -0.004637714,
        0.019441262,
        -0.01833877,
        -0.1033627,
        -0.06824557,
        -0.0947821,
        0.08022626,
        -0.08794715,
        -0.06316401,
        0.08859804,
        0.08908895,
        0.057033792,
        0.09965254,
        -0.073312975,
        -0.0010146418,
        -0.031790264,
        0.048664995,
        -0.060467012,
        0.037646092,
        0.01551929,
        -0.07585578,
        -0.057247616,
        -0.10733211,
        -0.028207788,
        0.078758426,
        0.08972317,
        -0.058476057,
        -0.048275925,
        -0.14030476,
        -0.10196606,
        -0.096184656,
        -0.112671964,
        -0.044843934,
        0.008566477,
        0.043104988,
        0.018954437,
        0.05066158,
        0.008303135,
        0.06609469,
        -0.08811488,
        0.077331014,
        -0.029983222,
        0.043930847,
        -0.07364541,
        0.0826037,
        0.063859776,
        -0.15119018,
        -0.1356281,
        -0.08333578,
        -0.028235983,
        -0.051369444,
        -0.050389476,
        0.10249855,
        0.0518757,
        -0.0011292226,
        -0.06480087,
        -0.020200271,
        -0.035240117,
        -0.13422091,
        -0.04181187,
        -0.0771583,
        0.098516844,
        -0.03939156,
        -0.026980408,
        -0.07975403,
        0.0045099733,
        -0.067485675,
        0.084679745,
        0.020628367,
        -0.028657073,
        -0.08602225,
        -0.049511157,
        0.016477622,
        0.09527783,
        0.068907484,
        0.002546831,
        -0.13730715,
        -0.07291178,
        -0.13097018,
        -0.005969337,
        -0.061780628,
        0.113308705,
        0.10477001,
        -0.1757012,
        -0.10706806,
        -0.010442724,
        0.023219801,
        0.0068626218,
        -0.014441068,
        -0.06610037,
        -0.03897916,
        0.0268073,
        0.08804741,
        -0.09786477,
        0.085973375,
        -0.08089016,
        -0.058777012,
        0.086268656,
        -0.002844245,
        -0.046568632,
        0.008730321,
        -0.088183925,
        0.02853198,
        0.06576875,
        -0.096719995,
        -0.013634016,
        -0.042937424,
        0.080192566,
        -0.00930179,
        0.042705134,
        -0.16635393,
        -0.15684943,
        0.009313421,
        -0.02680293,
        -0.11237118,
        -0.030238215,
        0.038596626,
        -0.082065865,
        0.031160805,
        0.019579863,
        -2.1623717E-4,
        -0.006561413,
        0.04741835,
        -0.07777109,
        0.011629605,
        0.023762066,
        0.050855152,
        -0.011260903,
        0.009090067,
        -0.086539574,
        -0.052176505,
        -0.047306757,
        0.010108131,
        -0.07980814,
        0.038726494,
        0.10339113,
        0.12907436,
        -0.07519022,
        -0.08512554,
        -0.1173397,
        -0.07688624,
        -0.006379346,
        0.014465499,
        0.038716704,
        -0.086652555,
        0.006526069,
        -0.06519164,
        -0.11108363,
        0.0677579,
        0.024465125,
        0.06519307,
        0.013954071,
        -0.05019843,
        -0.07854654,
        -0.022478942,
        -0.07046792,
        -0.08386258,
        0.026856737,
        0.05834862,
        -0.06785533,
        -0.064579524,
        -0.006993728,
        -0.016988067,
        0.17879546,
        -0.012102047,
        -0.021783825,
        0.043751944,
        0.010629719,
        -0.061458293,
        -0.09684858,
        -0.0011868383,
        0.0015934148,
        -0.036038857,
        0.027978785,
        0.05360156,
        0.049664907,
        -0.095248,
        0.08743488,
        -0.07057666,
        0.08875605,
        0.04586764,
        -0.07327664,
        0.08201583,
        0.08305912,
        -0.08273442,
        0.05304325,
        -0.073954076,
        -0.0336096,
        -0.04659728,
        0.09704328,
        0.03397265,
        0.011900666,
        0.017163204,
        -0.09315145,
        -0.037079424,
        0.053489365,
        -0.00802221,
        0.07575591,
        0.077620625,
        -0.019443009,
        0.033572804,
        -0.081452504,
        -0.04690042,
        -0.001895266,
        -0.020624483,
        -0.06520945,
        -0.038776834,
        0.07428507,
        -0.04401223,
        0.032602433,
        -0.062487796,
        -0.06880663,
        -0.11643769,
        -0.01906681,
        -0.055456743,
        0.10201664,
        0.10506028,
        0.087723136,
        0.18628754,
        -0.07617543,
        0.041418508,
        0.07861673,
        0.07618395,
        -0.0011072025,
        -0.021735791,
        0.025484195,
        0.042579867,
        0.019884178,
        0.062865354,
        -0.060843766,
        0.06044286,
        -0.015668139,
        -0.057724506,
        0.012611724,
        0.020250553,
        0.08006041,
        0.088415965,
        0.09255931,
        -0.105125464,
        0.024352405,
        0.020873236,
        -0.12098855,
        -0.02085341,
        0.043969657,
        0.047791716,
        -0.107208565,
        0.13914648,
        -0.07859393,
        -0.047279943,
        0.020141227,
        0.015999008,
        -0.046591416,
        0.030933192,
        -0.06244645,
        -0.05333992,
        -0.09985498,
        -0.092413016,
        -0.0023411177,
        0.03260365,
        6.95809E-4,
        -0.05223011,
        -0.04622959,
        0.02198403,
        -0.04811857,
        0.031402245,
        -0.06249133,
        -0.011906222,
        -0.022047943,
        -0.0031637948,
        -0.04833183,
        -0.039779715,
        -0.07999704,
        -0.053610403,
        0.022488076,
        -0.052040942,
        0.0864225,
        0.007849088,
        -0.031406216,
        0.07017465,
        -0.046759523,
        0.08000106,
        -0.006694587,
        -0.06613272,
        -0.037522063,
        0.024769273,
        -0.09951598,
        -0.054971997,
        -0.075104445,
        0.03775649,
        -0.07696357,
        0.07269728,
        -0.008255418,
        0.0449884,
        0.06570497,
        -0.048660267,
        0.077611126,
        -0.06283108,
        0.05381282,
        0.111551754,
        0.11391626,
        0.0952826,
        0.05605076,
        -0.018762127,
        0.027047366,
        0.044512633,
        0.03447799,
        0.15812707,
        0.110387355,
        0.011680836,
        0.0712667,
        0.03393192,
        0.061667427,
        -0.076303,
        -0.069937475,
        -0.06568893,
        -0.031945568,
        0.056818027,
        0.07667739,
        -0.08453924,
        -0.0353717,
        -0.03677451,
        -0.011058724,
        -0.046731573,
        0.021816757,
        -0.10813354,
        0.03818305,
        -0.01291234,
        -0.06705537,
        0.022292454,
        0.08483595,
        0.08927476,
        0.009847064,
        -0.0903597,
        0.0488832,
        0.10258397,
        -0.016597454,
        0.036358673,
        0.053856067,
        -0.0069698836,
        -0.10769199,
        0.0218616,
        -0.06349249,
        0.020758212,
        0.010091902,
        -0.05635169,
        0.09285824,
        -0.06539937,
        -0.0058628605,
        0.032753892,
        -0.043568738,
        0.07413065,
        -0.03406746,
        -0.07836379,
        -0.0018691332,
        0.0058116247,
        0.059971493,
        0.06497764,
        0.045864247,
        0.015756832,
        -0.076318584,
        -0.090097316,
        0.10165622,
        0.040642314,
        0.10938109,
        -0.03361931,
        -0.06595788,
        -0.08842068,
        -0.106694885,
        -0.09931543,
        -0.05319473,
        -0.0026119484,
        -0.061206643,
        0.013924281,
        0.031637166,
        0.08889713,
        -0.051457956,
        0.018562306,
        -0.04850725,
        0.03265805,
        -0.009955206,
        0.026066592,
        -0.062180225,
        -0.067723736,
        -0.041920133,
        0.021633096,
        -0.02808959,
        -0.042821538,
        0.0070320726,
        -0.021120543,
        -0.007440925,
        -0.012503999,
        -0.101212755,
        -0.026410148,
        -0.04601432,
        -0.07369089,
        -0.12849912,
        -0.033419944,
        0.07082395,
        -0.021517128,
        -0.06551809,
        0.01355163,
        -0.09133884,
        0.035405777,
        0.03685496,
        0.05151867,
        0.03523447,
        0.073894985,
        0.017935557,
        -0.0042895484,
        -0.104294054,
        -0.07900319,
        0.04125171,
        -0.07836592,
        -0.06929955,
        -0.050336793,
        -0.03794265,
        0.026589759,
        -0.048447996,
        0.020429658,
        -0.08809203,
        0.039295178,
        -0.0154162515,
        0.054260205,
        0.031297762,
        0.07626267,
        -0.0362656,
        0.04022658,
        0.045532923,
        -0.04287154,
        -0.06242884,
        -0.0338634,
        -0.028501684,
        0.066567436,
        0.07265655,
        0.059990056,
        -0.06799674,
        -0.05807049,
        -0.009910549,
        -0.022651084,
        0.052552845,
        0.058249272,
        0.03916861,
        -0.06326159,
        0.007833937,
        -0.032237463,
        0.013228265,
        -0.011883569,
        0.059699308,
        0.0060439426,
        0.027875084,
        -0.08345532,
        -0.068649024,
        0.028552461,
        0.046147153,
        -0.06380799,
        -0.03657603,
        0.08181151,
        -0.07838405,
        -0.091071926,
        0.009794737,
        0.07708755,
        0.03440974,
        -0.0160477,
        0.07270422,
        -0.028173693,
        -0.019860914,
        -0.060085136,
        -0.078799896,
        -0.0735,
        -0.08851454,
        -0.119972706,
        -0.010770457,
        -0.107085936,
        -0.0720912,
        -0.060840346,
        0.043292005,
        0.10929205,
        0.010979261,
        0.09650596,
        0.06033449,
        0.034876302,
        -0.030938528,
        -0.02481982,
        0.055549044,
        0.07894514,
        0.08770457,
        0.041703947,
        0.06091639,
        -0.09015888,
        -0.05227597,
        -0.050860792,
        -0.08023804,
        0.088238165,
        0.043301184,
        0.067140006,
        -0.108435065,
        -0.09445392,
        0.0051039536,
        -0.0678751,
        0.09001473,
        -0.057118837,
        -0.03556411,
        -0.07592573,
        -0.0056432425,
        -0.020070696,
        -0.07696128,
        -0.10577225,
        -0.0055295825,
        0.08822427,
        -0.06973842,
        0.016987372,
        -0.0042364174,
        -0.028845832,
        0.051485546,
        -0.06409723,
        0.03809743,
        -0.03695618,
        -0.025286708,
        -0.0036758957,
        0.066886105,
        -0.056467738,
        -0.023621423,
        0.018060483,
        -0.02266368,
        0.018199379,
        -0.08152093,
        -0.086194076,
        -0.043796472,
        -0.06957146,
        0.08539427,
        -0.051360022,
        0.010444311,
        -0.023270728,
        0.075261414,
        -0.08366693,
        0.0801912,
        0.094545506,
        -0.0492546,
        0.014094175,
        0.06490916,
        0.030143108,
        0.019865226,
        -0.019778522,
        -0.052172914,
        0.01864752,
        -0.07252566,
        0.09216975,
        0.052499965,
        -0.04669382,
        -0.04028393,
        0.03096969,
        7.272031E-5,
        -0.024483612,
        0.04619111,
        -0.095025,
        0.057349637,
        -0.08658306,
        -0.077944264,
        -0.077973604,
        0.013529188,
        0.020635797,
        0.048756782,
        -0.019304888,
        -0.0486771,
        -0.0352374,
        -0.0040390636,
        -0.037490502,
        -0.040018644,
        0.009091424,
        -0.0198565,
        -0.06008397,
        0.038404938,
        0.054731444,
        0.037037753,
        0.010705952,
        -0.076694064,
        -0.06363244,
        0.067586765,
        -0.023189798,
        -0.09984553,
        -0.046655018,
        -0.08050433,
        -0.08892554,
        -0.06873509,
        -0.09667713,
        0.04656884,
        0.08224341,
        0.024598485,
        0.05816634,
        0.09091225,
        -0.08745861,
        0.016863195,
        0.010181748,
        -0.07785872,
        0.08705586,
        -0.08287393,
        -0.026941923,
        0.08320722,
        0.07975339,
        0.07965411,
        -0.006420858,
        0.052738175,
        -0.0351721,
        -0.09356464,
        -0.061447725,
        0.0072221346,
        0.088689,
        -0.038236525,
        -0.046915423,
        0.09116446,
        -0.045818448,
        0.08451232,
        0.07257453,
        -0.05603759,
        -0.07117983,
        -0.079466775,
        0.048762377,
        0.011611912,
        -0.06918606,
        0.066095866,
        0.007345715,
        -0.020101856,
        0.06942564,
        -0.087362126,
        0.0930992,
        -0.09423944,
        -0.07968887,
        -0.08624797,
        -0.021836564,
        0.094812125,
        -0.09816376,
        -0.04274606,
        0.010145101,
        0.075480945,
        0.08490105,
        0.018345876,
        0.058944114,
        -0.04557254,
        -0.08277357,
        0.094481185,
        -0.015571307,
        0.0015472792,
        -0.030202039,
        -0.0226093,
        0.09369781,
        -0.0875671,
        -0.06977664,
        -0.096190654,
        -0.028458418,
        0.016469503,
        0.044655826,
        -0.04339846,
        -0.08742421,
        -0.02713954,
        -0.092327885,
        0.004052536,
        0.09563548,
        -0.038675327,
        0.022261733,
        0.094520815,
        -0.09150345,
        -0.07473545,
        0.015709575,
        -0.0075290757,
        -0.09989471,
        -0.046230543,
        0.09589055,
        -0.09057983,
        0.021072365,
        0.090055235,
        -0.062105726,
        -0.04956268,
        0.09037075,
        0.053041555,
        0.07383553,
        -0.011595852,
        -0.057141274,
        0.010013275,
        -0.0054551484,
        0.06908266,
        0.007816634,
        0.037064854,
        0.055663437,
        0.014437273,
        0.06116633,
        -0.020734321,
        -0.023480842,
        0.026004072,
        0.0013434752,
        -0.023448719,
        -0.09134736,
        0.09420027,
        0.08094967,
        -0.097296804,
        -0.026068319,
        -0.035471596,
        0.0370107,
        -0.041008715,
        -0.07880722,
        -0.024467967,
        -0.062353224,
        0.056095976,
        6.772744E-4,
        0.011947493,
        -0.012112514,
        0.08247302,
        0.032514453,
        0.021796338,
        0.04750043,
        -0.055710264,
        -0.032359567,
        0.076148115,
        0.03896601,
        0.032811448,
        0.09432827,
        -0.097478524,
        0.08001098,
        0.001961569,
        0.056647047,
        -0.06743748,
        -0.009831251,
        0.021993062,
        -2.8329712E-4,
        -0.0026177426,
        0.062147368,
        -0.06356019,
        0.002086598,
        0.009859769,
        0.038622603,
        -0.070398346,
        0.052305203,
        0.030636149,
        -0.012211356,
        0.04157076,
        -0.10056371,
        -0.06251258,
        0.006097696,
        0.069010854,
        -0.03858202,
        -0.057783257,
        -0.09047652,
        -0.01060877,
        0.030269446,
        -0.084488794,
        -0.10108356,
        0.060161784,
        -0.13618042,
        0.057662737,
        -0.01733164,
        -0.029470159,
        0.01962795,
        -0.017494326,
        -0.01631845,
        0.085183196,
        0.020285355,
        -0.019303748,
        0.062059335,
        0.029204402,
        0.08717146,
        0.081903785,
        0.016320579,
        -0.09427236,
        0.055883795,
        -0.009074426,
        -0.09283136,
        0.072736256,
        -0.09369702,
        0.09152127,
        0.09314249,
        -0.039236985,
        0.031939685,
        -0.08088779,
        -0.063689224,
        -0.12382226,
        -0.07992152,
        0.043776657,
        -0.114563726,
        -0.05833958,
        -0.032310072,
        -0.09326135,
        -0.065447964,
        -0.02597414,
        -0.09009722,
        0.10772987,
        -0.02235678,
        0.029882304,
        0.053736176,
        -0.028470153,
        0.0371037,
        0.043453567,
        -0.046738572,
        0.03501271,
        -0.040423926,
        -0.064573705,
        0.03528504,
        0.025167178,
        -0.09055733,
        0.023589836,
        -0.012812198,
        -0.04131207,
        0.061433177,
        -0.05417745,
        0.021986049,
        0.030423885,
        0.012505395,
        0.06233054,
        -0.034383282,
        0.01250322,
        0.06775112,
        -0.013503517,
        0.026910873,
        -0.07244367,
        -0.003945764,
        0.002350812,
        0.055792693,
        -0.08228495,
        -0.047571447,
        -0.011484733,
        0.059227407,
        0.058718182,
        0.0976738,
        -0.024645653,
        0.018287515,
        0.09729446,
        -0.008960532,
        0.0935213,
        0.009409135,
        -0.07293101,
        -0.10381144,
        -0.12000624,
        -0.047680624,
        0.06072603,
        0.022635976,
        0.066675775,
        -0.031419165,
        -0.06037626,
        -0.10425854,
        -0.10039994,
        -0.079940535,
        -0.090050705,
        0.0075165746,
        -0.02942767,
        0.0542257,
        -0.06410542,
        0.098107785,
        -0.07704529,
        0.014894554,
        6.1802985E-4,
        -0.0018556393,
        -0.056864668,
        -0.026022818,
        0.040692236,
        0.07703729,
        -0.08214271,
        -0.060745783,
        -0.074913815,
        -0.038883086,
        0.004037087,
        0.055457234,
        0.0032119434,
        -0.020896176,
        0.116172254,
        0.025312373,
        -0.09224169,
        -0.024852907,
        -0.13625905,
        -0.055851,
        0.061496638,
        -0.13331504,
        -0.043056406,
        -0.05494143,
        0.050257098,
        0.058509327,
        -0.040814716,
        -0.085209906,
        -0.024285227,
        0.09374815,
        0.041558214,
        0.05806438,
        0.0837267,
        -0.01196212,
        -0.012754793,
        0.00819558,
        0.059948895,
        -0.04800891,
        0.0708437,
        0.03809219,
        0.05873837,
        0.12723763,
        -0.054621555,
        -0.030524679,
        0.016172443,
        0.0576015,
        0.008946903,
        -0.025479821,
        -0.059929006,
        -0.02373817,
        0.030505268,
        -0.07086217,
        0.038920708,
        0.027282324,
        0.112593845,
        0.03608661,
        0.060256176,
        0.091903746,
        -0.03549627,
        -0.0050920327,
        0.013011283,
        -0.072798334,
        0.081886336,
        -0.048523836,
        -0.054687396,
        0.05189172,
        0.10630581,
        0.01897129,
        -0.04070929,
        0.068438105,
        0.025157824,
        0.16399445,
        0.02528426,
        -0.06415323,
        0.016394908,
        -0.045767978,
        -0.12214839,
        0.0590632,
        0.07609045,
        0.028616171,
        -0.076475225,
        0.0032137579,
        -0.05903064,
        -0.015286695,
        -0.075977266,
        -0.080040716,
        -0.05593142,
        0.017393483,
        -0.09220189,
        0.0696702,
        -0.09632372,
        0.104336575,
        -0.031029409,
        0.08896838,
        -0.031748425,
        -0.10673584,
        0.05255936,
        0.09682882,
        0.1347335,
        0.04221134,
        0.027021293,
        0.041153975,
        0.02633902,
        -0.11119776,
        -0.12375597,
        -0.06500007,
        0.081303924,
        -0.034210376,
        0.07212411,
        0.08515495,
        -0.04444548,
        -0.057119068,
        -0.053174984,
        -0.014492237,
        0.02736828,
        -0.05358811,
        -0.034396,
        0.080135494,
        -0.04881925,
        0.0013610779,
        -0.07699824,
        -0.027112273,
        0.009660344,
        -0.06224542,
        0.06778238,
        -0.0059496034,
        0.1298527,
        0.0795635,
        0.1637091,
        0.015090545,
        0.11012821,
        0.07232326,
        -0.074386865,
        -0.11175914,
        -0.12030532,
        -0.0026096252,
        -0.119964115,
        -0.05660125,
        0.057146713,
        0.0865486,
        -0.04210063,
        0.08129927,
        -0.09979633,
        -0.023273243,
        0.054206766,
        -0.048155323,
        -0.039195564,
        0.04050172,
        -0.033443477,
        0.047547527,
        -0.14049986,
        -0.01611746,
        -0.06482229,
        -0.0052398974,
        0.12967922,
        0.10802081,
        0.06906335,
        0.008897687,
        0.046357237,
        0.010943394,
        -0.019372672,
        0.010226761,
        -0.09991867,
        0.02238918,
        0.021064641,
        -0.006232778,
        -0.06115141,
        0.0381369,
        -0.002354084,
        0.098974615,
        0.0261592,
        -0.05990129,
        -0.049365778,
        -0.019507986,
        0.0014709033,
        0.024718193,
        0.053019695,
        -0.090918995,
        0.03227967,
        0.03864714,
        -0.035489384,
        -0.06376698,
        -0.033503816,
        0.03872252,
        0.108895436,
        0.082790494,
        -0.060959768,
        -0.11929132,
        -0.036785528,
        -0.1252323,
        -0.0774081,
        -0.063102216,
        0.028943596,
        -0.016864037,
        -0.03747882,
        0.088829644,
        -0.043705374,
        -0.047530185,
        -0.007460107,
        -0.010614457,
        0.080481954,
        -0.027571347,
        -0.093295604,
        -0.09217066,
        0.07866538,
        0.07267211,
        0.069769084,
        0.013636706,
        -0.11055689,
        -0.056799393,
        0.0028063923,
        0.13198744,
        0.09461579,
        -0.10726707,
        -5.9583766E-4,
        0.094187066,
        -0.0923737,
        0.0032078638,
        -0.15239392,
        0.04983681,
        -0.077297986,
        -0.103309005,
        0.008015863,
        -0.036178738,
        0.04896181,
        -0.020556426,
        -0.058244973,
        -0.011060933,
        -0.061972722,
        -0.052742884,
        -0.059524026,
        -0.10640055,
        0.067928426,
        0.06720809,
        -0.028597718,
        0.066979244,
        0.056013495,
        0.17814414,
        0.10596363,
        0.13750297,
        0.024629397,
        -0.027631944,
        -0.107154675,
        -0.07728349,
        -0.031859893,
        -0.1328768,
        -0.07260997,
        -0.13363573,
        -0.06028271,
        0.015452948,
        5.0526555E-4,
        -0.013934764,
        0.03402323,
        0.0690031,
        -0.041995514,
        0.0069713006,
        0.05460998,
        0.017733142,
        0.0048085656,
        -0.08344748,
        -0.011300879,
        0.08403659,
        -0.05717989,
        0.015761133,
        -0.004347855,
        0.13997807,
        -0.0032447039,
        0.13757347,
        0.054819304,
        -0.13682753,
        0.0367329,
        -0.070293896,
        0.016447885,
        -0.05991366,
        -0.03658142,
        -0.022043021,
        0.045654546,
        0.021942254,
        0.05469251,
        0.07235664,
        -0.08913629,
        -0.03124864,
        0.096897475,
        -0.015335825,
        -0.011522944,
        0.026353147,
        -0.042046968,
        -0.09448581,
        -0.047006406,
        -0.031694684,
        -0.08538396,
        -0.03380077,
        0.13231811,
        0.032833308,
        -0.04939349,
        -0.027990552,
        0.018409967,
        -0.13962796,
        -0.097607024,
        0.0060657132,
        0.07621664,
        0.0681435,
        -0.07998596,
        0.0041019316,
        -0.049712,
        0.05006632,
        0.08584513,
        0.05260883,
        0.071918026,
        0.06769624,
        -0.02147847,
        -0.09535154,
        -0.06635273,
        0.081523314,
        0.07353646,
        -0.111471154,
        0.022738887,
        0.07283551,
        0.087859064,
        0.0974586,
        0.09804154,
        0.04692123,
        0.08108455,
        -0.007207465,
        0.025636686,
        -0.09571338,
        -0.030879105,
        -0.07975819,
        -0.03659925,
        -0.051917374,
        0.06131167,
        -0.07375887,
        -0.06793905,
        -0.07925392,
        0.058970924,
        -0.007113869,
        -0.03084679,
        0.062476464,
        -0.08226329,
        -0.0019207689,
        -0.011459452,
        -0.032625012,
        -0.052118447,
        -0.049046382,
        -0.06972602,
        -0.016803678,
        -0.05466917,
        0.002229123,
        -0.08086629,
        0.0012279602,
        -0.076230615,
        0.06429126,
        0.054799076,
        -0.040239528,
        0.010705637,
        -0.059772845,
        0.017695192,
        0.097841516,
        -0.011065731,
        0.07456079,
        -0.090654895,
        -0.03400109,
        0.09172442,
        0.05981095,
        -0.061855093,
        -0.04377339,
        0.035393775,
        -0.08511325,
        0.08702747,
        -0.097281024,
        0.07629055,
        0.036725562,
        0.065477125,
        0.032831445,
        -0.0540302,
        -0.0748246,
        -0.0027225295,
        -0.049691606,
        0.11669988,
        0.01554707,
        -0.022139506,
        0.096946046,
        -0.042763945,
        0.004755918,
        0.092685364,
        0.021536482,
        -0.058832023,
        -0.013972708,
        -0.013716856,
        -0.051588945,
        -0.10192377,
        -0.03219388,
        0.009670024,
        -0.0085053,
        0.08562612,
        -0.06411688,
        0.07521783,
        0.09533319,
        0.037520394,
        0.027837394,
        -0.08978771,
        0.03601028,
        0.010432086,
        -0.011559253,
        -0.0070507023,
        -0.08430512,
        -0.038122013,
        0.12730731,
        0.11043591,
        0.0041978387,
        0.053966627,
        -0.02339349,
        0.04084866,
        -0.04088916,
        0.061816502,
        -0.04204715,
        0.08428106,
        -0.015599106,
        -0.006280114,
        0.06142816,
        -0.024304457,
        0.0075354176,
        0.04265523,
        0.028256763,
        0.016721679,
        -0.024729121,
        -0.04535938,
        -0.07061391,
        0.039444376,
        0.015339675,
        -0.039911885,
        -3.2981284E-4,
        -0.040385287,
        0.036735546,
        0.014161385,
        -0.07341958,
        -0.062444955,
        0.051960133,
        0.09102988,
        -0.021528142,
        0.028225217,
        0.051240623,
        -0.04132803,
        -0.0767815,
        0.05507857,
        0.017223403,
        -0.03336203,
        0.07481556,
        -0.003204748,
        0.04323682,
        0.017710354,
        0.03758824,
        -0.072720215,
        0.097522564,
        0.07831938,
        -0.020871518,
        0.05691358,
        0.020098286,
        -0.034788895,
        -0.10177104,
        0.031395644,
        0.008977245,
        -0.025786394,
        0.012530152,
        -0.05901332,
        0.0021502986,
        0.08385456,
        0.054234006,
        -0.043457374,
        0.060327288,
        0.046405125,
        -0.06952072,
        0.03259422,
        -0.07415005,
        0.03414538,
        0.06914263,
        -0.08493163,
        -0.014075122,
        0.023444826,
        -0.030127523,
        -0.023425024,
        0.08158812,
        0.085889824,
        0.06872011,
        -0.00504633,
        -0.09274216,
        0.05674961,
        -0.063073896,
        0.029537428,
        0.019655239,
        0.07493371,
        0.07584336,
        0.020605518,
        0.007478835,
        0.03213008,
        0.08674795,
        0.06733188,
        -0.052198783,
        -0.04824838,
        0.01289977,
        -0.039705317,
        0.07258825,
        -0.07321416,
        -0.072826974,
        0.080397226,
        -0.06062776,
        0.068060674,
        -0.053865824,
        -0.04930036,
        -8.372645E-5,
        -0.057076108,
        -0.05300271,
        0.035269916,
        0.0431169,
        -0.045824636,
        -0.02208375,
        -0.069375105,
        -0.0144095095,
        0.08597356,
        0.06201993,
        -0.052726854,
        0.08737635,
        -0.096230425,
        0.038918428,
        0.055279937,
        0.040595632,
        -0.013703909,
        0.0051439833,
        -0.032967832,
        0.01211828,
        0.08513852,
        0.09687304,
        0.030979121,
        -0.086745374,
        0.045175474,
        0.010074504,
        0.043168776,
        -0.059763,
        -0.095999435,
        0.0017668455,
        0.05800403,
        -0.0059381546,
        -0.006436062,
        -0.064121984,
        -0.025393827,
        -0.078577794,
        -0.09166073,
        0.041773446,
        -0.092373535,
        0.04038613,
        0.07550659,
        0.03899829,
        -0.087280326,
        -0.08514832,
        -0.03483249,
        -0.051669657,
        -0.06978533,
        0.024165958,
        -0.087599315,
        0.057094276,
        0.034903217,
        0.03775291,
        0.08800444,
        -0.064211026,
        0.035532136,
        0.04932166,
        -0.04893743,
        -0.08656826,
        -0.045501772,
        -0.04879674,
        -0.05688892,
        0.0076060873,
        -0.06765389,
        -0.06570871,
        0.048673354,
        0.0015508444,
        0.082700856,
        -0.09458947,
        -0.075481266,
        0.054553952,
        2.2433358E-4,
        -0.07571149,
        0.0053595514,
        0.06422695,
        0.014828374,
        0.020708282,
        0.07394983,
        0.08259699,
        0.07885617,
        -0.023127606,
        0.07771974,
        -0.082052186,
        0.040552855,
        0.01664283,
        -0.042166673,
        0.06360229,
        0.020734055,
        0.0662316,
        0.010271005,
        -0.06433268,
        -0.03679659,
        0.076082006,
        -0.073909074,
        0.0881419,
        0.08115228,
        0.0076564597,
        -0.07961379,
        0.09897722,
        0.061715536,
        -0.05456297,
        0.022015737,
        0.09086206,
        0.0756459,
        0.03641764,
        -0.012385185,
        0.038710587,
        -0.010109928,
        -0.04754971,
        0.035888303,
        -0.06906825,
        0.011584314,
        0.07612588,
        -0.029410128,
        -0.095510766,
        -0.019790467,
        0.0069333417,
        0.027264496,
        -0.0858401,
        0.06370358,
        0.04583107,
        0.06899092,
        -0.046127226,
        0.02625371,
        0.10155747,
        0.02674954,
        0.039980024,
        0.019721359,
        -0.10489685,
        0.076138206,
        0.040750228,
        0.042143542,
        0.08058762,
        0.05565853,
        0.053623375,
        -0.0057252734,
        -0.0019408357,
        -0.010321868,
        0.016267689,
        -0.028809238,
        -0.0073389597,
        0.07530047,
        -0.008709266,
        0.048639193,
        0.006127742,
        0.030114882,
        0.108742274,
        0.04315437,
        0.14803807,
        0.14797613,
        0.1278866,
        0.11207193,
        -0.043155994,
        0.012242715,
        0.08993355,
        -0.034556247,
        0.03126978,
        -2.221206E-4,
        -0.015571145,
        -0.023931956,
        -0.032288115,
        -0.043527097,
        -0.07921232,
        -0.04725565,
        -0.06200929,
        -0.023937477,
        -6.8961066E-4,
        -0.019778505,
        -0.042721476,
        0.032584857,
        -0.075311184,
        0.087746635,
        -0.0766075,
        0.094029866,
        0.0014368389,
        -0.052470174,
        0.12376284,
        0.03033476,
        -0.09739262,
        0.0925055,
        -0.027803177,
        0.08611509,
        0.043054685,
        0.0031518342,
        0.046807915,
        0.053356268,
        0.05603129,
        0.01603514,
        0.012761317,
        -0.106421016,
        -0.02285646,
        -0.016257878,
        -0.06834437,
        -0.052459072,
        -0.05353237,
        0.05546233,
        0.04077741,
        -0.012538346,
        -0.08698858,
        -0.07437208,
        -0.014740472,
        0.011222396,
        -0.091999196,
        -0.0790201,
        -0.0755803,
        -0.069882184,
        0.032262806,
        -0.10578362,
        -0.042290147,
        -0.027187306,
        0.04265824,
        -0.033702917,
        0.062248766,
        -0.0062187505,
        -0.011828047,
        -0.12643781,
        -0.026531802,
        0.010272819,
        0.0616509,
        0.08795881,
        0.034158126,
        0.0551554,
        0.053361826,
        -0.050702326,
        0.050846767,
        -0.089057535,
        -0.016592085,
        0.07677414,
        -0.07327964,
        0.061543167,
        -0.07299398,
        0.018765248,
        -0.034659788,
        -0.09223959,
        -0.082762495,
        -0.09697979,
        -0.0025323099,
        -0.05888401,
        -0.115043975,
        0.053298384,
        -0.05590077,
        -0.03291368,
        0.03745577,
        0.04846663,
        -0.072422296,
        -0.019743592,
        -0.110041514,
        0.0557336,
        -0.087842196,
        -0.06747496,
        0.002197264,
        -0.067953184,
        0.09930804,
        -0.010320095,
        0.0128755355,
        -0.016313251,
        -0.06303222,
        -0.02297473,
        0.06306778,
        -0.088017195,
        -0.07490276,
        -0.087378845,
        0.019174738,
        0.0976123,
        -0.049785696,
        -0.08777304,
        0.0203053,
        -0.08549265,
        0.09790008,
        -0.040273424,
        -0.012693729,
        0.05030485,
        0.052981663,
        0.024391728,
        -0.005616633,
        -0.101010695,
        0.0150745185,
        -0.09223141,
        -0.056771424,
        0.05069291,
        -0.08319759,
        -0.022140397,
        0.055611458,
        0.026675712,
        -0.02910346,
        0.06490442,
        -0.06531084,
        -0.073100016,
        -0.032281745,
        -0.012353682,
        0.034786694,
        -0.0028168126,
        0.044914793,
        -0.059691098,
        -0.020206636,
        -0.0045674625,
        0.031948343,
        0.05692621,
        -0.03764535,
        -0.1150519,
        -0.0070511783,
        -0.09452062,
        0.020162085,
        -0.0011782941,
        0.046526697,
        -0.059647676,
        -0.05975585,
        0.021088924,
        -0.013922859,
        -0.092432395,
        -0.07993223,
        -0.039452586,
        -0.15586817,
        -0.082122296,
        -0.0042556757,
        -0.008087063,
        -0.0345255,
        0.062060606,
        -0.08866476,
        -0.04454854,
        -0.04790547,
        -0.090188086,
        -0.085304596,
        0.01782673,
        -0.081849635,
        -0.07722041,
        0.06286604,
        0.030806676,
        -0.10679932,
        -0.07097742,
        -0.060102772,
        -0.085198104,
        0.04546203,
        -0.05487657,
        -0.02503804,
        0.062648825,
        -0.06319662,
        -0.035834488,
        0.053582214,
        -0.06286061,
        -0.05620733,
        -0.020166116,
        -0.12530981,
        -0.05745198,
        -0.08147488,
        -0.13604207,
        -0.19926712,
        -0.1788001,
        -0.1652031,
        -0.09255761,
        0.052610118,
        -0.08223191,
        0.043903954,
        -0.013404137,
        0.04739162,
        -0.08320496,
        0.013380543,
        -0.06977894,
        0.015947271,
        -0.08187562,
        -0.0975869,
        0.07755746,
        0.026872734,
        -0.09461917,
        -0.09722892,
        0.031598445,
        0.038826745,
        -0.1531202,
        -0.015749887,
        -0.09457294,
        -0.13856733,
        -0.021483121,
        -0.005418945,
        -0.12812239,
        -0.08191309,
        -0.13297267,
        -0.081607774,
        -0.13387248,
        -0.09676877,
        -0.0620209,
        -0.1441839,
        -0.014832581,
        -0.03464933,
        -0.07621868,
        -0.023862896,
        0.045252133,
        0.05021739,
        -0.027420633,
        -0.0087609375,
        -0.07424888,
        -0.06236085,
        0.01877441,
        -0.0629884,
        0.058696616,
        -0.09610359,
        -0.06613129,
        0.018763984,
        -0.039090216,
        -0.04089808,
        -0.10786741,
        -0.06390879,
        -0.06060065,
        8.861919E-4,
        -0.037200425,
        0.02797556,
        -0.09457607,
        -0.009188541,
        -0.13797809,
        -0.009138284,
        0.051749475,
        -0.043202978,
        0.03729683,
        -0.042537272,
        -0.05785625,
        0.0656667,
        0.04027437,
        0.07239502,
        0.021250933,
        -0.07092496,
        0.025057277,
        -0.08635819,
        -0.08625355,
        0.09047435,
        -0.048899803,
        -0.020466596,
        -0.090705276,
        0.07671007,
        0.021219408,
        0.017797088,
        0.0034327568,
        0.115758836,
        0.11790117,
        0.056957114,
        -0.0019846477,
        -0.09018863,
        0.0068436554,
        -0.048366938,
        -0.07552183,
        -0.1496622,
        0.034948934,
        -0.033427082,
        0.054500937,
        -0.07290687,
        0.06272877,
        -0.08792378,
        -0.059285343,
        -0.027087256,
        -0.061590448,
        0.06878562,
        0.045282423,
        0.06569281,
        -0.053345654,
        0.07163231,
        0.11799238,
        0.11333031,
        -0.061648358,
        0.11375058,
        0.009426436,
        0.07696163,
        0.024129283,
        0.020950476,
        -0.05807275,
        -0.027361182,
        0.08543215,
        0.047811165,
        0.0047851373,
        0.080248535,
        0.01144683,
        0.026816824,
        -0.08678733,
        0.00468549,
        -0.018404352,
        0.01738999,
        -0.04489018,
        -0.091574,
        0.046512373,
        0.043527998,
        -0.07175134,
        0.045495052,
        -0.008712987,
        -0.035854567,
        0.046949595,
        -0.03481543,
        0.11621851,
        0.09854634,
        0.060846493,
        0.045546334,
        0.050220065,
        -0.026463028,
        0.031352136,
        -0.0024542834,
        0.05736228,
        -0.07175807,
        0.029773552,
        0.10596004,
        0.09271797,
        -0.028631287,
        -0.088100016,
        0.12657106,
        0.115356244,
        0.014275674,
        0.08576489,
        0.070573285,
        -0.07502276,
        0.06672417,
        0.046074502,
        -0.04545088,
        0.0025166476,
        0.15197769,
        0.053078797,
        0.09081823,
        0.05435128,
        0.025560636,
        0.15397877,
        0.1548067,
        -0.030669514,
        0.10835567,
        0.087342046,
        0.03388371,
        0.0428997,
        0.09195177,
        -0.09219264,
        0.028084777,
        0.12055422,
        0.103447236,
        0.04323667,
        0.11174781,
        -0.0021510713,
        0.06451375,
        -0.05064984,
        0.02667773,
        -0.09959817,
        0.07231702,
        -0.005032372,
        0.054222446,
        -0.040739972,
        0.17672752,
        0.08022376,
        0.16182362,
        0.07102804,
        0.12135389,
        -0.03912944,
        0.054096725,
        -0.01736111,
        0.068518326,
        0.0024672044,
        0.07847363,
        0.07465347,
        0.034819778,
        0.0638827,
        0.10852476,
        0.14811556,
        0.02959645,
        0.053343203,
        0.10515768,
        0.020656202,
        -0.08366788,
        -0.09868931,
        0.023761837,
        0.010204043,
        -0.049615316,
        -2.3677222E-4,
        0.027514981,
        -0.005576457,
        -0.03822424,
        0.014466461,
        0.12993068,
        0.03849066,
        0.12475433,
        -0.021455914,
        0.006784621,
        0.0035381317,
        -0.0246894,
        0.012778084,
        0.12897271,
        -0.052323796,
        0.07326597,
        0.037775774,
        0.10178827,
        0.110285886,
        0.01770524,
        0.08031704,
        0.0961169,
        -0.071592376,
        0.08180123,
        -0.012612759,
        -0.0784938,
        -0.04973841,
        0.062035758,
        -0.0198832,
        0.11061228,
        -0.0041138106,
        0.099457674,
        0.005472893,
        -0.060341537,
        0.015932387,
        0.021660665,
        0.07454487,
        -0.06570437,
        -0.12008302,
        0.03356022,
        0.008216863,
        0.1156732,
        -0.0046820748,
        0.014743651,
        0.07633773,
        0.033861328,
        -0.06074419,
        0.08853321,
        0.021190206,
        0.07767532,
        0.07556026,
        -0.034570847,
        -0.08396001,
        -0.07259654,
        0.07263914,
        -0.050783284,
        -0.0437384,
        -0.02938898,
        0.02922777,
        -0.04551894,
        -0.011138137,
        -0.0076786084,
        0.01738994,
        0.11872049,
        0.11975189,
        -0.040471233,
        -0.03219306,
        -0.14129642,
        -0.1329743,
        -0.06684511,
        0.022673227,
        -0.05572819,
        0.08615226,
        -0.013371593,
        0.001994207,
        -0.047278427,
        0.0072216904,
        -0.047382154,
        0.09622333,
        0.071832165,
        -0.060756776,
        -0.03897001,
        -0.017814321,
        -0.07496123,
        -0.09982651,
        0.013633046,
        -0.008610592,
        0.05485952,
        0.100893766,
        0.09026472,
        -0.036660057,
        -0.090352975,
        0.024309121,
        -0.09862742,
        -0.08455699,
        -0.070515335,
        -0.13337122,
        -0.13617189,
        -0.08744815,
        -0.04621275,
        0.008148233,
        0.09978975,
        -0.052922916,
        -0.026089184,
        0.031402525,
        -0.06231179,
        0.076450415,
        0.012180103,
        0.09888576,
        -0.04654044,
        0.086415105,
        0.008886174,
        -0.004831311,
        -0.06268702,
        0.0581114,
        0.08443097,
        -0.004446861,
        -0.10144667,
        -0.07425811,
        -0.19117679,
        -0.046546098,
        -0.029047968,
        -0.03676196,
        -0.14891551,
        -0.027147701,
        -0.041389406,
        -0.022680499,
        -0.13682878,
        -0.14262514,
        -0.02908052,
        0.10186046,
        0.113525815,
        -0.038410638,
        0.025603477,
        0.088677615,
        0.0792281,
        -0.061969537,
        0.035694677,
        -0.022503305,
        0.06884199,
        0.07491996,
        -0.024634197,
        -0.05049898,
        -0.10058686,
        0.030412192,
        -0.10772868,
        -0.09564212,
        0.012250399,
        -0.11427288,
        -0.0104844645,
        0.030885726,
        -0.068925545,
        -0.05075773,
        -0.06987272,
        0.0014286265,
        0.002815666,
        0.050542597,
        -0.027645292,
        -0.073940516,
        0.06530352,
        -0.08200468,
        -0.061786205,
        -0.0697807,
        -0.09039366,
        0.03461642,
        -0.01340715,
        -0.031653304,
        0.008667378,
        -0.037928607,
        0.095455,
        -0.018995197,
        -0.026545765,
        -0.0026605944,
        0.04389585,
        -0.012364492,
        -0.0154034775,
        0.026409833,
        0.015490009,
        -0.010380113,
        -0.027790312,
        -0.09205641,
        -0.054857004,
        -0.039766416,
        -0.012570314,
        -0.09571618,
        0.0889996,
        0.05181724,
        0.07935004,
        0.026093768,
        -0.036109764,
        -0.04422607,
        -0.02411371,
        -0.017246243,
        0.09611675,
        0.06672586,
        0.052084204,
        0.09158867,
        0.0032848602,
        0.02620653,
        0.052273426,
        0.07940793,
        -0.032530744,
        0.046865053,
        0.040271766,
        0.09290273,
        0.0192048,
        0.05400816,
        -0.028175201,
        0.057511736,
        -0.010464054,
        -0.026140546,
        0.019811053,
        0.027297534,
        0.09236235,
        -0.079498395,
        -0.014423573,
        0.058376618,
        0.0021003443,
        -0.097629905,
        0.04898886,
        -0.06255736,
        -0.046161413,
        -0.04808789,
        0.08756858,
        -0.022448488,
        0.020675538,
        0.08460769,
        0.01876253,
        -0.0024319184,
        -0.06585868,
        -0.095179394,
        0.05589299,
        -0.037962988,
        -0.059394807,
        0.021959014,
        0.08912859,
        -0.005998663,
        0.044451687,
        0.05390019,
        -0.0076183905,
        0.06840065,
        -0.018626262,
        0.07766364,
        -0.017118573,
        -0.05679294,
        -0.012929665,
        0.031572748,
        0.092516966,
        -0.05265603,
        -0.004519284,
        -0.08206852,
        0.09128835,
        -0.04857741,
        -0.024628557,
        -0.03750757,
        -0.09430733,
        -0.018100126,
        0.062224474,
        -0.095751986,
        0.024954045,
        -0.09796152,
        -0.030995911,
        -0.052793838,
        0.038573217,
        -0.01942633,
        0.070863865,
        -0.008071574,
        0.07295677,
        -0.0037622522,
        -0.049690105,
        -0.016956503,
        -0.097566,
        -0.014893808,
        0.062176965,
        -0.04168649,
        0.09841248,
        0.027768698,
        -0.06812398,
        0.06549453,
        -0.049849767,
        -0.005382736,
        -0.06427745,
        0.025146838,
        0.041598808,
        -0.08028697,
        0.027952412,
        0.060068477,
        -0.09952193,
        0.059263494,
        -0.01739008,
        -0.008530908,
        0.053204846,
        -0.09623009,
        -0.017058067,
        -0.009085977,
        -0.09906627,
        0.055549324,
        -0.04108594,
        0.04445807,
        -0.06837802,
        -0.029298546,
        -0.040056232,
        0.022452895,
        0.01554874,
        0.07234147,
        0.04508319,
        0.06169951,
        -0.016732909,
        0.061276805,
        -0.05152079,
        -0.09721641,
        -0.09537742,
        0.05260895,
        -0.07574727,
        0.07759667,
        0.08409906,
        -0.053247325,
        0.015153001,
        0.0193017,
        -0.03810531,
        -0.105805494,
        0.02601111,
        0.009853454,
        -0.041449778,
        -0.025748106,
        -0.07971039,
        1.0522148E-4,
        -0.045807827,
        0.014787801,
        0.034216706,
        0.08454342,
        -0.029030584,
        0.06683351,
        -0.034506436,
        -0.05777234,
        -0.095118776,
        0.081383735,
        0.04258054,
        0.007341992,
        0.078551464,
        -0.09609046,
        -0.06468101,
        -0.07621133,
        0.08844913,
        -0.064457566,
        -0.052375313,
        -0.038948923,
        0.015138154,
        -0.024288932,
        -0.07304056,
        0.046634816,
        -0.052040443,
        -0.083298825,
        0.031218048,
        -0.04869226,
        0.049327504,
        -0.055881057,
        0.08458841,
        -0.029091444,
        -0.08217508,
        0.05244861,
        -0.05838228,
        -0.09483001,
        0.08525619,
        0.049868755,
        0.042357653,
        -0.04226733,
        0.05858586,
        0.0756861,
        -0.077695854,
        0.053524952,
        -0.05797116,
        -0.03482946,
        0.011153128,
        -0.049477942,
        0.05719369,
        -0.064094186,
        -0.019234749,
        -0.052653596,
        -0.06284256,
        0.013585079,
        -0.005325202,
        0.07766876,
        -0.072641864,
        0.013216361,
        0.016733967,
        0.05154961,
        0.045034774,
        0.0883854,
        -0.01915832,
        0.038789045,
        -0.051727574,
        0.041535277,
        -0.017705485,
        -0.081941135,
        0.042597752,
        0.09886096,
        0.038680147,
        0.04805152,
        0.005631204,
        0.088229135,
        -0.036225144,
        -0.009741346,
        -0.08832239,
        0.03234354,
        0.026309451,
        -0.022850933,
        0.02140577,
        -0.0550624,
        -0.048799112,
        -0.090052456,
        0.048663262,
        -0.09438986,
        0.027140195,
        0.044180036,
        -0.04486361,
        0.084788255,
        -0.025205944,
        0.037433166,
        -0.004362787,
        0.042070065,
        -0.08194601,
        0.11365624,
        -0.040804498,
        0.08624734,
        -0.019914562,
        0.08754754,
        -0.061376013,
        -0.06896579,
        -0.01522379,
        -0.072683245,
        -0.06055848,
        0.04840037,
        -0.089163706,
        -0.089396134,
        -0.11450077,
        -5.238962E-4,
        0.028080942,
        0.0049794293,
        0.011464782,
        0.012247898,
        -0.024640009,
        -0.06610749,
        -0.051538795,
        0.023444759,
        0.027066017,
        -0.009140108,
        0.06870781,
        -0.03665959,
        -0.04522947,
        -0.030014481,
        -0.030312004,
        0.09914475,
        -0.050503254,
        0.009324824,
        0.048560776,
        0.05536578,
        -0.055010416,
        -0.07075435,
        0.05334171,
        0.039240062,
        -0.05414863,
        -0.003045042,
        0.035769705,
        -0.07355587,
        0.025990201,
        -0.06335997,
        -0.08326155,
        -0.049079284,
        -0.030287612,
        -0.07724238,
        -0.039906763,
        0.09660751,
        0.073881544,
        0.078424215,
        0.030022824,
        0.081928596,
        0.03389796,
        -0.049075164,
        0.0396619,
        0.056115706,
        -0.04959264,
        0.06622008,
        -0.06710955,
        -0.012887656,
        -0.0028245538,
        -0.027834658,
        -0.043138206,
        -0.07170297,
        -0.017524207,
        0.0663359,
        -0.04652427,
        0.091927506,
        0.01063388,
        -0.06255862,
        0.033781715,
        0.056773342,
        0.028921,
        -0.0069857524,
        0.0045618657,
        -0.08733738,
        -0.070078924,
        0.07942151,
        -0.033388525,
        -0.10086362,
        -0.09364249,
        -0.025762433,
        -0.027117535,
        -0.08356155,
        0.061972044,
        -0.06793383,
        -0.0030531106,
        -0.079089716,
        -0.015608909,
        -0.04632988,
        -0.056589574,
        -0.054006554,
        0.1038722,
        0.077453256,
        -0.078735724,
        -0.048902575,
        0.08805884,
        -0.08553673,
        0.040098153,
        -0.109076634,
        0.06468345,
        -0.021304594,
        0.07811115,
        -0.0100325765,
        -0.09820077,
        -0.025213633,
        0.035848044,
        0.057752587,
        -0.09195499,
        0.09638,
        0.013393095,
        -0.08304351,
        -0.0119720595,
        0.017265962,
        -0.046277672,
        -0.035563108,
        0.06543823,
        0.01846118,
        -0.067725085,
        0.039325666,
        0.08300638,
        -0.007653111,
        0.01880267,
        0.022071706,
        -0.0656827,
        -0.11662394,
        -0.10331329,
        0.074572235,
        -0.09970033,
        0.04099966,
        0.072016984,
        0.03957691,
        0.0909415,
        0.04692449,
        -0.046633266,
        6.2104623E-4,
        -0.051407665,
        0.060330246,
        -0.024702668,
        -0.08602375,
        -0.024241896,
        -0.006593777,
        -0.0781964,
        -0.0205831,
        0.028275482,
        0.02609498,
        0.10587583,
        0.09192566,
        0.05388801,
        0.032515563,
        0.060435046,
        0.1063802,
        0.04362261,
        -0.009606818,
        -0.0941704,
        -0.007603089,
        -0.058714077,
        0.089828014,
        -5.7286315E-4,
        -0.0997256,
        0.055259824,
        0.093168125,
        -0.025164105,
        -0.0785755,
        -0.08808178,
        0.07379936,
        0.0268052,
        -0.056738175,
        0.04075724,
        -0.034983214,
        -0.12512042,
        -0.050842945,
        0.012390298,
        -0.07170763,
        -0.08577734,
        -0.07423478,
        -0.091726184,
        0.030537961,
        0.0075880256,
        -0.02739831,
        0.009966517,
        0.004921753,
        0.04518462,
        -0.11679146,
        7.219872E-4,
        -0.092385724,
        0.002203042,
        -0.031854913,
        0.015786437,
        -0.08382371,
        -0.042903643,
        0.07433618,
        0.023945171,
        -0.08882501,
        -0.07007413,
        -0.12103646,
        0.045570165,
        -0.008058737,
        -0.020648515,
        0.02247388,
        -0.054861724,
        0.052020606,
        -0.0050739115,
        -0.124381915,
        -0.107869945,
        -0.025810167,
        -0.08729412,
        -0.021857286,
        -0.093746275,
        0.056561492,
        0.019463131,
        -0.034839917,
        0.06766024,
        0.027767068,
        0.066862874,
        0.09657672,
        0.07970558,
        -0.087052464,
        0.014287937,
        -0.056093223,
        0.100129135,
        -0.022104392,
        -0.074142784,
        -0.024846623,
        -0.044798773,
        -0.12793931,
        -0.058620777,
        0.01583011,
        0.014508823,
        -0.14215764,
        -0.119843915,
        -0.09689416,
        -0.023735285,
        0.04950967,
        -0.10573718,
        0.06827455,
        0.10603362,
        0.0357868,
        0.005527769,
        0.023834124,
        0.0042891167,
        -0.0050393515,
        0.04159428,
        0.05683622,
        0.005337964,
        -0.028777692,
        0.058948036,
        -0.07869649,
        0.045676548,
        0.01857075,
        -0.047502078,
        -0.09706002,
        0.09465232,
        -0.025234152,
        -0.09217962,
        -0.0683153,
        0.038652677,
        -0.109465174,
        -0.12822406,
        4.8800925E-4,
        0.057355147,
        -0.076030254,
        0.019125951,
        0.05790345,
        -0.0047866064,
        0.04791447,
        -0.05085325,
        -0.03317956,
        -0.10491964,
        -0.037520755,
        0.045733657,
        0.07576047,
        0.05748566,
        -0.023724576,
        -0.002157254,
        -0.0667531,
        -0.055747077,
        0.09185044,
        -0.050620265,
        0.04201015,
        0.02676546,
        -0.004784617,
        0.080303125,
        -0.06323947,
        0.113127396,
        -0.07370663,
        -0.0073621916,
        0.10121916,
        0.041773967,
        -0.07102589,
        -0.09546435,
        0.046710607,
        -0.08675832,
        0.07042678,
        0.06135626,
        0.07155661,
        -0.034913268,
        -0.056860693,
        -0.05145241,
        -0.0061231614,
        0.093146086,
        0.051037855,
        -0.030898277,
        -0.054875493,
        -0.053136174,
        0.09057814,
        -0.016168403,
        -0.008363307,
        0.039395314,
        0.06645029,
        0.12937066,
        -0.039056186,
        0.06615163,
        0.068356186,
        0.06900118,
        0.03475004,
        0.048832342,
        0.08615071,
        0.045860447,
        0.023666728,
        -0.02201394,
        -0.05868109,
        0.07713928,
        0.1362289,
        -0.03658214,
        -0.037702613,
        -0.06148116,
        0.032966573,
        -0.022044979,
        -0.010735431,
        0.07485673,
        0.085946016,
        -0.002791368,
        -0.08333941,
        0.08388591,
        0.053852946,
        -0.025059815,
        -0.05271686,
        0.08173201,
        -0.01496946,
        0.025838649,
        -0.0864454,
        0.15345444,
        0.008131381,
        0.07645249,
        0.02408729,
        0.08470628,
        0.062493518,
        -0.06626691,
        0.04078571,
        -0.05655521,
        0.08813381,
        -0.08420681,
        -0.022116795,
        -0.05766672,
        0.0254586,
        -0.03717961,
        -0.0028709718,
        0.03232071,
        -0.08093698,
        -0.03492342,
        0.0158093,
        0.07928097,
        0.040687434,
        0.05855313,
        0.017041422,
        0.05005817,
        0.058520768,
        0.042192154,
        0.020158006,
        0.15093298,
        0.117726445,
        0.1342229,
        -0.11097146,
        -0.0062865233,
        0.0156139545,
        0.06914656,
        -0.032010358,
        0.01676033,
        -0.03194716,
        -0.023782082,
        0.06811526,
        -0.086726755,
        0.049100243,
        -0.051939905,
        0.03298829,
        -0.030099439,
        0.016201502,
        -0.037521794,
        -0.04649966,
        -0.02023221,
        0.04974619,
        0.05292825,
        0.08328114,
        -0.013788677,
        0.08610334,
        0.0028830436,
        0.089523874,
        0.009923863,
        0.085688666,
        -0.04729281,
        0.06906618,
        -4.7121668E-4,
        0.07414658,
        -0.016414512,
        0.121368185,
        0.09141985,
        0.06555206,
        -0.03469609,
        -0.012324494,
        0.05432787,
        0.098226294,
        0.028958622,
        -0.07174911,
        0.03431209,
        0.008974852,
        0.07869572,
        -0.004973584,
        0.016030876,
        -0.09637212,
        -0.0017274558,
        0.03607629,
        0.03234913,
        -0.01305137,
        -0.012504611,
        0.06838012,
        0.050270304,
        -0.014019239,
        0.087933406,
        0.07520958,
        0.108405024,
        -0.02785268,
        -0.036206216,
        0.010365711,
        -0.056478243,
        0.08387798,
        -0.05294119,
        -0.06020622,
        0.07507027,
        -0.038020004,
        -0.047991186,
        0.0841901,
        -0.07316069,
        -0.049693152,
        0.083955765,
        -0.058258653,
        0.08809354,
        0.016508885,
        0.013450926,
        -0.016170902,
        0.1082254,
        -0.03765673,
        0.050309315,
        -0.013577232,
        -0.107953094,
        -0.053425726,
        0.044840768,
        0.029498579,
        -0.058125693,
        0.061857037,
        0.114740886,
        0.050517485,
        0.023149157,
        0.0072591086,
        0.049146976,
        -0.024572125,
        -4.0979128E-4,
        0.0070437836,
        -0.0847933,
        0.070209384,
        -0.012853279,
        0.08666996,
        0.039462816,
        -0.06419099,
        0.065120436,
        0.03504343,
        0.020620156,
        -0.031044971,
        -0.044915847,
        0.03587963,
        -0.079783015,
        0.07610289,
        -0.040794846,
        -0.07297354,
        -0.11531185,
        0.051507287,
        -0.033530455,
        0.041925978,
        -6.240841E-5,
        -0.06062815,
        0.11092062,
        0.07411365,
        0.061466496,
        -0.07923517,
        0.091700725,
        -0.07422587,
        -0.08138108,
        0.09848045,
        0.014271203,
        0.036433138,
        -0.027682345,
        0.073147185,
        -0.099936485,
        0.057271697,
        -0.0058661522,
        -0.05735051,
        0.034413774,
        -0.10464136,
        -0.019289816,
        -0.053279813,
        -0.0072655575,
        -0.104706325,
        -0.07408179,
        -0.07704291,
        0.06132992,
        0.07900973,
        0.08335051,
        -0.05407114,
        -0.053628698,
        -0.027385915,
        -0.008459178,
        0.03721434,
        -0.052099034,
        0.08857556,
        0.013043718,
        -0.08196123,
        -0.05305173,
        0.0839664,
        0.054230325,
        0.01913124,
        0.05662353,
        0.04097956,
        -0.08852274,
        0.06774271,
        0.006891509,
        -0.09983221,
        -0.10652385,
        0.0451849,
        0.05165388,
        0.08116804,
        0.026606768,
        0.039291956,
        -0.070457175,
        -0.0929015,
        0.07935063,
        -0.048622794,
        -0.07307846,
        -0.0013762178,
        0.046451062,
        0.05493453,
        -0.036583804,
        -0.06544559,
        -0.0950618,
        -0.041664626,
        -0.059847888,
        0.01847348,
        0.08616876,
        -0.026253926,
        0.0812048,
        0.005841451,
        0.050254725,
        -0.085838474,
        -0.045736693,
        -0.017119564,
        -0.0134769315,
        -0.08564907,
        -0.07591197,
        0.063709795,
        -0.09882231,
        -0.014369846,
        -0.07310902,
        -0.043342225,
        0.060815014,
        0.10094087,
        0.07228393,
        0.001499535,
        0.002640652,
        0.07444502,
        -0.07780687,
        0.04993768,
        0.054885887,
        -0.04209239,
        0.085315056,
        0.07153342,
        0.089098975,
        0.024093183,
        -0.03342917,
        -0.03767146,
        0.05012293,
        -0.05316988,
        -0.07233265,
        0.08346551,
        -0.04985956,
        0.0045262766,
        0.08534159,
        -0.08519853,
        0.05319492,
        -0.022656556,
        4.377019E-4,
        -0.0137940515,
        -0.09851608,
        0.007325101,
        -0.057467252,
        -0.004202158,
        0.04362628,
        0.019660063,
        0.05462457,
        0.017478019,
        0.054730497,
        0.038245954,
        -0.022116587,
        -0.059204694,
        0.018007822,
        0.09361007,
        0.09601728,
        -0.066466,
        -0.08275283,
        0.011224421,
        -0.047704604,
        0.01254542,
        -0.059864663,
        0.029050937,
        -0.040438715,
        -0.07142536,
        -0.071114235,
        0.010632462,
        0.07530582,
        -0.076605104,
        -0.06890595,
        -0.03743751,
        0.045976426,
        -0.09862973,
        0.0015831869,
        0.039567217,
        -0.061820026,
        -0.027394207,
        0.08510303,
        0.026097672,
        -0.030836698,
        -0.028866315,
        -0.029899923,
        0.020243635,
        -0.0750679,
        0.029060746,
        -0.05481251,
        -0.08628504,
        -0.088508286,
        -0.0031689217,
        -0.08580547,
        0.062693715,
        0.023916028,
        0.03845428,
        -0.074236035,
        0.07028021,
        -0.064586,
        -0.095769756,
        -0.0368894,
        0.06957777,
        0.013210027,
        -0.016939955,
        0.010460717,
        0.08789142,
        -0.052966967,
        0.073377475,
        0.04042117,
        -0.010637513,
        0.040732104,
        0.07368116,
        -0.074424505,
        -0.038057182,
        0.062458705,
        0.09167935,
        0.06059049,
        0.08898424,
        0.07334102,
        0.0024099208,
        0.008418034,
        0.085694864,
        -0.032250583,
        0.023722557,
        -0.05426944,
        0.06485706,
        -0.05901451,
        -0.063789554,
        0.037715424,
        -0.0636993,
        -0.050541863,
        0.028738646,
        0.05578318,
        0.05877135,
        -0.05808154,
        -0.018690923,
        0.0625414,
        0.032399263,
        0.0092951795,
        0.081561126,
        0.085373245,
        0.04401162,
        0.01852262,
        0.0786139,
        0.023699546,
        0.011541994,
        -0.06304506,
        0.063474745,
        -0.02069553,
        0.06257388,
        0.004270451,
        -0.008738614,
        0.016429154,
        -0.07192399,
        0.079269044,
        -0.10141808,
        0.077733934,
        -0.09309075,
        -0.007834301,
        -0.06724191,
        -0.053420875,
        -0.07539201,
        -0.050886765,
        -0.041027643,
        -0.052904252,
        -0.00402305,
        0.00834416,
        -0.01847222,
        0.07670949,
        -0.08966487,
        -0.07147568,
        -0.04073279,
        -0.014611511,
        0.023117034,
        -0.105371214,
        -0.019591417,
        0.057267427,
        0.04483599,
        0.048063204,
        0.011745539,
        0.01740692,
        -0.08815765,
        -0.02934482,
        0.016577575,
        0.06024821,
        -0.01660475,
        -0.0326218,
        0.08134208,
        0.044877663,
        -0.09205641,
        -0.09658576,
        -0.082229525,
        -0.021853294,
        0.025266845,
        -0.09953299,
        0.019672802,
        0.068525285,
        0.07727999,
        0.0514368,
        -0.06526557,
        -0.05494373,
        0.09068633,
        0.038422205,
        0.025198841,
        0.10812603,
        0.042857084,
        0.031892166,
        -0.066164725,
        0.13047913,
        0.016192986,
        0.037865546,
        0.0229447,
        0.027827704,
        -0.08259194,
        0.014750136,
        0.04351226,
        0.071873836,
        0.03219002,
        -0.0766949,
        0.095599785,
        0.0071455934,
        0.0061876653,
        0.048059557,
        0.056989245,
        -0.0092888605,
        0.03843097,
        8.711244E-4,
        0.09612358,
        -0.041170094,
        -0.0023628536,
        0.11797637,
        0.011198291,
        -0.009144702,
        -0.13052918,
        -0.030223634,
        0.014518538,
        -0.09670489,
        -0.039837692,
        -0.07549716,
        -0.111952364,
        -0.12226807,
        -0.056851376,
        -0.017074618,
        -0.0053652287,
        0.04897668,
        0.0036683145,
        0.059799057,
        0.008248297,
        0.021282723,
        0.02605557,
        -0.078033924,
        -0.052296888,
        -0.057900004,
        -0.085790545,
        0.06390548,
        0.04621697,
        -0.079874955,
        -0.08814218,
        -0.016020585,
        0.13145865,
        0.09048482,
        0.03427685,
        -0.06905549,
        -0.13947695,
        -0.032179013,
        -0.16580583,
        -0.038747765,
        -0.05660414,
        -0.12633793,
        -0.05019849,
        -0.0027000627,
        0.08488963,
        -0.03796005,
        -0.05804183,
        -0.036668327,
        -0.091275476,
        0.044162173,
        0.08910789,
        -0.07262497,
        -0.078925826,
        -0.046479084,
        0.097365476,
        0.026615446,
        -0.0753469,
        0.08985809,
        -0.110257775,
        -0.058202356,
        -0.047293797,
        -0.108270414,
        0.06624341,
        0.123294644,
        0.077587,
        0.0049486477,
        -0.04039492,
        -0.008657594,
        -0.024784386,
        0.012242491,
        -0.119112074,
        -0.11448664,
        0.07750106,
        -0.012632736,
        -0.089216426,
        -0.03659338,
        -0.029103031,
        -0.021672558,
        -0.089877196,
        0.024966476,
        -0.0024991436,
        -0.05723522,
        0.040387534,
        0.003039721,
        0.027344612,
        0.040042806,
        -0.09772719,
        -0.046696626,
        -0.050372925,
        0.02543426,
        0.11280863,
        0.083756715,
        0.12612216,
        -0.059557803,
        -0.006184172,
        -0.0034271653,
        0.026324667,
        -0.121960886,
        -0.039191063,
        -0.051742245,
        0.033537872,
        0.05234909,
        0.029786836,
        0.07215164,
        0.06914736,
        -0.0653815,
        -0.07867745,
        -0.035622124,
        -0.09208484,
        -0.04799203,
        -0.032969933,
        -0.052596297,
        -0.12104618,
        -0.0976004,
        0.03321783,
        -0.1130883,
        -0.12118903,
        -0.026013372,
        0.06658916,
        0.01151713,
        0.004380005,
        -0.07412757,
        0.008917834,
        -0.082947746,
        -0.037167918,
        0.0017147978,
        -0.06025885,
        -0.09718165,
        -0.0034932652,
        -6.821702E-5,
        -0.008583692,
        0.004898825,
        0.03445146,
        0.097171605,
        0.059685152,
        0.0703871,
        0.056270212,
        -0.043911062,
        -0.015427173,
        -0.0660418,
        0.06372996,
        -0.07318693,
        -0.021489842,
        0.05169454,
        -0.1105195,
        -0.016832016,
        -0.08912789,
        0.114199825,
        0.07454187,
        0.09408864,
        -0.011491196,
        0.012258008,
        -0.117727764,
        0.031551376,
        -0.072815314,
        0.054697104,
        0.02755784,
        -0.04296986,
        0.019882323,
        0.08383827,
        -0.06151228,
        0.046096977,
        0.051879898,
        -0.08757691,
        -0.0363152,
        -0.05268221,
        0.08302971,
        -0.06970662,
        0.050159056,
        0.026579646,
        0.016704839,
        -0.04787834,
        0.014311807,
        -0.08143187,
        -0.1257329,
        0.03261287,
        0.105331905,
        -0.042213816,
        -0.06291558,
        -0.11417855,
        -0.044792503,
        0.06087137,
        -0.05645403,
        0.10954397,
        -0.040037025,
        0.0012793489,
        -0.04178584,
        -0.003849363,
        0.038220275,
        -0.09882691,
        -0.027461167,
        0.04393571,
        -0.059212867,
        -0.042243704,
        -0.08183026,
        -0.08552788,
        0.04153392,
        0.030277584,
        0.034142822,
        -0.06237528,
        -0.12037583,
        -0.08142649,
        0.04080424,
        0.13603418,
        -2.780839E-4,
        -0.034533497,
        -0.0064162863,
        0.065064415,
        -0.104121245,
        0.097031064,
        0.08316459,
        0.06343357,
        -0.023775892,
        0.047816087,
        0.06303402,
        0.094935134,
        -0.09563603,
        0.060381673,
        0.05794272,
        -0.07771315,
        0.05351025,
        -0.0043053697,
        0.06486712,
        0.030395074,
        -0.112287246,
        -0.12765984,
        -0.12611479,
        -0.057476465,
        -0.07600034,
        -0.10048326,
        -0.02094312,
        0.0864699,
        0.05545114,
        0.03933052,
        -0.02668105,
        -0.0743555,
        0.028180396,
        0.012920751,
        -0.0012610006,
        3.2446743E-4,
        0.01452947,
        0.027848588,
        0.0051474357,
        -0.023566648,
        -0.026283005,
        0.08618347,
        0.04318639,
        -0.08207629,
        0.0026599343,
        -0.03294242,
        -0.10158388,
        -0.09967271,
        -0.10136724,
        0.025102243,
        0.032475356,
        -0.11050256,
        -0.032264967,
        0.0021276213,
        -0.017180331,
        -0.022369787,
        0.005360394,
        -0.10882566,
        -0.08887548,
        -0.03966199,
        -0.11627986,
        0.05785182,
        -0.04029916,
        0.021459177,
        -0.011356866,
        0.029345585,
        -0.09485422,
        -0.08833513,
        0.09932126,
        0.040284485,
        -0.0735018,
        -0.017519776,
        0.09861013,
        0.06222908,
        -0.03071135,
        0.067496575,
        -0.08980633,
        -0.016627584,
        -0.028747242,
        0.04228753,
        0.039946888,
        -0.024714775,
        -0.026472822,
        0.11896096,
        0.05252203,
        -0.07011459,
        -0.16234589,
        -0.1139677,
        0.02306008,
        -0.03998228,
        0.03633555,
        -0.099483065,
        -0.0349392,
        0.037479024,
        0.06098379,
        -0.098614715,
        0.024876464,
        0.08424472,
        0.0041878503,
        0.07988508,
        -0.10093793,
        0.08199136,
        0.0025933068,
        -0.09220689,
        0.022621742,
        -0.046026837,
        -0.04744048,
        0.03382331,
        -0.037259597,
        0.018566422,
        0.055462707,
        0.11240556,
        -0.010327534,
        -0.15750325,
        -0.024829457,
        0.0027308457,
        -0.047604244,
        -0.046009418,
        -0.09136168,
        0.0628996,
        -0.036225826,
        -0.0027457613,
        -0.04579556,
        -0.09004079,
        0.082997054,
        0.048633486,
        0.08195882,
        0.081790574,
        0.07316585,
        -0.04343419,
        -0.1077409,
        0.08607358,
        0.048055623,
        -0.024427086,
        0.053773884,
        -0.011838045,
        0.038505517,
        0.08988989,
        0.0050730226,
        0.0068879235,
        6.101059E-4,
        -0.09110131,
        -0.058457606,
        -0.027988287,
        -0.115050495,
        0.026210766,
        0.03041485,
        -0.09988138,
        0.013752882,
        -0.08625702,
        -0.08153433,
        -0.08470761,
        -0.00226566,
        -0.072463416,
        -0.050931595,
        -0.09784259,
        0.08852178,
        0.03978232,
        0.027634785,
        0.04758651,
        -0.046958663,
        -0.10302478,
        0.06415646,
        0.03287164,
        -0.0017900952,
        0.051240154,
        -0.0049775145,
        -0.008128906,
        -0.043942194,
        -0.12432238,
        0.039932836,
        0.028978033,
        -0.018937936,
        -0.076102175,
        0.017553756,
        0.042283166,
        -0.10290335,
        -0.07522909,
        0.08303045,
        0.07931655,
        0.08693675,
        0.07807238,
        -0.09882981,
        -0.013772002,
        -0.052707624,
        0.05983823,
        -0.06740598,
        -0.016457807,
        -0.116335094,
        -0.03970487,
        0.0053066,
        -0.029188791,
        0.08787387,
        0.035582528,
        0.12567145,
        0.034982026,
        0.0076719075,
        0.008542852,
        -0.09712123,
        -0.025099823,
        -0.042276528,
        0.017532792,
        0.078540675,
        -0.039965436,
        0.09209676,
        -0.06805285,
        -0.020980822,
        -0.06364497,
        0.0354942,
        0.09617531,
        -0.0841344,
        0.06649639,
        0.058673576,
        0.08573643,
        -0.048306745,
        -0.047315527,
        -0.039547183,
        -0.10203095,
        0.07681809,
        -0.01045992,
        0.036033437,
        0.012167341,
        -0.009019477,
        -0.10594314,
        0.038998164,
        0.030925406,
        0.06936449,
        0.08841408,
        0.09592795,
        -0.0046446766,
        -0.01728758,
        0.074382365,
        -0.005403989,
        0.05263241,
        -0.09905396,
        0.031976484,
        -0.089702375,
        -0.099743046,
        0.021901093,
        -0.014261135,
        0.018443473,
        -0.07455136,
        -0.039921254,
        -0.07787549,
        -0.016815724,
        0.07036979,
        0.07850478,
        0.007824281,
        0.039395563,
        -0.006052977,
        -7.021817E-5,
        0.0011303178,
        -0.07929234,
        0.10622178,
        0.056505065,
        0.015802018,
        -0.06949272,
        0.0263518,
        0.09433389,
        -0.08358794,
        5.452412E-4,
        -0.018637978,
        -0.06309123,
        -0.044632647,
        -0.05749339,
        0.08345625,
        0.058611367,
        -0.07434103,
        -0.04351017,
        -0.062487386,
        0.056329153,
        -0.002150988,
        0.017139548,
        0.013337532,
        -0.005508366,
        0.008888938,
        0.05402061,
        -0.07132925,
        -0.018857101,
        -0.037630986,
        -0.020307241,
        0.13099256,
        0.095976815,
        -0.051671028,
        0.06823614,
        0.07606168,
        0.023620933,
        0.079275824,
        -0.06365433,
        0.042380214,
        -0.022443868,
        -0.071236536,
        -0.032165628,
        0.093042225,
        -0.0033770439,
        -0.0049695433,
        0.024790626,
        0.08607211,
        -0.019528938,
        0.019359477,
        0.07156922,
        0.04708553,
        -0.010144335,
        -0.011811854,
        0.03647211,
        -0.1164059,
        0.04820073,
        -0.018790677,
        0.04791005,
        -8.0554816E-4,
        -0.06981068,
        0.0923715,
        0.09764745,
        0.017921958,
        -0.03617244,
        -0.08687041,
        -0.035349824,
        -0.092624195,
        -0.07901977,
        -0.04147623,
        -0.0657796,
        0.062133964,
        0.083996765,
        0.011669736,
        -0.05404506,
        -0.06401309,
        0.030037377,
        0.055942435,
        0.018583898,
        -0.03564364,
        0.089535296,
        -0.01404998,
        -0.11924645,
        -0.029213535,
        0.026743194,
        -0.049181484,
        -0.019241255,
        0.030455071,
        0.028527983,
        0.06286825,
        0.043044705,
        -0.1016832,
        -0.08424928,
        0.061519425,
        0.066574514,
        0.034855463,
        -0.093106955,
        0.059001468,
        0.0318238,
        -0.045745913,
        0.093901955,
        0.06584107,
        0.0783718,
        0.066815406,
        0.033824783,
        -0.020638825,
        -0.04962285,
        -0.015054023,
        -0.050562426,
        0.019591497,
        0.008406515,
        0.014214995,
        -0.09754089,
        0.01618638,
        -0.040010367,
        0.055274546,
        -0.0449862,
        -0.07338552,
        -0.09092262,
        -0.058447134,
        -0.044496864,
        0.004562469,
        -0.05155719,
        -0.0013728366,
        -0.054883484,
        0.008662248,
        -0.07425277,
        0.08533383,
        0.080577865,
        0.071320355,
        0.039140884,
        0.05941324,
        -0.0101364385,
        -0.047294807,
        -0.087987415,
        -0.050798353,
        0.0016549338,
        -0.04227225,
        -0.030657463,
        0.03260263,
        0.0552042,
        0.07215915,
        -0.06411847,
        -0.016462177,
        -0.09414661,
        0.06889176,
        -0.06011973,
        -0.087325834,
        -0.03407275,
        -0.087579265,
        -0.008463082,
        -0.09578739,
        0.058375034,
        -0.011708776,
        -0.06669308,
        0.060639113,
        0.09975459,
        -0.0012904352,
        -0.09554635,
        0.0015191318,
        -0.068689786,
        -0.07278886,
        -0.048502333,
        -0.046268735,
        -0.039020576,
        -0.026494393,
        0.028470132,
        0.050166424,
        0.09410604,
        0.059148874,
        0.078075126,
        0.014735383,
        -0.0339276,
        -0.020170545,
        -0.037765127,
        0.05299863,
        -0.04166143,
        -0.0626354,
        -0.08070537,
        0.09058766,
        0.07877848,
        0.022969937,
        -0.03479722,
        -0.0943114,
        -0.0821331,
        0.043093022,
        0.027270906,
        -0.012789756,
        -0.045814697,
        0.08007744,
        0.0016412186,
        -0.08317272,
        0.075855926,
        -0.03786086,
        -0.04046924,
        -0.07862008,
        -0.09042988,
        -0.019181738,
        -0.009736909,
        -0.03426106,
        1.5254836E-6,
        -0.062393587,
        0.078989014,
        -5.753917E-4,
        0.0856693,
        -0.0688199,
        0.098313116,
        -0.045399897,
        -0.0015870023,
        -0.0039993306,
        0.04623203,
        0.08058645,
        0.021310365,
        0.004029714,
        -0.07120849,
        -0.025204157,
        0.053775392,
        0.09528868,
        0.014640318,
        0.046857256,
        -0.09911695,
        -0.03123123,
        -0.019650409,
        0.03277472,
        0.015719999,
        -0.0061688665,
        -0.029378356,
        -0.086124025,
        -0.007827697,
        0.08810934,
        -0.08429834,
        0.010900856,
        0.0768841,
        -0.027798442,
        -0.06430595,
        -0.06396067,
        0.048348434,
        -0.08373206,
        0.046228718,
        -0.05370612,
        0.042652417,
        0.05060521,
        -0.025580266,
        -0.004604529,
        0.07407723,
        -0.06948383,
        0.052355573,
        -0.04120478,
        -0.06465651,
        0.080123276,
        0.00923185,
        -0.027087605,
        -0.05979088,
        -0.0039929594,
        0.025214087,
        0.04927092,
        -0.094178416,
        0.10236879,
        -0.02421274,
        -0.054917373,
        -0.011697385,
        0.057219755,
        0.051054254,
        0.066877075,
        0.073299535,
        -0.09722373,
        0.08570051,
        0.09921529,
        0.04512536,
        0.0077430704,
        0.006197215,
        0.0027247958,
        0.09812567,
        0.045451257,
        -0.07434874,
        0.054690976,
        -0.06424034,
        -0.07910138,
        -0.10118889,
        -0.0807177,
        0.022478646,
        -0.10661837,
        -0.104794405,
        -0.052812703,
        -0.049393345,
        -0.077368155,
        0.098889105,
        0.101259574,
        0.0010582341,
        0.007845719,
        -0.08119862,
        0.022901326,
        0.08091952,
        0.0010797699,
        -0.0668267,
        0.0070762197,
        -0.050107803,
        -0.06780716,
        -0.011861469,
        -0.04049925,
        -0.0114070885,
        0.07605387,
        -0.10401734,
        -0.0055352882,
        -0.12570626,
        -0.020988256,
        -0.012924683,
        -0.060421824,
        -0.07821188,
        0.01768181,
        -0.026944652,
        -0.010571524,
        0.069064386,
        -0.022895455,
        0.08811979,
        0.010812682,
        -0.033400435,
        -0.08112033,
        -0.0795604,
        -0.07518999,
        0.07637914,
        0.066295855,
        -0.017462041,
        -0.035578016,
        -0.047509592,
        0.04771397,
        0.025518669,
        0.03226656,
        0.084078245,
        0.045970377,
        -0.08709674,
        -0.105369166,
        -0.08890155,
        -0.047251604,
        -0.1195493,
        -0.10914362,
        -0.021122545,
        -0.10096575,
        0.017777791,
        0.044753898,
        0.081235625,
        0.043246813,
        0.038978238,
        -0.10778123,
        0.017597888,
        -0.06485095,
        -0.035130735,
        -0.01608605,
        0.042359628,
        -0.0653578,
        0.0898984,
        -0.059827387,
        0.055544414,
        0.07774868,
        0.032305818,
        -0.027388811,
        0.055654045,
        -0.08614738,
        -0.07872525,
        -0.066118635,
        -0.03908314,
        0.009077435,
        0.048014726,
        -0.131719,
        -0.07326914,
        -0.09979849,
        -0.15112406,
        -0.0035853956,
        -0.056990787,
        -0.061093085,
        -0.022920255,
        -0.021671578,
        0.007647727,
        0.07035475,
        0.050732125,
        -0.0035726072,
        -0.017359467,
        -0.035751913,
        0.05002812,
        0.012500903,
        0.044016697,
        0.056289323,
        0.08171995,
        0.011357431,
        0.073401384,
        -0.097920746,
        0.067012176,
        0.06349393,
        -0.027498342,
        -0.09055922,
        -0.027633015,
        0.007364428,
        -0.07328415,
        -0.1540571,
        -0.035892636,
        -0.077870026,
        0.043050244,
        -0.13266298,
        -0.071072854,
        -0.11554496,
        -0.068820566,
        0.018855909,
        0.0024242857,
        -0.004051563,
        -0.030590268,
        -0.045969877,
        0.044753734,
        -0.022117173,
        -0.05167544,
        -0.005133447,
        -0.004500897,
        -0.07459299,
        -0.10419102,
        0.007482999,
        0.036705725,
        0.056290913,
        -0.033849284,
        -0.073772036,
        0.02377847,
        -0.10635895,
        -0.123672344,
        -0.13480036,
        0.057360366,
        -0.06435125,
        -0.081529126,
        -0.071799934,
        -0.016859517,
        -0.021557208,
        0.04998703,
        0.044459805,
        -0.05052786,
        0.023577195,
        -0.026343673,
        0.034783274,
        -0.09915258,
        -0.018211894,
        0.07586359,
        -0.022522954,
        -0.04052411,
        0.09431681,
        -0.011191991,
        0.046885855,
        -0.10128339,
        -0.07876425,
        -0.03121031,
        -0.09991694,
        -0.02268118,
        0.017832052,
        -0.005304026,
        -0.07725867,
        -0.11649421,
        -0.070616625,
        -0.045794614,
        -0.09617507,
        0.06220806,
        0.034731373,
        -0.0121706175,
        0.088178545,
        -0.02125799,
        0.0019008975,
        -0.042211056,
        0.008099718,
        0.0012119894,
        0.046872005,
        0.04941118,
        0.07511,
        0.08646045,
        0.08094259,
        -0.017824825,
        0.05599367,
        0.0042204317,
        0.022737835,
        0.0072296034,
        -0.04158624,
        0.0669483,
        0.08306141,
        0.12064124,
        0.11453886,
        -0.016117921,
        -0.076492034,
        -0.049017135,
        0.050013263,
        -0.10966343,
        0.066732965,
        -0.06998741,
        0.014078499,
        0.09928424,
        -0.043418005,
        0.015519968,
        -0.091742896,
        0.049350888,
        -0.026643496,
        -0.03857184,
        0.011896737,
        -0.083187,
        -0.07144429,
        -0.09109016,
        0.09380639,
        0.029269911,
        -0.08570441,
        -0.07592142,
        -0.11496649,
        0.07790551,
        -0.027769968,
        0.15771368,
        0.025663976,
        -0.049779516,
        -0.02012195,
        0.039154693,
        0.016538676,
        -0.05005819,
        -0.080969594,
        -0.018981293,
        -0.020651404,
        0.010345983,
        9.2816394E-4,
        -0.02303814,
        0.016889753,
        -0.0933024,
        0.05210927,
        -0.04620512,
        0.07684569,
        0.053932868,
        0.0556675,
        -0.03665005,
        -0.10765896,
        -0.09633557,
        -0.03968392,
        -0.13847819,
        0.016684512,
        -0.030759698,
        0.15619361,
        0.062472645,
        0.04639643,
        8.022743E-5,
        0.013257235,
        -0.005297977,
        -0.047966346,
        0.017011506,
        -0.018103903,
        -0.06927478,
        0.09589418,
        0.06972721,
        0.052604925,
        -0.04498462,
        -0.033391323,
        -0.069900915,
        -0.03336899,
        0.035026345,
        0.03424475,
        -0.012706512,
        -0.013162121,
        0.04310898,
        0.026852924,
        -0.04850915,
        -0.023124646,
        -0.07355047,
        -0.10376366,
        0.09289763,
        0.05671381,
        0.037595946,
        0.043446377,
        0.09507437,
        -0.0068511753,
        0.01610894,
        -0.071452565,
        -0.1059874,
        0.057027597,
        0.023153178,
        -0.060418934,
        0.059196454,
        -0.057741653,
        -0.07421417,
        -0.04050996,
        0.08784835,
        -0.035803184,
        -0.015506111,
        -0.09389209,
        0.021133687,
        -0.010784478,
        0.042038057,
        -0.05609236,
        -0.11766096,
        -0.10081066,
        -0.14371233,
        -0.02766713,
        0.114835545,
        0.10790507,
        -0.0023593397,
        -0.021070575,
        0.0023589868,
        -0.02406743,
        -0.035964116,
        -0.07361804,
        0.0056878477,
        0.038332168,
        -0.06767418,
        0.0703705,
        -0.04678165,
        -0.029491682,
        0.09639968,
        -0.09938325,
        -0.018007481,
        0.049242817,
        -0.05968032,
        0.086930096,
        -0.05900556,
        0.028187683,
        -0.032612175,
        -0.12314905,
        -0.10915943,
        0.04512473,
        0.003724486,
        0.0051147183,
        0.0869555,
        0.010323606,
        0.015545052,
        0.06905971,
        -0.04425324,
        0.011331055,
        -0.049002297,
        -0.130313,
        -0.008878419,
        -0.009022285,
        -0.008395786,
        0.027659707,
        0.046307057,
        0.02294743,
        -0.031010626,
        -0.05141144,
        -0.008250076,
        -0.006305941,
        -0.06429765,
        -0.09330523,
        -0.07146907,
        -0.02086563,
        -0.07232668,
        -0.02564541,
        -0.017128605,
        0.07417584,
        -0.041850094,
        0.034250196,
        0.07701456,
        0.10631641,
        -0.05034283,
        -0.085385464,
        -0.1263349,
        0.039768927,
        -0.08625781,
        -0.12119287,
        -0.014485732,
        0.020894086,
        -0.028699655,
        -0.015622667,
        0.06471893,
        -0.1046477,
        0.02533501,
        0.09712287,
        0.041001473,
        -0.030718742,
        0.035529565,
        0.08808609,
        -0.014077486,
        -0.102935985,
        0.001078625,
        -0.11600032,
        0.042359762,
        0.021135304,
        0.047421988,
        0.17573787,
        0.13520919,
        -0.071204945,
        -0.11658989,
        -0.05042545,
        -0.06866794,
        0.030848486,
        0.08871641,
        0.0079316525,
        0.026040863,
        -0.064324506,
        -0.018353796,
        -0.041708525,
        0.020049624,
        -0.054071806,
        -0.06825068,
        0.06779076,
        0.012797016,
        -0.014004436,
        0.030901903,
        -0.06527552,
        0.062416848,
        0.063080385,
        -0.035862297,
        -0.024297604,
        0.0140083935,
        -0.019443166,
        0.020093689,
        -0.016880177,
        0.05473378,
        -0.02171063,
        -0.12553911,
        0.02071814,
        -0.06392517,
        -0.041960813,
        0.020546248,
        -0.106922016,
        0.0071344287,
        -0.06720263,
        0.03837433,
        0.034301642,
        0.06441902,
        -0.058723915,
        0.09269346,
        -0.005380206,
        -0.034611102,
        0.06868215,
        0.073470935,
        -0.046682943,
        0.047559332,
        0.07263897,
        -0.097363666,
        0.027421733,
        -0.008544602,
        -0.010733276,
        0.078032404,
        -0.043420408,
        -0.12552932,
        -0.15208651,
        -0.016698647,
        -0.08245516,
        -0.07704493,
        0.06439635,
        -0.06355866,
        -0.014595069,
        -0.02671963,
        0.045226995,
        -5.75108E-4,
        0.008557376,
        -0.03418367,
        -0.08867415,
        -0.033153165,
        0.032979283,
        0.05588953,
        0.020374827,
        -0.025282558,
        -0.05950246,
        -0.020103322,
        -0.057273783,
        -0.101592526,
        -0.060919527,
        -0.069752395,
        -0.053237233,
        0.04494238,
        -0.09506478,
        -0.04497035,
        0.013079759,
        -0.0010205492,
        -0.07010138,
        -0.09894832,
        -0.008398644,
        -0.048008673,
        -0.060689993,
        -0.031954322,
        -0.09261936,
        -0.017736126,
        0.055001423,
        -0.07958197,
        -0.07332442,
        -0.09461009,
        -0.037272066,
        0.054675013,
        -0.09367441,
        -0.042799566,
        -0.023624063,
        0.022790581,
        0.054750465,
        -0.07746538,
        0.08324434,
        0.021885086,
        -0.04286468,
        -0.041740354,
        0.0647652,
        -0.036588747,
        0.008850773,
        0.068115294,
        -0.003362513,
        0.01630794,
        0.07605187,
        -0.052072186,
        0.060730435,
        0.019492915,
        0.053032078,
        -0.029475322,
        0.012111504,
        -0.023360258,
        -0.028059281,
        0.09646269,
        -0.033124298,
        -0.08471099,
        0.04678452,
        0.025471166,
        0.021384047,
        -0.024356894,
        -0.01315823,
        -0.03842091,
        -0.022398196,
        0.019433092,
        0.06780792,
        0.0062444443,
        -0.07511825,
        0.08420614,
        -0.03481248,
        0.12362816,
        0.049596887,
        -0.03469776,
        -0.08138906,
        0.053299528,
        0.012302123,
        -0.0014344536,
        -0.018917074,
        0.01392177,
        -0.08872059,
        -0.08166381,
        -0.09400039,
        -0.013526363,
        -0.03655205,
        0.07916287,
        -0.07056301,
        0.023760237,
        -0.034148,
        -0.067250445,
        -0.06269807,
        0.091635115,
        0.052925985,
        -0.040181734,
        -0.001221622,
        0.08016503,
        0.07367425,
        -0.0052318703,
        -0.004520581,
        -0.03897707,
        0.084088914,
        0.11358336,
        0.026612002,
        0.090479374,
        0.09204689,
        0.050140783,
        -0.040339027,
        -0.039499924,
        0.025788618,
        0.096444055,
        0.004371741,
        0.04155082,
        0.03200714,
        0.020842116,
        0.044006754,
        0.06571003,
        -0.021313203,
        -0.042823154,
        -0.078983106,
        -0.051950555,
        -0.032380242,
        -0.016819062,
        -0.015547972,
        -0.10171271,
        0.032842636,
        -0.096135564,
        -0.0595457,
        -0.060888495,
        -0.09579003,
        0.06383897,
        -0.01974593,
        -0.021402625,
        0.08159998,
        -0.09457266,
        0.015737124,
        -0.037386175,
        -0.031911667,
        0.083360106,
        0.03627157,
        -0.09264059,
        0.016302425,
        -0.015200353,
        0.0018850358,
        -0.04166125,
        0.08441021,
        -0.08236838,
        -0.012372264,
        7.0333027E-4,
        0.047657743,
        0.09346773,
        -0.054119837,
        0.045001198,
        -0.07115649,
        0.037200827,
        -0.01673698,
        0.0088719195,
        -0.058442216,
        -0.059084307,
        -0.06787029,
        0.032477394,
        -0.021486402,
        -0.0188087,
        0.088487774,
        0.08069353,
        0.07238723,
        0.034163095,
        0.089456476,
        -0.05071505,
        -0.07046486,
        -0.069429524,
        0.03274722,
        0.098086424,
        0.038175024,
        -0.060337733,
        -0.090666145,
        0.08670226,
        -0.010714827,
        0.07287616,
        0.08369237,
        -0.035598587,
        -0.061675344,
        0.025133729,
        0.0624038,
        -0.03891474,
        0.053991854,
        0.07429714,
        0.06727813,
        -0.046000782,
        -0.074743986,
        0.052073475,
        -0.06376892,
        0.07282037,
        0.027305009,
        -0.06959556,
        -0.034890473,
        0.0024621866,
        0.024412364,
        -0.013382998,
        0.04797046,
        0.09120723,
        -0.016159775,
        0.018533543,
        -0.072656065,
        0.027347757,
        0.01275303,
        -0.03777932,
        0.08132329,
        0.05446259,
        0.08089004,
        0.024084609,
        -0.01684448,
        0.025348425,
        0.007661119,
        0.0010447304,
        -0.04841525,
        0.05468149,
        -0.007084113,
        0.067790546,
        -0.022161609,
        -0.07526045,
        0.053521287,
        -0.056445513,
        -0.037168402,
        -0.07726968,
        0.091217585,
        0.015872756,
        -0.07273306,
        0.043936647,
        0.061949372,
        0.095095105,
        -0.032342117,
        0.081802644,
        0.04284452,
        9.4411446E-4,
        0.022914713,
        0.04426716,
