{
  "inputLayer": {
    "nodes": 784
  },
  "evaluateLayers": [
    {
      "weights": [
        0.03188133,
        0.029105075,
        -0.011482052,
        -0.042897187,
        -0.06927239,
        0.061529826,
        0.124646746,
        0.0497942,
        0.11576233,
        0.075279765,
        0.19123243,
        0.082525834,
        -0.048785333,
        -0.028259408,
        0.04981811,
        -0.050143734,
        0.11301392,
        0.18243031,
        0.17451163,
        0.040769942,
        0.07822127,
        0.010743706,
        -0.003275762,
        0.040822968,
        0.0063735037,
        -0.094831266,
        -0.012014051,
        -0.011988587,
        -0.07469735,
        -0.08789838,
        0.033402115,
        0.06042112,
        -0.018007953,
        0.069859974,
        0.085387476,
        0.08124013,
        0.16285065,
        0.0700549,
        -0.021206642,
        -0.07145534,
        -0.17436093,
        -0.17834912,
        -0.20965694,
        -0.12439312,
        -0.06216749,
        0.07475977,
        0.05560996,
        -0.023610324,
        -0.11344777,
        -0.12291926,
        -0.076200195,
        -0.04634185,
        -0.11303632,
        -0.023757538,
        -0.042838644,
        -0.100546494,
        -0.025328597,
        -0.09663194,
        0.030809036,
        0.11252158,
        -0.009622669,
        0.023027347,
        0.18148251,
        0.05658198,
        0.041956484,
        -0.05405055,
        -0.053580523,
        -0.17125285,
        -0.34754106,
        -0.18252975,
        -0.2114965,
        -0.062311307,
        -0.013557011,
        0.07684237,
        -0.013483588,
        0.007678848,
        -0.028163528,
        -0.07125554,
        -0.11900787,
        -0.072604254,
        -0.075700164,
        -0.14412466,
        -0.08618024,
        -0.1368772,
        0.06081845,
        0.06279707,
        0.049893852,
        -0.02900003,
        0.17969763,
        0.14754352,
        0.040305167,
        0.0024424943,
        -0.010203161,
        -0.0678262,
        -0.11149767,
        -0.35325757,
        -0.36814153,
        -0.28951067,
        -0.23731576,
        -0.059107143,
        -0.078494914,
        -0.046014264,
        0.07939666,
        -0.027412016,
        -0.18559472,
        -0.19567153,
        -0.10152775,
        -0.07803365,
        -0.17672081,
        -0.0033704147,
        -0.0077747884,
        -0.17250003,
        -0.10532404,
        -0.13775833,
        -0.075738005,
        0.065489985,
        0.115054086,
        0.061588213,
        0.07953043,
        0.1608583,
        -0.012826627,
        -0.11948664,
        -0.36130956,
        -0.2914306,
        -0.24133004,
        -0.27117684,
        -0.16329166,
        -0.12339699,
        0.034890495,
        -0.059994537,
        -0.046915226,
        -0.10371954,
        -0.2262475,
        -0.18363827,
        -0.23461257,
        -0.22876388,
        -0.05169214,
        -0.10237323,
        -0.050342027,
        -0.079248816,
        -0.06707924,
        -0.056521054,
        -0.06695304,
        0.011943929,
        0.1642882,
        0.1179521,
        0.0992462,
        -0.038978234,
        -0.008307433,
        -0.24954714,
        -0.37415403,
        -0.4394477,
        -0.21467242,
        -0.18118416,
        -0.080973394,
        -0.03218403,
        -0.10408966,
        0.043001063,
        -0.055487853,
        -0.19979581,
        -0.26657337,
        -0.2947348,
        -0.1569305,
        -0.18657275,
        -0.1497736,
        0.036275007,
        9.992454E-4,
        -0.11581245,
        0.01461272,
        -0.15650591,
        -0.11342306,
        -0.027741157,
        0.0765449,
        0.13078941,
        0.21799476,
        0.10596334,
        -0.08417967,
        -0.3053855,
        -0.44174546,
        -0.4177174,
        -0.14233036,
        -0.06935888,
        -0.10037107,
        -0.037294995,
        -0.010199306,
        -0.0079259435,
        -0.08150936,
        -0.22033903,
        -0.3452447,
        -0.3793178,
        -0.25994548,
        -0.17958507,
        0.07563477,
        -0.061808366,
        -0.046999633,
        0.037879866,
        0.012995824,
        -0.020354485,
        0.055254083,
        -0.07398559,
        0.06022709,
        0.11024963,
        0.2008418,
        0.033144865,
        -0.046209946,
        -0.32148817,
        -0.5836139,
        -0.33894455,
        -0.039150443,
        0.073524944,
        0.015441262,
        0.04913065,
        -0.0013539578,
        -0.0147573,
        -0.22567688,
        -0.4065984,
        -0.44488335,
        -0.30941674,
        -0.110608906,
        -0.012976957,
        0.050536003,
        0.07480986,
        0.11622832,
        -0.0020115254,
        -0.0014606332,
        -0.16998832,
        0.0015833481,
        -0.048530504,
        0.11277755,
        0.054370075,
        0.19752699,
        0.1408727,
        -0.1946828,
        -0.46661547,
        -0.541592,
        -0.14825712,
        0.13634305,
        0.040718682,
        0.07164688,
        0.008609944,
        0.028791305,
        -0.054144032,
        -0.2520255,
        -0.47395766,
        -0.44431975,
        -0.17001581,
        -0.0976067,
        0.11405451,
        -0.0033373816,
        0.05202346,
        0.013696484,
        0.037169416,
        -0.09638691,
        0.03271554,
        -0.033588223,
        -0.028248914,
        0.014636303,
        0.093338974,
        0.15245764,
        0.19883926,
        -0.024385408,
        -0.4700194,
        -0.64467233,
        -0.06479722,
        0.14860319,
        0.11975538,
        0.066570446,
        0.07770166,
        0.103482634,
        -0.17339791,
        -0.46236187,
        -0.48093575,
        -0.20883487,
        -0.056348152,
        0.007393821,
        0.03605023,
        0.028538989,
        0.089909665,
        0.17054562,
        -0.04601378,
        0.07116646,
        -0.10776781,
        -0.066588365,
        0.11462931,
        0.11231688,
        0.09412245,
        0.17951187,
        0.15327266,
        0.029253356,
        -0.4210826,
        -0.53508353,
        0.046184752,
        0.1391633,
        0.11168584,
        0.05179641,
        0.08857025,
        -6.1197346E-4,
        -0.24189907,
        -0.4779619,
        -0.36504763,
        -0.123256184,
        0.03513415,
        0.16452608,
        0.07309841,
        0.12642345,
        0.10343284,
        0.06991839,
        0.015660984,
        0.027988384,
        -0.09718766,
        0.031111939,
        0.075567685,
        0.14785808,
        0.12024173,
        0.19399531,
        0.19114268,
        0.030126093,
        -0.45555332,
        -0.3166954,
        0.0024559256,
        0.13622859,
        0.07697116,
        0.09744936,
        0.0589505,
        -0.011864735,
        -0.35609695,
        -0.5062667,
        -0.106692575,
        0.11598816,
        0.14425208,
        0.077244766,
        0.091588296,
        0.010338236,
        -0.022836283,
        0.1002013,
        0.013286323,
        0.049988374,
        -0.020641433,
        -4.3355726E-4,
        0.0035225246,
        0.043621104,
        0.02228378,
        0.080744796,
        0.208141,
        0.12906285,
        -0.32033998,
        -0.27304026,
        0.004771922,
        0.032927215,
        0.08460833,
        -0.006387244,
        0.042569652,
        -0.097687855,
        -0.33496407,
        -0.30355734,
        0.054394953,
        0.1533263,
        0.13391186,
        0.079322,
        0.07907862,
        0.100000024,
        0.09339167,
        -0.06595547,
        0.10438881,
        -0.04115782,
        0.055120114,
        0.09375482,
        -0.012105498,
        0.08877484,
        0.10805692,
        0.052841365,
        0.17071632,
        0.07296771,
        -0.12441022,
        -0.21980178,
        -0.013884055,
        -0.010210045,
        -0.0052327765,
        0.054821156,
        -0.015735807,
        -0.18292227,
        -0.24603751,
        -0.10251661,
        0.17277715,
        0.1089684,
        0.08433604,
        0.11350415,
        0.0315356,
        -0.013210521,
        0.016369328,
        0.0581408,
        0.01773804,
        0.0124835465,
        0.057060312,
        -0.05866936,
        0.03877155,
        0.008796516,
        0.016544044,
        0.015638152,
        0.13159251,
        0.09176755,
        -0.020971473,
        -0.14594685,
        -0.030757774,
        0.04478234,
        -0.013395126,
        0.009417141,
        -0.08222217,
        -0.16760717,
        -0.17476715,
        0.0040710154,
        0.1213528,
        0.08040695,
        0.06033561,
        0.053102087,
        -0.039714642,
        6.840646E-4,
        -0.012796122,
        0.01175376,
        0.07971346,
        0.057007685,
        0.02398448,
        -0.008678939,
        0.064745635,
        -0.015731592,
        0.0540654,
        0.018877957,
        -0.020337624,
        0.025151704,
        -0.014359965,
        0.0057158964,
        -0.065561004,
        0.02757945,
        -0.043699894,
        -0.009732936,
        -0.074291505,
        -0.05963729,
        0.019187449,
        0.078493156,
        0.0079725925,
        0.034763824,
        -0.05406844,
        -0.10104737,
        -0.019624356,
        -0.03411019,
        -0.027247857,
        -0.048062764,
        -0.015712637,
        0.021177175,
        -0.10605671,
        -0.068464234,
        -0.11762075,
        -0.01807104,
        -0.0907104,
        -0.027752252,
        -0.014966659,
        -0.006953055,
        -0.043237254,
        -0.028194813,
        3.451783E-4,
        -0.04814459,
        0.022213647,
        -0.014279426,
        -0.066153586,
        0.027891481,
        -0.02631635,
        0.084627785,
        -0.0045343195,
        -0.03031632,
        -0.07256651,
        -0.020487726,
        -0.072489604,
        -0.031233465,
        -0.07711696,
        0.0118176835,
        -0.08098962,
        0.04773509,
        -0.0483622,
        -0.02745701,
        0.02814063,
        -0.07056378,
        -0.0071674995,
        -0.052969404,
        -0.0356757,
        0.00970757,
        0.059143517,
        0.0018133519,
        -0.025925493,
        0.0015173571,
        -0.013790367,
        0.020520106,
        -0.017365752,
        0.023959931,
        0.08004144,
        0.03278495,
        0.019442981,
        -0.004558864,
        0.02532655,
        -0.100544885,
        -0.042339504,
        -0.029517472,
        -0.034207493,
        0.028838104,
        0.053094864,
        -0.12358184,
        -0.046419177,
        -0.07159931,
        -0.012735511,
        -0.012071489,
        0.020966332,
        -0.057641484,
        0.030817185,
        -0.020074723,
        -0.0067171436,
        -0.030832183,
        -0.021236274,
        -0.029560363,
        -0.019655654,
        -0.024973625,
        0.010735566,
        0.02411542,
        -0.035870835,
        0.013872017,
        0.030437903,
        0.02264919,
        -0.027713593,
        0.06119847,
        -0.03271918,
        0.021001616,
        0.004426783,
        -0.070088565,
        0.06885077,
        -0.100865826,
        -0.0063169454,
        0.020547548,
        -0.03725399,
        0.08789973,
        -0.01174118,
        -0.00407248,
        0.04322751,
        0.027021462,
        0.070997685,
        1.9993051E-4,
        -0.02495431,
        0.005814385,
        0.021090878,
        0.02241693,
        0.02166215,
        0.020417258,
        0.0854883,
        -0.015396498,
        0.003981423,
        0.018386308,
        0.070312865,
        0.0068988437,
        -0.002511662,
        -0.0077570775,
        -0.041247584,
        0.041680146,
        0.03753918,
        0.05536012,
        -0.043443214,
        -9.665456E-4,
        -0.055793915,
        0.021827588,
        -0.009495198,
        0.040828053,
        -0.016487578,
        -0.0046716426,
        -0.02385948,
        0.026382025,
        0.02976587,
        0.00612614,
        0.025455028,
        -0.007819432,
        0.01906289,
        0.012946044,
        0.007445035,
        0.024084229,
        0.026529836,
        -0.0094606625,
        -0.008310021,
        0.023761354,
        0.07672128,
        0.0032318477,
        -0.008379005,
        0.08821892,
        -0.05604761,
        0.023073109,
        0.051721957,
        0.00780265,
        -0.02927969,
        0.027180007,
        0.00882096,
        0.025023013,
        -0.045459826,
        -0.007221965,
        0.02421988,
        -0.055015903,
        -0.0064093033,
        0.018658094,
        -0.02797436,
        0.03029163,
        -0.034095753,
        0.0052098203,
        -0.020773275,
        0.008779225,
        -0.024284324,
        0.0553664,
        0.046045825,
        0.037643716,
        -0.04381748,
        0.0811922,
        0.090354346,
        -0.0012565377,
        -0.05264541,
        -0.020051632,
        -0.0075911945,
        -0.006971901,
        -0.031942006,
        -0.010518743,
        -0.062059555,
        -0.0057956656,
        0.050282568,
        -0.010980769,
        0.016696831,
        0.020247579,
        0.0513351,
        0.032469932,
        0.022906011,
        -0.017480643,
        0.021873334,
        0.0028832855,
        0.010397004,
        -0.066019736,
        -0.030289004,
        -0.08698553,
        -0.07427325,
        -0.00442729,
        0.06644566,
        -0.016823964,
        -0.041365054,
        0.051487185,
        -0.1213582,
        -0.09216767,
        0.0104427,
        0.04408531,
        0.00457856,
        -0.018122798,
        0.06441585,
        -0.026987914,
        -0.01213989,
        -0.02080285,
        0.00876093,
        -0.021601612,
        -0.0024579442,
        -0.026280625,
        0.0016731696,
        -0.030020168,
        0.002254768,
        3.22651E-4,
        -0.0043208837,
        0.021523898,
        -0.039743453,
        0.039789706,
        0.010128035,
        -0.010017423,
        -0.008508967,
        -0.0124995,
        0.020147784,
        0.020395814,
        0.034615815,
        0.0019381345,
        0.043563813,
        -0.07283094,
        0.015412371,
        -0.010049377,
        -0.099084415,
        0.05981209,
        0.0011478318,
        0.04661507,
        -0.03259721,
        -0.029447887,
        0.0823321,
        0.011116915,
        0.033334047,
        -0.012397824,
        -0.00980521,
        -0.013503441,
        -0.00366798,
        -0.016068064,
        -0.06414855,
        -0.08215172,
        -0.054671876,
        0.0044743936,
        -0.07705741,
        0.0046130074,
        -0.05250267,
        -0.08312047,
        0.011782872,
        -0.08818602,
        0.046800863,
        0.016104104,
        0.025921257,
        -9.938616E-4,
        0.047683,
        -0.033732418,
        -0.0074675414,
        0.0036058028,
        -0.010867398,
        0.009136107,
        -0.056817036,
        0.005451072,
        -0.044205755,
        -0.018714456,
        0.0534677,
        -0.021121025,
        0.0014107793,
        -0.011824027,
        0.06505456,
        -0.054578338,
        -0.0075405566,
        0.012796313,
        -0.042310886,
        0.024568992,
        0.05560832,
        0.008167983,
        0.004612305,
        -0.020185774,
        -0.051005695,
        0.029331367,
        -0.07554265,
        0.06421769,
        0.066268176,
        0.01420447,
        -0.008908167,
        0.014745568,
        0.024160419,
        -6.1238895E-4,
        0.074958116,
        -0.04020818,
        0.06839234,
        0.015786659,
        -0.025854437,
        -0.006697093,
        0.031347256,
        -0.006940072,
        0.030664293,
        0.030489126,
        -0.050725978,
        -0.027403176,
        0.03391615,
        0.0020572783,
        -0.013793313,
        0.015071186,
        -0.013226571,
        -0.0782196,
        -0.0011523868,
        -0.0066332244,
        -0.02862236,
        -0.020399112,
        -0.040706698,
        -0.030300261,
        2.830231E-4,
        -0.084555484,
        -0.07388216,
        -0.003935734,
        -0.04895679,
        -0.06127166,
        -0.0030895448,
        -0.028414123,
        0.021773262,
        0.018175296,
        -0.004645862,
        -0.0042656,
        0.037817206,
        -0.028416177,
        0.07260961,
        0.06076638,
        -0.034450646,
        0.12311343,
        -0.03673304,
        -9.2018244E-4,
        0.08873352,
        0.07893801,
        0.080729544,
        1.9682899E-4,
        0.07035555,
        -8.95184E-4,
        -0.060424972,
        -0.051273543,
        -0.024414148,
        0.032253414,
        -0.08291069,
        -0.09955549,
        0.029953748,
        -0.10483595,
        0.0016163384,
        -0.008970246,
        -0.07134835,
        -0.046426974,
        -0.076002434,
        0.013618932,
        -0.011833042,
        -0.07410268,
        0.049414966,
        -0.021433594,
        -0.06866905,
        -0.0021315403,
        -0.14092538,
        0.05894838,
        -0.12730452,
        -0.08366687,
        -0.08843596,
        -0.015574552,
        0.11775949,
        -0.065879025,
        -0.028812738,
        -0.008722123,
        0.026095457,
        0.021305455,
        -0.028712967,
        0.027196199,
        -0.060365677,
        -0.10411389,
        0.03511876,
        -0.08034272,
        -0.036557097,
        -0.021041872,
        -0.02246349,
        0.049602248,
        -0.11941697,
        -0.0649552,
        -0.07768468,
        -0.026012035,
        -0.023198579,
        -0.012270314,
        -0.088347636,
        -0.116895065,
        -0.047625653,
        -0.10678877,
        -0.011377886,
        0.08882884,
        -0.03584101,
        0.016381828,
        0.07396443,
        -0.097713694,
        -0.08543213,
        -0.004632623,
        -0.01747666,
        -0.08393936,
        -0.03523367,
        0.079243675,
        -0.115680285,
        -0.028722987,
        0.051649768,
        -0.05598483,
        -0.044432417,
        0.018231044,
        -0.0030192733,
        0.058599457,
        0.0029969749,
        -0.048610985,
        -0.010378059,
        -0.03492032,
        0.038679086,
        -0.019661013,
        0.009486222,
        0.020468155,
        -0.024396408,
        0.036870267,
        -0.047214214,
        -0.062116485,
        0.0075131822,
        0.0057025035,
        -0.013017152,
        -0.093693934,
        0.05382356,
        0.0536411,
        -0.10519789,
        -0.051350035,
        -0.04986114,
        -0.0015079915,
        -0.040314674,
        -0.020488214,
        0.011068099,
        -0.08049624,
        0.021907195,
        -0.02439059,
        -0.0019850824,
        -0.002469858,
        0.07066976,
        0.026412671,
        0.008067699,
        0.022117786,
        -0.09071036,
        -0.08106375,
        0.024542028,
        0.0047152983,
        -0.0036104503,
        0.06791382,
        -0.0634921,
        0.11205868,
        0.0036793684,
        0.026943784,
        -0.109174065,
        -0.05228156,
        -0.01546239,
        -0.041875705,
        -0.02379745,
        0.011954734,
        -0.07287127,
        0.00327367,
        -0.0078116865,
        0.013148234,
        -0.10187294,
        0.0051599904,
        0.0016646095,
        -0.0037339495,
        0.061241936,
        -0.08142944,
        -0.05809176,
        -0.0077976193,
        0.0248435,
        -0.10604338,
        -0.12166289,
        -0.121731296,
        -0.026167035,
        0.04531967,
        -0.012093791,
        -0.03465223,
        0.10741722,
        -0.09855518,
        0.033353284,
        -0.031025348,
        -0.052226346,
        -0.03932491,
        -0.033381764,
        -0.012205481,
        0.061128076,
        -0.04358354,
        -0.08065791,
        0.017272118,
        -0.022543667,
        0.011810599,
        0.039733477,
        0.024178522,
        -0.061126422,
        0.08540019,
        0.0077391225,
        -0.10059502,
        0.023271216,
        -0.17581497,
        0.021845149,
        0.068296626,
        -0.042134684,
        0.051240847,
        -0.02659742,
        -0.0098460615,
        -0.032027755,
        -0.024361363,
        0.03157393,
        -0.07966244,
        -0.062936515,
        -0.04954419,
        -0.054868776,
        -0.040127855,
        -0.023935486,
        -0.08411028,
        0.08917438,
        -0.055346098,
        -0.0049439706,
        0.019770356,
        -0.007885282,
        0.0714427,
        0.06705523,
        -0.0322013,
        0.043671925,
        -0.05642465,
        -0.11110481,
        -0.049496952,
        -0.029938525,
        -0.11079283,
        0.0064573237,
        0.008983087,
        0.009448816,
        0.11589439,
        0.052701008,
        0.038891673,
        0.008104923,
        -0.020939257,
        -0.015190813,
        -0.073854625,
        -0.02972508,
        0.035665892,
        -0.022169145,
        0.044356845,
        -0.011389876,
        0.022097617,
        -0.013442743,
        0.050987296,
        -0.02958934,
        -0.0066738967,
        0.00992529,
        0.045882907,
        0.038977813,
        0.06538392,
        -0.07466739,
        -0.07955412,
        0.039788015,
        -0.045201316,
        0.08542389,
        0.043360498,
        0.006067885,
        0.050370507,
        0.034940034,
        0.013831214,
        0.06396135,
        -0.04924691,
        -0.10664194,
        -0.079639725,
        -0.029708149,
        -0.042863946,
        -0.022748312,
        -0.026214823,
        -0.027464444,
        0.05482273,
        -0.020533273,
        0.057892513,
        -0.06082133,
        0.08774999,
        -0.074374214,
        -0.0034733708,
        -0.033331364,
        -0.044091713,
        -0.111600175,
        -0.1396429,
        -0.004430134,
        0.050694276,
        -0.05277867,
        -0.018819185,
        0.004765248,
        0.06915519,
        0.05750844,
        0.08767077,
        0.049863007,
        -0.03833597,
        -0.030100591,
        -0.019586392,
        -0.10316417,
        -0.0032269375,
        -0.0278806,
        0.01371601,
        0.08906746,
        -0.057191942,
        0.017612722,
        -0.028096836,
        0.0058071404,
        -0.0048890887,
        -0.06753093,
        -0.10193967,
        -0.06296633,
        0.03417916,
        -0.018389506,
        -0.072557546,
        0.058218606,
        0.0058922223,
        0.02965411,
        0.040355124,
        0.07903407,
        -0.037677236,
        0.045583073,
        0.07502243,
        0.100319356,
        0.08101256,
        -0.07611822,
        -0.09102441,
        -0.09377111,
        0.005306798,
        0.021837277,
        0.0024562113,
        -0.022842323,
        -0.0282889,
        0.026824981,
        -0.06148374,
        0.016196359,
        0.0059654615,
        0.11132574,
        0.047236044,
        0.041903988,
        0.03798795,
        -0.09296676,
        -0.114365734,
        0.01936006,
        -0.058890987,
        0.06894206,
        -0.034257866,
        -0.03744812,
        0.011397217,
        0.015884243,
        0.07890687,
        0.04792807,
        0.05717502,
        -0.020361314,
        -0.05293595,
        -0.10387801,
        -0.07289627,
        0.018675666,
        0.02306374,
        0.018208757,
        0.071926475,
        0.04450157,
        0.065180436,
        0.024618696,
        0.09754598,
        0.020289833,
        0.048728406,
        -0.043159116,
        -0.09382553,
        -0.09863448,
        -0.04479625,
        -0.05864525,
        0.05674579,
        -0.095964104,
        0.09835478,
        -0.017005311,
        0.05036073,
        0.01416957,
        0.09192204,
        0.10506295,
        0.10270899,
        0.056028686,
        -0.10357653,
        -0.16696799,
        -0.096137494,
        0.02302322,
        0.03246706,
        0.10362652,
        0.09661184,
        0.17935532,
        0.0929684,
        0.1886037,
        0.17045173,
        0.01756035,
        -0.011555811,
        -0.032802343,
        -0.03107147,
        -0.017966554,
        -0.105237395,
        -0.015891008,
        0.069416605,
        -0.025334438,
        0.018978884,
        -0.021739526,
        -0.024849381,
        0.08320235,
        0.06413382,
        0.13604374,
        0.1025231,
        0.08640441,
        -0.04725621,
        -0.14529647,
        -0.25476658,
        -0.093164444,
        -0.003773021,
        0.02041756,
        0.043804884,
        0.025768034,
        0.06775722,
        -0.09147283,
        -0.06359217,
        0.014327482,
        0.028514754,
        -0.10055028,
        0.012534529,
        -0.16988917,
        -0.06350355,
        0.05435864,
        -0.057544097,
        -0.030523572,
        0.032587122,
        -0.066834584,
        0.06788902,
        -0.047170125,
        0.062207405,
        0.040604457,
        0.13145262,
        0.11609073,
        1.8229231E-4,
        -0.19411585,
        -0.35479924,
        -0.38621566,
        -0.43775287,
        -0.33976606,
        -0.19886574,
        -0.23294619,
        -0.15495265,
        -0.15346777,
        -0.15347013,
        -0.20448154,
        -0.104973584,
        -0.11835308,
        -0.006230288,
        -0.069821924,
        -0.06369716,
        -0.02249806,
        -0.037187375,
        0.0029279524,
        -8.084392E-5,
        -0.021384643,
        -0.095940314,
        -0.022485968,
        0.029288504,
        0.050834317,
        0.111737,
        0.07299496,
        0.084027916,
        -0.020490464,
        -0.12743019,
        -0.3282504,
        -0.5830843,
        -0.585942,
        -0.5618502,
        -0.42403853,
        -0.39179093,
        -0.25642812,
        -0.25381652,
        -0.24484037,
        -0.096337214,
        -0.18590392,
        -0.17105629,
        -0.12287944,
        0.021724436,
        0.118745245,
        -6.605948E-4,
        -0.0075127245,
        -0.03238712,
        0.015440136,
        -0.0154837975,
        -0.0075463885,
        0.0021183547,
        -0.013704776,
        0.030160261,
        0.08627214,
        0.09917217,
        0.07322972,
        -0.026353735,
        0.028770817,
        -0.044578567,
        -0.36131662,
        -0.3328621,
        -0.4801801,
        -0.28068253,
        -0.35478997,
        -0.35004818,
        -0.22136681,
        -0.24057057,
        -0.112584054,
        -0.15452772,
        -0.18350369,
        0.04865966,
        -0.018409457,
        0.013474432,
        0.059655406,
        0.02272781,
        0.045432564,
        0.019408463,
        -0.02977022,
        0.014680102,
        0.008781576,
        0.052231,
        0.06979695,
        0.042693857,
        0.028003603,
        0.06364673,
        -0.009819428,
        0.027992956,
        0.016759077,
        -0.15675582,
        -0.21218202,
        -0.3680339,
        -0.3083936,
        -0.2238005,
        -0.23288517,
        -0.22562544,
        -0.1311787,
        -0.068518385,
        -0.16680843,
        0.06517824,
        0.079634026,
        0.055721976,
        0.08731507,
        0.028021675,
        -0.009850108,
        0.08734739,
        0.010046337,
        0.027859043,
        -0.046121713,
        0.05359775,
        -4.387395E-4,
        0.066279285,
        0.053879194,
        -0.005234238,
        0.07492172,
        -0.008688771,
        0.060444392,
        0.035254534,
        0.010369833,
        -0.08891532,
        -0.12194399,
        -0.18500762,
        -0.16466604,
        -0.1323835,
        -0.25007305,
        -0.16042338,
        -0.017004037,
        0.057288464,
        0.0062303506,
        0.0033080275,
        -0.00986119,
        -0.018573575,
        9.5992914E-4,
        0.021326618,
        -0.008547617,
        -0.0062138606,
        0.06599772,
        0.034009617,
        0.034456298,
        0.012214126,
        0.055838104,
        0.041172888,
        0.014741885,
        0.054941703,
        0.05059682,
        0.086496696,
        -0.013755341,
        0.050176226,
        -0.07968617,
        -0.07925344,
        -0.09365101,
        -0.12607624,
        -0.078080356,
        -0.04795371,
        -0.11799817,
        -0.0059157857,
        -0.025256494,
        0.044812236,
        0.0721729,
        -0.0040809223,
        0.06975134,
        0.03321476,
        0.04182857,
        0.027399724,
        0.0064590774,
        3.119628E-4,
        0.07985416,
        -0.009159883,
        0.05511852,
        0.07199995,
        0.09791158,
        0.054178778,
        0.0076374765,
        -0.052837983,
        0.06762784,
        -0.023427047,
        -0.019530393,
        -0.1089157,
        -0.056760225,
        -0.1459138,
        -0.154104,
        -0.0367638,
        -0.16516519,
        0.054133914,
        0.012635985,
        -0.0103928335,
        -0.0076761874,
        0.022630982,
        -0.010567459,
        0.02082087,
        0.0018830632,
        0.03311583,
        -0.03007386,
        0.033434037,
        -0.017381473,
        0.06946383,
        0.1016262,
        0.04802302,
        0.10500608,
        0.08425779,
        0.03225847,
        0.071388,
        -0.005804958,
        0.10361237,
        -0.03856672,
        -0.0066507193,
        0.047926888,
        -0.02468517,
        -0.15739997,
        -0.1275006,
        -0.03474326,
        -0.05803281,
        0.066430435,
        -0.070768684,
        0.09632947,
        0.0106472755,
        0.05693237,
        0.05386036,
        0.011777493,
        -0.016065726,
        0.047575247,
        0.0124651,
        0.0972645,
        -0.022492383,
        -0.024038052,
        0.0990602,
        0.003836273,
        0.063507944,
        0.055062097,
        0.025752544,
        -0.012407233,
        0.0381313,
        0.033218812,
        -0.007280953,
        -0.09024268,
        -0.075668015,
        -0.06265372,
        -0.07906294,
        0.030730281,
        -0.047542993,
        0.03076054,
        0.06474413,
        0.04402571,
        0.052991547,
        -0.06885101,
        0.026992487,
        0.017811082,
        0.009883337,
        0.022315653,
        -0.02362158,
        -0.05386098,
        0.055694632,
        0.06452332,
        0.005669368,
        0.049929917,
        0.009912327,
        0.05801749,
        -0.008265183,
        0.09240339,
        0.0016652991,
        0.1142989,
        0.0035725322,
        0.006455182,
        0.030848807,
        -0.08252921,
        -0.048379175,
        0.0020015368,
        0.023175515,
        -0.019734042,
        -0.047485344,
        -0.022379104,
        -0.009147021,
        0.042020846,
        -0.0028865142,
        -0.011544521,
        0.026688203,
        -0.02645946,
        0.05833614,
        0.05191359,
        -0.043504424,
        0.0030726725,
        0.042283252,
        0.024534922,
        -0.02878602,
        0.067139335,
        0.07338414,
        -0.0044787647,
        -0.02986545,
        0.0742493,
        0.023128051,
        -0.04044174,
        0.044475738,
        -0.04481646,
        0.006139309,
        -0.004733114,
        0.039635517,
        -0.10624346,
        0.01564905,
        0.008443537,
        -0.047225207,
        0.015941767,
        0.0035474224,
        0.025615525,
        0.0041727275,
        0.060458466,
        0.010192938,
        -0.019691126,
        -0.019198263,
        -0.04677013,
        -0.0427634,
        -0.012844029,
        0.039643385,
        -0.031080825,
        0.08382937,
        0.08496137,
        -0.037320994,
        0.046875093,
        -0.06750009,
        0.026847782,
        0.046495855,
        -0.103362955,
        -0.028057773,
        0.016737008,
        0.010404575,
        -0.040030546,
        -0.0062463377,
        -0.005889401,
        0.011873597,
        -0.03379657,
        -0.09901233,
        0.07078844,
        -0.025074635,
        0.0016547821,
        -0.011225374,
        0.00129794,
        0.0061649373,
        0.007173712,
        0.0018974324,
        0.0022864032,
        0.053195767,
        0.05069412,
        -0.04270045,
        -0.017251668,
        0.032117136,
        -0.015939975,
        0.0924156,
        -0.06425609,
        -0.07620847,
        0.07695977,
        -0.062487394,
        0.06679011,
        0.052015655,
        0.014620072,
        0.03354725,
        -0.015765764,
        -0.015383358,
        0.027649721,
        0.021563876,
        -0.043413345,
        0.024680141,
        -0.035756268,
        -0.0033238998,
        0.0297128,
        0.03517112,
        -0.029564219,
        0.12440468,
        -0.05578339,
        0.05165461,
        0.045070797,
        0.05925634,
        0.03765716,
        0.053940102,
        0.0106177665,
        0.04876682,
        0.10111759,
        0.10067686,
        0.032653093,
        -0.085687876,
        0.045470648,
        0.0015764275,
        0.026277488,
        -0.081889175,
        -0.120526254,
        -0.026208596,
        0.027333817,
        -0.031737942,
        -0.01722745,
        -0.048227865,
        0.0074165124,
        -0.046577863,
        -0.07137922,
        0.007282292,
        -0.13252851,
        -0.04121736,
        -0.047390077,
        -0.04908939,
        -0.100962795,
        -0.059038304,
        -0.008115675,
        -0.0706656,
        -0.094096154,
        0.016238583,
        -0.0784411,
        0.06514966,
        0.08074271,
        0.0999882,
        0.104632154,
        -0.076788425,
        0.010877137,
        0.019026842,
        -0.074739665,
        -0.09328888,
        -0.04281212,
        -0.035024498,
        -0.021919321,
        0.082525454,
        0.03688379,
        0.008383525,
        0.07295154,
        -0.019244773,
        0.076536514,
        -0.043228924,
        -0.025219211,
        0.058296114,
        0.011359684,
        -0.042694565,
        -0.03817257,
        -0.035547685,
        -0.07007676,
        -0.036369357,
        -0.00964648,
        -0.021111961,
        0.021346983,
        -0.035287425,
        0.0129643865,
        -0.10294448,
        0.01074955,
        -0.024605183,
        -0.08895831,
        0.027444901,
        -0.0071474877,
        0.042462397,
        0.009820079,
        -0.017492646,
        -0.014128632,
        0.030359626,
        -0.09725688,
        0.039167758,
        0.025703171,
        0.0130726015,
        -0.047504473,
        0.025769364,
        0.0085858395,
        -0.041387547,
        -0.048717517,
        -0.035747297,
        -0.002298315,
        -0.007610811,
        -0.04819059,
        -0.02798652,
        -0.013861989,
        -0.01687521,
        -0.0232779,
        -0.08955517,
        -0.017894436,
        0.031451065,
        -0.08293604,
        -0.13497257,
        -0.05727596,
        -0.025165934,
        0.013421463,
        -0.09977083,
        0.0030070748,
        -0.035390027,
        0.019357743,
        -0.048871875,
        -0.031858027,
        0.064944424,
        0.037297852,
        -0.011257276,
        0.020304164,
        -0.030276962,
        0.061150562,
        0.0038116537,
        0.016746553,
        0.03964023,
        0.043530844,
        0.049640745,
        0.055791773,
        0.10374671,
        0.006118277,
        0.010106194,
        -0.03931369,
        -0.023728503,
        0.06176542,
        0.0043636975,
        0.042278077,
        -0.010431344,
        -0.005509616,
        0.06597397,
        -0.009705501,
        0.056715906,
        0.05003562,
        0.0637909,
        0.0635689,
        -0.00709147,
        0.02999588,
        0.024405258,
        -0.0071445936,
        0.076785825,
        -0.0030046396,
        -0.0069612064,
        -0.032410923,
        -0.011706674,
        0.013116853,
        -0.011185693,
        0.04497456,
        0.08739415,
        0.040725075,
        0.019670758,
        0.014905768,
        -0.009457914,
        0.06737499,
        -0.022842918,
        0.09951532,
        -0.097940885,
        0.049314268,
        0.013770859,
        -0.02309166,
        0.07832821,
        0.028710341,
        -0.050894838,
        0.13055138,
        0.024751099,
        0.05696663,
        -0.0038582436,
        -8.4431854E-4,
        0.039405778,
        0.02519496,
        0.06177613,
        0.046270203,
        0.056185443,
        -0.028762942,
        0.007704396,
        0.047854412,
        0.07436617,
        0.009137517,
        -0.021564411,
        0.11009793,
        0.09752006,
        0.04440685,
        -0.023628648,
        -0.045050822,
        0.008374594,
        0.039674908,
        0.027130483,
        0.030715873,
        0.027327932,
        0.055997286,
        0.14476961,
        0.021278908,
        0.050036546,
        -0.0330512,
        0.03715154,
        -0.010925746,
        0.06715269,
        0.035164654,
        0.04407237,
        -0.035769094,
        0.037820403,
        0.03681149,
        0.022999944,
        0.064671,
        0.10282813,
        0.04720367,
        0.07480829,
        -0.0028762815,
        0.10070942,
        -0.025581978,
        0.02936097,
        0.11185996,
        -0.0023508128,
        0.1246244,
        0.017713364,
        0.109859966,
        0.070208356,
        0.033169083,
        0.034822293,
        -0.0128592,
        0.06404153,
        0.013087557,
        -0.080081455,
        0.06924756,
        -0.021599209,
        0.013966785,
        0.04438258,
        0.015116198,
        -0.0799349,
        -0.043137368,
        -0.14045446,
        0.028011847,
        -0.08258693,
        -0.11783147,
        0.0020714276,
        -0.0250473,
        0.14883663,
        0.052567296,
        0.053442545,
        0.027950453,
        0.007429544,
        0.0021571617,
        0.07576839,
        -0.0074510467,
        0.023512244,
        0.015591317,
        0.05138334,
        0.07651554,
        -0.027691001,
        0.0033499077,
        0.09574099,
        -0.04083202,
        0.08275823,
        -0.024730848,
        -0.012196469,
        -0.0073028854,
        0.008224729,
        0.00292742,
        -0.006458228,
        -0.1026357,
        0.022710059,
        -0.16286899,
        -0.09316859,
        0.06961849,
        -0.01972807,
        0.04527048,
        0.09590679,
        0.07890182,
        0.068051726,
        0.12413707,
        -0.015958961,
        0.024777556,
        0.031902924,
        -4.079557E-4,
        -0.0021291291,
        -0.048970286,
        0.048697054,
        -0.016847173,
        -0.0237315,
        -0.063212946,
        -0.03432343,
        0.023872847,
        -0.05684521,
        -0.13908479,
        -0.007918978,
        -0.07522726,
        0.036270175,
        0.024770796,
        0.053458508,
        -0.13626733,
        -0.16548741,
        -0.015740888,
        3.3006686E-4,
        -0.0828888,
        -0.09929548,
        -0.02065309,
        -0.116783865,
        -0.09307135,
        -0.05068905,
        -0.077427536,
        -0.16881044,
        -0.110713474,
        -0.17208591,
        -0.10590533,
        -0.12809077,
        -0.16981076,
        -0.23376414,
        -0.17481682,
        -0.22647956,
        -0.19530079,
        -0.09127888,
        -0.062750995,
        -0.13589182,
        -0.07170619,
        -0.07054587,
        -0.07558329,
        0.057583135,
        -0.12707993,
        -0.19951658,
        -0.039044857,
        -0.14239605,
        -0.17206542,
        -0.13384286,
        -0.24017619,
        -0.281303,
        -0.28553098,
        -0.40802264,
        -0.36969674,
        -0.39195207,
        -0.41542846,
        -0.38972262,
        -0.37787694,
        -0.36462557,
        -0.29447865,
        -0.22521947,
        -0.26894274,
        -0.12631933,
        -0.16196972,
        -0.0963337,
        -0.12631728,
        -0.043468144,
        -0.15894343,
        -0.05492395,
        -0.08275448,
        -0.0796456,
        0.026009664,
        -0.19272067,
        -0.2567781,
        -0.27225953,
        -0.23128334,
        -0.27483553,
        -0.41079152,
        -0.30380508,
        -0.35301417,
        -0.339967,
        -0.20736983,
        -0.16966748,
        -0.22396107,
        -0.14624947,
        -0.16679592,
        -0.15004341,
        -0.20642072,
        -0.21753702,
        -0.11352225,
        -0.18263018,
        -0.12360696,
        -0.10107058,
        -0.107066534,
        -0.104312584,
        -0.07821591,
        -0.048801076,
        -0.056946065,
        1.6696013E-4,
        -0.093349,
        -0.25711092,
        -0.13328388,
        -0.21493584,
        -0.1478722,
        -0.2684802,
        -0.12559743,
        0.0012957392,
        -0.009222267,
        0.008101827,
        -0.03272929,
        0.03403531,
        0.069195375,
        0.041506972,
        -0.008197119,
        0.06430512,
        -0.04688297,
        0.058413424,
        -0.06238044,
        -0.014712935,
        0.009880516,
        -0.017399855,
        0.0030870114,
        -0.074943274,
        -0.1243864,
        -0.011241018,
        -0.0014571521,
        0.07447816,
        0.015891992,
        -0.17453396,
        -0.035489354,
        -0.12054908,
        -0.12468639,
        0.06523038,
        -0.0027812046,
        0.04116161,
        -0.054954868,
        0.077785075,
        0.13296668,
        0.1734387,
        0.07571691,
        0.046538673,
        0.05371886,
        0.051475666,
        0.09464159,
        0.06309906,
        0.0595683,
        -0.025816098,
        -0.03591568,
        -0.09593957,
        0.02153931,
        -0.029650234,
        0.040494267,
        -0.09290988,
        0.017340312,
        -0.08817625,
        -0.065904915,
        -0.04104417,
        -0.066286914,
        0.06900493,
        0.036892954,
        0.06283211,
        -0.038898133,
        0.056200027,
        0.080223255,
        0.1423829,
        0.035969064,
        0.18278266,
        0.04763284,
        0.103405945,
        0.0602887,
        0.090763524,
        0.13004787,
        0.1141683,
        0.09292387,
        0.07513826,
        0.052094273,
        0.023397455,
        -0.027778992,
        0.074521236,
        -0.028254336,
        -0.028999554,
        -0.086613744,
        -0.016533863,
        -0.06505371,
        -0.039968513,
        0.0717898,
        0.04621184,
        -0.0740924,
        0.06474088,
        0.063083805,
        0.019585764,
        0.0953812,
        0.036654323,
        0.10322451,
        0.075346164,
        0.07536516,
        0.08037134,
        0.12382379,
        0.04309027,
        0.123437,
        0.08765305,
        0.1041627,
        0.02743556,
        0.08706507,
        0.017276846,
        0.012761856,
        -0.0106037725,
        -0.063869365,
        0.0352906,
        0.02195243,
        -0.03225219,
        0.051482186,
        0.12970074,
        -0.030008195,
        0.076216355,
        0.061255775,
        0.02775753,
        0.074702695,
        0.15372169,
        0.08705292,
        0.108397275,
        0.017218003,
        -0.03664941,
        0.082602225,
        0.080960184,
        0.004962198,
        0.09628221,
        0.11020292,
        0.049418326,
        0.07099944,
        0.15467948,
        0.021053957,
        0.01317832,
        0.011345849,
        0.034869324,
        -0.009746634,
        0.014842165,
        -0.062039375,
        0.045878414,
        -0.058865897,
        0.07895956,
        -0.021924661,
        0.10336392,
        0.012827759,
        0.12969577,
        0.007423884,
        0.13073699,
        0.04398228,
        0.10647912,
        0.0035935151,
        0.043197375,
        -0.080702946,
        -0.022494473,
        -0.027602948,
        0.051139012,
        -0.0064833774,
        0.023244657,
        0.04274705,
        0.047710765,
        0.08975438,
        0.05835954,
        0.06052825,
        -0.005051743,
        0.019560128,
        0.052698176,
        0.0145468665,
        -0.0487714,
        -0.054318536,
        0.06836759,
        0.080041744,
        -0.030318635,
        -0.007525737,
        0.016130436,
        0.031145187,
        -0.020967564,
        -0.029778037,
        0.02754999,
        -0.052270047,
        0.030879837,
        -0.061284244,
        -0.026642835,
        -0.0408377,
        -0.0666797,
        -0.06537452,
        0.0056337295,
        -0.07659767,
        0.050372873,
        0.010627036,
        0.070556045,
        0.10142603,
        0.038064133,
        0.0863258,
        0.10440844,
        -0.028987264,
        0.15376957,
        0.07589193,
        -0.047511976,
        -0.027313095,
        0.050828274,
        -0.037352417,
        0.057713553,
        -0.002370147,
        0.11949533,
        0.002906994,
        -0.045255817,
        -0.016158164,
        -0.06526225,
        -0.023009013,
        -0.05412655,
        -0.06956043,
        0.028020367,
        -0.0710584,
        -0.03216935,
        -0.06265516,
        -0.011273483,
        0.033470992,
        0.021833299,
        -0.003980859,
        0.15233576,
        0.08156387,
        0.13187592,
        0.121348,
        0.03630863,
        0.0016231736,
        -0.10024023,
        0.056176655,
        -0.05032671,
        -0.037072737,
        -0.030147426,
        0.020403773,
        -0.07443689,
        -0.045819703,
        -0.036079727,
        -0.048348177,
        -0.0032451914,
        0.011774851,
        -0.047309205,
        0.024674378,
        -0.064528465,
        -0.09906176,
        -0.102335766,
        -0.011857972,
        -0.09485847,
        0.019801129,
        -0.043368455,
        0.028892897,
        0.021575673,
        0.075766094,
        -0.003042699,
        0.115932606,
        0.11282376,
        -0.011751823,
        -0.094048694,
        -0.039909203,
        -0.04393049,
        -0.049670313,
        0.04433788,
        -0.020706126,
        -0.04750051,
        -0.018694723,
        0.018360797,
        -0.050737657,
        -0.10283357,
        -0.009293361,
        -0.10515067,
        -0.06161831,
        0.001195477,
        -0.056408927,
        -0.08264516,
        -0.062163338,
        -0.073363036,
        -0.042079397,
        0.028102437,
        -0.1184162,
        -0.058414858,
        0.04860688,
        -0.034079954,
        0.08757004,
        0.027429765,
        0.11913319,
        -0.076738015,
        0.050996184,
        -0.0105290115,
        -0.002090476,
        -0.06684349,
        0.03500178,
        6.777527E-4,
        -0.0777595,
        -0.096536614,
        -0.018553274,
        -0.14102843,
        -0.035902083,
        -0.057009876,
        -0.056461927,
        -0.13116778,
        -0.025409969,
        -0.052089628,
        -0.058015924,
        -0.16691317,
        -0.1756454,
        -0.11706967,
        -0.016368084,
        0.023273855,
        -0.06878413,
        0.014254137,
        0.06633196,
        0.06452903,
        -0.057693087,
        0.0027293633,
        -0.06842716,
        0.0029680103,
        0.0058890553,
        -0.079219036,
        -0.07412927,
        -0.118245944,
        0.0068811267,
        -0.11288804,
        -0.08170063,
        -0.0074557737,
        -0.15563978,
        -0.10870433,
        -0.072849214,
        -0.14513038,
        -0.11459344,
        -0.12421889,
        -0.060238577,
        -0.038158964,
        0.014029301,
        -0.11630288,
        -0.17442727,
        -0.008119112,
        -0.12415914,
        -0.0873725,
        -0.09815416,
        -0.10852902,
        0.029044416,
        -0.06027786,
        -0.08791367,
        -0.07895881,
        -0.14845645,
        0.0015501613,
        -0.07902142,
        -0.09715269,
        -0.09602049,
        -0.055886984,
        -0.095910676,
        -0.10373086,
        -0.054339062,
        -0.075537965,
        -0.08428906,
        -0.064324364,
        -0.11040935,
        -0.07640701,
        -0.06656155,
        -0.030138494,
        -0.11971885,
        0.014761876,
        -0.020738458,
        0.03067894,
        -0.0076228203,
        -0.057399645,
        -0.0715364,
        -0.047581732,
        -0.025801167,
        0.065259606,
        0.00215777,
        -0.06079132,
        -0.04535143,
        -0.12374717,
        -0.08889713,
        -0.075825416,
        -0.052424856,
        -0.12132333,
        -0.028863296,
        -0.023314102,
        0.04155505,
        -0.010734662,
        0.04337106,
        -0.031653535,
        0.06625194,
        -0.009384694,
        -0.015496051,
        0.008659365,
        -0.003537289,
        0.044073824,
        -0.09822099,
        -0.02541086,
        0.04760891,
        -0.013882095,
        -0.12574813,
        0.026494674,
        -0.06917492,
        -0.016612198,
        -0.06284832,
        0.025809778,
        -0.10404204,
        -0.071745686,
        -0.011394225,
        -0.05394871,
        -0.034008652,
        -0.03382804,
        -0.041608192,
        0.096821144,
        -0.0031834096,
        -0.014977981,
        0.050246146,
        0.09602042,
        0.006186517,
        0.06350974,
        0.083345674,
        0.017520105,
        0.0801255,
        -0.016544515,
        0.09304121,
        -0.0023981319,
        -0.04318446,
        -0.010794097,
        0.016486267,
        0.08209671,
        -0.051933438,
        -0.005136532,
        -0.08380901,
        0.08969038,
        -0.047185518,
        -0.021353744,
        -0.03435532,
        -0.0888305,
        -0.011908108,
        0.060574125,
        -0.10543764,
        0.012868566,
        -0.108144216,
        -0.045579772,
        -0.08277934,
        -0.018527314,
        -0.0896338,
        0.009791305,
        -0.05740506,
        0.041887984,
        -0.0069186147,
        -0.045108408,
        -0.015970424,
        -0.10446522,
        -0.035512317,
        0.03390606,
        -0.06083495,
        0.08193942,
        -7.533029E-4,
        -0.06876636,
        0.061388135,
        -0.056996614,
        -0.012919289,
        -0.070876725,
        0.021530557,
        0.034878056,
        -0.091988735,
        0.008964308,
        0.03259598,
        -0.12820908,
        0.03467,
        -0.033038385,
        -0.02096271,
        0.03481571,
        -0.13009991,
        -0.069456734,
        -0.07990714,
        -0.15909325,
        0.015013897,
        -0.07021198,
        0.02299949,
        -0.084985204,
        -0.05023487,
        -0.0701385,
        -0.0061031114,
        -0.0025488099,
        0.0471239,
        0.04442173,
        0.05617461,
        -0.0313232,
        0.034900025,
        -0.07315628,
        -0.106232256,
        -0.114611216,
        0.03629019,
        -0.09840651,
        0.014093144,
        -0.002822023,
        -0.09161845,
        -0.0043603806,
        -0.0056365714,
        -0.03310327,
        -0.08114498,
        0.031666588,
        -0.0052056476,
        -0.059829284,
        -0.04069196,
        -0.08625395,
        -0.0065349317,
        -0.05696514,
        -0.010095338,
        -0.004905296,
        0.038325086,
        -0.062679075,
        0.045525096,
        -0.03521129,
        -0.06689187,
        -0.11925637,
        0.040770914,
        0.009448144,
        -0.015263021,
        0.0538056,
        -0.08933706,
        -0.05014111,
        -0.0972178,
        0.035676688,
        -0.07268189,
        -0.018958863,
        -0.015311109,
        0.014391464,
        -0.025774352,
        -0.074947946,
        0.05787085,
        -0.0071031293,
        -0.03948758,
        0.03801854,
        -0.064545535,
        0.030036295,
        -0.0843748,
        0.046882283,
        -0.080402285,
        -0.13407496,
        0.015302932,
        -0.06025186,
        -0.108634666,
        0.04942594,
        0.0020152633,
        0.004238629,
        -0.062587395,
        0.04127525,
        0.035814084,
        -0.10091537,
        0.028651303,
        -0.08782748,
        -0.052166782,
        0.0075508864,
        -0.04861927,
        0.016310822,
        -0.095968924,
        -0.02105622,
        -0.0565327,
        -0.05900844,
        -8.4006594E-4,
        -0.06707115,
        0.005968328,
        -0.09833905,
        0.002570366,
        -0.023254273,
        -0.013607269,
        -0.0247128,
        0.023374526,
        -0.024891775,
        0.009829701,
        -0.09246072,
        6.8709103E-4,
        -0.04253542,
        -0.09490312,
        -0.0044942205,
        -0.024036637,
        -0.06312955,
        -0.017491408,
        -0.061561953,
        0.021919059,
        -0.0525624,
        0.016609283,
        -0.09782963,
        0.0050414233,
        0.0077046864,
        -0.056539826,
        3.773658E-5,
        -0.068561025,
        -0.08375649,
        -0.15054324,
        -0.002630135,
        -0.117391594,
        -0.004434933,
        0.005405243,
        -0.09859319,
        0.015430221,
        -0.05821959,
        -0.023770455,
        -0.05349263,
        0.02696218,
        -0.062078353,
        0.12987272,
        -0.06468092,
        -0.010305083,
        -0.07902694,
        0.03295741,
        -0.10576253,
        -0.081365086,
        0.02081828,
        -0.014109241,
        -0.07034869,
        -0.0018100683,
        -0.045462877,
        -0.033383723,
        -0.028521122,
        0.0037608412,
        -0.05097315,
        -0.061451044,
        -0.051208556,
        -0.025917271,
        -0.021422971,
        -0.04653599,
        -0.05794934,
        -0.019482577,
        -0.041476067,
        -0.10546752,
        0.006284941,
        -0.037290003,
        -0.010941122,
        0.005378478,
        -0.0413931,
        0.04861678,
        -0.04017053,
        -0.0079457,
        -0.026050393,
        -0.0072898124,
        -0.015657,
        -0.029216418,
        -0.013552898,
        0.009588423,
        -0.029518148,
        -0.059835028,
        0.011151778,
        -0.1115082,
        -0.01895301,
        -0.028117368,
        -0.07040759,
        -0.06223031,
        -0.009928572,
        -0.035466447,
        -0.020142606,
        0.062253274,
        0.016431807,
        -0.019053526,
        -0.03336539,
        0.0626694,
        0.050086457,
        -0.035466727,
        -0.0072021787,
        0.006706024,
        -0.04762423,
        0.052984983,
        -0.09939362,
        -0.003425031,
        0.027527459,
        -0.038157623,
        -0.06124557,
        0.007588802,
        -0.01538504,
        -0.018806137,
        -0.06959152,
        -4.0811644E-4,
        -0.040055852,
        -0.06416354,
        -0.011677412,
        0.002340253,
        -0.03627329,
        -0.024303615,
        0.014543626,
        -0.1256016,
        -0.08029523,
        0.006648647,
        -0.09633736,
        -0.13362247,
        -0.061558176,
        -0.032578103,
        -0.050171092,
        -0.06085228,
        0.026865603,
        -0.111134775,
        -0.027437558,
        -0.04812303,
        -0.038851947,
        -0.058581468,
        -0.010031519,
        -0.008102063,
        -0.028766612,
        -0.025053678,
        -0.0698511,
        -0.091752894,
        0.026234359,
        -0.08043857,
        0.02473425,
        -0.105172366,
        0.01205866,
        -0.06282685,
        0.06547629,
        -0.08914245,
        -0.09138915,
        -0.09273184,
        -0.03771086,
        -0.0045140604,
        -0.12049793,
        -0.025147673,
        -0.04721315,
        -0.038586047,
        -0.057722293,
        -0.07558361,
        -0.05312264,
        -0.08150341,
        -0.070406936,
        -0.05659535,
        -0.09138236,
        -0.04793931,
        -0.065983005,
        -0.09537369,
        -0.04214768,
        -0.047032423,
        -0.06702437,
        -0.04481901,
        -0.06081455,
        0.065763995,
        -0.118487984,
        6.02796E-4,
        0.05211692,
        -0.078053765,
        0.065869205,
        -0.057039566,
        -0.13562892,
        -0.06850339,
        -0.12620357,
        -0.1040472,
        -0.103491604,
        -0.073504,
        -0.09543251,
        -0.10996309,
        -0.09023234,
        -0.09535264,
        -0.13357799,
        -0.10292859,
        -0.038414903,
        -0.06821908,
        -0.04533918,
        -0.033090647,
        -0.06277502,
        -0.023977885,
        -0.03454185,
        -0.061029326,
        -0.101813056,
        -0.009304273,
        -0.08687018,
        0.042050492,
        0.020574734,
        -0.21436708,
        0.0021811007,
        -0.04269889,
        -0.12158991,
        -0.1568956,
        -0.16060516,
        -0.0152653465,
        -0.032674674,
        -0.10126687,
        -0.09146506,
        -0.09399433,
        -0.09801672,
        -0.11521195,
        -0.07925681,
        -0.13317722,
        -0.11698807,
        -0.109265015,
        -0.085360095,
        -0.07639326,
        -0.046926484,
        -0.07160829,
        -0.041466456,
        -0.11672341,
        -0.062715754,
        -0.1371347,
        -0.07273835,
        -0.14484438,
        -0.004529172,
        -0.21122071,
        -0.006519098,
        -0.16421865,
        -0.09266121,
        0.016376985,
        -0.06577025,
        -0.12875213,
        -0.10877653,
        -0.1773099,
        -0.09016449,
        -0.11882445,
        -0.10222395,
        -0.096805036,
        -0.14566928,
        -0.06936948,
        -0.117735036,
        -0.12418161,
        -0.15886316,
        -0.1440326,
        -0.11705462,
        -0.11046613,
        -0.15049115,
        -0.10482781,
        -0.121158,
        -0.14017299,
        -0.08526317,
        -0.08774516,
        -0.00951458,
        -0.17074913,
        0.112036094,
        -0.08713077,
        0.0020903083,
        -0.08077319,
        0.007636585,
        -0.08604227,
        -0.1278866,
        -0.08870701,
        -0.16295949,
        -0.17123137,
        -0.10728334,
        -0.11239984,
        -0.090121955,
        -0.17217787,
        -0.13048868,
        -0.15729222,
        -0.15660791,
        -0.072896294,
        -0.15493946,
        -0.086087786,
        -0.085389644,
        -0.18991172,
        -0.15222265,
        -0.10181941,
        -0.12980144,
        -0.121948436,
        -0.06372111,
        -0.23548146,
        0.102762505,
        0.010918945,
        0.098192215,
        -0.0074218917,
        0.045924336,
        -0.0011769584,
        -0.032296523,
        -0.095403135,
        -0.064326316,
        -0.06703566,
        -0.11349781,
        -0.10084554,
        -0.09925399,
        -0.07927282,
        -0.080668114,
        -0.13748454,
        -0.107212774,
        -0.12858948,
        -0.09921845,
        -0.10083164,
        -0.14883201,
        -0.15025015,
        -0.16485932,
        -0.10838062,
        -0.18245369,
        -0.12156457,
        -0.035838123,
        -0.18958859,
        0.18290663,
        0.07559344,
        0.1475186,
        0.14037284,
        0.10956674,
        0.1344934,
        0.06487595,
        0.078676514,
        -0.055049133,
        -0.14488861,
        -0.08537224,
        -0.11643214,
        -0.090384446,
        -0.15017347,
        -0.14466915,
        -0.15191811,
        -0.14417154,
        -0.13935564,
        -0.1719171,
        -0.08620644,
        -0.14928447,
        -0.06634587,
        -0.0987049,
        -0.043854594,
        -0.10238313,
        -0.107343026,
        -0.107540175,
        -0.22603807,
        0.23848064,
        0.17596763,
        0.15335816,
        0.1834155,
        0.1756395,
        0.186475,
        0.16257459,
        0.15627451,
        0.14163652,
        0.059556514,
        -0.012662601,
        -0.035413805,
        -0.02950344,
        -0.016571108,
        -0.09074825,
        -0.06638048,
        -0.08048287,
        -0.069788195,
        -0.10698585,
        -0.1228599,
        -0.057757422,
        -0.10090091,
        -0.060953144,
        -0.027236564,
        -0.06622791,
        -0.031649847,
        -0.08517265,
        -0.14931205,
        0.13751511,
        0.09382919,
        0.17177959,
        0.19333056,
        0.21324459,
        0.1340661,
        0.2507245,
        0.21678913,
        0.24398799,
        0.24689384,
        0.29475743,
        0.1855177,
        0.19045064,
        0.11283123,
        0.15359518,
        0.07498938,
        0.10117492,
        0.09826335,
        0.067276075,
        0.040916927,
        -0.012103163,
        0.08467915,
        -0.015441187,
        0.056761276,
        -0.0046384134,
        0.028330911,
        -0.028055888,
        -0.09300904,
        0.11699537,
        0.06918488,
        0.094786726,
        0.0073673306,
        0.1364308,
        0.15651786,
        0.15414916,
        0.1427939,
        0.20625786,
        0.22679405,
        0.24391662,
        0.2493903,
        0.24477106,
        0.25485167,
        0.2330918,
        0.20233455,
        0.25241148,
        0.16043352,
        0.20571455,
        0.14241037,
        0.20167647,
        0.10415606,
        0.1337087,
        0.09787217,
        0.10941468,
        0.160326,
        -0.015977306,
        0.004818042,
        0.048784368,
        0.07936367,
        0.030594755,
        0.08944006,
        0.031168096,
        0.050957482,
        0.09031291,
        0.13963157,
        0.14259465,
        0.12025014,
        0.112107,
        0.2209985,
        0.16757745,
        0.24290416,
        0.1597667,
        0.27641636,
        0.18233253,
        0.29741555,
        0.20057131,
        0.24908215,
        0.20139825,
        0.27163622,
        0.1931586,
        0.20598795,
        0.13697885,
        0.14503866,
        0.1549899,
        0.18273723,
        0.08453542,
        -0.023185654,
        0.04704893,
        -0.0063202325,
        0.059303805,
        0.036024656,
        0.05389024,
        -0.009369483,
        0.07551669,
        0.04855493,
        0.080258325,
        0.16143309,
        0.10628317,
        0.17784183,
        0.20063922,
        0.1903809,
        0.21019395,
        0.19440638,
        0.26437163,
        0.20782036,
        0.18369791,
        0.20491602,
        0.12668991,
        0.24872376,
        0.13676512,
        0.10100281,
        0.19753717,
        0.15216665,
        -0.05859198,
        0.055815063,
        -0.10440003,
        -0.09083819,
        0.03321042,
        -0.061958425,
        0.031600047,
        -0.035069063,
        0.012028015,
        -0.015553452,
        -0.008477158,
        -0.047651585,
        0.058588486,
        0.01778948,
        0.035947017,
        0.08987246,
        0.099906966,
        0.10750555,
        0.095893756,
        0.18985288,
        0.17390993,
        0.18927409,
        0.1611677,
        0.13513666,
        0.20307499,
        0.16024543,
        0.17524345,
        0.2513572,
        -0.150724,
        0.01142304,
        -0.08391723,
        0.028474744,
        -0.022428786,
        -0.06108925,
        0.019424051,
        -0.05655168,
        -0.060702026,
        -0.10066839,
        -0.13469002,
        -0.03018818,
        -0.10605795,
        -0.038600616,
        -0.029062552,
        -0.01239467,
        -0.052286565,
        0.08414753,
        0.024093585,
        0.06487858,
        0.009462018,
        0.07056938,
        0.1837863,
        0.14398761,
        0.19233684,
        0.121693775,
        0.31597617,
        0.18705282,
        -0.16141704,
        0.054442357,
        -0.08299277,
        -0.07401543,
        -0.1264671,
        0.006079607,
        -0.13425167,
        -0.020158885,
        -0.05709292,
        -0.08709408,
        0.008674807,
        -0.11255763,
        -0.029725065,
        -0.13441461,
        -0.05523131,
        -0.0705767,
        0.007303638,
        -0.101779506,
        -0.011613596,
        -0.008853924,
        0.030272102,
        0.028278993,
        0.06913666,
        0.06065758,
        0.08875497,
        0.17739888,
        0.1358,
        0.28163764,
        -0.069508485,
        -0.081573315,
        -0.07054425,
        0.0022032734,
        -0.053286366,
        -0.08398254,
        -0.019109022,
        -0.031513378,
        -0.11203092,
        0.023164762,
        -0.050181642,
        -0.06534111,
        -0.061742593,
        -0.004451618,
        -0.07965765,
        -0.072318465,
        -0.07971419,
        -0.0625063,
        -0.10853927,
        -0.12736778,
        -0.012654479,
        -0.07261712,
        -0.057848502,
        0.0093000345,
        0.05741483,
        0.10068896,
        0.05817392,
        0.015596938,
        -0.1961442,
        -0.023830619,
        -0.017476238,
        -5.332333E-4,
        0.03096785,
        -0.09672356,
        0.048031416,
        -0.029384982,
        0.012475719,
        -0.062033422,
        -0.02905825,
        -0.0046153055,
        0.0016425292,
        -0.07340975,
        -0.08659218,
        0.058564488,
        -0.057700034,
        -0.005984152,
        -0.01522195,
        -0.02212164,
        -0.0022799259,
        0.02039445,
        0.010000512,
        -0.03261941,
        -0.04002255,
        0.042954255,
        -0.06489261,
        0.05812574,
        -0.13444895,
        -0.13326898,
        0.012406481,
        -0.01832025,
        -0.008853474,
        -0.05128237,
        -0.09400285,
        -0.10275062,
        -0.010618915,
        -0.0826866,
        -0.12008994,
        -0.016490629,
        -0.12051238,
        -0.09005395,
        -0.032250736,
        -0.14502992,
        -0.018603127,
        -0.09340541,
        -0.053012714,
        -0.07781436,
        -0.15820044,
        -0.079564944,
        -0.120681114,
        -0.07183079,
        -0.04536444,
        -0.038148385,
        0.016533291,
        -0.011084132,
        0.049647316,
        0.03297812,
        -0.025164323,
        -0.052250534,
        0.03330427,
        0.10723862,
        0.1011963,
        -0.050268356,
        -0.052768376,
        0.06914105,
        0.02240614,
        0.078257896,
        0.0065297247,
        0.07360969,
        -0.006058249,
        -0.012148512,
        -0.004853804,
        0.06252913,
        0.13578095,
        0.007215883,
        -0.019089347,
        -0.020432817,
        0.04286229,
        -0.10746292,
        -0.019820044,
        0.01804994,
        -0.08202835,
        -0.054823164,
        0.07835898,
        0.019437553,
        -0.02977769,
        -0.01330344,
        -7.2358747E-4,
        0.04846121,
        -0.054039836,
        0.04479078,
        -0.018981649,
        -0.014917631,
        -0.001196358,
        0.054441314,
        -0.032790467,
        0.08926116,
        0.038092617,
        0.066953756,
        -0.039232064,
        0.08241044,
        -0.02224431,
        -0.025671508,
        -0.019032395,
        0.057649393,
        -0.0063877013,
        -0.03551727,
        -0.01128058,
        0.062968865,
        -0.07825119,
        0.037825335,
        0.032017477,
        -0.010258537,
        0.05336785,
        0.086367056,
        -0.060557667,
        -0.023383893,
        0.053877912,
        0.06229637,
        0.057422977,
        0.12969762,
        0.12665725,
        0.047647458,
        0.052478276,
        0.11701558,
        0.008465641,
        0.047903817,
        -0.027479662,
        0.06502732,
        -0.04830194,
        -0.03372726,
        0.048137505,
        -0.06426053,
        -0.06927903,
        0.004546131,
        0.035475355,
        0.038371626,
        -0.07707187,
        -0.049932644,
        0.06366016,
        0.043221697,
        0.025048394,
        0.0845313,
        0.07107566,
        0.039441705,
        0.0020928134,
        0.04340083,
        0.029540334,
        0.070954576,
        0.029415179,
        0.16431989,
        0.07269325,
        0.11506043,
        0.048348673,
        0.05347154,
        0.06959605,
        -0.034059167,
        0.08509276,
        -0.10270008,
        0.07826896,
        -0.083845325,
        -0.018691108,
        -0.083904095,
        -0.060355112,
        -0.0604463,
        -0.037960496,
        -0.05118542,
        -0.04240638,
        0.009457108,
        0.025043102,
        -0.012430606,
        0.061189823,
        -0.09090269,
        -0.03462931,
        -0.0028077047,
        0.043833166,
        0.11434702,
        0.026470799,
        0.08037596,
        0.11777269,
        0.072907165,
        0.0709935,
        0.070953324,
        0.047055677,
        -0.0683188,
        -0.047381934,
        -0.04355074,
        0.024520587,
        -0.024306068,
        -0.052588556,
        0.038631756,
        0.014663801,
        -0.06832955,
        -0.05432054,
        -0.069286145,
        -0.010732937,
        0.03407204,
        -0.07347612,
        0.025895055,
        0.04521386,
        0.069298595,
        0.07406712,
        -0.03553192,
        -0.006916108,
        0.12225085,
        0.07071151,
        0.04440642,
        0.12739313,
        0.08432224,
        0.061228458,
        -0.023806524,
        0.10493276,
        -0.027655145,
        -0.03810287,
        -0.05422751,
        0.0035157774,
        -0.075417496,
        -0.018296972,
        -0.010622126,
        0.027933905,
        0.03634282,
        -0.037100613,
        0.11537491,
        0.010940977,
        0.0060763457,
        0.067834266,
        0.058591496,
        -0.036543112,
        0.008762077,
        -0.018884566,
        0.0826686,
        0.005562608,
        0.051323604,
        0.124407455,
        0.031363107,
        0.067844115,
        -0.011952536,
        0.06063526,
        0.07665569,
        -0.042826857,
        -0.029140266,
        -0.079682894,
        -0.07627159,
        -0.0664114,
        -0.0069236155,
        -0.025264105,
        -0.032640524,
        0.036984395,
        0.019851873,
        0.09938729,
        0.03810666,
        0.018037299,
        0.0305867,
        -0.054044012,
        -0.032818966,
        -0.0805281,
        -0.12241408,
        0.021584304,
        0.02478889,
        -0.010209172,
        0.06291813,
        0.0017967069,
        0.03868872,
        0.010282623,
        -0.0122313695,
        -0.06475472,
        -0.068535,
        0.03059481,
        -0.11641462,
        -0.03539916,
        -0.02492568,
        -0.035187412,
        0.026924822,
        0.0071164765,
        0.06336128,
        -4.6133812E-4,
        0.0024869721,
        0.03483555,
        -0.03070825,
        0.0518284,
        0.10330453,
        -0.04450245,
        -0.051240332,
        -0.06462173,
        0.049190838,
        -0.021927675,
        -0.1049457,
        0.11827504,
        0.038110066,
        -0.008970636,
        -0.15787882,
        -0.24707785,
        -0.11363673,
        -0.057795368,
        -0.012978265,
        -0.008426104,
        -0.064795755,
        -0.033722594,
        -0.03140977,
        0.073286034,
        0.009213953,
        -0.020750666,
        0.09375833,
        0.03799846,
        -0.0061731227,
        0.043383107,
        0.045872107,
        0.008483779,
        -0.06565505,
        0.053293727,
        0.03251673,
        -0.051935546,
        -0.0035327992,
        -0.025020622,
        0.04144797,
        0.11342533,
        0.05409044,
        -0.08580693,
        -0.29647198,
        -0.14811994,
        -0.040934365,
        -0.06902498,
        0.03919951,
        -0.019831682,
        2.9347022E-5,
        -0.011818692,
        0.052736253,
        -0.05132236,
        0.085017785,
        0.0454296,
        0.07786492,
        0.09226824,
        0.087281056,
        0.12516846,
        0.138264,
        -0.042263407,
        -0.076463565,
        -0.027078005,
        -0.07112913,
        -0.03988557,
        -0.03743433,
        -0.00916449,
        -0.009359858,
        0.06775832,
        0.13943273,
        -0.2741317,
        -0.39182946,
        -0.089632325,
        0.03424097,
        -0.04455095,
        0.009422942,
        0.043890923,
        0.043908644,
        -0.036371432,
        0.017429069,
        0.07850043,
        0.07789668,
        -0.008407071,
        0.045247253,
        0.0416854,
        0.023911826,
        0.031581715,
        0.09148521,
        0.09372595,
        0.025547525,
        0.061623015,
        0.05024229,
        -0.03760696,
        0.008740802,
        -0.006593932,
        0.16560817,
        0.089911476,
        -0.012256246,
        -0.2311991,
        -0.36283192,
        -0.022596039,
        -0.002099282,
        0.06574251,
        0.00776807,
        0.05270096,
        -0.030030007,
        0.058558125,
        -0.0025192618,
        0.0964679,
        0.01828459,
        0.070633925,
        0.03518157,
        -0.010526974,
        0.0423485,
        0.11150042,
        0.0060585863,
        0.028248278,
        0.024892708,
        -0.078272104,
        -0.03816061,
        -0.037974417,
        0.12983139,
        -0.010623857,
        0.08203773,
        0.098606594,
        -0.042657357,
        -0.36837423,
        -0.22803158,
        -0.018456573,
        0.03159248,
        0.043659505,
        0.08724391,
        -0.018634759,
        -0.010915976,
        -0.037094794,
        0.05440846,
        0.080913745,
        -0.055474114,
        0.047878295,
        -0.051626563,
        -4.109866E-5,
        -0.041486137,
        0.031101245,
        0.099960476,
        -0.102648474,
        -0.024950072,
        0.069712356,
        -0.059123106,
        -0.033388335,
        -0.06590318,
        -0.056829058,
        0.08896609,
        0.12757991,
        -0.0080090985,
        -0.28280807,
        -0.20882316,
        0.02762749,
        0.08922399,
        0.09536243,
        0.05667277,
        0.034486234,
        0.0017678017,
        0.08311747,
        -0.05755139,
        0.07760904,
        0.007855458,
        -0.017080948,
        -0.03756693,
        0.012803424,
        0.04933375,
        0.13251656,
        -0.033202615,
        0.054758098,
        0.06690808,
        -0.047038496,
        0.042813744,
        -0.0013173707,
        0.07179848,
        0.07450767,
        0.0042957217,
        -0.002038821,
        -0.12141546,
        -0.13644308,
        -0.094048515,
        -0.010896645,
        0.007430916,
        0.020715853,
        -0.007897237,
        -0.018147148,
        -0.05673599,
        -0.07431802,
        0.03219324,
        -0.030324822,
        -0.08022932,
        -0.066435724,
        -0.050864823,
        -0.024092421,
        0.017372891,
        0.031140558,
        0.015467229,
        0.04703149,
        0.021979744,
        -0.07073469,
        -0.012594201,
        -0.026437048,
        -0.033588037,
        0.0062066284,
        0.034372967,
        0.0744985,
        -0.02695577,
        -0.18230355,
        -0.09563131,
        -0.0064927847,
        0.01644478,
        -0.082643956,
        -0.14662123,
        -0.2108264,
        -0.17978305,
        -0.08895911,
        -0.14466171,
        -0.039247017,
        -0.15601169,
        -0.07330616,
        -0.10762428,
        -0.025771277,
        -0.0659582,
        -0.048776478,
        0.10704378,
        -0.016661912,
        -0.09946186,
        0.011842267,
        0.09649812,
        0.048415028,
        0.010128732,
        0.14869654,
        0.00860437,
        -0.006159562,
        -0.10217186,
        -0.03230911,
        0.014948931,
        -0.018721743,
        -0.045275357,
        -0.069336824,
        -0.1447193,
        -0.14481637,
        -0.19996396,
        -0.14554511,
        -0.07325099,
        -0.18944772,
        -0.09926579,
        -0.22318032,
        -0.1501099,
        -0.03574414,
        0.052646365,
        -0.1104152,
        0.0018390467,
        0.045656435,
        -0.014526633,
        0.08850492,
        -0.10457651,
        0.048185796,
        -0.010941469,
        -0.102589116,
        -0.020398976,
        -0.09759644,
        -0.0694357,
        0.022116572,
        -0.039128255,
        -0.006982394,
        -0.018671494,
        -0.08536634,
        -0.15681078,
        -0.18348324,
        -0.06362339,
        -0.024367422,
        -0.09258868,
        -0.15655164,
        -0.24823976,
        -0.07043655,
        -0.14111759,
        -0.07327508,
        -0.06845126,
        -0.13248993,
        0.049882766,
        0.05002177,
        0.07510815,
        0.037367396,
        -0.0041084522,
        -0.09586046,
        -0.1523662,
        -0.03073044,
        -0.0596441,
        -0.051916648,
        0.04192732,
        -0.042162202,
        0.02140992,
        0.020214677,
        -0.05122966,
        -0.073814884,
        -0.04863275,
        -0.106900595,
        -0.09468775,
        -0.038457774,
        -0.12855095,
        -0.05350821,
        -0.08991063,
        -0.18078558,
        -0.04707187,
        -0.12264124,
        -0.09723346,
        -0.12843697,
        -0.01937671,
        -0.07446379,
        -0.06457138,
        -0.16252403,
        -0.02762349,
        -0.03714946,
        -0.01691043,
        -0.030848755,
        -0.071747415,
        -0.052072976,
        0.06556081,
        0.0067083905,
        -8.0711575E-4,
        0.0041756635,
        -0.043865275,
        -0.03319918,
        -0.08254455,
        -0.12260148,
        0.055632662,
        0.023752214,
        -0.02883659,
        -0.13378246,
        -0.083456844,
        -0.03579058,
        -0.14216441,
        -0.09924277,
        0.07561093,
        0.062154733,
        0.11118888,
        0.040237468,
        -0.12799205,
        -0.048678182,
        -0.11300618,
        -0.012952875,
        -0.09821696,
        -0.0306657,
        -0.05820465,
        0.04352294,
        0.003868076,
        -0.026937399,
        0.06879015,
        -0.025976665,
        0.07066807,
        -0.015211972,
        -0.07035778,
        -0.030391475,
        -0.076729536,
        -0.053177223,
        -0.10194538,
        -0.047845043,
        -0.019854022,
        -0.10904323,
        0.03810802,
        -0.08820577,
        -0.019013694,
        -0.048652217,
        0.097840704,
        0.05772792,
        -0.09126748,
        0.07095045,
        0.030695954,
        0.0477888,
        -0.063693225,
        -0.035539635,
        -0.0046093976,
        -0.07792287,
        0.026036736,
        -0.0072656157,
        0.034030627,
        0.02971295,
        0.05554011,
        -0.009293229,
        0.048188627,
        -0.0013852911,
        0.0046652732,
        -0.005562271,
        0.016357962,
        -0.071695246,
        -0.103133895,
        0.0035418947,
        -0.057702478,
        0.04150779,
        -0.07578708,
        0.06938688,
        -0.0171666,
        -0.11939792,
        0.0042232466,
        -0.001747457,
        -0.0017872645,
        -0.10862568,
        -0.028598083,
        -0.05896858,
        -0.016034147,
        0.03769068,
        0.022969201,
        -0.0154424505,
        0.013805537,
        0.040558558,
        0.08272471,
        0.14455,
        0.05086501,
        0.08877089,
        0.01620898,
        0.00823667,
        -0.0769132,
        -0.040755317,
        -0.02183646,
        -0.15946199,
        -0.028277986,
        0.0030430225,
        -0.02183607,
        0.001606927,
        0.018863693,
        0.08570449,
        0.036586784,
        -0.08415167,
        -0.06258766,
        -0.09576577,
        0.050287295,
        -0.019442674,
        -0.021288631,
        -0.023406023,
        -0.009043959,
        -0.02864552,
        -0.010518787,
        -0.031974863,
        0.06352632,
        0.06498641,
        0.063333265,
        0.12763706,
        0.1245617,
        0.031289645,
        0.099693626,
        0.04848174,
        -0.018497204,
        0.06478441,
        -0.043458194,
        0.08947341,
        0.043302726,
        0.0013063872,
        0.060036514,
        0.10563506,
        -0.029729923,
        -0.031070478,
        0.020858698,
        0.077259906,
        -0.023810983,
        -0.014729076,
        0.0127183385,
        0.006802478,
        -0.012301613,
        -0.03500597,
        0.019198224,
        -0.067541555,
        0.06807307,
        -0.006245158,
        0.08432857,
        0.053093206,
        -0.012074589,
        0.13837022,
        0.13184507,
        0.08890651,
        0.06492865,
        0.004456956,
        0.037683647,
        -0.01470877,
        0.010943111,
        0.046627264,
        0.028428268,
        0.061008357,
        0.054681104,
        -0.010289725,
        -0.05206374,
        -0.045646433,
        0.04500442,
        0.043559212,
        0.01088684,
        -0.037312243,
        0.08141266,
        -0.019497935,
        -0.081252046,
        0.0032136166,
        0.0037641206,
        -0.04986689,
        0.016681492,
        0.057614442,
        0.045139957,
        0.08517996,
        0.10750834,
        0.032842297,
        0.06343848,
        0.17272867,
        0.14805052,
        0.122447915,
        -0.008199406,
        0.1297248,
        0.10218055,
        -0.07248191,
        0.03664188,
        0.0028505265,
        0.031928327,
        0.043608584,
        0.035702307,
        0.0067382627,
        -0.013286338,
        -0.004532163,
        -0.05827631,
        0.011882194,
        0.0014124671,
        0.0032954393,
        -0.11338817,
        0.020681035,
        -0.023934942,
        0.045723565,
        -0.030282374,
        -0.036337063,
        -0.019948399,
        0.052002788,
        0.060607098,
        0.068744615,
        0.008629947,
        0.06183518,
        0.00703253,
        0.06168607,
        -0.028469963,
        0.02948555,
        0.010305393,
        -5.7132682E-5,
        -0.019047549,
        0.01614827,
        -3.7771522E-4,
        0.008262907,
        -0.026271453,
        -0.0151361525,
        0.02304282,
        -0.04032857,
        -0.06257064,
        -0.031977296,
        -0.019024406,
        -5.71798E-4,
        -0.09556894,
        -0.019072875,
        -0.074808046,
        0.10511623,
        0.016804734,
        0.015926149,
        0.041661203,
        -0.034872837,
        0.052714337,
        -0.044844143,
        0.10392995,
        0.02631063,
        -0.046045832,
        0.059573703,
        0.09855893,
        -5.8277504E-4,
        -0.09479931,
        -0.0020769497,
        -0.07755485,
        -0.09439574,
        -0.088664964,
        -0.09439022,
        -0.09526017,
        -0.09136776,
        -0.04543357,
        -0.043106683,
        -0.011059762,
        -0.050398253,
        -0.026994715,
        -0.057622947,
        -0.08786996,
        -0.05162977,
        -0.009151953,
        0.11176358,
        0.026096672,
        -8.007957E-4,
        -0.050852593,
        0.08471555,
        0.07352052,
        0.033018198,
        -0.040090304,
        -0.093218125,
        -0.086094424,
        0.037213355,
        0.023623541,
        -0.019833777,
        -0.061779536,
        0.056194827,
        -0.018444156,
        -0.09751894,
        0.0671864,
        -0.047711093,
        -0.060114857,
        -0.11024243,
        -0.12551616,
        -0.05819209,
        -0.04488864,
        -0.052808214,
        -0.026596919,
        -0.102545924,
        0.06807883,
        0.030099258,
        0.13774768,
        -0.03141658,
        0.10579805,
        -0.054764293,
        -0.00993773,
        0.0056470293,
        0.04284987,
        0.082993604,
        0.024256384,
        0.009716678,
        -0.07302101,
        -0.03717395,
        0.029848924,
        0.07368298,
        0.0113433795,
        0.048672177,
        -0.08705151,
        -0.023199506,
        -0.016680675,
        0.030544829,
        0.019169541,
        -0.0074540945,
        -0.04061061,
        -0.09849025,
        -0.032461796,
        0.036120314,
        -0.12862243,
        -0.0070638936,
        0.095336564,
        -0.014410935,
        -0.05669192,
        -0.075587116,
        0.03467663,
        -0.08029611,
        0.028870732,
        -0.05189768,
        0.049342982,
        0.057859153,
        -0.028441887,
        -0.0143510215,
        0.05273703,
        -0.07858715,
        0.058413725,
        -0.027208686,
        -0.04059979,
        0.10281763,
        0.034451943,
        0.0075240927,
        -0.020927057,
        0.022013798,
        0.03345751,
        0.04453132,
        -0.1040078,
        0.065563664,
        -0.08504174,
        -0.10947003,
        -0.0257573,
        0.058134556,
        0.037898213,
        0.03760047,
        0.04214269,
        -0.10347826,
        0.07640884,
        0.11087159,
        0.06623976,
        0.0299206,
        0.024574943,
        0.010277747,
        0.08427747,
        0.056098405,
        -0.052771784,
        0.08555724,
        -0.0150401415,
        -0.018938499,
        -0.04221183,
        -0.019301284,
        0.06566373,
        -0.073791884,
        -0.06476922,
        -0.035403147,
        -0.05300886,
        -0.117697366,
        0.018643223,
        0.022481378,
        -0.028263915,
        0.010321994,
        -0.09179899,
        -0.018165259,
        0.02433428,
        -0.021964058,
        -0.075220734,
        0.036335576,
        -0.005553162,
        -0.029051237,
        0.011169653,
        -0.039370056,
        -0.032608192,
        0.06424689,
        -0.072574586,
        0.06915561,
        -0.02879723,
        0.05694381,
        0.07151752,
        0.025228528,
        -0.04289103,
        0.026753932,
        -0.0026351288,
        -0.006961038,
        0.023073433,
        -0.1085794,
        -0.01170052,
        -0.043910988,
        -0.046011966,
        -0.0761074,
        -0.083612494,
        -0.09937195,
        0.03641375,
        0.042455602,
        -0.034217317,
        4.363228E-4,
        -0.0032782422,
        0.06812657,
        0.01662455,
        5.102482E-4,
        0.046380434,
        0.04828669,
        -0.020291528,
        0.00736702,
        0.01976009,
        0.022631546,
        -0.052247334,
        -0.051929004,
        -0.0059395568,
        -0.108398624,
        0.011630661,
        0.005478592,
        -0.016299605,
        -0.090782896,
        -0.06491072,
        -0.1568678,
        0.009698688,
        -0.08306573,
        -0.07434567,
        -0.053437196,
        0.023203874,
        -0.083656766,
        0.07247583,
        -0.027119203,
        0.07736623,
        0.0723724,
        -6.743632E-4,
        -0.050213836,
        0.050117332,
        -0.048882164,
        -0.021775803,
        -0.013688388,
        7.228014E-4,
        0.020316726,
        0.03448737,
        -0.13338347,
        -0.076770715,
        -0.09476233,
        -0.16424513,
        -0.076417476,
        -0.1686533,
        -0.18651548,
        -0.11195408,
        -0.07206603,
        -0.04611418,
        -0.015407285,
        -0.03460427,
        -0.03433792,
        -0.025994292,
        -0.030983075,
        0.04867404,
        0.050780036,
        0.070154466,
        0.05470287,
        0.082230076,
        0.032450363,
        0.106588416,
        -0.07894397,
        0.04184613,
        0.0038948373,
        -0.040895894,
        -0.0870236,
        -0.052296232,
        -0.039262567,
        -0.11335441,
        -0.1671734,
        -0.100944795,
        -0.20792188,
        -0.078667335,
        -0.1979015,
        -0.09596718,
        -0.1268564,
        -0.11677338,
        -0.051680412,
        -0.044382732,
        -0.012114815,
        -0.028022427,
        -0.03314662,
        0.055218317,
        0.018972341,
        -0.023017243,
        0.013164077,
        0.02874847,
        -0.03693867,
        -0.08035378,
        -0.013726791,
        -0.033722654,
        -0.02040806,
        -0.04602999,
        -0.06380173,
        -0.013064034,
        -0.16411808,
        -0.17134632,
        -0.1725434,
        -0.065455794,
        -0.2314838,
        -0.19121392,
        -0.11756849,
        -0.06013922,
        -0.058430985,
        -0.018948548,
        -0.011917768,
        -0.050947472,
        0.031389892,
        -0.021083562,
        0.036333274,
        -0.08627897,
        0.0011472729,
        0.08400052,
        -0.011498157,
        -0.032163933,
        0.08295375,
        -0.014643579,
        0.009436514,
        -0.13911168,
        -0.106090076,
        -0.04569004,
        -0.09389229,
        -0.0628422,
        -0.07384295,
        -0.111352146,
        -0.11518448,
        -0.14518902,
        -0.07160828,
        -0.04583126,
        -0.09705809,
        0.01049029,
        -0.02325699,
        -0.07249869,
        0.02844038,
        -0.052434403,
        -0.0014401326,
        -0.03764632,
        0.013008691,
        0.013049295,
        0.04191373,
        0.041545466,
        0.06110592,
        0.058595255,
        0.04555003,
        -0.06083894,
        -0.01718248,
        -0.06894076,
        -0.016069878,
        0.0061781113,
        -0.032190353,
        0.015294392,
        -0.02808535,
        -0.013077861,
        0.042979624,
        0.0188814,
        0.0015697186,
        9.888166E-5,
        0.052089628,
        -0.09678303,
        0.06495946,
        -0.04517606,
        -0.021661079,
        0.040412884,
        -0.049961947,
        0.05583049,
        -0.039201837,
        0.08716053,
        -0.051037326,
        -0.047321085,
        -0.01372185,
        -0.12335027,
        -0.084938094,
        -0.11728227,
        0.011673874,
        -0.045225833,
        -0.106605396,
        -0.031667918,
        -0.031813633,
        0.10442406,
        -0.07483844,
        0.07392729,
        0.013142485,
        0.042300392,
        0.048633233,
        0.08543043,
        0.062144168,
        0.04240028,
        0.026552621,
        0.07230591,
        0.0026396965,
        -9.762223E-5,
        0.018577924,
        0.042879686,
        0.102202386,
        -0.03587284,
        0.015914775,
        -0.0705586,
        0.017851993,
        -0.028318314,
        0.022969138,
        -0.04856855,
        -0.1467001,
        -0.102783866,
        -0.024882862,
        -0.05444347,
        0.11554995,
        0.021823622,
        0.11562458,
        0.03982076,
        0.11683735,
        0.1014997,
        0.105450414,
        0.10204623,
        0.09262406,
        0.13016668,
        0.072375365,
        0.012322529,
        0.12925935,
        0.074140936,
        0.06664868,
        0.033874433,
        0.0514546,
        -0.012975438,
        -0.08081371,
        -0.02519938,
        -0.062477876,
        -0.11297962,
        -0.07425579,
        0.008407797,
        0.04654063,
        0.02568805,
        0.038584303,
        0.065227434,
        0.023040008,
        0.07427125,
        0.010556316,
        0.11931402,
        0.1731649,
        0.19790863,
        0.123721816,
        0.22118875,
        0.14242491,
        0.03199779,
        0.08579929,
        0.07086327,
        -0.020442188,
        0.05091352,
        -0.035025645,
        -0.011235504,
        0.01929299,
        0.10875914,
        -0.10116362,
        -0.09932094,
        -0.19692412,
        -0.064748324,
        -0.07902589,
        -0.0042361873,
        0.0011438739,
        -0.009871937,
        -7.495559E-4,
        -0.02465362,
        0.05535431,
        0.06907673,
        0.10282084,
        0.11754483,
        0.108603574,
        0.11127261,
        0.12083457,
        0.16917613,
        0.16600862,
        0.13253902,
        0.07126174,
        0.00403912,
        0.08488884,
        -0.07191532,
        -0.033890177,
        0.114767045,
        -0.088184096,
        -0.035534967,
        -0.02130325,
        -0.13240431,
        0.028820477,
        -0.08428055,
        0.015901925,
        -0.015070567,
        -0.0348651,
        -0.004577012,
        0.058152206,
        0.011770457,
        0.037789933,
        0.019745613,
        -0.06349557,
        -0.01737029,
        0.04158086,
        -0.03233068,
        0.019800486,
        0.0073841396,
        -0.011039001,
        0.041715525,
        0.03552098,
        0.07616847,
        0.037544355,
        0.030915173,
        0.041415326,
        -0.0139344605,
        -0.0774629,
        -0.04767926,
        -0.045664553,
        -0.07730013,
        -0.07036667,
        -0.008520253,
        0.044716876,
        0.0030970203,
        0.06566091,
        0.028870914,
        0.06123533,
        -0.034963634,
        -0.026857983,
        -0.1154768,
        -0.060628664,
        -0.107391894,
        -0.121407054,
        -0.19572347,
        -0.13231868,
        -0.19029148,
        -0.14865911,
        -0.05329095,
        0.0063562226,
        -0.017008502,
        -0.027009267,
        0.05101769,
        -0.06888268,
        0.03936563,
        0.055570196,
        -0.013364056,
        -0.013457668,
        0.08219689,
        0.14896695,
        0.06149647,
        -0.026661672,
        0.064951986,
        -0.02063451,
        0.06973518,
        0.01822923,
        -0.024477703,
        -0.027244695,
        -0.09568562,
        -0.18079175,
        -0.1665647,
        -0.19338821,
        -0.24047904,
        -0.20181309,
        -0.12858737,
        -0.12919858,
        -0.080444306,
        -0.12322892,
        -0.07118319,
        -0.09907405,
        -0.0076293163,
        -0.035414338,
        -0.07208228,
        0.016207742,
        -0.037105,
        0.009127235,
        0.06986113,
        -0.042584304,
        0.049773004,
        0.048559804,
        -0.0077668093,
        0.005066128,
        0.014827447,
        -0.03943435,
        -0.048756596,
        -0.10621899,
        -0.05779063,
        -0.11092529,
        -0.26982367,
        -0.16592471,
        -0.23074095,
        -0.19993377,
        -0.1500753,
        -0.22739586,
        -0.08400708,
        -0.14718193,
        -0.06402493,
        -0.061355677,
        0.016084831,
        -0.06395643,
        0.0718459,
        -0.046762466,
        -0.050026044,
        0.045643345,
        0.07082758,
        -0.05506732,
        -1.7240022E-4,
        0.027602531,
        -0.08477212,
        0.01504031,
        -0.04314223,
        -0.057669908,
        -0.012460116,
        -0.08020384,
        -0.16261844,
        -0.23858638,
        -0.15836155,
        -0.17261517,
        -0.11133633,
        -0.05150856,
        -0.16298263,
        -0.0784191,
        -0.11591727,
        -0.05310572,
        -0.099104494,
        -0.04800473,
        -0.048223812,
        -0.06920652,
        -0.039109387,
        0.022156825,
        0.07670992,
        -0.024792334,
        -0.021665934,
        -0.032339152,
        -0.024970287,
        -0.054998748,
        -0.052174397,
        -0.06563064,
        -0.076727994,
        -0.05707306,
        -0.021564592,
        -0.12431861,
        -0.08132538,
        -0.07975931,
        -0.11755215,
        -0.11159938,
        -0.123332635,
        -0.09197673,
        -0.09689326,
        -0.09612431,
        -0.09029988,
        -0.13495465,
        -0.056396183,
        0.059165545,
        -0.03918281,
        -0.019623956,
        -0.07668631,
        -0.020795932,
        0.0959788,
        -0.13581198,
        -0.03466302,
        0.005666521,
        0.02457017,
        0.06631719,
        -0.03353626,
        0.062325012,
        -0.0085915495,
        -0.058914587,
        -0.035996363,
        0.05864228,
        -0.0418846,
        -0.04453781,
        -0.043875016,
        -0.074937046,
        -0.029840736,
        0.027704826,
        -0.07697387,
        0.015688172,
        -0.027533978,
        0.05063711,
        -0.020523535,
        0.046358418,
        0.041175086,
        0.04422225,
        0.12002039,
        -0.0133951325,
        -0.04799168,
        0.005115994,
        0.008331747,
        0.03920582,
        0.021352228,
        0.028815245,
        -0.008413533,
        -0.051104,
        -0.00869368,
        0.06069903,
        0.02925679,
        -0.036836628,
        0.112816826,
        -0.024368584,
        0.11133059,
        0.016200263,
        -0.05844003,
        -0.09193559,
        0.018202364,
        -0.06390264,
        -0.045003977,
        -0.01406189,
        0.04627765,
        -0.043825172,
        -0.0471686,
        -0.054775476,
        -0.0022381668,
        -0.034641482,
        0.10534528,
        -0.10940566,
        0.010644261,
        0.0021650344,
        0.018945055,
        0.004568419,
        0.08775267,
        0.022262424,
        -0.009450247,
        0.050087042,
        0.12563431,
        0.1440392,
        0.088187575,
        0.10863295,
        0.07957002,
        0.13376251,
        0.13658258,
        0.06369049,
        0.053134512,
        0.032457873,
        0.026249886,
        -0.010504861,
        0.003263426,
        0.01540716,
        0.045991033,
        -0.0074669574,
        0.04749298,
        0.03104801,
        0.0481484,
        0.031786423,
        0.07097257,
        0.02351588,
        0.032765117,
        -3.0997937E-4,
        -0.005516642,
        0.0027966318,
        0.044992846,
        0.06391276,
        -0.02078232,
        0.11992228,
        0.039305735,
        0.09612429,
        0.10150539,
        0.052974835,
        0.14378037,
        0.04889511,
        0.0042527136,
        0.08648492,
        -0.072263114,
        0.023376394,
        -0.054107454,
        -0.11927023,
        -0.007337834,
        0.005633498,
        -0.0794485,
        0.025532633,
        0.01764187,
        -0.003270735,
        -0.045837186,
        0.10069738,
        -0.02910385,
        0.0409652,
        0.035117533,
        0.055833966,
        0.09423395,
        -0.027084842,
        0.08939485,
        -0.0038930746,
        0.089248255,
        0.03316372,
        0.09482651,
        0.043423083,
        -4.5375316E-5,
        -0.013845305,
        0.08852481,
        0.023928206,
        -0.011679782,
        0.040804796,
        0.012367224,
        -0.0151964845,
        -0.012333703,
        0.0965906,
        -0.0153077375,
        -0.041435916,
        -0.03467832,
        0.015390377,
        0.06631449,
        0.01735614,
        -0.048809238,
        -0.07105905,
        0.089733504,
        -0.024662819,
        0.05678388,
        0.106686816,
        0.046276145,
        0.0580573,
        0.12147705,
        0.12741193,
        0.07138231,
        0.14178067,
        0.15287594,
        0.16826126,
        0.09013543,
        0.06876326,
        0.14508113,
        -0.016902009,
        0.10984434,
        0.07303718,
        0.005489357,
        0.037470926,
        0.054980144,
        0.062160514,
        0.008769158,
        0.04676641,
        0.08348978,
        -0.025694583,
        0.014464873,
        -0.065291174,
        0.03016945,
        0.019551558,
        -0.02892896,
        0.0845987,
        0.054314576,
        0.10722187,
        0.060162377,
        0.010330773,
        0.023812432,
        -0.013005068,
        -0.006786758,
        -0.046449192,
        0.0058457437,
        -0.089581445,
        -0.01138818,
        -0.08586774,
        -0.119236,
        0.024799604,
        -0.052936308,
        0.0041414653,
        -0.01896486,
        0.16066213,
        0.09509476,
        -0.08405734,
        0.016558079,
        0.027926035,
        0.0740137,
        -0.034517273,
        0.087439716,
        0.05630544,
        0.024456143,
        0.06618568,
        0.13627641,
        0.05516871,
