{
  "inputLayer": {
    "nodes": 784
  },
  "evaluateLayers": [
    {
      "weights": [
        0.035830084,
        0.032809876,
        -0.009740894,
        -0.04621256,
        -0.08954667,
        0.009919052,
        0.03590012,
        -0.08071717,
        -0.02528369,
        -0.06034756,
        0.0883741,
        0.043878518,
        -0.02671133,
        0.025480231,
        0.09633866,
        -0.07090819,
        0.0126713505,
        0.06339491,
        0.051814236,
        -0.055734772,
        0.06877513,
        0.026235823,
        0.0026909735,
        0.044817924,
        0.014531899,
        -0.064862184,
        0.050859656,
        0.07878397,
        -0.06822198,
        -0.083623365,
        0.032725874,
        0.04446079,
        -0.06799891,
        -0.021202091,
        -0.045157142,
        -0.060460467,
        0.0521864,
        0.015253061,
        0.014671714,
        0.051056992,
        0.014821386,
        0.030861612,
        -0.0252265,
        -0.027380066,
        -0.05791763,
        0.029445421,
        -0.020721853,
        -0.07660282,
        -0.07697565,
        -0.038752552,
        -0.0030172602,
        -0.007192915,
        -0.08638746,
        0.004560497,
        -0.021535052,
        -0.0246194,
        -0.010712542,
        -0.08218225,
        0.03367468,
        0.081296146,
        -0.08650957,
        -0.097415276,
        0.038431287,
        -0.062760025,
        -0.016078472,
        -0.041215852,
        0.05931257,
        0.03764467,
        -0.098058216,
        0.06571705,
        0.001284821,
        0.09296026,
        0.06192677,
        0.08343452,
        -0.029417668,
        0.036778565,
        0.08208153,
        0.069615185,
        0.0010489111,
        0.009503763,
        0.0033054645,
        -0.088455305,
        -0.061023787,
        -0.075922474,
        0.089278795,
        0.09059307,
        0.057688914,
        -0.06391507,
        0.09996598,
        0.026144302,
        -0.094024576,
        -0.091314584,
        -0.031287104,
        0.0017059257,
        0.065100305,
        -0.09560193,
        -0.121224076,
        -0.08495198,
        -0.06301775,
        0.050033446,
        -0.041606285,
        -0.02095594,
        0.13589504,
        0.083611585,
        -0.024292838,
        0.017935207,
        0.094929904,
        0.051589478,
        -0.07097882,
        0.09791232,
        0.059185,
        -0.0975383,
        -0.06339032,
        -0.09443278,
        -0.06298258,
        0.027362272,
        0.03460196,
        -0.06307895,
        -0.04227667,
        0.08991953,
        -0.009581644,
        -0.013867209,
        -0.117092304,
        0.039168894,
        0.011810489,
        -0.10811363,
        -0.00829386,
        -0.0520861,
        0.04181511,
        -0.036959015,
        0.025526427,
        0.05997658,
        0.018423883,
        0.117608964,
        0.024509544,
        -0.09642362,
        0.043889973,
        -0.0101880245,
        0.029291911,
        0.01667511,
        -0.011919772,
        -0.0026625216,
        -0.052086506,
        -0.021050315,
        0.08423824,
        -0.017083514,
        -0.039706457,
        -0.10111925,
        0.04746548,
        -0.051995665,
        -0.043731466,
        -0.10365922,
        -0.039218526,
        -0.08817953,
        0.06849562,
        0.046807893,
        -0.0943778,
        0.08673295,
        0.05650473,
        0.0068128803,
        0.036665358,
        0.028054157,
        0.11347609,
        -0.060855065,
        -0.1016848,
        0.079706304,
        0.037539806,
        -0.04488301,
        0.079721965,
        -0.098136425,
        -0.09335208,
        -0.056757327,
        -2.1668889E-4,
        -0.018986728,
        0.06171807,
        0.042692915,
        0.034428842,
        0.013133836,
        0.019909114,
        -0.07833941,
        -0.0538846,
        -0.09241352,
        -0.045073453,
        0.01117806,
        -0.038820874,
        -0.023882633,
        -0.002871992,
        0.019733267,
        -0.018373782,
        -0.10202232,
        -0.0688958,
        -0.09497476,
        0.08011755,
        -0.08793336,
        -0.0631674,
        0.08859363,
        0.08908895,
        0.057031818,
        0.09965205,
        -0.073325366,
        -0.0010578304,
        -0.031722695,
        0.048904806,
        -0.059277367,
        0.03781771,
        0.017401727,
        -0.07414084,
        -0.05602451,
        -0.10744997,
        -0.029296285,
        0.077712424,
        0.09013771,
        -0.05905339,
        -0.049856346,
        -0.14134118,
        -0.10163032,
        -0.095624916,
        -0.11215514,
        -0.044664666,
        0.008191184,
        0.04287387,
        0.018913256,
        0.050657175,
        0.0082993265,
        0.0660947,
        -0.088115,
        0.07733132,
        -0.030008784,
        0.04386984,
        -0.073623836,
        0.08246319,
        0.06460106,
        -0.14914583,
        -0.13351618,
        -0.08276465,
        -0.027314529,
        -0.05198308,
        -0.05094833,
        0.1016533,
        0.050804347,
        -0.001676859,
        -0.06453367,
        -0.018693872,
        -0.034806523,
        -0.13322,
        -0.041739367,
        -0.07773667,
        0.09804436,
        -0.039433282,
        -0.026988687,
        -0.0797529,
        0.004514301,
        -0.067485675,
        0.08468016,
        0.020628456,
        -0.02865501,
        -0.086063765,
        -0.049560245,
        0.015752688,
        0.093570106,
        0.0691912,
        0.002304629,
        -0.13916236,
        -0.07351223,
        -0.13169622,
        -0.0065147798,
        -0.06258732,
        0.112105615,
        0.10591563,
        -0.17188194,
        -0.10525483,
        -0.010217339,
        0.024746241,
        0.0075889807,
        -0.0150428945,
        -0.06615484,
        -0.038053546,
        0.027202537,
        0.08807103,
        -0.09786469,
        0.085973375,
        -0.08088949,
        -0.058777686,
        0.08626084,
        -0.0028712754,
        -0.04649918,
        0.00823248,
        -0.08977262,
        0.02856646,
        0.065064155,
        -0.0967905,
        -0.013697345,
        -0.042707533,
        0.07827903,
        -0.012054381,
        0.043582667,
        -0.1617283,
        -0.1532585,
        0.009577976,
        -0.027509145,
        -0.112472266,
        -0.03056221,
        0.038327962,
        -0.082018696,
        0.03199201,
        0.020223906,
        -2.1804175E-4,
        -0.006561413,
        0.04741835,
        -0.07777115,
        0.011627649,
        0.023753045,
        0.051050093,
        -0.010775528,
        0.009716753,
        -0.08702299,
        -0.05273494,
        -0.047156926,
        0.010824444,
        -0.07799325,
        0.04000281,
        0.10080711,
        0.12758294,
        -0.07392991,
        -0.08202816,
        -0.116945215,
        -0.076685816,
        -0.007939737,
        0.013869946,
        0.039029993,
        -0.08617074,
        0.0075938897,
        -0.0638021,
        -0.110270485,
        0.06775635,
        0.024464866,
        0.06519307,
        0.013953019,
        -0.0502009,
        -0.07848212,
        -0.021992948,
        -0.06999229,
        -0.083625905,
        0.027391274,
        0.057277147,
        -0.06744016,
        -0.06293339,
        -0.0057537397,
        -0.016743897,
        0.17708981,
        -0.012291783,
        -0.019367592,
        0.041075207,
        0.008366089,
        -0.061198827,
        -0.09672484,
        -0.0012948368,
        0.0024870327,
        -0.034264546,
        0.02966251,
        0.054330114,
        0.050008032,
        -0.0952391,
        0.08743396,
        -0.07057666,
        0.08875379,
        0.04586472,
        -0.072810896,
        0.08253245,
        0.083161235,
        -0.082835965,
        0.05434465,
        -0.07363144,
        -0.032873105,
        -0.04613703,
        0.099502586,
        0.03470229,
        0.0129855815,
        0.01886158,
        -0.09060764,
        -0.03859942,
        0.052013688,
        -0.007918583,
        0.07520586,
        0.07755927,
        -0.019065173,
        0.034265574,
        -0.08115937,
        -0.04708461,
        -0.0020323424,
        -0.020619055,
        -0.06520945,
        -0.038776834,
        0.074283995,
        -0.04401461,
        0.03313278,
        -0.062017232,
        -0.06881798,
        -0.116388,
        -0.01778635,
        -0.055231333,
        0.10041894,
        0.10446685,
        0.08947671,
        0.18660489,
        -0.07216204,
        0.043474462,
        0.080482066,
        0.07638718,
        -0.0016517617,
        -0.022373356,
        0.025234958,
        0.041645788,
        0.019057445,
        0.06288293,
        -0.06102013,
        0.060219638,
        -0.015893316,
        -0.0576819,
        0.012611724,
        0.020250553,
        0.08006036,
        0.08841433,
        0.09308309,
        -0.10463507,
        0.024212424,
        0.020272363,
        -0.12003215,
        -0.022165976,
        0.041606598,
        0.04868252,
        -0.10751526,
        0.13799381,
        -0.07715223,
        -0.047449637,
        0.019939836,
        0.0156347,
        -0.04527217,
        0.030374045,
        -0.063355334,
        -0.05400997,
        -0.099895485,
        -0.09178585,
        -0.0018593858,
        0.03308254,
        0.0012128897,
        -0.051636413,
        -0.046229538,
        0.02198403,
        -0.04811857,
        0.031403005,
        -0.06225695,
        -0.011531375,
        -0.022495426,
        -0.0027909752,
        -0.04708372,
        -0.04127372,
        -0.08057039,
        -0.05144358,
        0.022607027,
        -0.050186407,
        0.08590151,
        0.0070646475,
        -0.033495545,
        0.06890929,
        -0.04833804,
        0.08065487,
        -0.005719785,
        -0.0660224,
        -0.03743534,
        0.025313694,
        -0.09891988,
        -0.054318957,
        -0.074573524,
        0.03806385,
        -0.0769635,
        0.07269728,
        -0.008255418,
        0.044989426,
        0.06574214,
        -0.048952777,
        0.07725465,
        -0.061870426,
        0.053660374,
        0.1108759,
        0.11334413,
        0.09448936,
        0.05694009,
        -0.014963283,
        0.027240878,
        0.04425249,
        0.03573431,
        0.15610196,
        0.10751542,
        0.0128154345,
        0.07217301,
        0.034148816,
        0.06120686,
        -0.07647167,
        -0.06987372,
        -0.06570496,
        -0.031859923,
        0.05681883,
        0.076687485,
        -0.08453924,
        -0.0353717,
        -0.03677447,
        -0.01106583,
        -0.047253903,
        0.021466447,
        -0.107928276,
        0.03788866,
        -0.014010711,
        -0.068935886,
        0.019914156,
        0.08609271,
        0.09069729,
        0.0068800324,
        -0.08906102,
        0.05138044,
        0.09986358,
        -0.01875644,
        0.03555681,
        0.052948937,
        -0.007825285,
        -0.10783366,
        0.021314094,
        -0.064212516,
        0.020844925,
        0.010262687,
        -0.056350566,
        0.0928614,
        -0.06539937,
        -0.0058628605,
        0.032752495,
        -0.043591637,
        0.07410346,
        -0.034008596,
        -0.078548044,
        -0.0015754267,
        0.0041495054,
        0.05537219,
        0.061025772,
        0.04563029,
        0.015749821,
        -0.07915877,
        -0.088626675,
        0.100758396,
        0.03811303,
        0.10667157,
        -0.033253044,
        -0.066564776,
        -0.08856758,
        -0.10686253,
        -0.09942925,
        -0.053194392,
        -0.0025615906,
        -0.061125446,
        0.013923822,
        0.03163549,
        0.08889713,
        -0.051457956,
        0.018561944,
        -0.048538193,
        0.032612897,
        -0.009712365,
        0.027121516,
        -0.06124782,
        -0.06797295,
        -0.04392519,
        0.02201462,
        -0.026430028,
        -0.04123775,
        0.008785825,
        -0.021749899,
        -0.007744956,
        -0.014315275,
        -0.103395,
        -0.025103606,
        -0.046161108,
        -0.074243136,
        -0.1287252,
        -0.03339628,
        0.070927,
        -0.021474918,
        -0.065514706,
        0.013550183,
        -0.09133884,
        0.035405777,
        0.03685496,
        0.05151852,
        0.03522975,
        0.07400051,
        0.018186389,
        -0.003167113,
        -0.10319784,
        -0.07814494,
        0.041076444,
        -0.07779179,
        -0.06734734,
        -0.04796972,
        -0.036596075,
        0.025762795,
        -0.046875544,
        0.021570375,
        -0.09037215,
        0.039332174,
        -0.015244601,
        0.053655796,
        0.031253032,
        0.076326124,
        -0.03611758,
        0.04032504,
        0.04554552,
        -0.042871926,
        -0.06242884,
        -0.0338634,
        -0.028501684,
        0.06656697,
        0.07265242,
        0.06015596,
        -0.067661524,
        -0.057256788,
        -0.009253337,
        -0.022193579,
        0.05313463,
        0.057955943,
        0.041117497,
        -0.061034467,
        0.008267898,
        -0.034038108,
        0.014507844,
        -0.010365573,
        0.057504285,
        0.0051531764,
        0.027457718,
        -0.08391752,
        -0.06865938,
        0.02865168,
        0.046260525,
        -0.063792795,
        -0.036569476,
        0.081811704,
        -0.07838405,
        -0.091071926,
        0.009794737,
        0.07708718,
        0.03441199,
        -0.01600807,
        0.072992705,
        -0.027651992,
        -0.01867638,
        -0.058684368,
        -0.07761927,
        -0.07414268,
        -0.088363945,
        -0.11977572,
        -0.011609027,
        -0.10838101,
        -0.0710464,
        -0.058313556,
        0.0408207,
        0.10772338,
        0.010260319,
        0.09635939,
        0.06012308,
        0.034906592,
        -0.030934088,
        -0.024819905,
        0.055549204,
        0.07894591,
        0.08770457,
        0.041703947,
        0.06091639,
        -0.09015888,
        -0.052274782,
        -0.050856903,
        -0.080160044,
        0.0883323,
        0.043470398,
        0.06764186,
        -0.10806389,
        -0.09403565,
        0.0045678667,
        -0.06769381,
        0.08981916,
        -0.05813601,
        -0.035791185,
        -0.07445602,
        -0.00833264,
        -0.02084773,
        -0.076427944,
        -0.10560348,
        -0.005636361,
        0.08819972,
        -0.06975002,
        0.01698343,
        -0.0042364174,
        -0.028845832,
        0.051485546,
        -0.06409723,
        0.03809743,
        -0.03695618,
        -0.025286686,
        -0.0036257738,
        0.06706598,
        -0.05636536,
        -0.023428572,
        0.018181441,
        -0.022628956,
        0.018212017,
        -0.0816949,
        -0.086627215,
        -0.044018835,
        -0.069773026,
        0.08522478,
        -0.05102844,
        0.010172561,
        -0.023404324,
        0.07550672,
        -0.083516136,
        0.08012609,
        0.09451795,
        -0.049261574,
        0.014092856,
        0.06490916,
        0.030143108,
        0.019865226,
        -0.019778522,
        -0.052172914,
        0.01864752,
        -0.07249836,
        0.092341036,
        0.05258666,
        -0.046656832,
        -0.040121783,
        0.030972006,
        6.546057E-5,
        -0.0245616,
        0.04609434,
        -0.095053464,
        0.057333134,
        -0.08656199,
        -0.077726915,
        -0.07772642,
        0.013499696,
        0.020631948,
        0.04900561,
        -0.019140922,
        -0.048679683,
        -0.035236705,
        -0.0040385295,
        -0.037490502,
        -0.040018644,
        0.009091424,
        -0.0198565,
        -0.06008397,
        0.038404938,
        0.054731444,
        0.037037753,
        0.010705952,
        -0.076694064,
        -0.06363244,
        0.067586645,
        -0.023190178,
        -0.09984686,
        -0.046658818,
        -0.080509044,
        -0.08892495,
        -0.068729095,
        -0.09667129,
        0.046570227,
        0.082243495,
        0.02459828,
        0.05816714,
        0.09091195,
        -0.08745934,
        0.016862778,
        0.01018152,
        -0.07785872,
        0.08705586,
        -0.08287393,
        -0.026941923,
        0.08320722,
        0.07975339,
        0.07965411,
        -0.006420858,
        0.052738175,
        -0.0351721,
        -0.09356464,
        -0.061447725,
        0.0072221346,
        0.088689,
        -0.038236525,
        -0.046915423,
        0.09116446,
        -0.045818448,
        0.08451232,
        0.07257453,
        -0.05603759,
        -0.07117983,
        -0.079466775,
        0.048762377,
        0.011611912,
        -0.06918606,
        0.066095866,
        0.007345715,
        -0.020101856,
        0.06942564,
        -0.087362126,
        0.0930992,
        -0.09423944,
        -0.07968887,
        -0.08624797,
        -0.021836564,
        0.094812125,
        -0.09816376,
        -0.04274606,
        0.010145101,
        0.075476475,
        0.084889956,
        0.018334912,
        0.058940914,
        -0.04557204,
        -0.082773425,
        0.094481245,
        -0.015571255,
        0.0015478429,
        -0.030199602,
        -0.022608979,
        0.09369796,
        -0.0875827,
        -0.06984715,
        -0.096201815,
        -0.028452972,
        0.016469503,
        0.044655826,
        -0.04339846,
        -0.08742421,
        -0.02713954,
        -0.092327885,
        0.004052536,
        0.09563548,
        -0.038675327,
        0.022261733,
        0.09452113,
        -0.09150192,
        -0.07473755,
        0.01569843,
        -0.007533769,
        -0.09986611,
        -0.046195913,
        0.09592034,
        -0.09055123,
        0.02108077,
        0.090033494,
        -0.06211826,
        -0.04959332,
        0.09035778,
        0.05296588,
        0.07373158,
        -0.011606378,
        -0.057134498,
        0.010021757,
        -0.005453345,
        0.06908266,
        0.007816634,
        0.037064854,
        0.055663437,
        0.014437273,
        0.06116633,
        -0.020734321,
        -0.023480842,
        0.02601273,
        0.0013806785,
        -0.023395233,
        -0.091386706,
        0.09410946,
        0.08081585,
        -0.09711026,
        -0.025972638,
        -0.035538245,
        0.03679968,
        -0.044316057,
        -0.08099073,
        -0.024499321,
        -0.062182423,
        0.056187216,
        7.8345765E-4,
        0.01190148,
        -0.0121455295,
        0.08250004,
        0.032521587,
        0.021796338,
        0.04750043,
        -0.055710264,
        -0.032359567,
        0.076148115,
        0.03896601,
        0.0328114,
        0.0943284,
        -0.0974743,
        0.08005193,
        0.002099647,
        0.056916043,
        -0.06742391,
        -0.010124942,
        0.021658367,
        -5.7508406E-4,
        -0.0025457013,
        0.06336905,
        -0.06535776,
        -0.0024694842,
        0.00783452,
        0.0384689,
        -0.07097575,
        0.051841836,
        0.030480355,
        -0.011727651,
        0.04243314,
        -0.09988254,
        -0.06241658,
        0.006097696,
        0.069010854,
        -0.03858202,
        -0.057783257,
        -0.0904764,
        -0.010597894,
        0.030311808,
        -0.08443719,
        -0.10130317,
        0.059710756,
        -0.136443,
        0.05690246,
        -0.017391011,
        -0.028667258,
        0.021379754,
        -0.017091643,
        -0.01408435,
        0.08681004,
        0.01926065,
        -0.019237522,
        0.06297754,
        0.031715773,
        0.090264454,
        0.083980024,
        0.017273802,
        -0.093691625,
        0.056408387,
        -0.009274494,
        -0.092851475,
        0.07273899,
        -0.09369702,
        0.09152127,
        0.093142584,
        -0.039214417,
        0.03198551,
        -0.0807875,
        -0.06398204,
        -0.12479935,
        -0.079650655,
        0.044047687,
        -0.11234759,
        -0.05611086,
        -0.030248784,
        -0.09137586,
        -0.06276596,
        -0.021727307,
        -0.08835884,
        0.10841905,
        -0.02181241,
        0.030150408,
        0.056236487,
        -0.02495179,
        0.037622154,
        0.043142308,
        -0.04665309,
        0.03474234,
        -0.040675893,
        -0.064859405,
        0.035285026,
        0.025167989,
        -0.09055687,
        0.023604142,
        -0.012791423,
        -0.04146971,
        0.061009202,
        -0.05515414,
        0.02227488,
        0.031638335,
        0.013850832,
        0.06469737,
        -0.031796236,
        0.012791886,
        0.06687767,
        -0.014054789,
        0.027906276,
        -0.07005268,
        -0.0036799773,
        3.3800793E-4,
        0.056837663,
        -0.081007935,
        -0.047297396,
        -0.011412681,
        0.05950595,
        0.058720388,
        0.09737889,
        -0.024810327,
        0.01828749,
        0.09729475,
        -0.008961713,
        0.09352125,
        0.009481763,
        -0.073150896,
        -0.10311498,
        -0.11940064,
        -0.048123892,
        0.061112188,
        0.02403302,
        0.068668984,
        -0.031357627,
        -0.06361741,
        -0.10878272,
        -0.10186277,
        -0.08112195,
        -0.09090037,
        0.0079270955,
        -0.030346692,
        0.05383544,
        -0.06282897,
        0.0992481,
        -0.07604455,
        0.014856269,
        0.0011402796,
        -0.0019658906,
        -0.056899898,
        -0.026022824,
        0.040677562,
        0.07703498,
        -0.08215828,
        -0.060737886,
        -0.07518589,
        -0.038632087,
        0.0049821218,
        0.05578619,
        0.0012215439,
        -0.019914309,
        0.11595506,
        0.024054222,
        -0.0936284,
        -0.024323253,
        -0.13586582,
        -0.05822026,
        0.061029192,
        -0.13235629,
        -0.044623934,
        -0.05550687,
        0.05042972,
        0.059712797,
        -0.039561223,
        -0.084601134,
        -0.024056599,
        0.0938592,
        0.04155785,
        0.05806438,
        0.083701596,
        -0.01196356,
        -0.012836615,
        0.0080571305,
        0.059490398,
        -0.048084866,
        0.07105691,
        0.03774836,
        0.058256604,
        0.12641324,
        -0.05437693,
        -0.031989004,
        0.017796993,
        0.05867082,
        0.009664313,
        -0.027558649,
        -0.06039124,
        -0.024581524,
        0.028838282,
        -0.07250282,
        0.037457675,
        0.02679429,
        0.11276338,
        0.036229894,
        0.060202945,
        0.09178405,
        -0.03549627,
        -0.0050920327,
        0.013011311,
        -0.07279868,
        0.08175169,
        -0.04868866,
        -0.055155315,
        0.05169829,
        0.105466,
        0.020020477,
        -0.04298626,
        0.06670411,
        0.02551453,
        0.16484801,
        0.026822567,
        -0.061511997,
        0.014631585,
        -0.048032917,
        -0.12134675,
        0.05943036,
        0.07620327,
        0.02955254,
        -0.07644494,
        0.0024923077,
        -0.059014935,
        -0.015921552,
        -0.07586955,
        -0.08007081,
        -0.055923443,
        0.017393483,
        -0.09220093,
        0.069670655,
        -0.09644784,
        0.10419463,
        -0.03169741,
        0.08771048,
        -0.03226097,
        -0.10389224,
        0.05138952,
        0.0965344,
        0.13304433,
        0.043504473,
        0.029251311,
        0.043132216,
        0.023985691,
        -0.11141815,
        -0.12216651,
        -0.06394185,
        0.081076175,
        -0.033138495,
        0.072516404,
        0.08481788,
        -0.04445491,
        -0.056870017,
        -0.05343106,
        -0.014846635,
        0.027395671,
        -0.05358811,
        -0.034395356,
        0.08013624,
        -0.048878394,
        0.0012482255,
        -0.077494636,
        -0.028171865,
        0.010322594,
        -0.05879032,
        0.068638906,
        -0.0061880825,
        0.12612647,
        0.0765205,
        0.16350554,
        0.01269494,
        0.10782956,
        0.073206894,
        -0.07235396,
        -0.110035874,
        -0.12090987,
        -9.232547E-4,
        -0.11891332,
        -0.05718378,
        0.057009988,
        0.08677871,
        -0.04266344,
        0.0810741,
        -0.09979633,
        -0.023273243,
        0.054207038,
        -0.04815475,
        -0.039192807,
        0.040526103,
        -0.034062028,
        0.047217753,
        -0.13969691,
        -0.013993443,
        -0.0623985,
        -0.005779392,
        0.12757444,
        0.10803231,
        0.06953815,
        0.0074154944,
        0.046876263,
        0.010609855,
        -0.019227922,
        0.010070063,
        -0.10101554,
        0.022792095,
        0.021700628,
        -0.0070396326,
        -0.060366444,
        0.03880279,
        -0.0022557874,
        0.09894504,
        0.0261592,
        -0.05990129,
        -0.04936577,
        -0.01950758,
        0.0014734525,
        0.024634661,
        0.052237086,
        -0.090428546,
        0.032744166,
        0.03935658,
        -0.034304753,
        -0.06292283,
        -0.032589383,
        0.040137105,
        0.10814943,
        0.08338541,
        -0.057232622,
        -0.11691794,
        -0.038470548,
        -0.1259904,
        -0.077627964,
        -0.061923813,
        0.029978517,
        -0.016666371,
        -0.03707863,
        0.089096844,
        -0.043750938,
        -0.047346793,
        -0.0074601336,
        -0.010614457,
        0.080481954,
        -0.02757148,
        -0.09329397,
        -0.09207032,
        0.078825146,
        0.07328342,
        0.06839521,
        0.013572156,
        -0.109363616,
        -0.053604007,
        0.0040280176,
        0.13088228,
        0.093751036,
        -0.10643445,
        0.003976763,
        0.09496746,
        -0.094282605,
        0.0035590015,
        -0.15273367,
        0.050389964,
        -0.075910866,
        -0.103955194,
        0.0075995377,
        -0.036462672,
        0.048788425,
        -0.020696336,
        -0.05824501,
        -0.011060933,
        -0.061972722,
        -0.052741546,
        -0.05951618,
        -0.10610605,
        0.069483906,
        0.06841485,
        -0.02903046,
        0.06589285,
        0.056741435,
        0.17913336,
        0.1072275,
        0.13713829,
        0.023860153,
        -0.025733521,
        -0.105799705,
        -0.0789674,
        -0.03460543,
        -0.13023,
        -0.07294526,
        -0.13288762,
        -0.059458293,
        0.014185238,
        4.7031627E-4,
        -0.013995562,
        0.033821777,
        0.06887636,
        -0.042000532,
        0.0069713006,
        0.05460998,
        0.017731536,
        0.0048277113,
        -0.08299393,
        -0.010279103,
        0.08503247,
        -0.05793065,
        0.015438375,
        -0.0027222047,
        0.1419976,
        -0.002152909,
        0.1356771,
        0.05518043,
        -0.13484108,
        0.034623656,
        -0.07223024,
        0.015294355,
        -0.058790486,
        -0.03544635,
        -0.020178452,
        0.04610278,
        0.020834403,
        0.054570585,
        0.0724484,
        -0.0892396,
        -0.03127035,
        0.096894585,
        -0.015335825,
        -0.011522944,
        0.026339086,
        -0.04201428,
        -0.094136745,
        -0.04622996,
        -0.03170899,
        -0.08604761,
        -0.03320418,
        0.13350265,
        0.034921035,
        -0.04897323,
        -0.02757134,
        0.020546705,
        -0.1390519,
        -0.099955484,
        0.0059393183,
        0.07678511,
        0.06843363,
        -0.0803756,
        0.0057205367,
        -0.050282493,
        0.048559543,
        0.085249305,
        0.052734807,
        0.07187468,
        0.06770037,
        -0.02147876,
        -0.09535154,
        -0.06635273,
        0.08152009,
        0.07357694,
        -0.11144191,
        0.023020007,
        0.07201913,
        0.08682467,
        0.09720865,
        0.09840411,
        0.047777012,
        0.0805072,
        -0.0073176813,
        0.024511846,
        -0.097632304,
        -0.032546997,
        -0.077826016,
        -0.03625764,
        -0.053191535,
        0.060488164,
        -0.07294351,
        -0.06767897,
        -0.07988065,
        0.05858688,
        -0.0071068406,
        -0.030886589,
        0.06242849,
        -0.08226329,
        -0.0019207689,
        -0.011459452,
        -0.032624424,
        -0.052019835,
        -0.04879198,
        -0.06947755,
        -0.017752022,
        -0.057504527,
        4.7152227E-4,
        -0.082123615,
        0.0037954461,
        -0.076897666,
        0.061613906,
        0.052220676,
        -0.041851997,
        0.0104813045,
        -0.058200285,
        0.017018005,
        0.0967608,
        -0.013276808,
        0.076188706,
        -0.08919137,
        -0.033948824,
        0.091628686,
        0.05995633,
        -0.06180988,
        -0.043765046,
        0.035393775,
        -0.08511325,
        0.08702747,
        -0.097282,
        0.07639016,
        0.036889233,
        0.06644676,
        0.03307096,
        -0.05540182,
        -0.076354176,
        -0.0049367775,
        -0.049430106,
        0.116512805,
        0.01341932,
        -0.023105253,
        0.09622572,
        -0.041916687,
        0.006559864,
        0.09285193,
        0.021054693,
        -0.059438433,
        -0.011986491,
        -0.012228447,
        -0.051265523,
        -0.10174432,
        -0.03212292,
        0.009666346,
        -0.008505605,
        0.08562612,
        -0.06411688,
        0.07521783,
        0.09533245,
        0.037495263,
        0.028007565,
        -0.088479504,
        0.03744079,
        0.01147184,
        -0.011501491,
        -0.008845117,
        -0.08454241,
        -0.036911927,
        0.1298203,
        0.11158762,
        0.0035282813,
        0.055006795,
        -0.021594893,
        0.042166732,
        -0.040382084,
        0.061851505,
        -0.041013543,
        0.08599853,
        -0.014877536,
        -0.006177657,
        0.06143732,
        -0.024304505,
        0.0075347666,
        0.04265523,
        0.028256763,
        0.016721679,
        -0.024729121,
        -0.045395434,
        -0.070574716,
        0.04036239,
        0.015803155,
        -0.03940531,
        3.303106E-4,
        -0.04193558,
        0.036851853,
        0.014711743,
        -0.07234997,
        -0.0632627,
        0.05174032,
        0.091433726,
        -0.020787489,
        0.029184682,
        0.051186405,
        -0.042319648,
        -0.076804504,
        0.056317627,
        0.017944682,
        -0.03307165,
        0.074815996,
        -0.003204748,
        0.04323682,
        0.017710354,
        0.03758824,
        -0.072720215,
        0.097522564,
        0.07831937,
        -0.020863688,
        0.056965996,
        0.020132486,
        -0.034694236,
        -0.102130085,
        0.030511456,
        0.010423391,
        -0.024385925,
        0.011262044,
        -0.0597492,
        0.0015649585,
        0.08310683,
        0.05350725,
        -0.044168767,
        0.060181856,
        0.045969766,
        -0.06968632,
        0.03263978,
        -0.07411969,
        0.034554508,
        0.069200136,
        -0.08493163,
        -0.014075122,
        0.023444826,
        -0.030127523,
        -0.023425024,
        0.08158812,
        0.08589359,
        0.068734474,
        -0.00505242,
        -0.09265307,
        0.056927044,
        -0.06309661,
        0.029871836,
        0.020302758,
        0.07553052,
        0.07586384,
        0.020482974,
        0.007451513,
        0.032162193,
        0.086764045,
        0.06724195,
        -0.05223655,
        -0.048233606,
        0.012951132,
        -0.039668128,
        0.07261035,
        -0.07322878,
        -0.072826974,
        0.080397226,
        -0.06062776,
        0.068060674,
        -0.053865824,
        -0.04930036,
        -8.372645E-5,
        -0.057076108,
        -0.05300271,
        0.035269916,
        0.0431169,
        -0.045824997,
        -0.022083921,
        -0.0693743,
        -0.014410946,
        0.08597307,
        0.06201241,
        -0.052747257,
        0.08735606,
        -0.096230425,
        0.0389163,
        0.055279538,
        0.04059548,
        -0.013704131,
        0.005143929,
        -0.032966755,
        0.012118915,
        0.08513852,
        0.09687304,
        0.030979121,
        -0.086745374,
        0.045175474,
        0.010074504,
        0.043168776,
        -0.059763,
        -0.095999435,
        0.0017668455,
        0.05800403,
        -0.0059381546,
        -0.006436062,
        -0.064121984,
        -0.025393827,
        -0.078577794,
        -0.09166073,
        0.041773446,
        -0.092373535,
        0.04038613,
        0.07550659,
        0.03899829,
        -0.087280326,
        -0.08514832,
        -0.03483249,
        -0.051669657,
        -0.06978533,
        0.024165958,
        -0.087599315,
        0.057094276,
        0.034903217,
        0.03775291,
        0.08800444,
        -0.064211026,
        0.035532136,
        0.04932166,
        -0.04893743,
        -0.08656826,
        -0.045501772,
        -0.04879674,
        -0.0568812,
        0.007619437,
        -0.06764849,
        -0.065700345,
        0.048723597,
        0.0015842022,
        0.08267625,
        -0.094599076,
        -0.07547103,
        0.05400214,
        1.0295091E-4,
        -0.07572609,
        0.005380101,
        0.064316064,
        0.014845559,
        0.020704228,
        0.07394983,
        0.08259699,
        0.07885617,
        -0.023127606,
        0.07771974,
        -0.082052186,
        0.040552855,
        0.01664283,
        -0.042166673,
        0.063601896,
        0.020734252,
        0.06623268,
        0.010273352,
        -0.06435323,
        -0.036972262,
        0.076028906,
        -0.07363024,
        0.08814145,
        0.080737256,
        0.00728899,
        -0.07954849,
        0.098862246,
        0.06194202,
        -0.0543385,
        0.022145014,
        0.090902634,
        0.075616576,
        0.036401734,
        -0.012376742,
        0.038722977,
        -0.010109928,
        -0.04754971,
        0.035888303,
        -0.06906825,
        0.011584314,
        0.07612588,
        -0.029410128,
        -0.09551094,
        -0.019774508,
        0.0069704815,
        0.027306944,
        -0.085905164,
        0.06326917,
        0.0453289,
        0.06917159,
        -0.045372043,
        0.026952935,
        0.10016212,
        0.026182577,
        0.0399393,
        0.019514965,
        -0.105011776,
        0.07465892,
        0.03925018,
        0.0419863,
        0.0807876,
        0.055743083,
        0.053681508,
        -0.0057252734,
        -0.0019408357,
        -0.010321868,
        0.016267689,
        -0.028809238,
        -0.0073389597,
        0.0753002,
        -0.00869453,
        0.048824973,
        0.0062208273,
        0.029960724,
        0.1088094,
        0.042494394,
        0.14725344,
        0.1485113,
        0.12779726,
        0.11153637,
        -0.043810442,
        0.01267189,
        0.09010271,
        -0.034737363,
        0.031614732,
        -0.0013629984,
        -0.018345052,
        -0.025773592,
        -0.03212934,
        -0.04315518,
        -0.07893663,
        -0.047154177,
        -0.06200929,
        -0.023937477,
        -6.8961066E-4,
        -0.019778505,
        -0.04272164,
        0.03258584,
        -0.07525562,
        0.08799344,
        -0.07652051,
        0.095784254,
        0.004120727,
        -0.05005953,
        0.12551422,
        0.032571536,
        -0.09632829,
        0.09361729,
        -0.025142848,
        0.0903504,
        0.04612399,
        0.003453644,
        0.047220755,
        0.053884506,
        0.05491974,
        0.015498136,
        0.012952864,
        -0.10630632,
        -0.022564786,
        -0.016068717,
        -0.06832903,
        -0.052459072,
        -0.05353237,
        0.05546233,
        0.040775973,
        -0.012534005,
        -0.086942784,
        -0.074738145,
        -0.015417539,
        0.010800585,
        -0.09153917,
        -0.07924303,
        -0.07500504,
        -0.067714155,
        0.032729488,
        -0.10586797,
        -0.03958395,
        -0.023306968,
        0.04517803,
        -0.03283677,
        0.062321015,
        -0.005240175,
        -0.011666363,
        -0.12625878,
        -0.026403481,
        0.010480813,
        0.062465947,
        0.08819571,
        0.034242183,
        0.055296414,
        0.053361814,
        -0.050698094,
        0.0508466,
        -0.08909749,
        -0.016687606,
        0.07592198,
        -0.07414991,
        0.060181122,
        -0.07391491,
        0.0176875,
        -0.035911135,
        -0.092203185,
        -0.08485429,
        -0.09812436,
        -0.0022996543,
        -0.057495072,
        -0.11454362,
        0.052427586,
        -0.056983065,
        -0.03183168,
        0.037018478,
        0.04660136,
        -0.0722529,
        -0.01862956,
        -0.1085694,
        0.05609024,
        -0.08770795,
        -0.067407854,
        0.0021972305,
        -0.06795125,
        0.0993064,
        -0.010641138,
        0.012439181,
        -0.01720427,
        -0.063823186,
        -0.023889115,
        0.061917163,
        -0.08926243,
        -0.076069936,
        -0.08852268,
        0.019712891,
        0.097720735,
        -0.051919244,
        -0.08700071,
        0.021427987,
        -0.08633391,
        0.09706423,
        -0.03952603,
        -0.013034097,
        0.048701104,
        0.053757302,
        0.026406681,
        -0.0040138946,
        -0.100659505,
        0.015107643,
        -0.09222407,
        -0.056771435,
        0.050702453,
        -0.08344197,
        -0.022722438,
        0.05537406,
        0.026322696,
        -0.029506361,
        0.06474651,
        -0.0656198,
        -0.073773295,
        -0.03230281,
        -0.011927366,
        0.034498494,
        -0.003292898,
        0.044196796,
        -0.058770463,
        -0.01773929,
        -0.00296657,
        0.032214887,
        0.05633759,
        -0.036791805,
        -0.11592401,
        -0.0068703326,
        -0.093566276,
        0.02174996,
        -4.8683776E-4,
        0.046540733,
        -0.05964753,
        -0.05975585,
        0.021101505,
        -0.014311864,
        -0.092860825,
        -0.07953322,
        -0.039430887,
        -0.15563644,
        -0.081758134,
        -0.003984007,
        -0.007132832,
        -0.034313705,
        0.061734445,
        -0.08879646,
        -0.043053303,
        -0.047237437,
        -0.08981922,
        -0.08326689,
        0.01987437,
        -0.08066464,
        -0.07876816,
        0.06267256,
        0.030445034,
        -0.108105026,
        -0.0712544,
        -0.059571616,
        -0.08430618,
        0.0454628,
        -0.05487657,
        -0.02503804,
        0.06265182,
        -0.06321853,
        -0.03588838,
        0.053975984,
        -0.06251737,
        -0.05482842,
        -0.018921543,
        -0.12353695,
        -0.055982742,
        -0.082179554,
        -0.13579884,
        -0.19762251,
        -0.17784593,
        -0.16546911,
        -0.09263885,
        0.052205186,
        -0.08046746,
        0.045839213,
        -0.012736347,
        0.047646336,
        -0.083412535,
        0.012925894,
        -0.06932897,
        0.01635056,
        -0.081343114,
        -0.09758882,
        0.077556826,
        0.026872734,
        -0.094587795,
        -0.09716994,
        0.031673294,
        0.039054576,
        -0.1520666,
        -0.013875149,
        -0.09242351,
        -0.137765,
        -0.022728939,
        -0.008244836,
        -0.12871397,
        -0.080579996,
        -0.13381635,
        -0.08508222,
        -0.13447262,
        -0.09760037,
        -0.06060151,
        -0.14124672,
        -0.012492964,
        -0.03507121,
        -0.07524985,
        -0.022662496,
        0.046198875,
        0.05024308,
        -0.027909813,
        -0.009295452,
        -0.07425109,
        -0.06236085,
        0.018832644,
        -0.0629268,
        0.058551595,
        -0.09607329,
        -0.06525732,
        0.020244338,
        -0.037175927,
        -0.039813038,
        -0.109207645,
        -0.06681127,
        -0.060767945,
        0.0015749828,
        -0.039505135,
        0.025329765,
        -0.096717104,
        -0.011243329,
        -0.1356628,
        -0.0038929684,
        0.052390326,
        -0.04323088,
        0.03717356,
        -0.042166382,
        -0.05820326,
        0.06543209,
        0.03951809,
        0.07210084,
        0.021250933,
        -0.07092496,
        0.025084984,
        -0.086299635,
        -0.086430624,
        0.090348594,
        -0.048459865,
        -0.019213334,
        -0.090590395,
        0.07561903,
        0.020444458,
        0.018683258,
        0.0054522436,
        0.11858753,
        0.11897603,
        0.05809591,
        -0.0015445256,
        -0.088848196,
        0.009157942,
        -0.04564187,
        -0.07649736,
        -0.1509637,
        0.034039095,
        -0.033649296,
        0.05408276,
        -0.0730974,
        0.06270148,
        -0.08798259,
        -0.059285343,
        -0.027087256,
        -0.061589073,
        0.06882776,
        0.04512707,
        0.06547534,
        -0.053979114,
        0.071376726,
        0.11629758,
        0.11028587,
        -0.064495236,
        0.11254429,
        0.009055651,
        0.07797931,
        0.02473792,
        0.020515192,
        -0.059895307,
        -0.02686602,
        0.08682401,
        0.04850616,
        0.004500408,
        0.07863857,
        0.010020984,
        0.027847325,
        -0.08600205,
        0.0043854415,
        -0.01905042,
        0.016774854,
        -0.04489018,
        -0.091574,
        0.046512373,
        0.043711852,
        -0.071891345,
        0.044653796,
        -0.009177327,
        -0.03515777,
        0.047090825,
        -0.03408306,
        0.11656573,
        0.10045826,
        0.06369679,
        0.046619408,
        0.052255776,
        -0.02608021,
        0.03025205,
        -0.004450392,
        0.055283397,
        -0.0723766,
        0.029610548,
        0.10435653,
        0.092123084,
        -0.029131033,
        -0.08896845,
        0.12565799,
        0.11467117,
        0.013830083,
        0.08576489,
        0.070573285,
        -0.07502276,
        0.06742681,
        0.046485998,
        -0.046477303,
        0.0022284328,
        0.15174754,
        0.054440077,
        0.092216566,
        0.054894842,
        0.027120186,
        0.15645617,
        0.1565286,
        -0.030171318,
        0.10879589,
        0.08797354,
        0.032659754,
        0.04029894,
        0.09079918,
        -0.09203573,
        0.02622772,
        0.119945146,
        0.10220007,
        0.041585263,
        0.111807354,
        -0.001990406,
        0.06445077,
        -0.050651938,
        0.02667773,
        -0.09959817,
        0.072865084,
        -0.003929723,
        0.052512545,
        -0.04133869,
        0.17646366,
        0.07931582,
        0.1607747,
        0.07188698,
        0.12212051,
        -0.037717145,
        0.054014713,
        -0.016483651,
        0.06833233,
        0.0038687992,
        0.078649454,
        0.07395952,
        0.032530006,
        0.062616795,
        0.10931682,
        0.14916916,
        0.029513294,
        0.053461075,
        0.105170354,
        0.020395922,
        -0.08359375,
        -0.098692514,
        0.023761837,
        0.010204043,
        -0.049458817,
        4.272137E-4,
        0.025021065,
        -0.0072171423,
        -0.037645917,
        0.01484952,
        0.12969193,
        0.03817183,
        0.12331954,
        -0.023600487,
        0.005499687,
        0.0025134697,
        -0.027129231,
        0.012693695,
        0.130101,
        -0.051261205,
        0.07053393,
        0.035998497,
        0.10125425,
        0.11135625,
        0.019565895,
        0.08117873,
        0.096121185,
        -0.07176195,
        0.081802614,
        -0.012614025,
        -0.0784938,
        -0.04973841,
        0.062492292,
        -0.018710792,
        0.10927578,
        -0.004854534,
        0.10076812,
        0.008021433,
        -0.058339797,
        0.017881954,
        0.022205364,
        0.07417981,
        -0.06597232,
        -0.12005959,
        0.03252034,
        0.007561317,
        0.11606399,
        -0.0031018346,
        0.013769111,
        0.07454347,
        0.032212425,
        -0.0593307,
        0.089069605,
        0.020643426,
        0.07816902,
        0.07560082,
        -0.034636445,
        -0.08396001,
        -0.07259654,
        0.07263914,
        -0.050601374,
        -0.0432923,
        -0.030407008,
        0.029890783,
        -0.04417818,
        -0.009695254,
        -0.00581433,
        0.017950257,
        0.1179451,
        0.119059324,
        -0.04008447,
        -0.031913396,
        -0.14096972,
        -0.12996428,
        -0.0646063,
        0.024440885,
        -0.056368764,
        0.08560413,
        -0.014054318,
        0.0016729782,
        -0.048585743,
        0.0058323443,
        -0.048013944,
        0.09599311,
        0.07182163,
        -0.060756776,
        -0.03897001,
        -0.017814321,
        -0.07496413,
        -0.099731326,
        0.013565094,
        -0.00898558,
        0.05536011,
        0.10000232,
        0.09047993,
        -0.038257185,
        -0.09130762,
        0.024207864,
        -0.09902153,
        -0.08540526,
        -0.07076619,
        -0.13074529,
        -0.13304779,
        -0.085100226,
        -0.045045704,
        0.008732677,
        0.10033441,
        -0.05342499,
        -0.026321545,
        0.030767143,
        -0.06283566,
        0.07630441,
        0.01215448,
        0.09888576,
        -0.04654044,
        0.086415105,
        0.008883593,
        -0.0048887557,
        -0.06287755,
        0.057986345,
        0.08451074,
        -0.0048596137,
        -0.10229975,
        -0.07408477,
        -0.19147433,
        -0.046427455,
        -0.028587356,
        -0.035946235,
        -0.14727966,
        -0.022679998,
        -0.037304975,
        -0.020227479,
        -0.13601077,
        -0.14184062,
        -0.02891523,
        0.10186202,
        0.11341879,
        -0.03860994,
        0.02556212,
        0.08866587,
        0.07917357,
        -0.061969537,
        0.035694677,
        -0.022503305,
        0.06884199,
        0.07486909,
        -0.024794402,
        -0.050674103,
        -0.100633845,
        0.030448057,
        -0.10769871,
        -0.09591542,
        0.012303944,
        -0.113914244,
        -0.010082118,
        0.031158656,
        -0.06826563,
        -0.047580935,
        -0.067052156,
        0.0014590574,
        0.003394123,
        0.050572656,
        -0.027869128,
        -0.073738635,
        0.06538165,
        -0.0818749,
        -0.061777707,
        -0.0697807,
        -0.09039366,
        0.03461642,
        -0.01340715,
        -0.031653304,
        0.008667378,
        -0.037928496,
        0.09545971,
        -0.018979173,
        -0.026645306,
        -0.002945682,
        0.04362315,
        -0.012506347,
        -0.015451588,
        0.026339862,
        0.015457497,
        -0.010334992,
        -0.027430445,
        -0.091924205,
        -0.055043742,
        -0.0399591,
        -0.012490979,
        -0.095787615,
        0.08882984,
        0.05174416,
        0.07937633,
        0.026122699,
        -0.03611562,
        -0.04422607,
        -0.02411371,
        -0.017246243,
        0.09611675,
        0.06672586,
        0.052084204,
        0.09158871,
        0.003285227,
        0.026208125,
        0.052227225,
        0.079110034,
        -0.03277473,
        0.0468537,
        0.040269542,
        0.09291122,
        0.019253224,
        0.05409523,
        -0.028129267,
        0.057324458,
        -0.010581686,
        -0.026140803,
        0.01982254,
        0.027253712,
        0.09227012,
        -0.079541616,
        -0.01446667,
        0.058376666,
        0.0021003443,
        -0.097629905,
        0.04898886,
        -0.06255736,
        -0.046161413,
        -0.04808789,
        0.08756858,
        -0.022448488,
        0.020675538,
        0.0846077,
        0.018762533,
        -0.002432393,
        -0.065857135,
        -0.09517365,
        0.055893708,
        -0.037956804,
        -0.059393805,
        0.02195103,
        0.089120336,
        -0.006009122,
        0.044444315,
        0.053900447,
        -0.007620795,
        0.068398654,
        -0.018626276,
        0.07766682,
        -0.017116636,
        -0.05679294,
        -0.012929665,
        0.031572748,
        0.092516966,
        -0.05265603,
        -0.004519284,
        -0.08206852,
        0.09128835,
        -0.04857741,
        -0.024628557,
        -0.03750757,
        -0.09430733,
        -0.018100126,
        0.062224474,
        -0.095751986,
        0.024954045,
        -0.09796152,
        -0.030995911,
        -0.052793838,
        0.038573217,
        -0.01942633,
        0.070863865,
        -0.008071574,
        0.07295677,
        -0.0037622522,
        -0.049690105,
        -0.016956503,
        -0.097566,
        -0.014893808,
        0.062176965,
        -0.04168649,
        0.09841248,
        0.027768698,
        -0.06812398,
        0.06549453,
        -0.049849767,
        -0.005382736,
        -0.06427745,
        0.025146838,
        0.041598808,
        -0.08026377,
        0.027980564,
        0.060056586,
        -0.09951816,
        0.059396848,
        -0.017291324,
        -0.008511171,
        0.053209025,
        -0.096259736,
        -0.017637683,
        -0.0091578765,
        -0.09900764,
        0.055577397,
        -0.04103873,
        0.044469837,
        -0.06837795,
        -0.029298546,
        -0.040056232,
        0.022452895,
        0.01554874,
        0.07234147,
        0.04508319,
        0.06169951,
        -0.016732909,
        0.061276805,
        -0.05152083,
        -0.097214736,
        -0.09536954,
        0.052606743,
        -0.07582288,
        0.07731151,
        0.083929054,
        -0.05301646,
        0.015566484,
        0.01969109,
        -0.037823632,
        -0.10553967,
        0.025200294,
        0.00968193,
        -0.041314155,
        -0.02560582,
        -0.07965439,
        1.4068825E-4,
        -0.04581325,
        0.014806528,
        0.034225974,
        0.08454342,
        -0.029030584,
        0.06683351,
        -0.034506436,
        -0.05777234,
        -0.095118776,
        0.081383735,
        0.042580545,
        0.007372486,
        0.07857834,
        -0.09606043,
        -0.06487561,
        -0.07653267,
        0.08791646,
        -0.064815015,
        -0.052054726,
        -0.038961306,
        0.014127455,
        -0.024905274,
        -0.07370674,
        0.047086198,
        -0.05091304,
        -0.082889214,
        0.031346165,
        -0.048581168,
        0.04929206,
        -0.055891532,
        0.08459288,
        -0.029091444,
        -0.08217508,
        0.05244861,
        -0.05838228,
        -0.09483001,
        0.08525619,
        0.04987984,
        0.04237894,
        -0.042140763,
        0.058972865,
        0.076218605,
        -0.077495895,
        0.053100653,
        -0.05862838,
        -0.03499569,
        0.011374468,
        -0.0495533,
        0.05483875,
        -0.064308375,
        -0.017689576,
        -0.052590113,
        -0.061313465,
        0.014642125,
        -0.005262743,
        0.07723462,
        -0.07301695,
        0.013174344,
        0.016983936,
        0.05177353,
        0.045034774,
        0.0883854,
        -0.01915832,
        0.038789045,
        -0.051727638,
        0.0415716,
        -0.017559767,
        -0.081399545,
        0.04342557,
        0.100255586,
        0.039652117,
        0.047694396,
        0.0045559173,
        0.087807365,
        -0.03458931,
        -0.007922058,
        -0.0873345,
        0.033072993,
        0.028038567,
        -0.022247164,
        0.02296649,
        -0.05266801,
        -0.047837563,
        -0.08883631,
        0.04979873,
        -0.09436246,
        0.02670964,
        0.043900926,
        -0.045066327,
        0.08478827,
        -0.025205944,
        0.037433166,
        -0.0043617813,
        0.042092472,
        -0.08183142,
        0.114311114,
        -0.04033128,
        0.08708718,
        -0.019700106,
        0.08693011,
        -0.060917888,
        -0.066994615,
        -0.012509935,
        -0.06980477,
        -0.060962833,
        0.048490137,
        -0.08774338,
        -0.08792959,
        -0.11334217,
        0.0024161004,
        0.029803213,
        0.0070501794,
        0.012250161,
        0.011590563,
        -0.025497498,
        -0.067257866,
        -0.052490707,
        0.022720352,
        0.027065976,
        -0.00918816,
        0.06877561,
        -0.0366159,
        -0.045331575,
        -0.029637583,
        -0.030074535,
        0.09976712,
        -0.05020749,
        0.008600757,
        0.048598856,
        0.05657335,
        -0.052861743,
        -0.06771195,
        0.0555657,
        0.040891957,
        -0.054694723,
        -0.003572508,
        0.03455904,
        -0.072373286,
        0.026769083,
        -0.06255444,
        -0.08333477,
        -0.05016802,
        -0.0314176,
        -0.0782552,
        -0.040769722,
        0.096137516,
        0.07388137,
        0.07845851,
        0.030147484,
        0.082048394,
        0.033928413,
        -0.049294055,
        0.040043663,
        0.057343017,
        -0.049322534,
        0.06567107,
        -0.06732072,
        -0.012435228,
        -0.0041295686,
        -0.028802523,
        -0.043779068,
        -0.07251936,
        -0.017768245,
        0.0655114,
        -0.046702303,
        0.09283294,
        0.011447266,
        -0.06285026,
        0.03426182,
        0.056099784,
        0.028068118,
        -0.0074731396,
        0.004327468,
        -0.0873294,
        -0.07007894,
        0.07946436,
        -0.03329369,
        -0.10068518,
        -0.09361095,
        -0.025864504,
        -0.026646454,
        -0.082027934,
        0.061622865,
        -0.0686685,
        -0.0059091267,
        -0.078257345,
        -0.015278658,
        -0.045663975,
        -0.055565547,
        -0.054319777,
        0.10483743,
        0.07637842,
        -0.08000087,
        -0.047800027,
        0.0897641,
        -0.08604511,
        0.039507855,
        -0.10980327,
        0.06472045,
        -0.021107763,
        0.07822972,
        -0.010032418,
        -0.09820077,
        -0.025185946,
        0.035840817,
        0.057749785,
        -0.0920481,
        0.09675871,
        0.01393686,
        -0.08168233,
        -0.011729428,
        0.0160407,
        -0.04762912,
        -0.0353282,
        0.06615369,
        0.019381467,
        -0.06884891,
        0.037627548,
        0.08397379,
        -0.0077624824,
        0.018702883,
        0.022205066,
        -0.06497541,
        -0.11771794,
        -0.105430245,
        0.07330956,
        -0.09980575,
        0.040895823,
        0.07196702,
        0.03957691,
        0.0909415,
        0.046937488,
        -0.046692517,
        4.65136E-4,
        -0.051684216,
        0.060633138,
        -0.024495812,
        -0.085350595,
        -0.023814837,
        -0.006575842,
        -0.07947173,
        -0.022376949,
        0.028086772,
        0.024553388,
        0.10392955,
        0.09141642,
        0.054392513,
        0.032540888,
        0.060778905,
        0.10689094,
        0.043640323,
        -0.009928744,
        -0.095584586,
        -0.008366671,
        -0.058483217,
        0.08989032,
        -5.919285E-4,
        -0.09972612,
        0.055259824,
        0.09316766,
        -0.025184492,
        -0.07873345,
        -0.08825975,
        0.07421468,
        0.026797721,
        -0.055892423,
        0.042063873,
        -0.033726018,
        -0.12559816,
        -0.05281374,
        0.009572945,
        -0.07430342,
        -0.087364845,
        -0.0750074,
        -0.09198377,
        0.031964075,
        0.008451463,
        -0.02658735,
        0.010381252,
        0.0038069866,
        0.044126272,
        -0.117100336,
        5.5073504E-4,
        -0.09240111,
        0.002206344,
        -0.031856675,
        0.015786437,
        -0.08382418,
        -0.042907044,
        0.074227884,
        0.023898652,
        -0.08814676,
        -0.07024748,
        -0.121027865,
        0.047101922,
        -0.006550149,
        -0.018677931,
        0.022887517,
        -0.05611232,
        0.05284069,
        -0.0033630023,
        -0.1238826,
        -0.1060906,
        -0.023901759,
        -0.08585336,
        -0.020879991,
        -0.094658814,
        0.055023916,
        0.01832804,
        -0.03533761,
        0.067450084,
        0.027762419,
        0.06686512,
        0.09657672,
        0.07970558,
        -0.08705267,
        0.014287678,
        -0.056164093,
        0.09999229,
        -0.021710686,
        -0.07456943,
        -0.024720378,
        -0.04461043,
        -0.1275846,
        -0.05701904,
        0.017238908,
        0.013855193,
        -0.13975556,
        -0.11585715,
        -0.09554893,
        -0.022859393,
        0.050265204,
        -0.10544573,
        0.06936001,
        0.10534181,
        0.033985227,
        0.0041571604,
        0.023319384,
        0.0041369116,
        -0.005093282,
        0.04159936,
        0.05683622,
        0.005337964,
        -0.0287777,
        0.058947705,
        -0.07875368,
        0.04543449,
        0.017808927,
        -0.048199408,
        -0.096799955,
        0.094265886,
        -0.026224399,
        -0.09131555,
        -0.06802393,
        0.03980322,
        -0.10756033,
        -0.12631348,
        0.0024973752,
        0.058348484,
        -0.076876104,
        0.019448588,
        0.058687214,
        -0.0045370506,
        0.047070507,
        -0.051521685,
        -0.033474248,
        -0.104802124,
        -0.03758264,
        0.04572591,
        0.07576047,
        0.05748566,
        -0.023724576,
        -0.0020469232,
        -0.06672783,
        -0.05604731,
        0.09083307,
        -0.05021098,
        0.04296162,
        0.027725842,
        -0.0048803864,
        0.080539666,
        -0.06304275,
        0.11453871,
        -0.070898086,
        -0.006213408,
        0.10317653,
        0.041266292,
        -0.07398141,
        -0.09603585,
        0.04787113,
        -0.0854913,
        0.06972165,
        0.06017896,
        0.07029232,
        -0.03519492,
        -0.056828856,
        -0.05145805,
        -0.0061231405,
        0.093146086,
        0.051037855,
        -0.030757198,
        -0.05488751,
        -0.053425502,
        0.08992935,
        -0.015664704,
        -0.008328274,
        0.039685056,
        0.067157894,
        0.12942737,
        -0.040548515,
        0.06688489,
        0.07015848,
        0.07021811,
        0.03532377,
        0.047918577,
        0.08500956,
        0.044960998,
        0.0255096,
        -0.02110598,
        -0.058933865,
        0.07620749,
        0.13466951,
        -0.037032075,
        -0.03763736,
        -0.061486803,
        0.03295436,
        -0.022044979,
        -0.010735431,
        0.07496197,
        0.08582128,
        -0.0033303662,
        -0.08415152,
        0.083557166,
        0.053358868,
        -0.026003277,
        -0.05211088,
        0.081318155,
        -0.0151116485,
        0.026266882,
        -0.083729096,
        0.15269242,
        0.005844941,
        0.075677305,
        0.023237508,
        0.08468772,
        0.06413046,
        -0.064573266,
        0.040734466,
        -0.057433173,
        0.08722516,
        -0.08450438,
        -0.022139791,
        -0.05766622,
        0.025453983,
        -0.03717961,
        -0.0028709718,
        0.032510243,
        -0.08113213,
        -0.035645854,
        0.014947446,
        0.078983694,
        0.04055505,
        0.05711722,
        0.016462164,
        0.049411148,
        0.060206912,
        0.04214059,
        0.01920207,
        0.1478886,
        0.11611716,
        0.1338276,
        -0.1090715,
        -0.0029147984,
        0.017081594,
        0.069676004,
        -0.03294215,
        0.015834214,
        -0.032959614,
        -0.02433908,
        0.068160094,
        -0.086708985,
        0.04910027,
        -0.051939905,
        0.03298829,
        -0.030066822,
        0.01596221,
        -0.037975825,
        -0.046601444,
        -0.021046277,
        0.049412157,
        0.05077381,
        0.08370292,
        -0.012532402,
        0.08650827,
        0.0023224254,
        0.087987214,
        0.0067271246,
        0.084066726,
        -0.048391487,
        0.07071188,
        0.0012125187,
        0.07429845,
        -0.016603904,
        0.11968174,
        0.08991968,
        0.064318314,
        -0.03501897,
        -0.012216744,
        0.054412425,
        0.098226294,
        0.028958622,
        -0.07174911,
        0.03429218,
        0.008774961,
        0.07866836,
        -0.0050985166,
        0.015494138,
        -0.09612467,
        -0.0037368617,
        0.036727965,
        0.033437118,
        -0.011969616,
        -0.013941939,
        0.066567875,
        0.04893195,
        -0.016444039,
        0.08713161,
        0.07599196,
        0.109680645,
        -0.025400614,
        -0.03513169,
        0.009086238,
        -0.058059644,
        0.08282265,
        -0.05320181,
        -0.060093727,
        0.07508881,
        -0.038020004,
        -0.047991186,
        0.0841901,
        -0.07316122,
        -0.049899176,
        0.083758414,
        -0.058070783,
        0.08776524,
        0.01669631,
        0.013040468,
        -0.01690324,
        0.10689353,
        -0.03655576,
        0.049563397,
        -0.015541071,
        -0.10790666,
        -0.054926794,
        0.04437854,
        0.030527918,
        -0.05593493,
        0.06544883,
        0.11682832,
        0.050269492,
        0.022441205,
        0.006467824,
        0.048749097,
        -0.02451526,
        -4.0256858E-4,
        0.0070437836,
        -0.0847933,
        0.070209384,
        -0.0128531,
        0.08655997,
        0.03921514,
        -0.06415343,
        0.06491411,
        0.034866355,
        0.020749243,
        -0.031211136,
        -0.045194067,
        0.03646687,
        -0.08174541,
        0.07341082,
        -0.041380145,
        -0.07255639,
        -0.11487643,
        0.05171402,
        -0.03345482,
        0.042861868,
        9.1333466E-4,
        -0.060500737,
        0.11052097,
        0.07397817,
        0.06146413,
        -0.07922015,
        0.091726094,
        -0.07422587,
        -0.08138108,
        0.09848045,
        0.014271203,
        0.036408197,
        -0.027741764,
        0.07327859,
        -0.099738844,
        0.05725821,
        -0.005490558,
        -0.056023832,
        0.034879025,
        -0.104597926,
        -0.019620072,
        -0.05365348,
        -0.0066577964,
        -0.1045932,
        -0.073899806,
        -0.078024216,
        0.059297513,
        0.0779591,
        0.08349228,
        -0.053546637,
        -0.05376939,
        -0.02731965,
        -0.008436961,
        0.03721434,
        -0.052099034,
        0.08857556,
        0.013043718,
        -0.08196123,
        -0.05305173,
        0.083966404,
        0.0542384,
        0.019472862,
        0.057242688,
        0.041682363,
        -0.08814106,
        0.06780351,
        0.0068457196,
        -0.09953362,
        -0.10592346,
        0.045034077,
        0.051139094,
        0.080985926,
        0.027086604,
        0.0390245,
        -0.07171071,
        -0.09416028,
        0.078864686,
        -0.04839745,
        -0.0730086,
        -0.0013253386,
        0.046461213,
        0.05493453,
        -0.036583804,
        -0.06544559,
        -0.0950618,
        -0.041664626,
        -0.059847888,
        0.018473541,
        0.086169854,
        -0.026035996,
        0.081504524,
        0.0061462726,
        0.050875776,
        -0.0852875,
        -0.04527985,
        -0.016764037,
        -0.013177204,
        -0.08563161,
        -0.07642865,
        0.063892744,
        -0.09855987,
        -0.01436286,
        -0.07316819,
        -0.043543477,
        0.0605148,
        0.100881204,
        0.07215738,
        0.001494516,
        0.002640652,
        0.07444502,
        -0.07780687,
        0.04993768,
        0.054885887,
        -0.04209239,
        0.085315056,
        0.07153342,
        0.089098975,
        0.024093125,
        -0.03342914,
        -0.03763431,
        0.050191667,
        -0.053143248,
        -0.07230106,
        0.08352525,
        -0.049764324,
        0.0045486526,
        0.08534235,
        -0.0852263,
        0.053195763,
        -0.022646485,
        4.2464683E-4,
        -0.013796699,
        -0.09851558,
        0.007322206,
        -0.057470426,
        -0.004202158,
        0.04362628,
        0.019660063,
        0.05462457,
        0.017478019,
        0.054730497,
        0.038245954,
        -0.022116587,
        -0.059204694,
        0.018007822,
        0.09361007,
        0.09601728,
        -0.066466,
        -0.08275283,
        0.011224421,
        -0.047704604,
        0.01254542,
        -0.059864663,
        0.029050937,
        -0.040438715,
        -0.07142536,
        -0.071114235,
        0.010632462,
        0.07530582,
        -0.076605104,
        -0.06890595,
        -0.03743751,
        0.045976426,
        -0.09862973,
        0.0015831869,
        0.039567217,
        -0.061820026,
        -0.027394207,
        0.08510303,
        0.026097672,
        -0.030836698,
        -0.028866315,
        -0.029899923,
        0.020243635,
        -0.0750679,
        0.029060585,
        -0.054812893,
        -0.086285375,
        -0.08850816,
        -0.0031686295,
        -0.08580533,
        0.06269426,
        0.023916235,
        0.03845525,
        -0.074240915,
        0.070279196,
        -0.06458623,
        -0.09576961,
        -0.036888577,
        0.069577836,
        0.013209926,
        -0.016939955,
        0.010460717,
        0.08789142,
        -0.052966967,
        0.073377475,
        0.04042117,
        -0.010637513,
        0.040732104,
        0.07368116,
        -0.074424505,
        -0.038057186,
        0.06245865,
        0.09167912,
        0.060590036,
        0.08898371,
        0.073339775,
        0.0023921186,
        0.008245229,
        0.08560866,
        -0.032332234,
        0.023691114,
        -0.05423037,
        0.06500153,
        -0.059008628,
        -0.06378558,
        0.03771753,
        -0.063699335,
        -0.050542034,
        0.028739104,
        0.055783432,
        0.05877135,
        -0.05808154,
        -0.018690923,
        0.0625414,
        0.032399263,
        0.0092951795,
        0.081561126,
        0.085373245,
        0.044049658,
        0.018693687,
        0.078843765,
        0.023915641,
        0.01199561,
        -0.062499207,
        0.06418618,
        -0.020334825,
        0.062456004,
        0.004047985,
        -0.008262,
        0.017011868,
        -0.07160582,
        0.079334944,
        -0.10138272,
        0.07771865,
        -0.09310103,
        -0.007837464,
        -0.067242235,
        -0.053420514,
        -0.07539201,
        -0.050886765,
        -0.041027643,
        -0.052904252,
        -0.00402305,
        0.00834416,
        -0.018472472,
        0.07670912,
        -0.08976459,
        -0.07130395,
        -0.040680517,
        -0.014325021,
        0.023543965,
        -0.104788594,
        -0.018808644,
        0.058258325,
        0.04534439,
        0.04681127,
        0.011865226,
        0.018232614,
        -0.089467935,
        -0.029774684,
        0.017352598,
        0.060737908,
        -0.01668498,
        -0.032678273,
        0.08131717,
        0.04488628,
        -0.09205378,
        -0.09658576,
        -0.082229525,
        -0.021853294,
        0.025266845,
        -0.09954575,
        0.019717555,
        0.06870878,
        0.077729665,
        0.051930316,
        -0.06530872,
        -0.054637227,
        0.09104794,
        0.040069737,
        0.027747283,
        0.11147789,
        0.04580286,
        0.035239603,
        -0.06525782,
        0.12883867,
        0.015350355,
        0.038437698,
        0.024200395,
        0.029039877,
        -0.082273684,
        0.015099764,
        0.04348649,
        0.07187342,
        0.03208998,
        -0.07676637,
        0.09559979,
        0.0071455934,
        0.0061876653,
        0.04805644,
        0.05709821,
        -0.0086976895,
        0.039147805,
        0.0017596651,
        0.09584275,
        -0.040325224,
        -1.5489449E-4,
        0.11885098,
        0.015125458,
        -0.0046714763,
        -0.12575623,
        -0.028271504,
        0.015350849,
        -0.09707708,
        -0.03933578,
        -0.07554097,
        -0.11149977,
        -0.12200998,
        -0.0564276,
        -0.016771741,
        -0.0054487516,
        0.048850644,
        0.0035603922,
        0.059793986,
        0.008246623,
        0.021282716,
        0.02605972,
        -0.078033656,
        -0.05226403,
        -0.05775051,
        -0.08490642,
        0.06506479,
        0.046330992,
        -0.07907975,
        -0.086703286,
        -0.016128208,
        0.13186422,
        0.09164192,
        0.03554876,
        -0.06876006,
        -0.1376649,
        -0.0312885,
        -0.16547808,
        -0.039115608,
        -0.05642314,
        -0.12589405,
        -0.049668763,
        -0.002370764,
        0.084712595,
        -0.03808401,
        -0.05805829,
        -0.036669075,
        -0.091276474,
        0.04416214,
        0.08910893,
        -0.07262706,
        -0.0791714,
        -0.046508525,
        0.097389504,
        0.0272588,
        -0.07516945,
        0.08981581,
        -0.108325176,
        -0.057152197,
        -0.047332134,
        -0.10816151,
        0.065021425,
        0.121677436,
        0.07674364,
        0.004295108,
        -0.040465936,
        -0.008308798,
        -0.024676435,
        0.012767448,
        -0.11849031,
        -0.11440035,
        0.07736777,
        -0.012643671,
        -0.089222446,
        -0.03659138,
        -0.02910048,
        -0.021672565,
        -0.089861974,
        0.024962654,
        -0.0027836717,
        -0.057369564,
        0.040350396,
        0.003290372,
        0.027081355,
        0.039704807,
        -0.097305976,
        -0.045723286,
        -0.04756537,
        0.02640931,
        0.113039225,
        0.08312467,
        0.12527156,
        -0.059936244,
        -0.008228376,
        -0.0028382,
        0.026995093,
        -0.12126554,
        -0.039147466,
        -0.05179196,
        0.033399113,
        0.05205378,
        0.029776726,
        0.07215361,
        0.06914738,
        -0.0653815,
        -0.0786538,
        -0.035625607,
        -0.09211267,
        -0.048045788,
        -0.032495715,
        -0.05200087,
        -0.121053666,
        -0.09776593,
        0.034198143,
        -0.11340034,
        -0.121960215,
        -0.028165562,
        0.06684487,
        0.010731483,
        0.005555214,
        -0.07319726,
        0.006579144,
        -0.0823986,
        -0.03679169,
        0.0014282443,
        -0.06006608,
        -0.09708713,
        -0.003849486,
        -3.926429E-4,
        -0.008633874,
        0.004898303,
        0.03445146,
        0.097171605,
        0.05968535,
        0.0703866,
        0.0562723,
        -0.043924395,
        -0.015301586,
        -0.06564741,
        0.06355207,
        -0.07253445,
        -0.021992348,
        0.050402243,
        -0.11236029,
        -0.018037343,
        -0.087444775,
        0.113570355,
        0.07567589,
        0.095661536,
        -0.011722295,
        0.012130631,
        -0.11860084,
        0.031185396,
        -0.07305019,
        0.054672178,
        0.027384978,
        -0.042983495,
        0.01998745,
        0.0838324,
        -0.061512288,
        0.046096977,
        0.05188168,
        -0.087575674,
        -0.036310654,
        -0.052695382,
        0.08311857,
        -0.06961551,
        0.05007464,
        0.026591852,
        0.014604638,
        -0.049682636,
        0.013148185,
        -0.08122486,
        -0.12435434,
        0.03128366,
        0.1067021,
        -0.04181537,
        -0.06462611,
        -0.11564236,
        -0.044603776,
        0.061165653,
        -0.056821004,
        0.1089225,
        -0.039738085,
        0.0016166534,
        -0.041343767,
        -0.0038550291,
        0.03822021,
        -0.09882691,
        -0.02746002,
        0.043938957,
        -0.059209667,
        -0.042245835,
        -0.08175058,
        -0.08547978,
        0.04161065,
        0.029978273,
        0.032226007,
        -0.063964754,
        -0.119878165,
        -0.079839334,
        0.041597456,
        0.1353109,
        8.499159E-4,
        -0.035241462,
        -0.0085610645,
        0.06405024,
        -0.10405753,
        0.09785442,
        0.08370552,
        0.06309351,
        -0.023188984,
        0.048361447,
        0.063290626,
        0.0949319,
        -0.09563603,
        0.060381673,
        0.057943176,
        -0.07771184,
        0.053510867,
        -0.004303737,
        0.064854436,
        0.03039753,
        -0.112405464,
        -0.12785211,
        -0.12699409,
        -0.058097314,
        -0.075923294,
        -0.10045503,
        -0.020567793,
        0.08648493,
        0.055008527,
        0.037945006,
        -0.026882116,
        -0.07557325,
        0.027119849,
        0.012874939,
        8.449206E-6,
        6.601157E-4,
        0.014875623,
        0.028012812,
        0.005182668,
        -0.023567554,
        -0.026283005,
        0.08618347,
        0.043186404,
        -0.082075596,
        0.0026631174,
        -0.032934375,
        -0.101588055,
        -0.09966173,
        -0.10120233,
        0.025257744,
        0.03243453,
        -0.109922655,
        -0.032755002,
        0.003348275,
        -0.018176313,
        -0.023099538,
        0.0051414673,
        -0.110048115,
        -0.088536456,
        -0.03972703,
        -0.11625118,
        0.058140658,
        -0.03898013,
        0.022554066,
        -0.010868165,
        0.029488588,
        -0.09482492,
        -0.08833739,
        0.09932126,
        0.040284485,
        -0.0735018,
        -0.017519739,
        0.09861597,
        0.06222487,
        -0.030700965,
        0.06785347,
        -0.089335315,
        -0.016658273,
        -0.029023593,
        0.042147137,
        0.03938731,
        -0.024389023,
        -0.026233612,
        0.11853474,
        0.051944844,
        -0.06871837,
        -0.16193308,
        -0.11438591,
        0.02241884,
        -0.038896475,
        0.038283568,
        -0.098005265,
        -0.034365166,
        0.037569556,
        0.06102342,
        -0.09862004,
        0.024876453,
        0.08424472,
        0.0041878503,
        0.07988977,
        -0.100927934,
        0.08199002,
        0.0024895582,
        -0.09190194,
        0.022776194,
        -0.046492066,
        -0.047724355,
        0.03418711,
        -0.036903076,
        0.020481955,
        0.056630645,
        0.11200152,
        -0.009566485,
        -0.15590683,
        -0.024737528,
        0.0015101008,
        -0.049147435,
        -0.045953277,
        -0.09030289,
        0.06400687,
        -0.034988992,
        -0.002209754,
        -0.045466162,
        -0.09009194,
        0.08297333,
        0.048633486,
        0.08195882,
        0.08179353,
        0.07317923,
        -0.043457225,
        -0.107841745,
        0.08654224,
        0.048741613,
        -0.024027197,
        0.05401069,
        -0.011169184,
        0.040164184,
        0.092466265,
        0.0058398037,
        0.0058541303,
        7.041008E-4,
        -0.090657175,
        -0.060916927,
        -0.030018369,
        -0.115269214,
        0.02722799,
        0.031177947,
        -0.098726206,
        0.014777243,
        -0.08567996,
        -0.08133602,
        -0.084757864,
        -0.0025979138,
        -0.072463416,
        -0.050931595,
        -0.09784238,
        0.088521786,
        0.039708305,
        0.027640153,
        0.04815146,
        -0.045949526,
        -0.102358505,
        0.06420017,
        0.03408463,
        -4.1396677E-5,
        0.05337959,
        -0.006704892,
        -0.009989627,
        -0.04351611,
        -0.12369613,
        0.038097225,
        0.029081598,
        -0.018602485,
        -0.07552402,
        0.017648079,
        0.042933345,
        -0.10285193,
        -0.07558622,
        0.08309266,
        0.079336606,
        0.086782575,
        0.07807238,
        -0.09882981,
        -0.0137684215,
        -0.052711908,
        0.059747882,
        -0.067483924,
        -0.015980104,
        -0.11496585,
        -0.04129548,
        0.0051676175,
        -0.028802607,
        0.08857975,
        0.037861757,
        0.12292079,
        0.03174195,
        0.0075256275,
        0.009551594,
        -0.099334784,
        -0.026553202,
        -0.043291334,
        0.017125186,
        0.078244634,
        -0.04020397,
        0.091841765,
        -0.067590736,
        -0.020792386,
        -0.063646905,
        0.0354942,
        0.09617531,
        -0.0841344,
        0.06649822,
        0.058670957,
        0.08559442,
        -0.04847727,
        -0.04720965,
        -0.038922176,
        -0.103813194,
        0.07718733,
        -0.009425421,
        0.03806495,
        0.014600967,
        -0.008515073,
        -0.106168166,
        0.039003216,
        0.03170833,
        0.06721869,
        0.08715907,
        0.09648973,
        -0.0027718851,
        -0.016602926,
        0.07462531,
        -0.0052423165,
        0.0528699,
        -0.09896211,
        0.032003716,
        -0.089702375,
        -0.099743046,
        0.021901093,
        -0.014263689,
        0.01845041,
        -0.074518226,
        -0.039872944,
        -0.078137994,
        -0.016946966,
        0.070806175,
        0.07771184,
        0.007542331,
        0.03982068,
        -0.005202363,
        0.0018885896,
        0.0011042401,
        -0.07920814,
        0.10576439,
        0.055187054,
        0.015159633,
        -0.06813669,
        0.028057417,
        0.09531846,
        -0.083092906,
        3.7502288E-4,
        -0.01861514,
        -0.06308923,
        -0.04463292,
        -0.05749339,
        0.08345625,
        0.058611367,
        -0.07434288,
        -0.04350899,
        -0.062434927,
        0.05664917,
        -0.0020914369,
        0.016806426,
        0.013971156,
        -0.0039048947,
        0.008848585,
        0.053320225,
        -0.0712145,
        -0.017248379,
        -0.039177965,
        -0.021776367,
        0.13082469,
        0.09520813,
        -0.052667707,
        0.06784586,
        0.07574551,
        0.023179533,
        0.07905418,
        -0.063648246,
        0.042404357,
        -0.022436136,
        -0.07123713,
        -0.032165628,
        0.093042225,
        -0.0033770439,
        -0.0049695433,
        0.024791254,
        0.08611797,
        -0.019200452,
        0.019713996,
        0.071997486,
        0.047584426,
        -0.01017374,
        -0.013139278,
        0.036201816,
        -0.11570401,
        0.04725371,
        -0.019794945,
        0.047271512,
        -0.0015180513,
        -0.070717685,
        0.09196434,
        0.09736052,
        0.01730873,
        -0.036828455,
        -0.087112024,
        -0.035346456,
        -0.092624806,
        -0.07901977,
        -0.04147623,
        -0.0657796,
        0.062133964,
        0.083996765,
        0.011669736,
        -0.054045003,
        -0.06401098,
        0.030041272,
        0.056013543,
        0.018706385,
        -0.03594971,
        0.089062706,
        -0.014956869,
        -0.11931833,
        -0.029412426,
        0.024188718,
        -0.04918261,
        -0.018402494,
        0.030941473,
        0.028593682,
        0.06292318,
        0.043093678,
        -0.101679444,
        -0.08424369,
        0.061523125,
        0.06657208,
        0.034854814,
        -0.093106955,
        0.059001468,
        0.0318238,
        -0.045745913,
        0.093901955,
        0.06584107,
        0.07837186,
        0.06681547,
        0.03382361,
        -0.020645188,
        -0.04949634,
        -0.014784501,
        -0.050473522,
        0.019728478,
        0.008987763,
        0.015023749,
        -0.09727418,
        0.016322356,
        -0.040020943,
        0.055372614,
        -0.044959936,
        -0.073396444,
        -0.09090307,
        -0.058430452,
        -0.044490747,
        0.004563037,
        -0.051557593,
        -0.0013728366,
        -0.054883484,
        0.008662248,
        -0.07425277,
        0.08533383,
        0.080577865,
        0.071320355,
        0.039140884,
        0.05941324,
        -0.010136434,
        -0.047294807,
        -0.087987736,
        -0.050797604,
        0.0016581577,
        -0.042272676,
        -0.030654015,
        0.032614164,
        0.05522415,
        0.072167106,
        -0.064121366,
        -0.016465154,
        -0.09414588,
        0.068891235,
        -0.060120784,
        -0.0873261,
        -0.03407182,
        -0.08757872,
        -0.008463082,
        -0.09578739,
        0.058375034,
        -0.011708776,
        -0.06669308,
        0.060639113,
        0.09975459,
        -0.0012904352,
        -0.09554635,
        0.0015191318,
        -0.068689786,
        -0.07278886,
        -0.048502333,
        -0.046268735,
        -0.039020576,
        -0.026494393,
        0.028470132,
        0.050166424,
        0.09410604,
        0.059148874,
        0.078075126,
        0.014735383,
        -0.0339276,
        -0.020170545,
        -0.037765127,
        0.05299863,
        -0.04166143,
        -0.0626354,
        -0.08070537,
        0.09058766,
        0.07877848,
        0.022969937,
        -0.03479722,
        -0.0943114,
        -0.0821331,
        0.043093022,
        0.027270906,
        -0.012789756,
        -0.045814697,
        0.08007744,
        0.0016417303,
        -0.08317176,
        0.07585647,
        -0.03785995,
        -0.0404659,
        -0.07861836,
        -0.090432055,
        -0.019182548,
        -0.009736698,
        -0.03425782,
        1.9359995E-6,
        -0.06239206,
        0.078989595,
        -5.759663E-4,
        0.08566971,
        -0.06881944,
        0.098313116,
        -0.045399897,
        -0.0015870023,
        -0.0039993306,
        0.04623203,
        0.08058645,
        0.021310365,
        0.004029714,
        -0.07120849,
        -0.02520415,
        0.053775422,
        0.095288806,
        0.014640568,
        0.04685695,
        -0.09911646,
        -0.031228013,
        -0.01964594,
        0.03277852,
        0.015723435,
        -0.006160932,
        -0.029365188,
        -0.08611691,
        -0.007846208,
        0.08807444,
        -0.084384926,
        0.010871873,
        0.076880455,
        -0.027799983,
        -0.06430605,
        -0.06396089,
        0.048348434,
        -0.08373206,
        0.046228718,
        -0.05370612,
        0.042652417,
        0.05060521,
        -0.025580266,
        -0.004604516,
        0.07407757,
        -0.069485076,
        0.05235449,
        -0.04120412,
        -0.064657025,
        0.08011866,
        0.009228722,
        -0.027082294,
        -0.05978971,
        -0.0039739585,
        0.025232969,
        0.049210366,
        -0.093989685,
        0.10273025,
        -0.02412313,
        -0.05471137,
        -0.011335843,
        0.057291467,
        0.05105366,
        0.066876516,
        0.073299535,
        -0.09722373,
        0.08570051,
        0.09921529,
        0.04512536,
        0.0077430704,
        0.0061973454,
        0.0027251209,
        0.09812208,
        0.045445416,
        -0.074347034,
        0.05469131,
        -0.064237,
        -0.0790953,
        -0.10115864,
        -0.08068449,
        0.02254934,
        -0.10651328,
        -0.10482267,
        -0.052727673,
        -0.049392622,
        -0.077388324,
        0.098154426,
        0.10022874,
        5.9723365E-4,
        0.007507301,
        -0.08142442,
        0.022872774,
        0.08092356,
        0.0010797699,
        -0.0668267,
        0.0070762197,
        -0.050107803,
        -0.067807056,
        -0.011861038,
        -0.040500887,
        -0.011415775,
        0.07606203,
        -0.10392603,
        -0.005382599,
        -0.12554233,
        -0.020790216,
        -0.01263107,
        -0.06008435,
        -0.07792576,
        0.017949024,
        -0.026396422,
        -0.009794176,
        0.06943637,
        -0.023325631,
        0.08743286,
        0.010098481,
        -0.034296717,
        -0.08211004,
        -0.08019314,
        -0.07538387,
        0.076341674,
        0.06627024,
        -0.017462024,
        -0.035578016,
        -0.047509592,
        0.047714133,
        0.025518514,
        0.032264832,
        0.084083006,
        0.046006303,
        -0.086984344,
        -0.10522885,
        -0.08876916,
        -0.047071338,
        -0.11924121,
        -0.10883977,
        -0.020841727,
        -0.10062102,
        0.018536903,
        0.045220472,
        0.08123677,
        0.042931113,
        0.038742907,
        -0.10746509,
        0.018169839,
        -0.06555744,
        -0.03531981,
        -0.01614976,
        0.0423212,
        -0.06536421,
        0.0898938,
        -0.059827406,
        0.05554274,
        0.07774761,
        0.03230711,
        -0.027383968,
        0.055671558,
        -0.086124115,
        -0.07871737,
        -0.06611321,
        -0.039062735,
        0.009210615,
        0.04825527,
        -0.13159035,
        -0.073239386,
        -0.099520154,
        -0.15079887,
        -0.0039291037,
        -0.057386465,
        -0.061846793,
        -0.022945547,
        -0.021318147,
        0.008036181,
        0.070499845,
        0.050669234,
        -0.0036496236,
        -0.017365105,
        -0.035757553,
        0.050024968,
        0.012500866,
        0.044016927,
        0.05628823,
        0.08172015,
        0.011358314,
        0.073420465,
        -0.09789445,
        0.067033894,
        0.063534975,
        -0.027390651,
        -0.09040152,
        -0.027382303,
        0.0075285686,
        -0.07322444,
        -0.1537543,
        -0.036056425,
        -0.07844818,
        0.042579424,
        -0.1328215,
        -0.07124869,
        -0.11571696,
        -0.0686874,
        0.018875131,
        0.0023507925,
        -0.0040804306,
        -0.03059249,
        -0.045971725,
        0.044755653,
        -0.02211718,
        -0.05167571,
        -0.005133941,
        -0.0045019262,
        -0.07459335,
        -0.10419296,
        0.0074956426,
        0.036713418,
        0.056325898,
        -0.03375126,
        -0.07358888,
        0.02411276,
        -0.106108025,
        -0.12346709,
        -0.13452372,
        0.0569437,
        -0.06484012,
        -0.08175856,
        -0.072032504,
        -0.017196877,
        -0.021718642,
        0.05008873,
        0.04447177,
        -0.050451722,
        0.023629403,
        -0.026342312,
        0.034785703,
        -0.09915248,
        -0.018211894,
        0.075862676,
        -0.022522474,
        -0.040524006,
        0.094322346,
        -0.011192513,
        0.04687078,
        -0.101293884,
        -0.07876796,
        -0.031142067,
        -0.09976512,
        -0.022364765,
        0.018065875,
        -0.0049459455,
        -0.07764685,
        -0.116876684,
        -0.070842616,
        -0.04591755,
        -0.096325226,
        0.062183004,
        0.035003964,
        -0.012086725,
        0.08834458,
        -0.02116307,
        0.0019119447,
        -0.042262502,
        0.008098052,
        0.0012119894,
        0.046872005,
        0.049411204,
        0.075110115,
        0.08646291,
        0.08095285,
        -0.017821884,
        0.055994965,
        0.0042398013,
        0.02275693,
        0.007312442,
        -0.04147059,
        0.06707494,
        0.08341229,
        0.120569825,
        0.11381161,
        -0.016836323,
        -0.0768213,
        -0.049060177,
        0.050151475,
        -0.10943695,
        0.06703464,
        -0.069720075,
        0.014303293,
        0.09931948,
        -0.04344009,
        0.015423859,
        -0.09174349,
        0.049350888,
        -0.026643496,
        -0.03857122,
        0.011897045,
        -0.0831847,
        -0.071442656,
        -0.09108974,
        0.0938127,
        0.029252619,
        -0.085704006,
        -0.07587837,
        -0.114969835,
        0.07795151,
        -0.027398039,
        0.15704402,
        0.024956698,
        -0.05006229,
        -0.02086732,
        0.039048307,
        0.016955798,
        -0.04969705,
        -0.08086015,
        -0.01895304,
        -0.020656176,
        0.010331408,
        9.1502845E-4,
        -0.02305663,
        0.016890548,
        -0.0933024,
        0.05210927,
        -0.046204828,
        0.07684652,
        0.053933967,
        0.055664446,
        -0.036639187,
        -0.10765202,
        -0.09636461,
        -0.039701805,
        -0.13844275,
        0.016573641,
        -0.03041713,
        0.1560144,
        0.06185284,
        0.046107262,
        2.7877002E-4,
        0.013171829,
        -0.005499443,
        -0.047928292,
        0.017009558,
        -0.018175567,
        -0.06932005,
        0.09588987,
        0.06974198,
        0.052624933,
        -0.044985738,
        -0.03339092,
        -0.069900915,
        -0.03336899,
        0.035026446,
        0.03424504,
        -0.012706008,
        -0.013165759,
        0.04312205,
        0.026849225,
        -0.04854526,
        -0.023148544,
        -0.07352474,
        -0.10359916,
        0.09312933,
        0.056329254,
        0.03755893,
        0.04375127,
        0.09514325,
        -0.0065525,
        0.016069988,
        -0.07176346,
        -0.10611723,
        0.056885604,
        0.02311614,
        -0.06039266,
        0.05922155,
        -0.057721216,
        -0.074215636,
        -0.04050988,
        0.08784835,
        -0.035803184,
        -0.015506107,
        -0.09389194,
        0.021132337,
        -0.010790393,
        0.04203477,
        -0.05609287,
        -0.11767728,
        -0.10083591,
        -0.14368649,
        -0.027067816,
        0.11476515,
        0.10751717,
        -0.002312319,
        -0.021462,
        0.0019505627,
        -0.02377716,
        -0.035892013,
        -0.07373111,
        0.005563531,
        0.03821112,
        -0.06769758,
        0.07038957,
        -0.04677089,
        -0.029480888,
        0.096398726,
        -0.09938354,
        -0.018007498,
        0.049242817,
        -0.05968032,
        0.08693152,
        -0.05900892,
        0.02817924,
        -0.03262391,
        -0.12315469,
        -0.10916354,
        0.04516239,
        0.0038158747,
        0.0059862044,
        0.08654813,
        0.0096066585,
        0.015548312,
        0.068954565,
        -0.04478215,
        0.0109594315,
        -0.04927915,
        -0.1303776,
        -0.009045515,
        -0.009100264,
        -0.008368904,
        0.027686393,
        0.046312064,
        0.022952275,
        -0.031013979,
        -0.051411204,
        -0.008250111,
        -0.006305941,
        -0.06429765,
        -0.09330491,
        -0.07147157,
        -0.02087001,
        -0.07232526,
        -0.025670208,
        -0.017052284,
        0.07423063,
        -0.041554153,
        0.034583203,
        0.07626058,
        0.105512604,
        -0.050257687,
        -0.08519019,
        -0.12642145,
        0.03955602,
        -0.086634934,
        -0.12117992,
        -0.0146761015,
        0.020872233,
        -0.028658366,
        -0.015582582,
        0.064729676,
        -0.10464466,
        0.025331398,
        0.09712193,
        0.041001447,
        -0.030718742,
        0.035529565,
        0.08808572,
        -0.014083314,
        -0.10293714,
        0.0010775828,
        -0.11600239,
        0.042487383,
        0.020925455,
        0.047739502,
        0.17533286,
        0.13421178,
        -0.07156783,
        -0.1162168,
        -0.05055023,
        -0.06899647,
        0.03058158,
        0.0886357,
        0.007727285,
        0.025962576,
        -0.06429241,
        -0.018290166,
        -0.04166994,
        0.020063354,
        -0.05405543,
        -0.06825341,
        0.067790344,
        0.012794963,
        -0.014004436,
        0.030901903,
        -0.06527495,
        0.06241112,
        0.06307227,
        -0.035867225,
        -0.02429205,
        0.013943858,
        -0.01964094,
        0.019918688,
        -0.017245086,
        0.054200225,
        -0.021805486,
        -0.12523463,
        0.02069276,
        -0.06446721,
        -0.04221864,
        0.020450138,
        -0.10676638,
        0.0071312133,
        -0.06714837,
        0.03842187,
        0.03432225,
        0.06442813,
        -0.05871989,
        0.09269287,
        -0.0053803627,
        -0.03461189,
        0.06868215,
        0.073470935,
        -0.046683524,
        0.04755396,
        0.07263536,
        -0.09726647,
        0.027504623,
        -0.008747722,
        -0.01115983,
        0.07711631,
        -0.04345217,
        -0.12509489,
        -0.15185027,
        -0.016385103,
        -0.0828369,
        -0.0777228,
        0.06396483,
        -0.063695386,
        -0.014409545,
        -0.02666315,
        0.04524796,
        -5.7839486E-4,
        0.008549267,
        -0.0341894,
        -0.08867064,
        -0.033153936,
        0.032979134,
        0.05588953,
        0.020374827,
        -0.025282558,
        -0.05950293,
        -0.020110462,
        -0.057281017,
        -0.10147075,
        -0.060843583,
        -0.07035091,
        -0.05402295,
        0.043930374,
        -0.09487431,
        -0.04453111,
        0.0128342165,
        -0.0013828139,
        -0.070698194,
        -0.09955754,
        -0.008567647,
        -0.048059862,
        -0.060520805,
        -0.031903274,
        -0.09261597,
        -0.01774216,
        0.054988615,
        -0.079580285,
        -0.073318295,
        -0.094611086,
        -0.03727214,
        0.054675013,
        -0.09367441,
        -0.042799566,
        -0.023623126,
        0.02278423,
        0.054737017,
        -0.07731612,
        0.08336297,
        0.021405207,
        -0.0436348,
        -0.042141207,
        0.064519174,
        -0.03654364,
        0.008859565,
        0.067556545,
        -0.00408087,
        0.015902264,
        0.07589796,
        -0.05194437,
        0.06091107,
        0.01952447,
        0.053036466,
        -0.029482432,
        0.012098391,
        -0.023355426,
        -0.028055575,
        0.09646246,
        -0.033124235,
        -0.08471099,
        0.04678452,
        0.025471166,
        0.021384731,
        -0.024359465,
        -0.013164678,
        -0.038276702,
        -0.022408416,
        0.019046493,
        0.067258425,
        0.0063628713,
        -0.07503064,
        0.08424995,
        -0.03471292,
        0.12336587,
        0.04944682,
        -0.03452399,
        -0.08111262,
        0.053581845,
        0.012489701,
        -0.0012845675,
        -0.01880192,
        0.014030349,
        -0.08863809,
        -0.0816617,
        -0.094000444,
        -0.013526427,
        -0.036552105,
        0.07916287,
        -0.07056301,
        0.023760237,
        -0.034148,
        -0.067251444,
        -0.06269991,
        0.0917098,
        0.052982092,
        -0.040414248,
        -0.0015183531,
        0.08018755,
        0.07387483,
        -0.004561464,
        -0.003817724,
        -0.038504492,
        0.084332794,
        0.113822244,
        0.026728084,
        0.0906096,
        0.09218019,
        0.050239705,
        -0.0402101,
        -0.039362926,
        0.025887886,
        0.09644514,
        0.0043720487,
        0.04155082,
        0.03200714,
        0.020842116,
        0.044006754,
        0.06571003,
        -0.021313203,
        -0.042823188,
        -0.078984804,
        -0.051950477,
        -0.032381177,
        -0.016824307,
        -0.015567659,
        -0.101718575,
        0.032832216,
        -0.09614602,
        -0.059561204,
        -0.06090938,
        -0.095781416,
        0.06384332,
        -0.019745579,
        -0.021403342,
        0.081596546,
        -0.0945821,
        0.015727242,
        -0.037391018,
        -0.031916138,
        0.08335561,
        0.03627065,
        -0.09264059,
        0.016302425,
        -0.015200353,
        0.0018850358,
        -0.04166125,
        0.08441021,
        -0.08236835,
        -0.012372131,
        7.0431014E-4,
        0.047654156,
        0.093459755,
        -0.05412624,
        0.04499952,
        -0.07115934,
        0.037198685,
        -0.016741436,
        0.008861319,
        -0.05845112,
        -0.059092246,
        -0.067870505,
        0.032473046,
        -0.021490317,
        -0.018810064,
        0.088485464,
        0.08069536,
        0.072387315,
        0.034162816,
        0.089456476,
        -0.05071505,
        -0.07046486,
        -0.069429524,
        0.03274722,
        0.098086424,
        0.038175024,
        -0.060337733,
        -0.090666145,
        0.08670226,
        -0.010714829,
        0.07287612,
        0.08369285,
        -0.035597347,
        -0.061675288,
        0.025134858,
        0.062403645,
        -0.03891628,
        0.053990074,
        0.0742939,
        0.067276195,
        -0.046000205,
        -0.07474321,
        0.052073628,
        -0.06376893,
        0.07282083,
        0.02730526,
        -0.06959556,
        -0.034890473,
        0.0024621866,
        0.024412364,
        -0.013382998,
        0.04797046,
        0.09120723,
        -0.016159775,
        0.018533543,
        -0.072656065,
        0.027347757,
        0.01275303,
        -0.03777932,
        0.08132329,
        0.05446259,
        0.08089004,
        0.024084609,
        -0.01684448,
        0.025348425,
        0.007661119,
        0.0010447304,
        -0.04841525,
        0.05468149,
        -0.007084113,
        0.067790546,
        -0.022161609,
        -0.07526045,
        0.053521287,
        -0.056445513,
        -0.037168402,
        -0.07726968,
        0.091217585,
        0.015872756,
        -0.07273306,
        0.043936647,
        0.061949372,
        0.095095105,
        -0.032342117,
        0.081802644,
        0.04284452,
        9.444111E-4,
